story,Politics_0,Politics_1,Politics_2,Politics_3,Politics_4,Politics_5,Politics_6,Politics_7,Politics_8,Politics_9,Politics_10,Politics_11,Politics_12,Politics_13,Politics_14,Politics_15,Politics_16,Politics_17,Politics_18,Politics_19,Politics_20,Politics_21,Politics_22,Politics_23,Politics_24,Politics_25,Politics_26,Politics_27,Politics_28,Politics_29,Politics_30,Politics_31,Politics_32,Politics_pca_1d,Politics_pca_2d,Russia_0,Russia_1,Russia_2,Russia_3,Russia_4,Russia_5,Russia_6,Russia_7,Russia_8,Russia_9,Russia_10,Russia_11,Russia_12,Russia_13,Russia_14,Russia_15,Russia_16,Russia_17,Russia_18,Russia_pca_1d,Russia_pca_2d,Public services_0,Public services_1,Public services_pca_1d,Public services_pca_2d,Crime_0,Crime_pca_1d,Crypto/net_0,Crypto/net_1,Crypto/net_2,Crypto/net_3,Crypto/net_4,Crypto/net_5,Crypto/net_6,Crypto/net_7,Crypto/net_8,Crypto/net_9,Crypto/net_10,Crypto/net_11,Crypto/net_12,Crypto/net_13,Crypto/net_pca_1d,Crypto/net_pca_2d,Inflation_0,Inflation_pca_1d
elespanol,-8.270755817328321e-05,-0.0020187810331071,-0.0010592174793711,0.0021093186968864,-0.0013902867033882,-0.000616268266954,-0.0007339388148843,0.0005919508237861,0.000603572127582,-0.0003037786587066,0.0007501038136094,-0.0010271532819438,0.0018203947714039,-0.0009681858747752,0.0008424896180633,-0.0017089616938557,0.0020585380208025,-0.0001892032656978,0.0004565230720652,-0.0009735234329871,0.0003124358186236,-0.0010593481344634,0.0009245479301343,-0.0011745284562929,-0.0007791778202251,-0.0008093853354065,0.0015130178375434,0.0008889160752363,0.0011924436804841,-0.0012184927164241,-0.0022278338689088,-0.0001827100249937,-0.0009312249508933,-0.14655984473203493,-0.24647213175899885,0.0047459162703788,-0.0002493105714746,-0.009118096013285,-0.0037749718514985,0.0019161350786872,-0.0040601143265319,-0.0039924753345628,0.0003909414963527,0.0010765958690409,0.0036635627610447,0.0028014911516324,-0.0022715844989557,-0.002218991903993,-0.002171337166209,-0.0011568396364354,-0.0015276777091171,0.0038807953307627,-3.546620567648415e-05,0.0010983866950684,1.2317951295840324,0.40827561380186933,0.0010697223672294,9.68529750741058e-06,-0.546399478859254,0.09049197330257075,-0.0054227349667113,0.6824641881614453,,,,,,,,,,,,,,,,,-0.0018319476818694,0.32981673238491305
elnacional,0.0015595453237294,-0.0030872181805343,-0.0026840316384242,0.000765730170573,-0.001107230318051,-0.0007306619400558,-0.0009748038471348,0.0014546717122031,-0.0014355143060613,-0.0014111883308051,0.0022089906264103,-0.000672408118456,0.0007061746300567,-0.0011352396742869,0.0009286836929604,-0.0035296282197062,0.0014637646607673,-0.0005692300370638,0.000424764028631,-0.000942782091786,0.0018879356398211,-0.0015314997981893,0.0008938974556192,-0.0015526581156008,-0.0004558579109165,-0.0011207381447275,0.0007215569899973,4.9682615079116115e-05,0.0010143992276341,-0.0011009652617865,-0.0016627252487013,0.0007643893024862,-0.0013199787924623,2.343589027616948,0.19868427644877393,,,,,,,,,,,,,,,,,,,,,,,,,,-0.0056487085083442,0.6222686212082437,,,,,,,,,,,,,,,,,,
20minutos,-0.0007082699885205,-0.0030340701938474,-0.0020329218097836,0.0011664434204923,-0.0017751895890711,0.0003497625514251,-0.0007043966560517,0.0005785582084959,-0.0002582282147941,-0.0002099372544519,0.0007073848030945,-0.0016720151944651,0.0039582779941732,-0.0010874532356483,0.0013581827734753,-0.0038689276110643,0.0015228507124025,0.0006706351919512,0.0012601369812536,-0.0011945108142717,0.0017396502268379,-0.0001726650335527,-0.0004260535332083,-0.0013060668272485,-7.098608874508841e-05,-0.0008719218264613,0.0019001782272242,-0.000236582684604,0.0030164813803584,-0.0011637297461414,-0.0033042916000167,-0.0002291957065444,-0.0008279270763411,-0.16739849151510106,-1.9988601260432621,0.0030774743017214,0.0018810270409753,-0.0121069534470441,-0.0026987286537183,0.0061011693680426,-0.0056673415601306,0.0063787800952558,-0.0067687245996983,-0.0049481384384137,0.0044742016086736,-0.0004916336304586,-0.0020262717003345,0.0001939146930731,0.0022462774692219,-0.0030389051757502,-0.00132954759381,-0.0010125006368999,-0.0054621182282327,-0.0009627709859058,0.5326764481805368,0.013849062688350759,0.0010177048328466,-0.0006707139738143,-0.7083491242902682,-0.05266577143474988,-0.0113862332020344,-0.9061118668302381,,,,,,,,,,,,,,,,,,
catalunyapress,0.0013341482768415,-0.0012647159903065,-0.0035509170871073,0.0016750842955549,-0.0039102654710141,-0.0006424469570515,-0.0006912735099734,0.0015198495225203,-0.0006576365830395,-0.0004853031971588,-0.0004603897542457,-0.0028305596245645,0.0006533413232759,-0.001762376458323,0.0029723213807268,-0.0010295973811458,0.0022451854306639,3.5803760082036477e-06,0.0003800756186361,-0.0017174203694819,0.0003126202966723,-0.0003668169197472,0.000734224416401,-0.0002757964314156,-0.000492194820334,-0.0018273291862478,0.0006167072618967,3.237514093721452e-05,0.0018029924795798,-0.0007064235578264,-0.0027767971129161,0.0018046573841533,-0.0005121384591035,1.5981189818474624,-0.1864268506887054,,,,,,,,,,,,,,,,,,,,,,,,,,-0.0111093092241289,-0.8323439569568,,,,,,,,,,,,,,,,,,
eldiario,0.0046333271760512,-0.001963457415293,-0.0017070011063722,0.0018468872103531,-0.00206056700417,-0.0002686868298823,-0.0013504839204967,0.0013390430043397,-0.001512048903005,-0.0012037423761731,0.0010747954797658,-0.0018127450654184,0.0007795625270214,-0.0009281641851408,0.0011816173295589,-0.0010910817409971,0.0012522664023764,0.0001040560034669,0.0010445690039265,-0.0011320964897646,0.0008455596902801,-0.0007767851534907,0.001418399341511,-0.0003411001245922,-0.0006864179326523,-0.0009310917041439,0.001055542704133,0.0002108283914981,0.0006595560197697,-0.0006774280725768,-0.0003727426766014,0.0008554573581293,-0.0009861903232344,1.9729728290227468,0.9085049743114036,0.0024481510148389,-0.0007651021787592,-0.0060932223081489,-0.000803944697598,0.0032092808532157,-0.0005305702322394,0.0001857457937235,-0.0033656044346441,-0.0005806410205913,0.0014652142496491,-0.0002879826428233,-0.001924721797509,0.0004544378112701,-0.0016761052784765,0.0006946822064623,-0.0048971754467451,-6.698261092679889e-05,-0.0011598416673178,-0.000426922692256,1.431107957679613,0.6367548885578612,0.0038107679487145,0.005463209080584,1.1714623863244524,0.8181212760373813,-0.0023829537870846,1.4922109850610539,0.0025103051130195,-0.0022536518583119,0.0050774074964993,0.0005456032072714,0.0027313310003183,-0.0026337479589975,0.000188395550058,0.0063042910730367,0.0053732716067384,0.0022332647534212,0.0003115870086341,0.0004424162246211,0.0023464395930394,-0.0030600286890628,-0.9758492175960745,-0.7661329993471699,-0.0020698835118048,0.28969812143003665
elperiodico,0.0030169622135121,-0.0017648620208479,-0.0004091470602958,0.0012360781940218,-0.0014542129217851,-0.000529841797802,-0.0012654599963967,0.0006110604781799,-0.0008874208650338,-0.0006619657407628,0.0007270764216126,-0.0024697862127506,0.0011512436842844,-0.0011644203982808,0.0021359699215291,-0.0017386665803911,0.0006986805969123,1.9287117299038125e-06,0.0010137066949829,-0.000961295667282,0.0019223121958197,-0.0007815082036932,0.0008606954039059,-0.0003074663524927,-0.0009834953683253,-0.0017074286563202,0.0013174129188257,-0.0005099865084695,0.0005850118576899,-0.000693005909786,-0.0014147445446014,0.0011840862030651,-0.0010474335481052,1.1125835661099401,0.11070593337895267,0.0068413237291608,-0.0037168162736605,-0.0065037604651868,0.0009656582376248,0.0054394995813764,-0.0036433135927986,-0.0059931315953346,-0.0026785190897648,-0.0038250203996379,0.0013003941046251,-0.0003289198881241,-0.0017049104416197,-0.003156312224296,-0.0009999144659286,0.0031749040427495,-0.0054526063240031,0.0061425091326538,-0.0071442796281725,0.00620098737968,0.5501948264603539,1.6526505823856987,-0.0011613789089078,-0.0013229040398776,-1.2481868409140164,0.19471424081235658,-0.0074890979329304,0.1320197007943082,,,,,,,,,,,,,,,,,,
europapress,0.0007270020615073,-0.0034289117925909,-0.0014855439880128,0.0029611961581593,-0.0006508439371131,-0.0008049214078709,-0.0003638151320752,0.0006724067535718,1.5156023958788624e-05,-0.0006214232875429,0.0011144921678301,-0.0007297155655071,0.0017005478804686,-0.0010885058255512,0.0010692692452711,-0.0017090621064334,0.0007548707731647,-9.236178722669118e-05,0.0008090214360792,-0.0007497141639736,0.0007489730705103,-0.0010103159329652,0.0003944551164398,-0.0008053552947731,-0.0006763764497836,-0.0001770279271375,0.0011365718153163,4.5721504454133825e-05,0.0017204925046079,-0.0007682979036158,-0.0034136969230875,-9.888055058978816e-05,-0.0009985811039637,-0.5938088858621472,-0.758494228609393,0.0074148917202777,-0.0059268802676654,0.0060043740363465,-0.0035766370922234,0.0032354453728851,-0.0019586621469734,0.0042095957666321,0.0003755901731119,-0.0022815244091061,0.0025163003252527,-0.0030036966210778,-0.0023899440660818,0.0003593751836608,-0.003158159630503,0.0037534120243718,-0.0022980311933116,0.0033864679332193,-0.0011945755638454,0.0021602493011636,0.15843840467410714,0.09970705429786707,0.0011105741901677,-0.0020621995706069,-1.003561887585131,-0.3814286012787542,-0.0132465222878684,-1.4016617237269673,,,,,,,,,,,,,,,,,-0.0019514958406832,0.3096595913812871
infobae,0.0005589786481021,0.0007716670160262,-0.0014981482120143,0.0006730303320567,-0.001004759003595,-0.0001555486097662,-0.0007307587341301,0.0005713417397767,-0.0007655457481976,-0.0005663475438877,0.0006072650160871,-0.0015682872132781,0.0006073380279415,-0.0006255301168598,0.0006920613408742,-0.000800665893422,0.0007734736711298,4.251873837305301e-06,0.0005369500233104,-0.0005768872331736,-0.0003735240979848,-0.0006220723016758,0.0009082154517692,-0.0003099755288323,-0.0014912537954746,-0.0007144187309418,0.0007980428732749,4.957697810126578e-05,0.0015682481849393,-0.0006422633835269,-0.0014158719697632,0.0006741159923932,-0.0007228466371808,-1.4040175327020277,-0.14785831689346773,-0.0018791321332195,0.0045548473002522,-0.0251820631694941,0.0002974653564172,0.0017227263851826,-0.0015463207150971,-0.0072061269230886,-0.0023878056678181,0.0055735044723359,0.0018895936196588,0.0048160891030391,-0.0011577667498527,-0.0075283991238499,0.0001989765765362,-0.0083792130317582,-0.0017526429007189,0.0025413516222215,-0.002238251102013,0.0001828576124295,2.90379385923525,1.1339188736603123,,,,,-0.0023694752904976,1.4958014308179703,,,,,,,,,,,,,,,,,,
rtve,-0.0009698105150782,-0.0017688727413367,-0.0013534374537668,0.0034270955415094,-0.0018115019043483,-0.0003104444983975,0.0002004774285908,0.0005333682446445,0.0018115088960323,0.0012527009369355,0.0007835143196958,-0.0014297157530156,0.0013933080096581,-0.0013608998552276,0.0014427167829713,-0.0014637784448295,0.0005503058817349,4.147871983878386e-06,0.000479879233647,-0.0013555110333926,0.0003619234861836,-0.0003732506948479,0.00063761129051,-0.0002662551440748,-0.0004202061603317,0.0024888672296637,0.0006505319620949,0.000558354713342,0.001409791185366,-0.0005875746131314,-0.000560987038546,-0.0001822238480949,-0.0007421425204475,-2.5156125337344117,-1.479573035911248,0.0065896860479989,-0.0162257854519709,0.0021128904143396,-0.0085392873580522,0.0034737662268602,0.0009451248405801,0.0012003119810693,0.0011951875444416,-0.0023589213740139,0.0043083258919928,-0.0033514844312267,-0.0042935681433367,0.001608995012128,-0.0031749369398138,0.0005877672209416,-0.0094296753382339,0.0032497910431967,0.0020256848925751,0.0026398706476876,0.3341416078355223,-0.019023178095961244,,,,,-0.0021828946272019,1.5455033947223757,,,,,,,,,,,,,,,,,,
abc,-0.0010630178732537,-0.0018231324548931,0.0001331007288032,0.0007000992132023,0.0020424072790858,-0.0024262552496655,-0.0010306551709153,0.0015426371548263,-0.0019282853983476,0.0004851629436895,0.0006502124197202,-0.001135272514871,0.002418395206167,0.000246366210055,0.0012361215166768,-0.001792978516447,0.0009504714432012,0.0003173161005391,0.0009467796301993,-0.0011907892344402,0.0012761478222572,0.0001160814973033,0.0005753380450952,-0.0008994283447992,-0.0009559800516842,-0.0007321038995911,0.0011208315182836,0.0003628844170816,0.0020558393039297,-0.0003269803491952,-0.0036958256410596,0.001207560494808,-0.000979042169045,-1.6380811198894911,1.0353913909592658,0.0027926771450699,-0.0013770123495414,-0.0014547535726551,-0.0074603157821854,0.0012951230455729,0.0002481152518082,0.0026992173797837,0.001029330197645,-9.657350148925548e-05,-9.129780629618668e-05,-0.0010853222877495,-0.0014509336009986,0.0007857576722119,-0.0008322369230563,-0.0002264176774132,-0.0030596722553729,0.0014767192364414,-0.0025003543705812,0.0016936606323649,1.1694211586686651,-0.24371702445334215,,,,,-0.0054824071531212,0.6665685170739143,,,,,,,,,,,,,,,,,,
antena3,0.0005201253720749,-0.0022879090181064,-0.0005480941657863,0.0005695250776845,-0.0008090184133245,-0.0001364583963756,0.0007903656863931,0.0007096135194114,-0.0021502588222292,-0.0002361212720661,0.0004727046741619,-0.0005469999784651,0.0005394300662898,0.0010022757214031,0.0006684083273413,-0.0007805127235408,0.0007452034786047,-2.101462178191903e-06,0.0005268444577157,-0.0008462429195008,0.0020758201949441,-0.0001907803451527,-0.0021454663955149,-0.0017149594363882,-0.0023214510470835,0.0009311487410819,0.0010769789154778,5.433545621394488e-05,0.0022028316372975,-0.0004629009466151,0.0011979323604879,0.0005253390009137,-0.0007198924555093,-2.372461440101235,-0.773491002834232,,,,,,,,,,,,,,,,,,,,,,,,,,-0.0101542006944207,-0.5779190405167005,,,,,,,,,,,,,,,,,,
cadenaser,0.0032088391789641,-0.0019172680839077,-0.0015259726821538,0.0015088694592133,-0.0016899221338185,-8.955129508016017e-05,-0.0011692155064386,0.0011795671567598,-0.0011575704983508,-0.0008017747035163,0.0009752875910559,-0.0011545203755663,0.0008149016237405,-0.0009631278599802,0.0009743518467152,-0.0007448468557266,0.0012822365067385,-8.428641338490295e-05,0.000725448826196,-0.0011329659554331,0.0009304777801541,-0.0005341155482484,0.0010147829616431,-0.000710576328104,-0.0007159595563981,-0.0010168398055282,0.0008551123807903,-9.858884168758891e-06,0.0006298362990089,-0.0007065520429177,-0.0004849252632316,0.0006657035731198,-0.0010626442099801,1.0870124103927814,0.8730385135778373,0.0023431335183392,-0.0040480400921127,-0.0042276957074898,-0.001458070194227,0.001604580986132,-0.0011227939354012,-0.0002084492685107,-0.0014400579490595,-0.0009133734934665,0.0035092307281297,-0.0003769400213489,-0.0021928249163425,-0.0006472672316267,-0.0005822462545392,-0.000556683351465,-0.00246137990927,0.001210039583737,-0.000665891461624,0.0010857675967413,1.1889912194077523,0.5413249383426212,0.002813086180739,0.0033105677154765,0.5086026163280767,0.5156849080756626,-0.00898224031181,-0.26572842223384274,,,,,,,,,,,,,,,,,-0.0019460599354559,0.31057614508848136
diariodesevilla,0.0013354552798629,0.0004596234844081,-0.0006005417373783,0.0006285662080601,-0.0019830400126273,0.0006464763066179,-0.0005483741065587,0.0004613196145246,0.0009380079993131,0.0006302393313534,0.0007098113699166,-0.0021040884522335,0.002056324599132,-0.0005593234958285,0.0006595779779441,-0.0007668484064699,0.0007396829279827,6.069799395793144e-06,0.0005151496351357,-0.0006594553394762,0.0005256255562611,-0.000456199503952,0.000731681839129,-0.0002909502838901,-0.0004820528088184,-0.0005067238479961,-0.0002097281152722,-0.0011610989147696,0.0007839884903723,-0.0024036920043901,-0.0036256209154911,0.0006960356274298,-0.0006838551638527,-2.3713509585048955,-0.1687587993905076,,,,,,,,,,,,,,,,,,,,,,0.001004259533918,-0.0008664888240046,-0.7546728292515337,-0.09413221575763321,-0.0052486064612385,0.7288491057668733,,,,,,,,,,,,,,,,,,
elcomercio,0.0013429832530163,-0.0003423674609656,-0.0004989654772894,0.0005267364477678,-0.000702337290818,-0.0001239638920128,0.0010276655711291,0.0006512485958711,0.0009355761937927,-0.0007743957055538,0.0006093041869573,-0.0022601770568681,0.0005603777354349,-0.0005592581011258,0.0006594399323254,-0.0008102684108817,0.0007619340290749,8.414044147951507e-07,0.0005496471310673,-0.0010399721700697,0.0024778912539947,-0.0019921642620557,0.0013526389811118,-0.0018749687660979,-0.0003111887738219,-0.0005686471076361,0.0006292015110935,4.17602834001289e-05,0.0005178682386875,-0.0005687106906314,-0.0004872366134917,0.0024547303833458,-0.0005155467146411,-0.200687999246291,1.1383018159147893,,,,,,,,,,,,,,,,,,,,,,0.0007409107150747,0.0008234272086862,-0.42334215594892943,0.3323360858509559,-0.0106701101782883,-0.715348686720123,,,,,,,,,,,,,,,,,,
elconfidencial,0.0006667125161049,-0.0011316122284203,-0.0013454309613145,0.0003763138298941,-0.001603058299522,-0.0005451447677882,-0.0008079764536475,0.0011774607463623,0.0001528078100067,-0.0009524612918911,0.0010540127067976,-0.0008937277753807,0.0020499155856218,-3.8396596954350104e-05,0.001141977632941,-0.0010479950545271,0.0008912595936117,0.0001463241341035,0.0005375738733666,-0.0007047127220825,0.0005597086727044,-0.0004889631123571,0.0008827927407732,-0.0004807691613763,-0.0005082197458914,-0.0005455350207183,0.001234528410515,-6.155045880709394e-05,0.0006543519060003,-0.0005151574476608,-0.0026159224747127,-7.657272115849795e-05,-0.001065772013813,-1.0140727290370548,-0.24858758537074396,0.0015450659525028,-0.0015649508203827,-0.0087803026981524,-0.0039240196205584,0.0029986749716652,-0.0016737113318585,0.0055414690911171,-0.0016191312298379,-0.0003442725048181,0.0006811035665771,0.0005557840949443,-0.0020991216664708,-0.0020730958209342,-0.0028489411107867,0.0010052175743515,-0.0031487760146359,0.0023297449192859,-0.0010864951443843,0.0031705135931248,1.2844964045074443,0.22877421258459482,0.000324993837074,-0.0011070406206552,-0.9313034981297511,-0.02537075540134232,-0.0059721081527182,0.536120372148264,-0.0009375550276181,-0.0021823129871091,0.0020526561721212,-0.0019579155674711,-0.0010952432218519,-0.0040280540233033,-0.0009387828309121,0.0031758471824116,-0.0020244558563868,-0.0016517286684692,0.0011926457546368,-0.0002463169401719,0.0042450235650741,-0.0038700424872735,-1.2118260042942561,-1.5521085681101825,-0.0021065180900217,0.28352112660172996
elindependiente,0.0007525880623012,-0.0010188455102897,-0.0010906469188389,0.0010942441819374,-0.0014020932747456,-0.0007938750314977,0.0001089702918954,0.0006425747748299,0.000415018120789,-0.0007497189120408,0.0006436813792491,-0.0006638607347392,0.00027085738693,-0.000654407886029,0.0007340654984747,-0.0012586482712067,0.0009584354518869,-0.0002770954193024,0.0004887999782972,-0.0005551926566161,4.9354848748009634e-05,0.000273812763779,0.0007940834173126,-0.0003084750156505,-0.0005152236921606,-0.0005813510442388,0.0002807802838857,-0.0005814269650207,0.0011435553316079,-0.0003614875784661,-0.0034603601460732,-0.0001062436726702,-0.0007566363894579,-2.216122167662916,-0.09687159586669455,,,,,,,,,,,,,,,,,,,,,,,,,,-0.0086385390483029,-0.17417216184229692,,,,,,,,,,,,,,,,,,
elmundo,-0.0004976449111675,-0.0017266509194631,-0.0009380654205373,0.0005336687061734,-0.0016758681665125,0.0003089023023002,-9.524229001206445e-05,0.0008447433798157,0.0007079008218981,-0.0004190589894412,0.0009112298414157,-0.0007040373131016,0.0011151457653301,-0.0008827874954148,0.0011904628708025,-0.001519759095831,0.0009664849342458,5.666782267457066e-06,0.0007179224224467,-0.0007118714763983,0.0005902818070229,-0.0008888826649319,0.0006117267127258,-0.0003867113534164,-0.0007367749648305,-0.0003811352388334,0.0014905096762174,-0.0004993280714555,0.000845738033699,-0.0009130750107119,-0.0022253738152112,0.0006890393600476,-0.0006068623677933,-1.2521287975218753,-0.6835548861036042,0.0023351201331235,-0.0013881840824051,-0.0106971847639728,-0.0069839587726596,0.0019020253684086,-0.0046720572559042,-0.0017540353310668,-0.001835385941279,-0.0003545848134725,0.0008408609164078,0.0010924427605917,-0.0020357367216253,-0.002042442641522,0.0004961146493269,-0.0025176776212123,-0.0013207807674307,0.0011522533273294,-0.0032066279735906,-0.0001953295642954,1.2360668524864107,0.3697366843761541,0.0009119957133305,-0.0032025246616071,-1.295105798285578,-0.601233874980994,-0.0125077317543039,-1.2048602986299568,0.0083908011103798,-0.007413347823063,0.0024263058477412,-0.0026742377185091,0.0055155074692136,-0.0040317991232592,0.0022408169124844,0.0068609466885426,0.0013912639155182,0.0025322082759906,0.0007406035323496,-0.0001154498865627,0.0053857587000216,-0.0035457114969539,-0.474547636217338,1.9554214794820304,,
elpais,0.0031482072223767,-0.002704971965524,-0.0011207938477337,0.0003170600540981,-0.0017686340169339,-0.0006427053330772,-0.000950058429104,0.0009288506249822,-0.0005438776419161,-0.0005093966391517,0.0011123261459676,-0.0011386868309101,0.0007025195238396,-0.0010311938780802,0.0011187661784917,-0.0010471458147821,0.0015317622482762,-0.0003595098226306,0.0010572281045617,-0.0007920329209438,0.0009852280061609,-0.0004630093467829,0.0009069570815242,-0.0006231503655956,-0.0007395403193627,-0.0009630029223638,0.0008506440541449,0.0001360722404202,0.0008309270674252,-0.0011108254300606,-0.0016007665793649,0.0003446899803108,-0.0009849065489298,0.5718561278695964,0.6841979820923717,0.0041618740193648,-0.002092695151035,-0.008748570966979,-0.0036231807952071,0.0026828352167814,-0.0021710819739276,0.002606059888381,-0.0061607658392141,-0.00202088575156,0.0051293533109219,0.0020021189647129,0.0006311723070418,-0.0047723668848946,-0.0003959932308762,-0.0020800305666939,-0.0031678569893289,0.0011253991365287,-0.0013527852184039,0.0060146577105595,1.1016696772928674,1.0766227137940756,0.0046535957950607,0.0037520588136732,0.9400422966716893,0.28222044968030524,-0.0054939106911026,0.663504167213509,0.0063576658906179,-0.0020825686183932,0.0042516945944806,-0.0039982319197562,0.000745182311467,-0.0025823616944447,0.0001905949915131,0.0055152160802939,0.0013811740345971,-0.0014013575237114,0.0034893573583882,-0.0022200780065961,0.0037856459037066,-0.0041948409432591,-0.7611315341711198,0.23913874802824384,-0.0021807406367893,0.2710063847965217
elsaltodiario,0.0031078274334036,-0.0019665918591025,-0.0018940673104592,0.0018888267608475,-0.001007199259361,-0.000398243010659,-0.0017662042354002,0.0013426867386773,-0.0020099565706626,-0.003030937014518,0.0001695160124339,-0.0007117991235119,0.0003541760624358,-0.0018640889837342,0.0012287103556842,-0.0014857464024299,0.001642921190924,3.807226688522123e-05,0.0013042825651493,-0.0015991514999961,0.0009427193472984,-0.0011837338537265,0.0012342666912701,-0.0009815472831631,-0.0016155092129685,-0.0011455634040669,0.0007805159865681,-0.0004579811632329,0.0005545976507963,-0.0021721294676712,-0.0002985033766775,0.0015103063799479,-0.0012604644928529,2.9167447553720702,1.367684756426006,,,,,,,,,,,,,,,,,,,,,,0.0038074282339001,0.0037895321638488,0.795600649690825,0.4434660477452603,-0.0015759656673343,1.7071791049650298,,,,,,,,,,,,,,,,,,
epe,0.0025116738843052,-0.0015454717336573,-0.0014656165547638,0.0012459448214079,-0.0016843578070192,-0.0001084336436074,-0.0012928074583921,0.0008150798798351,-0.0016528308942691,-8.507511968717726e-05,0.0013171200372047,-0.0013602293492981,0.0011002747212077,-0.0004672079452425,0.0014050776347144,-0.000423909151551,0.0009376702650054,3.3383622829144706e-06,0.0006108095608381,-0.0008015527139943,0.0006567744676401,-0.0009666052541799,0.0011360075278331,-0.0004089379394822,-0.0005178636663092,-0.0007164143222456,0.0006547000840606,0.0001985741148679,0.0008890962327049,-0.0009678548559134,-0.0022328876128209,0.0009379926264293,-0.0007058345647508,0.24640947340432034,0.44440790779557876,0.0046278650740276,-0.0049265189935714,-0.0014583395292876,-0.0016344171387543,0.0058508348854941,0.0005591364933317,0.0011603493147026,-0.0083570807957808,-0.0020651279131286,0.0010550791069843,-0.0003247457236494,0.0015935438214181,-0.0020018942782837,-0.0088459447135457,0.0018690468636714,-0.0057039032486702,0.0006913054437251,-0.0007126380181894,0.0023235078490208,0.9822861364346124,1.4772909841058361,0.0011729683271309,0.0030492727477042,0.15376192716889786,0.7533546521127815,-0.0083793761834762,-0.10513551503520076,,,,,,,,,,,,,,,,,,
heraldo,0.0024462064172455,-0.0013322340697527,-0.0004946973557209,0.0038456268532719,0.0007187937846743,-0.0011814687131704,-0.0006540949417747,0.0004954286298311,-0.0009233456045105,-0.002323647834485,0.000392738261951,-0.0005435220888143,0.0045017093013523,-0.0004034613281234,0.0005607965872276,-0.0007295313988345,0.0007479476159687,7.649967422906277e-07,0.0025116857768435,-0.0004816399789412,0.0003941965610337,-0.0003511849222922,0.0006098521289247,-0.000222395967147,-0.0004008983934297,-0.0006022755301207,0.000683686054387,4.2475126952072135e-05,0.0025921032407888,-0.0003032396708089,0.0018377329937038,0.0003939304578177,-0.0006182853219472,-0.8289981509585774,1.5510352067006334,,,,,,,,,,,,,,,,,,,,,,,,,,-0.0083865191502344,-0.10703828175129797,,,,,,,,,,,,,,,,,,
laopiniondemurcia,0.0013699305582879,0.0015786427852243,-0.0006476607409859,0.0051163678299905,-0.0005141136264672,-0.0023810246436519,-0.0006524920451841,0.0005065056119379,0.0008500791993162,-0.0009002261654803,0.0023272901165821,-0.0006239226574648,0.0006437464963129,-0.0024046489165749,0.0007599147074724,-0.001296132467293,0.0032443818126011,3.611000514219651e-06,0.0003001060239235,-0.0006049126347645,0.0004909468506278,-0.0004417256161306,0.0008644576522848,-0.0003000858403812,-0.0023417763073603,-0.0006637918662635,0.0006995521060975,6.695538560931358e-05,0.0005462432689667,-0.0025122987899076,-0.0003001801568369,0.0024610948624267,-0.0004239584266267,0.19162867025498448,0.3975528146225868,,,,,,,,,,,,,,,,,,,,,,,,,,-0.0092211171807575,-0.32936121948255775,,,,,,,,,,,,,,,,,,
lasexta,0.0054915298376212,-0.0045136496115261,-0.0025720163165356,0.0023428795921429,-0.0029870502746227,-4.500386892054148e-06,-0.0017109016264441,0.0011502731000177,-0.001270401293468,-0.0007413911784497,0.0008396231981069,-0.0009295875303995,0.0017973663701166,-0.0008981017567573,0.0012329044084275,-0.0006483216213052,0.001913197083367,1.2308066166537464e-06,0.0011980858684687,-0.0009659233310098,0.0005867897356806,-0.0009358266572568,0.0006682816465429,-0.0009079679609124,-0.0012168087946762,-0.0010173609544492,0.0010979427285692,7.865398508717669e-05,0.001068384452126,-0.0013770863679008,-0.0017814147052769,0.0007142410801505,-0.0007619268756236,2.3095483820221148,0.08402833469431036,,,,,,,,,,,,,,,,,,,,,,-0.0002878736215295,0.002451280538354,-0.2441876443172965,0.8831501410976623,-0.0033654506626725,1.23049027197049,,,,,,,,,,,,,,,,,,
lavanguardia,0.0029493971567428,-0.0029485522209731,-0.0020167685726574,0.0027200183742036,-0.0017906960475083,-0.00029169843733,-0.0007763832618672,0.0008427791252246,0.0003989196233202,-0.0006031505608093,0.0012233977916441,-0.0009907462651698,0.0019514605425281,-0.0014224985601707,0.0010340158800806,-0.0012501781286019,0.0014732287295802,-0.0003483814660676,0.0007519150332545,-0.000689897175024,0.0005389600914745,-0.0002519590171775,0.0006980212690716,-0.0011951532092553,-0.0002899844078449,-0.0005523156509279,0.0012125817493491,0.0004265395510019,0.0011890569825327,-0.0007819786269435,-0.0030266971603689,-0.0001687228054344,-0.0012378858084531,0.5426874390397505,-0.5504364079944442,0.0029884289008022,-0.0016204759549258,0.0002128527675309,-0.0033412611065787,0.0024652390288834,-0.0024293803292024,0.0056883900124937,0.0010386689560204,-0.0004656778972714,0.0014934954223376,-0.0012652516384392,-0.0045022758616937,-0.0009790506389106,-0.0004300212809108,-5.806458830315449e-05,-0.0047445616897328,-0.0005164746151784,-0.0026474892208496,0.0007405353218322,1.062548926495718,-0.14141238910069068,0.0063249712881049,4.992467223889456e-05,0.4118806201098572,-0.8497438226759171,-0.0135001450491172,-1.4692225797249214,,,,,,,,,,,,,,,,,-0.0018359755935682,0.32913758194990467
lavozdegalicia,-0.00065549066932,-0.000609808029518,0.0001130899230577,0.0031625291534371,-0.0007432620439799,-0.0013619193397021,-0.0006671912318412,0.000536279069366,-0.0004298427600245,0.001191651550335,0.0007051414909136,-0.0007122294561293,0.0033873140331424,-0.0014752840701528,0.0007080541316809,-0.001677078495426,0.0005434168927257,7.785656500017529e-06,0.0004709375644899,0.0002427300591801,0.0006775411355514,-0.0005217102223689,0.000782290046361,-0.0003249035204093,-0.0005342867010724,-0.0007720877677207,0.0015587893980948,-0.0006004061742914,0.0008907515000333,-0.0019472201167877,-0.0072104430163664,-0.000118465507825,-0.0007596072915809,-2.7014514348777547,-0.918349347304935,,,,,,,,,,,,,,,,,,,,,,-0.0002786293939969,-0.0057016246098943,-2.0704971882022685,-0.9464989806401186,-0.0133179667623206,-1.420693335190181,,,,,,,,,,,,,,,,,,
levante-emv,0.0016508099929158,-0.0002254076833422,-0.0018368049577984,0.0018465383789093,-0.0019645954760255,-0.0003067928605126,-0.0019430040876842,0.0010260456666294,-0.0009251264472948,-0.0011818356659444,0.0017069626046989,-0.0006717978960611,0.0006639837337087,-0.0006970881149372,0.0008178380514506,-0.0015268317380585,0.0008645898463136,1.0052233296006297e-07,0.0022755547644957,-0.0008204861970317,0.0011825214508131,-0.0009852343911842,0.0010429241127326,-0.0007978165907263,-0.0004881957538848,-0.0002964959767887,0.0016000531737409,0.0009459294884412,0.000539683275295,-0.0012131411982887,-0.0004038235767001,0.0013105637430535,-0.0011337078020715,1.654798936897763,0.30507092257844287,,,,,,,,,,,,,,,,,,,,,,-0.0006391915148401,0.0009948587157043,-0.6341936304210333,0.6200615693109174,-0.0079045235342691,0.02135727802234528,,,,,,,,,,,,,,,,,,
niusdiario,0.0026866634724917,3.8061753105353728e-06,-0.0006781328175535,0.00069441842549,-0.0020342983661938,0.0006049104437291,-0.0006257546013066,0.0005155060280495,0.0006024441800882,-0.0007589352047094,0.0006355366405768,-0.0006635686149373,0.0019748876357304,0.000750987986048,0.0007631308492009,-0.0015934038008454,0.0011089129325227,-0.0004839330758136,0.0004747996844402,-0.0006991822620782,0.0011173249423435,0.0003273901190525,0.0001114712742754,-0.0005813616109568,0.000134786121789,-0.0008068351526426,0.0014784041731421,-0.0023915374410684,0.000621528562152,-0.0007388118047017,-0.0026363594359533,0.0007364282457962,-0.0011687943614216,-1.6623479993623769,-0.5754813305253417,,,,,,,,,,,,,,,,,,,,,,0.0010915733359976,0.0011131125811226,-0.2950508683912969,0.3339466833766498,-0.007445960761516,0.1435107208105611,,,,,,,,,,,,,,,,,,
publico,0.0032082498977358,-0.0030341569138487,-0.002110066310919,0.0023330465576173,-0.0028596119517972,-0.000161836025784,-0.002171282261875,0.0012982713144247,-0.0023065675397245,-0.0016138446406833,0.0012123032491064,-0.0014055596487773,0.0009576205621767,-0.001563756204576,0.0012354549614943,-0.0013381400990012,0.0013904602333676,-0.0001511704474594,0.0014364601172009,-0.001219837228648,0.0008960061552553,-0.0007612567642553,0.0013072006756852,-0.0005452584174889,-0.0008819774915987,-0.0013353473508698,0.0012550535705386,0.0004263740587058,0.0006778390314376,-0.0011300897199955,0.0004952953795715,0.0009731047191659,-0.0011909456518985,3.30187539025773,0.9023779363130194,0.0070174600087316,-0.0047193488072513,0.0064559208384148,-0.0026941249147541,0.0036013582587867,-0.0018000926743998,0.0033806055045431,-0.0030339318534815,-0.003093851023434,0.0039621603163424,-0.0046562488257179,-0.0042474406065181,0.0018174297833667,-0.0047698579744691,0.0037818693131729,-0.0023100759314817,0.002909402832302,-0.0014595550642091,5.0510254890823864e-05,-0.13055255269675436,0.15115730868146218,0.0049443180921985,0.0026174974167265,0.7381732916565122,-0.024675150733485328,-0.0029694262027885,1.3359845555834793,,,,,,,,,,,,,,,,,-0.0019205557537797,0.3148764320299973
bbc,0.0004407153257398,0.0004695079782817,-0.0005700896684978,0.000588874713601,-0.0008707687026772,-0.0001398815895113,-0.000630918504789,0.0004951311133782,-0.0006158021309524,-0.0004386268868869,-0.0008986257199276,-0.0006359024249121,0.0020719355164549,-0.0005584119508508,0.0006807026748045,-0.0021905657670915,0.0003495718554487,4.8881735256613265e-06,0.0004086567634004,-0.0003825966665684,-0.0010445699491906,-0.0006297628733001,0.0007446529920078,-0.0002729062507636,-0.0004737046465616,-0.0006498579072236,0.0006872625439017,6.358106802211627e-05,0.0005076757048928,-0.0005613215858364,-0.0004543727164778,0.000602718323094,-0.0006865774315063,-2.5074035443356113,0.2683149426584873,0.0011339931040614,-0.0008770289907058,-0.0140924074515934,-0.0054981293906451,0.0029723261200925,-0.0013249740756326,0.0005694125808631,0.0004456470845645,0.0021546285361099,0.000162093733686,0.004316652013958,-0.0014942678151872,-0.0061564607448225,-0.0011533075112079,-0.0037567715102838,-0.0028159491321429,0.0009285058266732,-0.0009676746463234,0.0043676092797497,2.0721516288515396,0.5657885259753389,,,,,-0.0021022512051126,1.5669854517748685,,,,,,,,,,,,,,,,,,
lavozdeasturias,0.0037116676178443,-7.216085201181542e-05,-0.0007808903752003,0.0014023543680248,-0.0025146401657113,4.305844117691608e-05,-0.0007500365216698,0.0006058687503965,-0.0009247064511373,-0.001243604497064,0.0006423579420409,-0.0020031764381081,0.0013367297359599,-0.0006890594570652,0.0015186829300834,-0.0028887731999027,0.000885943965344,-0.0004620235604154,0.0011111417980205,-0.0012972376871804,0.0004179990665455,-0.0004229753875315,0.0004447869078505,-0.0011856373623367,-0.0005136994324246,-7.183600256219027e-05,0.000918351602436,5.716599794656986e-05,0.0012969451152555,-0.000684035647365,-0.0011652162693837,0.001374173251714,-0.0006912067755356,0.5609227573051875,-0.5850224683817624,,,,,,,,,,,,,,,,,,,,,,0.0010723228338861,0.0021869193081801,-0.05776771969133698,0.5781842855753255,-0.0155152304264342,-2.0060075761903784,,,,,,,,,,,,,,,,,,
vozpopuli,-0.0020905563903296,-0.0011583281942732,-0.0006221583958099,-0.0010138272000093,0.0002729100404355,-0.0024047768953866,-0.0006496590349212,0.0005224469098258,0.0008348356769235,0.0015698873874038,0.000185842665157,-0.0007109050632712,0.0018560913521774,-0.0011875067973462,0.0006582943050374,-0.0002248221539417,0.0008834821113115,6.708603591101814e-06,0.0005461522465341,-0.0011281671318979,-0.0002084966819358,8.899562939469925e-05,0.0002479388954688,-0.0005804571005554,-0.0005655638952775,-0.0007488854153446,0.0013913446683983,-0.000399588844093,0.0037886246391502,-0.0007580600311929,-0.0054260084495546,-0.0023236369621266,-0.0005490596088512,-4.438548783339215,-0.5094176964084267,,,,,,,,,,,,,,,,,,,,,,,,,,-0.0073389820885207,0.17200804764944655,,,,,,,,,,,,,,,,,-0.0018159332605227,0.3325169408396473
elboletin,0.0014602315516687,-0.0024137666530367,-0.0004915316768756,0.0021296280958265,-0.0021280812758844,0.0009010888353676,-0.0004259601412087,0.0003651825248955,0.0012355644441571,-0.0007406653815707,0.0005546994203848,-0.002423128248743,0.0005331190495412,-0.0024357687116822,0.0024852245881128,-0.0004951692819171,0.0005122726442157,4.870358483463765e-06,0.0003740380070605,-0.0004950844157471,0.000397695595803,-0.0003446948619235,0.0005638237854736,-0.0002373430391938,-0.000376685750408,-0.0003365097988329,-0.0006156500954138,-0.0016052206316299,0.0028186667493321,-0.0007271765806909,-0.0045843827348495,0.0006228006156809,-0.0004978420839484,-1.6854502291581352,-0.7133463913024123,,,,,,,,,,,,,,,,,,,,,,0.0191127386509125,0.0082304372810185,4.555909977738362,-1.3254346656916494,,,,,,,,,,,,,,,,,,,-0.0020627729868378,0.2908970345357823
eleconomista,0.0004850781520669,-0.0011486404736726,-0.0005322481625056,0.0005489679657774,-0.0008183612844112,-0.0001273670407573,-0.0005887101281771,0.0004617040315754,0.0003574754020052,-0.0006577755050711,0.0005556768088628,-0.0015991185697136,0.0005081726562169,-0.0005380560345971,0.0005930677198414,-0.0006908397222433,0.0006715973184257,2.374632430084296e-06,0.0004698594613399,-0.000605120572504,0.0004761110824349,-0.0004197502515804,0.0007034436844376,-0.000232105565269,-0.0004381557869148,-0.0006234587255883,0.000632393187674,6.343286587872464e-05,0.0004157816043265,-0.0004539124580999,0.000720317135248,0.0005418761215997,-0.0006671095108072,-1.741022336358868,0.846840777202606,,,,,,,,,,,,,,,,,,,,,,0.0009251051926915,-0.0032043015825722,-1.2931362342431945,-0.6040002531015934,,,,,,,,,,,,,,,,,,,-0.0234528735316724,-3.3157103531657652
elmundotoday,0.0026885934243467,-0.0027500453176347,-0.0017219944290653,0.0010217811312434,-0.0014726095642682,-0.0006540407494871,-0.0016463592156701,0.0012721639949311,-0.0014028606480362,-0.0002381485183877,0.0004842283678093,-0.0008462934622055,0.0015046766775046,-0.0006144470681741,0.0005937621215224,-0.0008347650718281,0.0009205138202864,-0.0001435154177665,0.000532754305949,-0.000686579559112,0.0003056951546571,-0.0009224467495434,0.0004220908126832,-0.0005749556226941,-0.0005445488757795,-0.0018675914044267,-9.18669462140224e-05,0.0002331132117317,0.0005924911512989,-0.0005881236645244,0.0010319728898498,0.0047085496078926,-0.0002440216508765,0.7357023652472584,2.2249677595275252,,,,,,,,,,,,,,,,,,,,,,,,,,,,,,,,,,,,,,,,,,,,,
huffingtonpost,0.0037976843495643,-0.0035077351132526,-0.0023094125687704,0.0010017841808568,-0.0028421662747729,-2.6120672160099417e-05,-0.0020998715424161,0.0009770027255429,-0.0029132206789982,-0.0012130023408812,0.0013044227760549,-0.0011493144057449,0.0015893343019742,-0.0015901859168269,0.0015609034849349,-0.0012472779477089,0.0018633698769952,3.6755628443803368e-06,0.0008081503168117,-0.0012241386522465,0.0007044690205702,-0.0007795848350186,0.0017859435259653,-0.0005125063158644,-0.0006220505622636,-0.0012987622201407,0.001381779714826,0.0001022885489068,0.0013464114025058,-0.0007425722724149,-0.0021712457085109,0.0015379895538325,-0.0008303220617326,3.113357308159085,0.6073228514511472,0.0041144031687861,-0.0046694605727869,0.0007216643394795,-0.0153930831803929,0.0024208508782135,-0.0005294831324346,0.0084831248954694,-0.0023697812021183,-0.0043559759307216,0.0058003572309171,-0.0013796478444177,-0.0013024320064122,-0.0005156323321299,-0.0010076140211089,0.0035664732523851,-0.0091564672645579,0.0089761909037668,-0.0001142329555038,0.0041438829041658,0.11473475567056035,-0.8417105704258498,0.0059119584963501,0.0045914562684029,1.35554390946866,0.24312483483365716,,,,,,,,,,,,,,,,,,,,
moncloa,0.0039364387776981,-0.0056369065786024,-0.0020743042159732,0.0007734330551799,-0.0014410817791212,1.395298591603221e-05,-0.0012021072838931,0.000937521842261,-0.0016068754469221,-0.0011778435868955,0.0012556571129159,-0.0006772802459086,0.0006761910460606,-0.0006841572454674,0.0007943217158173,-0.0010376172248643,0.0015737801044413,-0.0001048473808598,0.0005371748321507,-0.0008103814090248,0.0009626406916704,-0.0008095949147398,0.0009725046747348,-0.0006300376639712,-0.0005306925202571,-0.0011504000099456,0.0013031572141879,6.91035736823263e-05,0.0014701494081157,-0.000905994688996,-0.0050649766018547,0.0008458882376621,-0.000759306039738,1.41565841488979,0.36410868605175944,,,,,,,,,,,,,,,,,,,,,,,,,,,,,,,,,,,,,,,,,,,,,
newtral,0.0069033824153631,-0.002744387465092,-0.0018057519616474,0.0040305817300586,-0.0030523819890506,0.001164475951796,-0.0019311563198717,0.0004738692942736,-0.0014291596496396,-0.0041439045954487,0.0016550721833342,-0.001872216965129,0.0031031331591567,-0.0030492096410902,0.0019687327685811,-0.0009896722899129,0.0017090088930643,-1.5210572250024414e-05,0.0017323855915773,-0.0020404060169567,0.0015405345752381,-0.0002081896989464,0.0012308161246375,-0.0014044305889241,-0.0003903177616829,-0.0006647165275145,0.000704180320097,6.571840058121673e-05,0.0005286355808172,0.0006342404735171,-0.0005318592420272,0.0021593366288205,-0.0024311830808528,5.818798372746488,0.5653475167725003,,,,,,,,,,,,,,,,,,,,,,,,,,,,,,,,,,,,,,,,,,,,,
canarias7,0.0003597263988065,-0.0003428547537012,-0.0004792075615554,0.0005060156630097,-0.0007790528320209,-0.0001294212045439,-0.0005848372348793,0.0004585604550728,-0.0023263021140097,-2.4014976176656155e-05,-0.0014914870846033,0.0013598244903385,0.0006236250013758,-0.0025484391650208,0.0006188641486647,-0.0008037013022452,0.0008016872336068,-2.513487603364798e-06,0.0025039270394165,-0.0005317431364441,0.000437144585684,-0.000390144904935,0.0006712880213853,-0.0002459262291038,-0.0004415200412062,-0.0006699815528717,0.0007564170135112,3.403163907000862e-05,0.002657683874877,-0.0005167374341532,-0.0002715594908034,0.0027262307017111,-0.0003794940978019,-1.0450096311902626,2.0475444754890053,,,,,,,,,,,,,,,,,,,,,,,,,,,,,,,,,,,,,,,,,,,,,
ondacero,0.0011646977939009,-0.0011021048164396,0.0001053446587152,0.0006322859221885,0.0009354952386504,-0.0014914286894466,-8.315010227073066e-05,0.0014387399206187,0.0001443733113667,8.169391528056735e-05,0.0006815269340203,-0.0014566555681861,0.0014382218404809,-0.0006219722225822,0.0015232345100946,-0.001551808843109,0.0005595647617638,7.200478534626813e-06,0.000486011611227,-0.0006534209877549,0.0005172684544013,-0.0004551740344762,0.0007708343321876,-0.000288085140979,-0.0005085576503913,-0.0007959064329158,0.0014860618765561,-0.0005153213480608,0.0031089817082627,-0.0006586831179824,-0.0029099047037152,0.0006397147256326,-0.0006258395059906,-2.2095394595330276,0.26075370344713533,,,,,,,,,,,,,,,,,,,,,,,,,,,,,,,,,,,,,,,,,,,,,
threadreaderapp,0.0016757332117298,-0.0027719228542233,-0.0019238034120565,0.0010892858963993,-0.0025075476364502,1.578404770767594e-05,-0.0012389524844597,0.0014675771644766,-0.0021220277421721,-0.0010457985098803,0.0014659704138311,-0.001542679432566,0.0009627443146359,-0.0018519203878053,0.0008049665818,-0.0011360161580759,0.0018944667818808,0.0002064891949815,0.0008226492199724,-0.0014471283875988,0.0011406729822131,-0.0009961527208575,0.0014168827630074,-0.0006825151289957,-0.0013539226923035,-0.0014376211263879,0.0014659330168494,0.0001315111179017,0.0004784693016705,-0.0003333319882171,-0.0004110662563986,0.0013831679812691,-0.0017396972808047,3.1454796837006826,0.9110088241032698,0.0034956840009379,-0.0062001039554915,0.0092331362994339,-0.0016396535749527,0.0074211924763647,-0.0024186640876165,0.0019475256256601,-0.002049617239018,-0.0043889376934965,0.0048869485733883,-0.004464128160827,-0.0049087917691859,-0.0002842024721766,-0.003815109529107,0.0068050592407573,-0.0010427848239492,0.0023541836793238,0.0003677645863494,0.0025894104482495,-0.12412982575459293,0.551054295564566,,,,,,,,,,,,,,,,,,,,,,,,
ccma,0.0018867800372407,-0.0017804481737012,0.0001763521542925,0.0006595542899179,-0.0010361291116722,-0.0001551391371623,-0.0008643257521524,0.0014498028441398,-0.0016308063855405,-0.0003981958967412,0.0005610871992866,-0.0006154096756269,0.0006127648099732,-0.0006593247743654,0.000774206978089,-0.0018017339656199,0.0006487091218929,-2.2105317585602476e-06,0.0005709140332018,-0.0011259722592377,0.0026318884646536,-0.0021177633388763,0.0011242374932004,-0.0010972545023966,-0.0004264314516828,-0.0009178421283725,0.0020724871443789,0.0001622084844145,0.0013801211206752,-0.0005581542280213,-0.0002992019776929,0.0016788195663111,-0.0012923364010753,1.3507793044428797,1.426500845025789,,,,,,,,,,,,,,,,,,,,,,,,,,,,,,,,,,,,,,,,,,,,,
cronicalibre,0.000874833117653,-0.0009855485398303,-0.0008135899610642,0.0014841677928769,-0.0014866005073086,-0.0002256049084521,-0.0008607636616577,0.000869745247338,-0.0009180594162221,-0.0008772402321123,0.0008902663487985,-0.0007062277997474,0.0009053057824936,-0.0013942405637022,0.0007309164366337,-0.0006039472325009,0.0007417905038719,0.000166740698965,0.0006200455914805,-0.0008105621886738,0.0006655787530533,-0.0009996152846056,0.0008758114287047,-0.0002858622392411,-0.0005457398586966,-0.0012407758274884,0.0007152952951853,7.212376904579206e-05,0.0007446500409187,-0.0005885619867047,0.0002887284441123,0.000713971873996,-0.0012770538895116,0.03981178046623944,1.128895399881187,,,,,,,,,,,,,,,,,,,,,,,,,,,,,,,,,,,,,,,,,,,,,
diario16,0.0029363061678367,-0.0036730888683982,-0.00194991002877,0.00158813282245,-0.0024030265820609,-0.0003680566079848,-0.0027652137996491,0.0004502709984095,-0.0028625726002662,-0.0010771927321965,0.0005895697777583,-0.001860541372575,0.0006818059022586,-0.0007543847305292,0.0013168970690022,-0.0018290021093876,0.0032336231571166,0.0002780213908636,0.0004341604235656,-0.0020523859855009,0.001277660786873,-0.001486541254686,0.0014761373907867,6.912604103416118e-05,-0.0004592383567116,-0.0004922659402206,0.0016070338259771,0.0009636210927128,0.0009225454968573,-0.0017913434405304,-0.0003319726847461,0.0010828096016662,-0.0009908535778924,3.379329774494775,1.3969860038396145,,,,,,,,,,,,,,,,,,,,,,0.0095814299448431,0.0051630840039405,2.14652797686719,-0.2915276139273101,,,,,,,,,,,,,,,,,,,,
diariolarealidad,0.0033592759857023,-0.0022928313862618,-0.0033609663532629,0.0006064963385467,-0.0024217636079522,0.0007408283953996,-0.003870146881251,0.0001604829212845,-0.0040799393103798,-0.0015048764996452,0.0003079889777841,-0.0005330715863186,0.002243325853744,-0.0005435814536022,0.0007538638075373,-0.0027273902242231,0.0015553417530464,-1.8510539955262265e-06,0.0003400053322103,-0.0008272056927494,0.0022040390707069,-0.0001858593988244,0.0006830033143329,-0.0002365763311592,-0.000450668994599,-0.0007669398555834,0.0007787901909108,5.384969388694239e-05,0.0023416958225933,-0.0006296724360327,-0.0001177829949677,0.0045803807202828,-0.0016203709261956,3.097240061219818,0.9562972427965313,,,,,,,,,,,,,,,,,,,,,,,,,,,,,,,,,,,,,,,,,,,,,
electomania,-0.0013026354952767,-0.0004844608287577,-0.0005528834324521,0.0005822514068641,-0.0026776883493483,-0.0004521229976028,0.0021229845569689,0.0021799269973058,-0.0004150235076029,0.0009276753808033,0.0006203777525834,-0.0020592380315496,0.0005656379299111,-0.0005652456621257,0.0006533985817547,-0.0007785073918268,0.0007380449529971,5.170914285072652e-06,0.0005177520521992,-0.0007578470098083,0.0006880860378677,-0.001986340694852,0.0006732229955751,-0.0002732879678432,-0.0004623664996035,-0.0006415017249383,0.0008257294399335,8.84918831695709e-06,0.0023650208301884,-0.0008464514330917,-0.0052879495811799,0.0008233976964001,-0.0017029174678347,-1.3966741442851704,0.3611095267769198,,,,,,,,,,,,,,,,,,,,,,,,,,,,,,,,,,,,,,,,,,,,,
elmon,0.0005018767847279,-0.0014296199547663,-0.0020222535804927,0.0006086419898893,-0.0022792552141138,0.0007954262819631,-0.0006763656135092,0.0005300275115112,-0.0008785745461716,-0.0006987549712802,0.0039815886978726,-0.0005689913660012,0.0023493869108291,-0.0023337936094567,0.0006545333171155,-0.0008160804401932,0.0007715801357123,-6.025327463030864e-06,0.0005640196976195,-0.0011978670901286,0.0041828622325474,1.6000925513320885e-05,0.0006786603958737,-0.0002417927738797,-0.000444491456049,-0.0007153698265995,0.0007097770402295,7.127114954692555e-05,0.0004329259990234,-0.0005544878907679,0.0015246510976739,0.0009365134931621,-0.0035457016726055,2.7283651947345633,0.2194987565918253,,,,,,,,,,,,,,,,,,,,,,,,,,,,,,,,,,,,,,,,,,,,,
elplural,0.0040061717318967,-0.0039141877981012,-0.0018590545330469,0.0010228492629237,-0.0018955839504907,-0.0001713416456091,-0.0016055682267919,0.0010190914157889,-0.0014459971865495,-0.0019293785698374,0.0010253083238966,-0.0009726193314359,0.0006198724447111,-0.0013181683898207,0.0013129216287587,-0.000770661457731,0.0019353980853435,0.0004171639896481,0.0007891508125723,-0.0010158554776422,0.0006533032533282,-0.0006614896595231,0.0009488998165059,-0.0002626553835484,-0.0006285921084847,-0.0008046375576662,0.0009908155175936,0.0001433903863606,0.0007513462592837,-0.0009199777962809,-0.0006193414792014,0.0009941044216801,-0.0010277690328533,1.8854471160207906,1.041808169016027,,,,,,,,,,,,,,,,,,,,,,0.0055046150758794,0.0048860572821561,1.348018374858504,0.3827565462663988,,,,,,,,,,,,,,,,,,,,
infolibre,0.0031018257285904,-0.0034629577996523,-0.0018484834213934,0.001334613720904,-0.0020940331956074,-0.0002021137205528,-0.0015735457148037,0.0010676261944975,-0.0012845270211591,-0.0010973360639736,0.0011332640385164,-0.0007032392817142,0.0010047629048258,-0.0008653959293558,0.0009269129491214,-0.0002922893715148,0.0013900568358159,-0.0001215922830165,0.0009439241021593,-0.0011281670615026,0.0007266985366701,-0.0006475779026419,0.0006441228131763,-0.0002107216900468,-0.0007314229411045,-0.0007803601921395,0.0008976482862227,0.0002054115167318,0.0005424432292697,-0.0006299640085149,-0.0002755289215896,0.0005449756997848,-0.00093841187447,1.2048273532023857,0.9735141758679954,,,,,,,,,,,,,,,,,,,,,,0.007229848206703,0.0022634859959411,1.0716359959099178,-0.5168850865584348,,,,,,,,,,,,,,,,,,,,
maldita,0.0020118259515073,-0.0019123024807596,-0.0005145828075311,0.0005239317153908,0.0009852204623595,-0.0013938880501691,-0.0006412520044184,0.000486152723275,-0.0005234548153273,-0.0003598507436386,-0.0017515031101884,-0.0005631474657437,-0.000630680428489,0.0005895676411015,0.0005323179390946,0.0015967439974121,0.0011438188173399,2.1748648687823545e-07,-0.0005797326239789,-0.0007190097787081,0.0005608985795575,-0.0004764303997275,0.000746855899935,-0.0002685619796796,-0.0004717157181561,0.0005873048039197,0.0008759858069276,4.8698380589509615e-05,-0.0005520565105821,-0.0019306310820608,-0.0029247215566098,-0.000650539692524,9.078611601073816e-05,-3.90406721346253,1.834576015037876,,,,,,,,,,,,,,,,,,,,,,,,,,,,,,,,,,,,,,,,,,,,,
naiz,0.004411573187274,-0.0004652822103952,-0.0015519646483142,0.0031984130394217,-0.0028267687978004,-0.0010585005885982,-0.0009510281601905,0.0022796552430228,-0.00171482960595,-0.0005285852539321,0.0031741545335756,-0.0005918357200538,0.0006041346931613,-0.0006596626859381,0.0007878834021216,-0.0010904692029135,0.0015897594404646,-0.0006439943724297,0.0023426021237294,-0.0009232742716903,0.002322259078682,-0.0002433706105794,0.0011504653714955,-0.0010808643483887,-0.0004380114888471,-0.0008033349295705,0.0012594891024973,0.0007882937402102,-0.0004866293701466,-0.0005917859205576,0.0005776160537851,0.0025724046752585,-0.0011926775219257,3.53977806873406,1.5206461401876203,,,,,,,,,,,,,,,,,,,,,,,,,,,,,,,,,,,,,,,,,,,,,
theobjective,-0.0005108219775135,-0.0011235135687415,-0.0005785959001455,-0.0021033347451643,-0.0024016531902087,8.71796171359586e-05,0.000137221096146,0.0012242185711631,0.0001118565181545,0.0037940679001459,6.223338340583299e-05,-0.0006835478913741,0.001403434291308,-0.0006188996987279,0.0007468061091083,-0.0022595899441319,0.0004355806154994,2.1705438947776347e-05,0.0004695321521263,-0.0007228541840112,0.001222747939436,-0.0003272959591445,3.420549141988779e-05,-0.0006103803119931,-0.0005301472249605,-0.0007244394097981,0.0013574173266211,-0.0004712045020162,0.0014312383167749,-0.0006682484375974,-0.0029753803842552,-0.0008908298210032,-0.0003821523949559,-3.360816469014084,-1.0566974247223848,,,,,,,,,,,,,,,,,,,,,,,,,,,,,,,,,,,,,,,,,,,,,
vilaweb,0.0004383527598739,-0.0004081257740937,-0.0018589277468681,0.0005775174618105,-0.0021421630538035,0.0007010087922899,-0.0020713104660768,0.0002988957722788,-0.0008791597922794,-0.0019570279662402,0.0004625028365625,-0.0005719164634402,0.0021561483373164,-0.0021404205388594,0.0038309311083566,-0.002071308978959,0.000170516798209,-4.157405817908542e-07,0.0003273599842672,-0.0005141539883896,0.0004442016437105,-0.0003785735387859,0.0006347039978369,-0.0002411900030115,-0.0004113516249039,-0.0006124153331771,0.0006354877880127,5.3618144096879144e-05,0.0004628012056142,-0.0005530784425368,-0.0003932432314461,0.0007115826391281,-0.0018521949576783,0.596594516567835,-1.3146222536195686,,,,,,,,,,,,,,,,,,,,,,,,,,,,,,,,,,,,,,,,,,,,,
wordpress,0.0004910392712134,-0.0012671832666794,-0.0005749495756664,0.0006014619983789,-0.0011410208959167,-0.0001573203534574,-0.0045818256397613,0.0012748835915219,-0.0007718819913996,-0.0016919885322494,0.0003994275674526,0.0007737640576955,0.0005754497567682,-0.0019324077857312,0.0019744132332983,-0.0006698453554345,0.0006737787376916,-8.465521579767963e-07,0.0004948364590678,-0.0008455628799247,0.0018668047942918,-0.0002765304357758,0.0008440943131007,-0.0002508536938558,-0.0018598994749115,-0.0021849546233625,0.0012924312693229,0.0011476308093225,0.0003158149021851,-0.000433194951512,0.0011343082681332,0.0020323467656106,-0.0014647743011235,2.0219371183067016,1.449895407292255,,,,,,,,,,,,,,,,,,,,,,,,,,,,,,,,,,,,,,,,,,,,,
blogspot,0.0013228066468278,0.0008112343232099,-0.0004334069016598,-0.0012193261450067,0.0005962436955566,-0.0011966368295782,-0.002535699800845,0.0002598573329342,-0.0024513036825258,-9.231346726830925e-05,0.000372712156325,0.0014729891894144,0.0025304548141056,-0.0004958397358005,0.0006556426842519,-0.0027243394564154,0.0001957691100807,2.0054495396403507e-06,0.000386317500954,-0.0008344057871809,0.0025187576917926,-8.921703150856317e-05,0.0005773878351702,-0.0001932854207198,-0.0003774620421439,-0.0005573654554251,0.000521826139312,7.291776843540302e-05,-0.0017924304961103,-0.0028195665456027,-0.0002831377195857,0.00058216303526,-0.0006939103532297,-1.4693162236981987,1.2026069529384629,,,,,,,,,,,,,,,,,,,,,,-0.0004252877510333,0.0011344563186718,-0.5642566379679149,0.6127234979772052,,,,,,,,,,,,,,,,,,,,
cope,0.0005384320261689,-0.0012961398289921,-0.0006012685155374,0.0006273218956644,-0.0019060965265868,0.000559045178246,-0.0006230228159219,0.0005035149227818,-0.0006863344285992,-0.0005093466127447,0.0005519247800948,-0.0006185304441269,0.0018683958625709,-0.0005647161995394,0.0006546310566119,-0.0007601681843068,0.0007438634613801,2.9333604098602886e-06,0.0005212731533764,-0.0006767658496903,0.0005329112220298,-0.0004719586862747,0.0008640757333078,-0.0002945444973117,-0.001834576474017,-0.0006656625289803,0.0007494947409868,5.045884847843234e-05,0.0018940936033201,-0.0005322824695257,-0.0004301949877817,0.0005842792754338,-0.0006851032769491,-1.179481112039754,-0.08065617370257601,,,,,,,,,,,,,,,,,,,,,,,,,,,,,,,,,,,,,,,,,,,,,
ctxt,0.0059938276067216,-0.0039838419992974,-0.0023602306818903,0.0018944044596967,-0.0047881414461542,-0.0003739288797616,-0.0044709081715022,0.0007285637059674,-0.0032915315460311,-0.0024133390939916,0.003063649113454,-0.0011579308708156,0.0006852712968327,-0.0018029289844282,0.0024888261021604,-0.0021487933315858,0.0014763308756739,7.893311490688415e-08,0.0011259884819473,-0.0038317322713037,0.0025371943546077,-0.0026945404826095,0.0009222745144656,-0.0007118172695054,-0.0004602222767929,-0.0024495288108162,0.0012352777334767,0.0001295616784079,0.0004203552273636,-0.0021444060183882,0.0007823252115779,0.0011783556150681,-0.0007545581674705,7.576666113305716,0.6539919316023242,0.0093840019106838,-0.0131288965095053,0.0269697483898589,-0.0056751670547824,0.0123188537454372,-0.0073709888068084,0.0074978840772356,-0.009546824806489,-0.0075258369084737,0.0027669564538796,-0.0126063850950449,-0.0058585189917192,0.0035715191820751,-0.0230199462075445,0.0141651272954257,0.003147228837685,0.008402782278399,-0.0027274106726674,-0.0001317965492494,-3.0857077041445913,0.32341557632305584,,,,,,,,,,,,,,,,,,,,,,,,
efe,0.0012083464940555,0.0014140450556226,-0.0017626135666209,0.0030782422065338,-0.0015826327719036,-0.0012256069039144,-0.0005452529809291,0.0004423808489766,-0.0006553763939339,-0.0005075507215544,0.0019028669477789,-0.0005413991783021,0.0020149397185184,-0.0005523049751378,0.0022633714708027,-0.0038187619358163,0.0010978509582917,-4.720180303839467e-05,0.0017240907078077,-0.0018884626936383,0.000104311709419,-0.0002172206566018,-0.0001055073460423,-0.0022821674096734,-0.0018968632770815,0.0009698683916064,0.0010916430901843,-0.0021632852004664,0.002093800915262,-0.0005806844306725,-0.0019714705010633,0.0006096313933944,-0.0006658215025849,-0.4468046026247906,-3.2777406378753806,0.0013320787084795,-0.0010744437772485,-0.0033035965041809,-0.0016616172390672,0.0017491550678462,-0.0004379394199671,0.0012801063860866,-3.614602870450484e-05,0.0006345104847524,0.0016953986869517,-0.0011899059230737,-0.0011902580492179,-0.0019697754582569,-0.0018541055151934,0.0007371525069324,-0.001333456755394,0.0011241529775833,-0.0008629562702651,0.0005345541738003,1.4520840417872203,0.40460734077477156,,,,,,,,,,,,,,,,,,,,,,,,
elcorreo,-0.0003473258447322,-0.0004777889154593,-0.000587461798128,0.0006172571928077,-0.0017378400916563,-0.0011900663535034,-0.0020337215234803,0.0015923179589909,-0.0005807394744801,-0.0004423399989539,0.0004981471386902,-0.0005604254541128,0.0005688749714064,-0.0005754204381052,0.0006898711599164,-0.002097057657537,0.0004003467370688,5.460824144922871e-06,0.0004358497702364,-0.0005996234707888,0.0004763188302363,-0.0004187492012266,0.0006927255099139,-0.0002639322390067,-0.0004516945339923,-0.000491439032729,-0.0003123232109221,0.0009787669274024,0.0021214939944932,-0.0006475344231275,-0.0019326613990964,0.0006316385434369,-0.0006870112382056,-1.5087827324691838,1.1128760235617337,,,,,,,,,,,,,,,,,,,,,,,,,,,,,,,,,,,,,,,,,,,,,
eldebate,-0.0001238701810585,0.0001278282838406,-0.0006027492223055,0.00144426335623,-0.001550073419512,0.0003658038913757,-0.0005608732785296,0.0004629556625645,-0.000570800472068,-0.0004172591892658,0.000452325514435,0.00217361821109,0.0005850186556697,0.000357534660091,-0.0003155330103502,0.0001094343186212,0.0009479625464662,2.897418228401519e-06,0.0005458937512535,-0.0005912513336215,0.0004150365226094,0.0004835875627671,-5.778713137459101e-05,-0.0006968378724625,-0.0005665322340224,-0.000853922857589,0.0020470813429422,0.0001553139189204,0.0004903571851128,-0.0005020873582446,-0.0006538770446373,-0.0013607389498697,-0.0008972142958341,-2.597968854765434,-0.04643690854284387,0.007898227668114,-0.0058341105516523,0.0061160676909454,-0.0050422097802208,0.0018888658803473,0.0029492096399712,0.010103656398812,-0.0010498488482777,-0.0025114298990542,0.0055918942514329,-0.0023001688194775,-0.0052541067382649,-0.0009810666388761,-0.0013001541019192,0.0009673074439508,-0.0057853715544215,0.0021509034941263,-0.004444101295507,0.0073309742842978,0.042521963650860625,-0.2951646637188297,,,,,,,,,,,,,,,,,,,,,,,,
jotdown,0.0003074876102129,-0.0002908334125254,-0.0021657631690466,-0.0014669327089583,-0.0007169427719084,-0.0001103505527986,-0.0005179918793554,0.0004109058604147,-0.0005523694891093,-0.0004023827908393,0.0004758982158109,-0.0005699044183327,0.0096370367251945,0.0021200988085358,0.0004820159723008,-0.0005519043672577,0.0005469182843066,3.921833877818337e-06,0.0003848159367277,-0.0005173133698018,0.0004087742640917,-0.0003691336822315,0.0007457458207045,-0.000260857805912,-0.0029056188896752,-0.0004492205116937,0.0005313522559054,2.154826522815878e-05,0.0005054804675758,-0.0005933052841367,-0.0030318784938655,0.0005562500017597,-0.0004887689607093,-2.941273036635983,-1.4265065059779194,,,,,,,,,,,,,,,,,,,,,,,,,,,,,,,,,,,,,,,,,,,,,
lamarea,0.0012476443019756,-0.0016202704287568,-0.0013374325086433,0.000773952936227,-0.0024114871436584,-0.0008055355770081,-0.0014990388243524,0.0011616604293531,-0.0022719973944848,-0.0016603220885583,0.0017574970816884,-0.0018584418675491,0.0005957643107594,-0.0006562172670165,0.0013623889640824,-0.0003411429532844,0.0014398623966262,-0.0004454892289116,0.0012043535968301,-0.0014288407343459,0.0006101497917945,-0.0017141812783988,0.000803332371607,-0.0002647393913651,-0.0005169957219032,-0.0015091944137448,0.0014680081177806,0.0010464277650855,0.0004585967443693,-0.0012070043731738,0.0002836672620624,0.0013310332496009,-0.0011671261328992,2.4776834502308094,1.4728486029798795,,,,,,,,,,,,,,,,,,,,,,,,,,,,,,,,,,,,,,,,,,,,,
larazon,0.0004793265270014,-0.0004542916112307,-0.0017674799864777,0.0006143794982601,-0.0030144257330975,0.0013670384922823,-0.0005381587153527,0.0004587437119288,0.000601846625687,-0.000779261714914,0.0019575843195702,-0.0006072722917182,0.0020202573006022,-0.0006020574835842,0.0008132522059991,-0.0036285354542632,0.0001683455034378,8.522058414236973e-06,0.0004432218654746,-0.0007828637022122,0.000708180117449,-0.0019238785525432,0.0015417123944009,-0.0016465589828743,-0.0033294890970235,-0.0007486431764822,0.001696895896173,0.0011651826853906,0.0020678246221133,-0.0020694019079386,-0.001986731412213,-0.0009090868184385,-0.0008493267062556,0.6187007526130338,-3.4589413356721397,0.0047577963476979,-0.0018954266697181,-0.0096883651142632,-0.0015902965268951,0.0033284237519235,0.0014982314850063,0.0011060795699999,-0.0009439386303704,0.0028710660226059,-0.0007185429900917,0.0004263879155236,-0.0012009464195039,0.0004442484243233,0.0006571429074548,-0.0031538518467419,-0.0035537750312735,-0.0030643949947251,-0.0030567806116577,-0.0012370958795216,1.784812653845771,0.2964850130256535,,,,,,,,,,,,,,,,,,,,,,,,
laregion,0.0004000017420861,-0.0003673783662303,-0.0004999934938454,0.0005237365207616,-0.0007940932630979,-0.00012241756449,-0.0005867397951632,0.0004530898802542,-0.000620176102641,-0.0004612709082154,0.0004821328481648,-0.0005230354111144,0.0004920817946111,-0.0005278572265317,0.0005705739517465,-0.0006600364467367,0.0006466349067786,-3.0822316564840704e-06,0.00046057093421,-0.0005937340440786,0.0004667822423865,-0.0004100803166279,0.0006843254109198,-0.0002102571571922,-0.0004137157198088,-0.0006250243042967,0.0005269330097443,0.0001057755683405,8.350091235269865e-05,1.3935464359012258e-07,0.0076706757857291,0.000265653658672,-0.0007415415745691,-1.5544004806651561,1.8023176938854442,,,,,,,,,,,,,,,,,,,,,,,,,,,,,,,,,,,,,,,,,,,,,
lavozdelsur,0.0027632867857192,-0.0004709764031575,-0.0007129517243446,0.0026936161380495,-0.0016833104547575,-0.0010005977341825,-0.0007889943479803,0.0006070251841313,-0.0029041927556853,-0.0002380571882704,0.0005573572608807,-0.0006731828430331,0.0017515115922798,-0.0017622168504203,0.0008102372893605,-0.002151910305151,0.0014302963514002,-2.195930644487888e-06,0.0015859797159042,-0.0017642239697621,0.0003495949399318,-0.000404895015438,0.0012693810558458,-0.0012834145720437,-0.0004384351891001,-0.0008450430921644,0.001581442312144,-0.0006758024793738,0.0004068686613722,-0.000525903634801,0.0007620255175645,0.0006672440132417,-0.0008291256873389,1.33113531130427,0.7015035549396246,,,,,,,,,,,,,,,,,,,,,,,,,,,,,,,,,,,,,,,,,,,,,
marca,0.0012460270522881,-0.0023941128439667,-0.0006281825111676,-0.0001370470709049,-0.0013695794107435,-0.0020070345516967,-0.0016517545978901,0.0012882582607691,-0.0029110430097761,0.0015938691818791,0.0005753438642069,0.0001797361387342,0.0049961247998041,-0.0014041606499174,0.0007236443888697,-0.0025054371015028,0.0003703802228131,6.4689807048225195e-06,0.0004651163968326,-0.0007896540635286,0.0013992852842593,-0.0003588783273091,0.0019770714795701,-0.0007017678524179,-0.0012687379190894,-0.0007878135746765,0.0018331469006964,0.0014301348415874,0.0005343312679675,-0.0005966536613213,-0.0014933572705648,0.0006685497342082,-0.0013327459066198,0.398217303780888,0.44132117017664724,,,,,,,,,,,,,,,,,,,,,,,,,,,,,,,,,,,,,,,,,,,,,
noticiasdenavarra,0.0012646482507033,-0.0011843605491443,-0.0006477747184577,0.0006633177855608,-0.0010485431485102,-0.0001565088730932,-0.0016614697934963,0.0004541487949149,-0.00089845785277,-0.0014747894357984,0.0005415295779176,-0.0015623623957277,0.0005802762203939,-0.0006212262409116,0.0016510254359252,-0.0007364807584329,0.0007323884318288,9.64587442372388e-07,0.0005220844905113,-0.0006916147963783,0.0005480136673125,-0.0004835512594075,0.0008814893860607,-0.0002865439532764,-0.0015033557919643,-0.0017665128640079,0.0011725277841849,0.0008298247046948,0.0004526445795571,-0.0005407346843712,-0.000415661919782,0.0006112071843462,-0.000690611180199,0.05779424387027825,0.31535434709353277,,,,,,,,,,,,,,,,,,,,,,,,,,,,,,,,,,,,,,,,,,,,,
nuevatribuna,0.0043571933282317,-0.0022745519102931,-0.0033851052015015,0.0005553843536306,0.0002264214687893,-0.0010852840070275,-0.0039829633879174,0.0001425013707282,-0.0009690542399796,-0.0021987579468906,0.0021177053216499,-0.0022050692464942,0.0004698827772982,-0.0005067069959174,0.0005831464154657,-0.0006726013471805,0.000661259878008,-6.808627841784658e-07,0.000465912678617,-0.0005954433310107,0.0004711096634924,-0.0004068610542203,-0.0008363809746989,-0.0010861285453113,-0.0024250364986352,-0.0005793131375864,0.0005772209866085,6.642108023264263e-05,-0.0014227656286739,-0.0005788571818654,-0.0005786318230025,-0.0012397155554008,-0.0010174319190767,0.534015271735398,-0.8949288354011193,,,,,,,,,,,,,,,,,,,,,,0.005807511021388,0.0036361960902346,1.1224967014111338,0.04781041439252629,,,,,,,,,,,,,,,,,,,,
valenciaplaza,0.0031122213999043,-0.0012368993130288,-0.0005510189534643,0.000571806549927,0.0002392677863221,-0.0009401179695555,-0.0006991952587116,0.000532178811982,-0.000691205964861,-0.0005155232789872,0.0005492190767406,-0.0005986140336131,0.0005872234850423,-0.0006132689617969,0.0022164452426664,-0.0021339200037827,0.0003219723113266,4.795301839769905e-06,0.000409264458643,-0.0005752925924807,0.0004578098300966,-0.0004042269598274,0.0006652273655943,-0.0002552158262947,-0.0004319407902347,0.0009452996058566,0.0009482447507488,5.945643903969667e-05,0.0005987174825421,-0.000677072272071,-0.0020397318309904,0.0006809796443931,-0.0006894604988784,-1.7185938394530826,-0.4633424583007578,,,,,,,,,,,,,,,,,,,,,,,,,,,,,,,,,,,,,,,,,,,,,
confilegal,-0.0052157535498698,-0.000474136618574,-0.0003411057655383,-0.003363813647894,0.0026520289772953,-0.0025123931557687,-0.0006411839366927,0.0004747077608186,-0.0005127189925393,-0.0003798296491014,0.0004155676688214,0.0017535990543167,0.0005630113912069,-0.0005059810554792,0.0005696979233587,-0.0006823592022047,0.0006213357948405,7.229044197967234e-06,0.0004326952991733,-0.0005499260192606,0.0004410967599213,-0.0003829292679472,0.0006119633199564,-0.0002664129545733,-0.0004287252597071,-0.0005462807926982,0.0007263563152848,1.1289309910994287e-06,0.0007979736954435,-0.0034279650612948,-0.0056635931594741,0.0005708364543736,-0.0004693863582056,-4.743425441383631,1.1472228453495446,,,,,,,,,,,,,,,,,,,,,,0.0009755927578092,-0.0026714446766425,-1.1645437196322586,-0.4936469211281161,,,,,,,,,,,,,,,,,,,,
galiciapress,0.0012974389414612,-0.0005788023728333,-0.0006979299582826,0.0007068399483944,-0.0003242121207379,-0.0006639200207653,-0.000769832739783,0.0005869972805263,9.547902807948826e-05,-0.0007120476250786,-0.0002162108527936,-0.000708436315194,0.000670079492928,-0.0006944268231392,0.0007790854130826,-0.0017497925667144,0.0006251053897419,6.839879678681332e-07,0.0005413622074495,-0.0007230671042988,0.000572605329902,-0.0005013203268717,0.0008271056571663,-0.000285593325648,-0.0005228946838923,-0.0007427707229197,0.0007413127518517,7.980885948839444e-05,0.0004380971910434,-0.0004625425174963,0.0023203519349697,0.0006014752140725,-0.0008653735232229,-1.3688259099741606,1.0467536817380283,,,,,,,,,,,,,,,,,,,,,,0.0005557578430356,-0.0001642436651687,-0.6782340832898116,0.1443326495889832,,,,,,,,,,,,,,,,,,,,
as,0.0016684093553013,-0.0052858082314288,-0.0024582872819902,0.0004821127236285,-0.008594032097642,-0.000289487669098,-0.0001008295091578,0.0001964887297475,-0.0004114816409515,-0.0003090020838675,0.0003847220366412,-0.0004959529446594,0.0033254359541281,-0.0032347071273953,0.0005546830890115,-0.0008133485394574,0.0008415376951376,1.1405613535923662e-06,0.0034209370612951,-0.00342343894089,-0.0001027877307902,-0.0001599926388891,0.0007589639808338,-0.0002623236220394,-0.0034830387495665,-0.0007808688971624,0.0026240969621902,0.0024560130503845,0.0005460674704314,-0.0006585501233579,-0.0038957088455193,0.0007896259136866,-0.0029065786029712,4.630559267812152,-2.5743617317160825,,,,,,,,,,,,,,,,,,,,,,,,,,,,,,,,,,,,,,,,,,,,,
elconfidencialdigital,-0.0008326125200319,-0.0071691114600135,-0.0003533975901387,0.0054836720821771,-0.0004605187564292,-9.6374026119314e-05,-0.0003299144757356,0.0002947473065514,-0.000351998367273,-0.0002730120697751,0.0003651016144798,-0.0036783432359125,0.0004006182338079,-0.0003236993548311,0.0004452328176207,-0.0005549684551328,0.0004847450819577,1.3816575214635822e-05,0.0003314754998557,-0.0004258081686276,0.0003420899224083,-0.0002939492213454,0.0004558010160359,-0.0002829161560149,-0.000381831043089,-0.0002069724672877,-0.0013175497004944,-0.0002903124947256,0.0135234103314882,-0.0010151994703289,-0.0126846722124298,0.0006602553259934,-0.0002352182280225,-3.3859611210122056,-0.46028469428303237,,,,,,,,,,,,,,,,,,,,,,,,,,,,,,,,,,,,,,,,,,,,,
informacion,0.0003202326794092,-0.0003052371050946,-0.0004514032478294,0.000487364134529,-0.0019620906627892,-0.0019209201358451,0.0017388282585471,0.0007095140813217,-0.0010129123585808,-0.0027811153236578,0.0003651578561111,-0.0005325187699916,0.0054955216348692,-0.0003506847761834,0.0004998575677039,-0.0005911885071444,0.0005808300598106,3.690835660816445e-06,0.0004080815658257,-0.0005402905333863,0.0004268418937803,-0.0003777183685332,0.0006304351033382,-0.0002333604797149,-0.0004158560860338,-0.0006224213680928,0.0007441884185652,2.781355463508878e-05,0.0033340817114817,-0.0004417794183828,-0.0003442474497819,0.000493895723307,-0.00059368085087,-2.3854829640827537,0.6402640158793049,,,,,,,,,,,,,,,,,,,,,,,,,,,,,,,,,,,,,,,,,,,,,
libertaddigital,-0.0017752208917204,-0.0015467992127247,-0.000451774393716,-0.0013290185259511,-0.0007727571297552,-0.0001355478044781,-0.0005318341143299,0.0004372559416318,-0.0002467729483326,0.0016316595431368,0.0006226888104179,-0.0006152431721434,0.0028232830073132,-0.0005276895210695,0.0029127026963639,-0.0006091878973219,0.0005983680312673,8.112747498842026e-06,0.0004353369721389,-0.0005776195622354,0.0004630568429145,-0.0004026333820851,0.0006692720699809,-0.000292332334723,-0.0004699323194444,0.0016857604771055,0.0015298984792647,-3.2563948112604987e-05,0.0083366684458939,-0.0007615314854424,-0.0053704048579422,0.000696078253011,-0.0006158675140005,-3.856016897265701,-1.879574984643547,,,,,,,,,,,,,,,,,,,,,,,,,,,,,,,,,,,,,,,,,,,,,
nortes,0.0034402788508027,-0.0002507425214748,-0.0020432424049128,0.0004984701051366,-0.0007701525859798,-0.0001263835661704,-0.0005582562663329,0.000443798193877,-0.0005780726384507,-0.0004355987414442,0.000479541224175,-0.0005351484905516,0.0005410290810308,-0.0005338266803003,0.0025773413309184,-0.0004640329298479,0.0004365768186115,4.916513969158744e-06,-0.0016218486927032,-0.0006202516126967,0.0004835232468005,-0.0004125636882139,-0.0010615067133649,-0.0012314928529156,-0.0027040636240069,-0.0005860180487777,0.0007069305146145,2.1960691067622526e-05,0.0007002303583585,-0.0008115244143163,-0.0048490928363868,0.0007184386124169,-0.0005966785099725,-1.870034880685853,-2.5660308298592165,,,,,,,,,,,,,,,,,,,,,,,,,,,,,,,,,,,,,,,,,,,,,
politicaprosa,0.0030435314324675,-7.279063192704652e-05,-0.0086843563843151,0.0033911031081312,-0.0092723964165402,-0.0001787344701027,0.0001013418910231,3.367485414942895e-05,-0.000357163417876,-0.0003289291874752,0.0043106226666074,-0.0002114517997823,0.000373726779058,-0.0003720200765588,0.0054276491638466,-0.0050156673333929,-0.0008132897070566,1.7217239763903238e-05,2.6862202161456088e-05,-0.0003076787494645,0.0002735235624307,-0.0002640235679217,0.0007998641068945,-0.0003009079473199,-0.00572675155532,-0.0009404863945275,0.0047731076125867,0.0001632254171572,0.0005889098586,-0.0010722144692594,-0.0121494358275134,0.0009413239243954,-0.0005092216007314,3.385480102380313,-12.820498674090489,,,,,,,,,,,,,,,,,,,,,,,,,,,,,,,,,,,,,,,,,,,,,
theguardian,0.0021827410924984,-0.0012290642803261,-0.0005302453088392,-0.0006811454733153,-0.0024241496983659,-0.002299729510883,-0.000557156806684,0.0004471375886187,-0.0019673636466231,-0.0002274918352731,0.0004305657442359,-0.0005149825671251,-0.0008913777190451,-0.0020051296814402,0.0005746922302472,-0.0006671094895618,0.00065503484546,7.354700652358124e-07,0.0004628144875117,-0.0005895740266954,0.0004648243730322,-0.0004083280549724,0.0006691555041815,-0.0002340985486015,-0.0004191384149432,-0.0004392337014072,-0.0005234047350597,0.0010627194658434,0.0004705738482751,-0.0004594145586921,0.001119798904608,0.000541725781778,-0.000700390349082,-1.0941070042386298,2.0176448448196616,-0.0001225066543858,-0.0076293384579836,0.0014511970180669,-0.0033517361758876,0.0015337181033276,0.0005206151624955,0.0016588528719829,-0.0030465291311038,-0.0026408329436638,0.0055008943030403,-0.0009435376489938,-0.0011096602314071,-0.0046197202215401,-0.0036296370091438,0.0032098726381497,-0.0033520660989675,-0.0009242469623265,0.0009618028229206,0.0035286192889124,1.1273752388692706,1.0737756259113498,,,,,,,,,,,,,,,,,,,,,,,,
cnn,,,,,,,,,,,,,,,,,,,,,,,,,,,,,,,,,,,,0.0078325927796664,-0.0043502334204417,0.0018883058251999,-0.0041590635768312,0.0024339919309115,0.0015825658506174,0.0070889217259501,-0.0046046384776394,-0.0046689078972747,0.0014714316426587,-0.0066069616541359,0.0008865620332424,0.0051731366786003,-0.0017675528510025,0.0028806512709482,-0.0041455056337096,0.0018165472142432,-0.0038811383958529,0.0032367688924194,0.041305364786792816,0.08023762716019354,,,,,,,0.0050606129335585,-0.013413135398197,0.0149567050447605,-0.0063474476771602,0.0429455016981055,0.0020594833980559,0.0006074943674154,0.0038213222653142,0.000129505616736,-1.94606100458526e-05,0.0008789893680009,-0.0002717370856553,0.0059265372493067,-0.0080258337681836,4.836209503328951,1.6462004172626843,,
nytimes,,,,,,,,,,,,,,,,,,,,,,,,,,,,,,,,,,,,0.0168221230798897,-0.0133069753574286,0.0061277859408857,-0.009853127962149,0.0058289512355469,-0.0058853169366559,0.0052588324949373,-0.0050125938194929,-0.0058574393611746,0.0070443945261022,-0.0060040364588366,-0.0038422244282006,0.0040058708282836,-0.0011064997532596,0.0039335843885906,-0.0044890525247588,-0.0012384197473589,-0.0014155417817848,0.007471153745263,-1.6060278266700125,0.31325105576418016,,,,,,,,,,,,,,,,,,,,,,,,
rafaelpoch,,,,,,,,,,,,,,,,,,,,,,,,,,,,,,,,,,,,0.0180114864684649,-0.0157029434095754,0.0357930486622818,-0.0066208291412769,0.0159066629993454,-0.0111550708885652,0.0132348756030787,-0.0077774558537776,-0.0115903159732887,0.0134970574607934,-0.0180301231154272,-0.013017178222811,0.0051788196401359,-0.0390483739509001,0.0105200748196556,-5.261032357785009e-05,-0.0021426194275045,-0.0034523584297194,0.0063969782416917,-5.251992590680466,-0.4307037154708707,,,,,,,,,,,,,,,,,,,,,,,,
swissinfo,,,,,,,,,,,,,,,,,,,,,,,,,,,,,,,,,,,,0.0012166424877798,-0.0024047148017113,-0.0073326231122319,-0.0035783042322517,0.0014710442691285,0.0005275897104971,0.0014050440859314,0.0010701390361259,-0.0001691582426879,0.00122002708871,0.0021572002581224,-0.0032580265591909,-0.005614544381006,-0.001670557909102,-0.0001920251759461,-0.0031234491599464,-0.0032522765544944,-0.0010726134575626,-0.0010646948994114,1.9497402555145613,0.49763093831413363,,,,,,,,,,,,,,,,,,,,,,,,
washingtonpost,,,,,,,,,,,,,,,,,,,,,,,,,,,,,,,,,,,,0.0083156474796318,-0.0098032022317907,0.0065312557986944,-0.0087934572249262,0.0025238888664864,-0.0021167411983604,0.0018062857817461,-0.0046359398723552,-0.0093162343653225,0.0091631644349801,-0.005059093937967,-0.0056015758230121,-0.000519984092495,-0.0035467060141991,0.0039840122283807,-0.0059258874893979,0.0028277293009634,0.0001132220281231,0.0143271061713224,-0.8916288501478198,0.9545383809792636,,,,,,,,,,,,,,,,,,,,,,,,
dw,,,,,,,,,,,,,,,,,,,,,,,,,,,,,,,,,,,,0.0028565329369476,-0.0051474632111693,-0.0075710862731525,-0.0048298489251026,0.0021224257256756,-0.0029881197161376,0.0019261413397454,-0.0013635137537133,0.0006229920584521,-0.0003112861106441,0.0005301073021952,-0.0017034732711751,0.0004797586308712,-0.0008203735723698,-0.0004706213881007,-0.0014114069210786,-0.0002093531619747,-0.0007754929030195,0.0026174724289731,1.1958153586273725,0.4158038409757758,,,,,,,,,,,,,,,,,,,,,,,,
msn,,,,,,,,,,,,,,,,,,,,,,,,,,,,,,,,,,,,0.0011851477268346,-0.0009793090403013,-0.0032849350810126,-0.0016296421956518,0.0020369401497313,-0.0037919717551302,3.44687067090621e-05,-0.0005912417808522,-0.0006054106755071,0.0011705684989473,-0.0006362596079161,-0.0011786256188669,-0.0004982376069596,-0.0014241455604535,0.0025652575843401,-0.0048242458981587,-0.0001752845186699,-0.0019460948978681,-0.0055855581551397,1.4535615267792807,0.3282338265823244,,,,,,,,,,,,,,,,,,,,,,,,
newsweek,,,,,,,,,,,,,,,,,,,,,,,,,,,,,,,,,,,,0.0053337380078768,-0.0132521510903204,0.0111028313705062,-0.0013919103378443,0.002909769384227,-0.0039222473927191,0.0012530864819201,-0.0030267529985615,-0.0072015102289024,0.0060004041820353,-0.0097306425649949,-0.0129104134933471,0.0016433816139423,-0.0029816754134138,0.0097232647308639,-0.0011962507865726,0.0044240719033635,-0.002066485012732,0.0021686746095967,-1.2585589157573054,0.599627106310153,,,,,,,,,,,,,,,,,,,,,,,,
politico,,,,,,,,,,,,,,,,,,,,,,,,,,,,,,,,,,,,0.0032755836071794,-0.0030216714368797,-0.0046346615702293,-0.0017679493243988,0.0028828477150524,-0.0045411823045108,0.002564861915855,-0.0092395571316704,-0.0027285887656682,0.0053055093944086,0.0001081471265687,-0.0010082784397794,-0.0036739010571638,-0.0036619750580847,0.0051003278690653,0.0016013455711492,0.0001129032631439,-0.0014996657361128,-0.0013090386534507,0.4452470025385096,1.173171069330596,,,,,,,,,,,,,,,,,,,,,,,,
reuters,,,,,,,,,,,,,,,,,,,,,,,,,,,,,,,,,,,,0.0065769531819646,-0.0086179715322406,0.0025086880366425,-0.0049113260845607,0.0041039238092363,-0.0033581935788331,0.002092744654089,-0.0030435820499532,-0.0031599366999159,0.001425562147658,-0.004242184525219,-0.0034947516731553,0.0013290175538786,-0.0043346993289872,0.0047714737184832,-0.0027881080303787,0.001717592034635,-0.0001483452527719,-0.0023770254120732,0.0880591631991036,0.38281005978149824,,,,,,,,,,,,,,,,,,,,,,,,
apnews,,,,,,,,,,,,,,,,,,,,,,,,,,,,,,,,,,,,0.001181748607842,-0.0014894791799382,0.0013964910189685,-0.0012301871282797,0.0009132059540385,-3.1656347949660536e-05,-0.003982769484408,-0.0010168514287508,-0.0014976906210018,0.0016846617966396,-0.0004902776853793,-0.0021782353967996,-0.0043980490809631,-0.0052557563844428,0.0056679491143487,-0.0013280353236745,0.001214392895693,-0.0009646210189471,0.0062559863925321,1.2626210627303769,1.5161854471178229,,,,,,,,,,,,,,,,,,,,,,,,
diario-octubre,,,,,,,,,,,,,,,,,,,,,,,,,,,,,,,,,,,,0.0190166927705803,-0.0119662410086315,0.0650039695399072,-0.0035637876836022,0.0422927137187829,-0.0137295204975497,0.010274596322581,-0.0049445570148639,-0.0281786983115086,0.0113783380769974,-0.0411079154724457,-0.0187431422036689,0.0026509027792335,-0.053194740564897,0.0282733478012346,-0.0004845431588157,0.0359770019056781,-0.0045847493700452,-0.0031518215147104,-9.254994689854055,-1.5004119723581466,,,,,,,,,,,,,,,,,,,,,,,,
euronews,,,,,,,,,,,,,,,,,,,,,,,,,,,,,,,,,,,,0.000811759852185,0.0007553746149169,-0.0155811155138537,-0.001944759640189,0.0018784492952482,-0.0026827356330019,-0.0015143633422615,-0.0004045645117538,0.0031151220160131,0.0014977721368277,0.0020397350513362,-0.0007811995787796,-0.00372439849027,0.0002035505439509,-0.0039206371790711,-0.001453321808977,-0.001831108280439,-0.0064268419218269,-0.0011442587338064,1.8809815071362928,0.4335768533561513,,,,,,,,,,,,,,,,,,,,,,,,
galaxiamilitar,,,,,,,,,,,,,,,,,,,,,,,,,,,,,,,,,,,,0.0007865886709456,0.0019425094289015,-0.0295510185332128,-0.0060869932827456,0.0042934428378835,-0.0119854238286612,-0.0018095763279806,-0.0017093839036861,-0.0008867195076011,0.0002722909500198,0.0049936576137389,-0.0003355469748538,-0.0018963870997983,0.0056309610936516,-0.0175845406798292,-0.0027667740847765,0.0051712900439708,0.0031977853000917,0.0130986528849009,2.0780847895843357,0.7584949462265873,,,,,,,,,,,,,,,,,,,,,,,,
revistaejercitos,,,,,,,,,,,,,,,,,,,,,,,,,,,,,,,,,,,,-0.0055275117304508,0.0407985108346702,-0.0525328490227678,-0.0153085557511297,0.0128054644549209,0.0150107128833365,0.0260784718122529,0.0117718003810583,0.0409065312016849,0.0089299797878141,0.0266715010060838,-0.0114640447060744,0.006523607491372,0.0080399196696347,-0.055619284002845,-0.0024123594646103,0.0130229714763257,-0.0018870377820176,-0.0454172819441592,5.967883966183652,-11.354527065310329,,,,,,,,,,,,,,,,,,,,,,,,
rt,,,,,,,,,,,,,,,,,,,,,,,,,,,,,,,,,,,,0.0175679693587336,-0.0299803482597232,0.0452970102077014,-0.0198935644494013,0.0414465201397339,-0.0315854824012811,0.006843586149778,0.0035367699826863,-0.042632708013343,0.0139694934175426,-0.018214739317752,-0.0413628265584467,0.0027619344061307,-0.0690802708814806,0.0288618741438795,-0.0002472693094611,0.0163078879891401,-0.0070544310573633,0.0085439260454182,-10.943129801998793,-1.984843365528391,,,,,,,,,,,,,,,,,,,,,,,,
yahoo,,,,,,,,,,,,,,,,,,,,,,,,,,,,,,,,,,,,0.0100533990669459,-0.0049865213255712,-0.0092444313895486,-0.0042976458251895,0.0024582534055612,-0.004603614174933,0.0023505245764378,0.0005847722710545,0.0018975345902815,0.0038281609891897,0.0045720071158387,-0.0011227854852685,-0.0068592487535932,-2.8679396460456683e-05,-0.0009824429267026,-0.001631265886082,0.0023921847737785,-0.0052898361950912,0.0032831040779103,0.7611454422465825,0.45306061212091997,,,,,,,,,,,,,,,,,,,,,,,,
actualidad-rt,,,,,,,,,,,,,,,,,,,,,,,,,,,,,,,,,,,,0.0083755949687419,-0.0283569608953455,0.0363683671698992,-0.0188162558062591,0.0285587677489742,-0.008233053792491,0.0095219725604341,-0.0004450415803569,-0.0148928205721331,0.0042313632990299,-0.025465087970336,-0.0287422673330951,0.0044561626971002,-0.0465050580590469,0.0112896299585179,-7.278603913176383e-05,0.0161461268052682,-0.0021236938351591,0.0039177892402551,-6.339031573240579,-2.1002971144086273,,,,,,,,,,,,,,,,,,,,,,,,
xataka,,,,,,,,,,,,,,,,,,,,,,,,,,,,,,,,,,,,,,,,,,,,,,,,,,,,,,,,,0.0010097474053927,-0.0007234566180701,-0.7216120127597012,-0.06305395259125036,,,0.0055860563825229,-0.0037071877819589,0.004071517758992,-0.0027790365646052,0.0056571065972533,-0.0061843690196374,0.0003753586506388,0.0041566429627112,0.0020859328534075,0.0007415725985209,0.0025808997289213,-0.0005139673826691,0.0027504160851022,-0.0058328274994185,-1.2165066215410079,0.30202591189792527,,
elcorreogallego,,,,,,,,,,,,,,,,,,,,,,,,,,,,,,,,,,,,,,,,,,,,,,,,,,,,,,,,,0.0009529609600082,-0.0049756193614533,-1.6852553720235033,-1.0061825901352515,,,,,,,,,,,,,,,,,,,,
diariosur,,,,,,,,,,,,,,,,,,,,,,,,,,,,,,,,,,,,,,,,,,,,,,,,,,,,,,,,,,,,,-0.01058042352129,-0.6914576633412872,,,,,,,,,,,,,,,,,,
telecinco,,,,,,,,,,,,,,,,,,,,,,,,,,,,,,,,,,,,,,,,,,,,,,,,,,,,,,,,,,,,,-0.0130389485360109,-1.3463675526157148,,,,,,,,,,,,,,,,,,
ultimahora,,,,,,,,,,,,,,,,,,,,,,,,,,,,,,,,,,,,,,,,,,,,,,,,,,,,,,,,,,,,,-0.0093022624103838,-0.3509769496587834,,,,,,,,,,,,,,,,,,
telemadrid,,,,,,,,,,,,,,,,,,,,,,,,,,,,,,,,,,,,,,,,,,,,,,,,,,,,,,,,,,,,,-0.0089131970363215,-0.2473364499599913,,,,,,,,,,,,,,,,,,
diariodemallorca,,,,,,,,,,,,,,,,,,,,,,,,,,,,,,,,,,,,,,,,,,,,,,,,,,,,,,,,,,,,,-0.0053444420449871,0.7033201112821577,,,,,,,,,,,,,,,,,,
diariodelamancha,,,,,,,,,,,,,,,,,,,,,,,,,,,,,,,,,,,,,,,,,,,,,,,,,,,,,,,,,,,,,-0.0128438731791761,-1.2944027446190989,,,,,,,,,,,,,,,,,,
adslzone,,,,,,,,,,,,,,,,,,,,,,,,,,,,,,,,,,,,,,,,,,,,,,,,,,,,,,,,,,,,,,,0.0022246296332158,-0.0037759624556514,0.0018518241153682,-0.0016982569439569,-0.0018759912435213,-0.0028636196722458,0.000104860688171,0.0035557808587116,0.003282966034416,-0.0004882711029303,0.000601231960271,0.0003994408421588,0.0016686465420378,-0.0022945718226306,-1.076570019986216,-1.6380422294346246,,
bandaancha,,,,,,,,,,,,,,,,,,,,,,,,,,,,,,,,,,,,,,,,,,,,,,,,,,,,,,,,,,,,,,,0.0020932482582665,-0.0018124104728879,0.001454439766721,-0.0010001696474714,-0.00997455748712,-0.0038853591880929,6.232928091926232e-05,0.003393685453144,-0.0020450865589274,-0.0018549510624072,0.0012483620770716,-0.0002173660070597,0.002558973662172,-0.0022879242891615,-1.9868108475525845,-1.3707946259167894,,
bolsamania,,,,,,,,,,,,,,,,,,,,,,,,,,,,,,,,,,,,,,,,,,,,,,,,,,,,,,,,,,,,,,,0.003421909813081,-0.0175672871137317,0.0090957185680035,-0.0079964329203175,-0.01416430304045,-0.0038219568769767,5.006282635867509e-05,0.0025033449324347,0.0120026418352405,-0.0014155067718406,-0.0002790708744851,0.0017506198456598,0.0026261498615553,-0.0034818205405824,2.5720300270801624,-2.304751307487281,,
elchapuzasinformatico,,,,,,,,,,,,,,,,,,,,,,,,,,,,,,,,,,,,,,,,,,,,,,,,,,,,,,,,,,,,,,,0.0024788268719795,-0.0021017016375915,0.0019499278007086,-0.0016718180407374,-0.00650917019633,-0.005985983969651,0.0025984812532225,0.0088967045644296,-0.0026683789383509,0.0034321952687232,0.0012047180228017,-0.000828579238224,0.0017484712287523,-0.007951277735954,-2.8233153591183333,2.622151397969906,,
genbeta,,,,,,,,,,,,,,,,,,,,,,,,,,,,,,,,,,,,,,,,,,,,,,,,,,,,,,,,,,,,,,,0.0026107096521512,-0.0031760316882667,0.0025093800434296,-0.004379958927929,0.0040731365013573,-0.0028868513910036,-0.000454536623082,0.0039364370590401,0.0005861330102779,4.453943971686222e-05,0.0018395000705821,0.0008754125801841,0.0028154648443858,-0.0037847919813112,-0.3440178280389787,-1.082268616364341,,
hipertextual,,,,,,,,,,,,,,,,,,,,,,,,,,,,,,,,,,,,,,,,,,,,,,,,,,,,,,,,,,,,,,,0.0139076691903608,-0.0020533623540489,0.0030740684515421,-0.0074117936815125,0.0059202956512727,-0.0037073636660235,0.0018986478838328,0.0131044579286254,-0.002932983167942,-0.0009124227530623,-0.0019596221277246,-0.0001872375237352,0.003614935396255,-0.0044723507306934,0.12285316830757309,3.544295561415856,,
businessinsider,,,,,,,,,,,,,,,,,,,,,,,,,,,,,,,,,,,,,,,,,,,,,,,,,,,,,,,,,,,,,,,0.0036666375812052,-0.0045957062077624,0.0055232476567515,-0.0059798784063711,0.0188299351763587,-0.0008320265904325,0.000414226974964,0.0112619934708743,8.890359645046149e-05,-0.0014835938791579,0.0020454899635945,0.0020691115686505,0.0084868101767259,-0.0028680303403676,2.250551363650947,0.5688647657609267,,
criptonoticias,,,,,,,,,,,,,,,,,,,,,,,,,,,,,,,,,,,,,,,,,,,,,,,,,,,,,,,,,,,,,,,0.003159271375725,-0.0028238450380431,0.0037022187571448,-0.0041073796836572,0.0179969619605024,-0.0008385662490584,0.000308652177331,-0.0008090315836224,0.0049711938681124,-0.0045736458093682,0.0004344532214179,0.0007830089460288,0.0021002683273148,-0.0035731078054707,1.0889310061482753,-2.1639999351571846,,
lainformacion,,,,,,,,,,,,,,,,,,,,,,,,,,,,,,,,,,,,,,,,,,,,,,,,,,,,,,,,,,,,,,,,,,,,,,,,,,,,,,,-0.0022815769836029,0.25400426212746363
