story,Crime_0,Crime_1,Crime_2,Crime_3,Crime_4,Crime_5,Crime_6,Crime_7,Crime_8,Crime_9,Crime_10,Crime_11,Crime_12,Crypto/net_0,Crypto/net_1,Crypto/net_2,Crypto/net_3,Crypto/net_4,Crypto/net_5,Inflation_0,Inflation_1,Inflation_2,Inflation_3,Inflation_4,Politics_0,Politics_1,Politics_2,Politics_3,Politics_4,Politics_5,Politics_6,Politics_7,Politics_8,Politics_9,Politics_10,Politics_11,Politics_12,Politics_13,Politics_14,Politics_15,Politics_16,Public services_0,Public services_1,Public services_2,Public services_3,Public services_4,Public services_5,Public services_6,Public services_7,Public services_8,Public services_9,Public services_10,Russia_0,Russia_1,Russia_2,Russia_3,Russia_4,Russia_5,Russia_6,Russia_7,Russia_8,Russia_9,Russia_10
diariosur,0.27086886606847616,-0.2435261672163217,0.02449065120497538,-0.10136508897289614,-0.08581507191241122,0.3489389570621411,-0.010635107893242303,0.006772846639998716,-0.28095324106178227,0.07241944786615236,0.40008333539207636,0.47394906461960074,-0.021540249739352244,,,,,,,,,,,,,,,,,,,,,,,,,,,,,,,,,,,,,,,,,,,,,,,,,,
elespanol,0.0542176192761573,-0.1204112755652301,0.11833612820481634,-0.12754298187545823,-0.0541916684221249,-0.11955576654536024,0.20553414472677575,-0.040525288466481166,-0.04978425707538735,0.10466547077332626,-0.0064983545989442115,-0.024021800785352224,-0.13903460649185145,,,,,,,0.7506768732788789,-0.0671884817299234,-0.1871725209343667,-0.895525042935263,0.47312175630845643,-0.007972110499791093,0.0374792841965699,0.3763004192663589,0.08505898521975701,-0.0146641337196527,-0.08096305459593903,-0.01388972103131005,-0.07015027900681184,0.0046963397638391195,0.04218392245570238,-0.06144501829309294,-0.050540891473010455,-0.12468122616010478,0.12459971095655667,-0.016556588821942095,0.08140433352147713,0.029107438448655577,0.37039166776531496,-0.03036795049552732,-0.15450155149468942,-0.06841244747438983,-0.18354813043891696,0.0900381837385998,-0.1848495167235394,0.02735063444890646,0.11932089938457088,0.11075728586362951,-0.08124215362372833,0.005004818921439521,0.4436824499722791,-0.19599768487066727,-0.13226222046528702,-0.4098709503160375,0.018921830144503392,-0.04381974026613563,-0.48458366626545946,-0.10398204215291676,0.5084345093428019,0.22082869154911
ultimahora,0.2946516954269851,-0.2695614344714755,0.3125854589301182,0.07680586639236758,-0.49990477807982564,0.23993780014135643,0.010207590497231918,-0.18864131148904334,-0.435592096966288,0.10069772673334533,-0.1898298593448737,0.46410137583432653,-0.0359815895847609,,,,,,,,,,,,,,,,,,,,,,,,,,,,,,,,,,,,,,,,,,,,,,,,,,
20minutos,0.07697814704583494,-0.1285247541931344,-0.12161548830174587,-0.11967410655193295,0.3304034014068035,0.3947911618406629,-0.17154824282052472,-0.16368861785346978,0.031118657527662602,0.0660023012974096,0.0266739760249305,0.014759349133171595,0.03189749349880275,,,,,,,,,,,,0.0023829365874856534,0.04210636083060893,0.6503184203952704,0.2501460276902365,0.018997714203116283,-0.10736265772364453,-0.07160893998330654,-0.031509997773939646,0.09628780552426607,-0.4130991996814802,0.9751594151485949,0.9321218268694865,0.2632471157712276,0.11029067576832553,-0.16594994778294592,0.04785217140134332,0.09853888787720025,0.3384233688822274,-0.10940359194090479,0.0022537994968750853,-0.32334839596347204,-0.24381346984897723,0.29947125727611645,-0.12652508282080274,0.3773377915322874,-0.006895460959957302,0.11677337469668427,-0.3525903160059728,-0.007024223660472489,0.4470739694202736,-0.06262053141233948,-0.02150136498713366,-0.3024692786064124,0.11518002071564074,0.0727949039861491,0.38549191447396347,0.47744369976816114,0.08407129297401027,0.37955097467540233
catalunyapress,0.09004917224278874,-0.21464643785798806,-0.12957090596694018,-0.4572691219999264,0.34875833992610783,-0.3634979742145622,0.133418608710167,0.23389740182304192,0.48102743179354085,-0.0523403099758132,0.39955404209556145,0.2594895852032314,-0.09373569850184145,,,,,,,,,,,,-0.038909045890773424,0.0031859052066900285,0.17316585280882704,0.07330208575758404,-0.04086437076268198,-0.08648339091902435,0.020322746153422434,-0.12158303939086809,-0.021188562340445388,-0.03820497695776472,-0.026625710080530968,-0.04333482382630939,-0.02717330733617515,-0.07361787786061467,-0.2870703574789368,0.11280213208379374,-0.03907486093212255,,,,,,,,,,,,,,,,,,,,,,
eldiario,-0.4293861147173026,0.3292501536388931,-0.16553069632240786,0.08122946176600687,-0.013240975086406467,-0.06875035497407556,-0.001347269136148627,-0.055660794737680194,-0.1378990556801603,0.11363859370899863,0.007672770723389306,-0.0835407108133384,0.04599389107854818,-0.2668720332715975,-0.30666003167242606,-0.1503997475145372,0.036213337050699256,0.3028825791903871,-0.18912162590640824,-0.3685559194900396,-0.039216234381096976,-0.00032901732276501006,-0.09876559606611697,-0.18355928439553523,-0.01796126446904656,-0.016451631779934337,-0.01358839861819621,-0.18843182419998883,0.07572254682087796,0.05228712705517266,-0.02318184242297432,0.04863266271029937,-0.040597029335646725,-0.006624806332764759,-0.0030047692500559864,0.006392531404224469,0.009992516727362418,0.002578921168051314,-0.007376768081448894,-0.0030207475503970724,-0.000980822568933956,-0.11360201386066218,0.06864200190390049,-0.03576198703653498,-0.030910756956439828,0.05900000324668679,-0.06445822504534379,-0.02455211325753041,0.09533707193558237,-0.12373163494448919,-0.021972876938016847,0.028601982874767364,-0.0536028469574812,0.2323373245877897,-0.07579604003123104,-0.05341032379267813,0.08933085314676802,-0.03329602182027491,0.30028162743154063,0.07059454146020716,0.01820516511437533,-0.052904992286518765,0.15654330154166665
elperiodico,0.22905306465946224,-0.2330315008306984,-0.13788945693937693,-0.07942846276907331,0.04108891052987623,0.11597068543953523,-0.07514869852847075,-0.17503197418094088,0.056187727870627,0.00013901709490062768,-0.11086159319795537,0.08981996536864952,0.039093879475440435,,,,,,,,,,,,-0.0015836697587779545,0.07065380208841693,0.2753638474316422,-0.0027994707406735425,-0.016858416291006553,-0.05772490307744643,0.14676762368091717,0.09754044586346908,-0.12781370573101075,-0.10596734140929698,-0.06576030443302788,-0.010665172467776471,0.089730236235425,0.06999460258149166,-0.02805128658367801,0.0978447583089655,0.021849744892369728,0.2947113758268699,0.20136330722660675,-0.3633507260733317,-0.11720179908823322,-0.36349031152324324,0.2989588915850273,-0.378146101218779,0.42732802099273093,0.15912870540504898,0.14600184947497263,-0.5370608509175994,-0.10139673462778942,0.05231330349194917,0.18602085336173876,0.1508092589937902,-0.09864219605608295,-0.09855968001974555,-0.009821828565719472,-0.004159622991062931,0.2948709953625711,0.01800776242829711,-0.02401987707668682
europapress,0.13934503183706146,-0.11030287982292936,-0.1279865343661663,0.01757492883957383,-0.03431698960732947,0.010417997668221947,-0.12299527608694084,-0.013277585760072957,-0.04755618513703258,-0.071765198157371,-0.0056611278052991765,0.0019847442237986533,-0.04300782849637652,,,,,,,0.2031082424490156,0.25999241415311364,-0.037785810310777795,-0.5024261827268057,-0.17575862133425108,-0.01575962820152347,0.05147081724167069,0.591934152798913,0.16755196705468842,-0.12756216676741286,-0.07521310127740113,-0.10254169782246171,-0.023558833967973414,0.027366655464517976,-0.13531498396914005,-0.14311165339575788,-0.15676961538294978,0.06478011294953202,-0.07714341344027614,-0.21266563326036825,0.08216624368133624,0.001494969406689381,0.2831685486493987,0.11229502952283966,-0.0542130559001029,-0.1571917663879948,-0.09516060884210323,-0.11973785189053576,-0.075533417896568,-0.014225696227571758,0.25111582385452585,-0.08818633019375338,-0.2285750365986876,-0.24886589641064588,-0.006332577009138654,-0.08654335694862945,0.24953331218943986,0.20128382966023886,-0.2819145379793694,-0.16029447609029626,-0.13476222687845119,0.03990444866669639,0.03328144853522699,-0.03520080132411766
infobae,0.004516122035350511,-0.06827390444339708,0.0469485986719732,0.08007832757795724,0.3217202103817626,0.02437498533071708,-0.4421740288447207,-0.21162780787080782,-0.10603758099222407,-0.30445450494512,0.20249908566644095,0.01922184370931144,-0.21508551589995822,,,,,,,,,,,,-0.041020691157200764,-0.0035732006341299685,0.15717455720824997,-0.11137412985774048,0.14760121792422862,0.027409279883544652,-0.06645207503557743,-0.020173146826643992,0.03552338283991839,-0.2235659242360586,0.37080585661226656,0.5017169478789849,0.10019406302677472,0.16643282031252515,0.0372692642613373,-0.060402200404741056,0.05402148204858208,,,,,,,,,,,,0.27746058603616713,0.636536565326036,0.0540867327148363,-0.3109714808274638,-0.5294808929174968,0.13685627204758496,0.02050889201576625,-0.01598878161122791,0.12317615416302637,0.17313367689711995,0.18875464055685512
rtve,0.04055399963410804,-0.07566175055027526,-0.018593244722066464,0.2746861750624161,-0.03834269049082194,0.011943101337952941,-0.6539180137014424,0.0402481163745354,0.026347293107768576,-0.0307795176313688,0.28641361062061454,-0.28032229261427977,0.12005319139063905,,,,,,,,,,,,-0.0018069964706568353,0.03279590658560738,0.5136616509818658,0.2980047174186293,0.000986870585588609,-0.034339028861504604,-0.16331891776538457,0.11758805871883635,0.012971796639246438,-0.3579045062169426,-0.2736762299420551,-0.13905700955402364,0.3474696387477725,-0.224849407190683,-0.36559188848288543,0.14519636462464153,0.06420780219319307,,,,,,,,,,,,-0.050104769817650864,-0.036271388135437385,0.39697263139053524,0.24625586543744174,-0.3896424192901299,-0.2841983818475486,-0.02292929729710741,-0.01473153421150644,0.2148954676357643,0.060597544351628535,-0.1255176324984397
telemadrid,0.36309795051556537,-0.21902063062204713,0.10953418052065503,0.129323974045519,-0.004890195679947432,0.11057472221758925,-0.13535459146684772,-0.02837776751944642,0.4688560899800297,0.09140634929360958,-0.3133570996705509,0.1462430335366277,-0.6649484969854896,,,,,,,,,,,,,,,,,,,,,,,,,,,,,,,,,,,,,,,,,,,,,,,,,,
twitter,-0.4409627722904854,0.3295899141795176,0.44592237758664716,-0.09429440892231102,-0.14336269599505957,0.22577547827511377,0.061140181250205164,-0.09551961665794724,0.38002761414767045,-0.2573515836861128,0.0015019846090824282,-0.07331960888356517,0.025327560088935733,0.4114131097449517,-0.1195277780693528,0.7700966817187769,-0.7526597175542915,0.18035648007864596,-0.09098603399195526,0.4068537987741945,1.2278612630856194,-1.079694411806072,0.23397799300061384,-0.4385075290375434,-0.08225870670950756,-0.04564318352605603,-0.24618119157198673,0.16419442898766815,-0.13899975095978806,-0.03606467442479687,-0.05793089989050221,-0.17100698243482576,-0.0028930400738478787,0.0011859246763250477,-0.06446708206503368,0.0864533038631797,0.013586666811897777,-0.05221477061038576,0.061238063662477256,-0.07797260611493888,-0.07391497114430498,-0.26078959227511866,-0.2584662525602582,0.303913064279167,-0.04376870035060173,-0.028090524068468,-0.07660943647562046,0.01485156845785919,-0.11061099419483615,0.2697897771957213,0.008241317386629391,0.03990524999321559,-0.17886005674866834,-0.26155755083989035,-0.0678674784821562,-0.21860394057345117,-0.04183015059132386,0.2859072469935111,-0.2501864008874171,-0.02944538286542471,0.07714025526544849,0.09359815004780991,0.03623643380305269
abc,0.07096325253710713,-0.10625649994525635,-0.003250199378018173,-0.08720765050790606,-0.03388444248701673,0.03697768737628789,0.09319740698105095,-0.2879507893476734,-0.08979797460153335,0.004631438664092671,0.15038836903928543,-0.1060148308395013,-0.07514201114933072,,,,,,,,,,,,0.005801745370628242,0.019078008640230883,0.5179866248172235,0.18326833404009388,-0.0008500886240547477,-0.13967475541220417,-0.06771971495279173,-0.10610004847600471,-0.006030984474851441,-0.023120269138398465,-0.1396722134291507,0.09690583853661308,-0.20747260221705435,0.3019651770174687,0.17097600838420773,0.355171287917995,-0.01907900646188685,,,,,,,,,,,,-0.12556920705490182,0.18970369546215232,-0.23536147260884488,-0.1299543286223875,0.13666715178863953,-0.09213470201714694,0.17738460516011492,0.06099007989355759,-0.06042329727606174,-0.29607522556410804,-0.031022144206263928
antena3,0.08927593324237208,-0.1467921446517739,-0.0642783444624645,-0.02161283430177313,0.08628408611718756,0.11745902750886525,0.1276647802380598,0.14772284070231,-0.13593193696130987,0.1593130384005846,-0.09817416613497473,-0.18116018614381296,-0.14253413036526993,,,,,,,,,,,,0.008175283767948778,-0.0075813948626134095,0.29936671751778215,0.09406168201550504,0.07615532202219158,-0.06284734353170177,-0.18601151767496402,-0.14481580885301223,0.008458471254269549,-0.03430723980807431,-0.11336654659364906,6.519832070207149e-05,-0.051601593874260845,0.17568527600668093,-0.12752932982901127,0.2155172239532948,0.022406962822535993,,,,,,,,,,,,,,,,,,,,,,
cadenaser,-0.09230399990803817,0.005903704121392841,-0.10900002860120725,-0.04790390432388868,0.041847171634447164,-0.0989622532650723,0.12867041933705486,0.0199311784260292,-0.025947839523460067,-0.049752752054437174,-0.16885172236292817,-0.05786000445713792,0.2504388481073946,,,,,,,-0.24050692438681184,-0.07926665337009314,0.0936719300452081,-0.09679955528509397,-0.13079080702858475,-0.01730098771020053,-0.025917895323106004,0.020158218700922777,-0.15835190430380225,0.06988439034350333,0.03105560463890819,-0.05797973182451733,-0.010723027020068197,-0.03284608855097717,0.03793717126132574,-0.02890161135620804,0.029833667642494455,-0.02401613230097672,0.010651577606125603,-0.012568000740748039,0.01032248042969213,-0.011590088779243515,-0.1621831106406021,0.07235538616650602,-0.14831829654440068,-0.05944127520779585,-0.05281939546627378,-0.007315400557756204,-0.12797587765550913,0.08770829779580504,-0.028521012194423004,0.10280191371068614,-0.16382261957415867,-0.06150673626734767,0.4199791433415581,-0.3592612823210317,-0.1078835174321289,0.14323243857331527,0.10776302870041253,0.04360627640242684,-0.2654868932850124,0.30295646437481205,-0.49633752600223235,0.23545504366883963
diariodemallorca,0.5216392665485514,-0.34596828619158804,0.09334595867701213,0.25382837282081894,-0.9304624820147948,-0.3014579275057075,-0.9522352462811902,-0.4783100373531999,0.3501623092702234,0.03384264673078137,0.36374528643073384,0.44365878687031457,0.7687669864834656,,,,,,,,,,,,,,,,,,,,,,,,,,,,,,,,,,,,,,,,,,,,,,,,,,
diariodesevilla,0.16066612147754916,-0.08536572688660331,0.06043505287278751,-0.007486811511353103,-0.10494190083239016,0.10374625243521364,-0.09005885092697291,-0.0540457677246636,0.028866629670192254,-0.06799912912726844,0.10441643243696515,-0.1150805427552236,0.12684356588845827,,,,,,,,,,,,-0.0019188475903720924,0.045060316604816214,0.4941934198830409,-0.07159269284135208,-0.0299608969083862,-0.06708453054288295,-0.07535577844769467,0.2022901136442154,0.004760857829148353,-0.31699740739282334,0.0911955551190869,-0.06744879637175841,0.12551198095907076,-0.09496762015427036,-0.029327976910021324,0.04692435501673483,0.03487374004577255,0.2549746051361374,0.004510729011986736,-0.15115193757490053,-0.1255485694517016,-0.1468570320730797,0.04187771760723587,-0.12230921195460165,-0.006008116254422969,-0.12632774674696493,0.19535554070336358,-0.18583205392601476,,,,,,,,,,,
elcomercio,0.07245136903706763,-0.11293403669292107,-0.24035208967329194,0.05359281414116569,-0.04187280549011244,0.5458776571961723,-0.3445347924375447,0.570330118380865,0.35467959443859237,-0.009647008127792083,-0.32592811653636306,-0.03614932907111815,0.1996523906675205,,,,,,,,,,,,0.002798330884025215,0.0789018154810764,0.9049569435137788,0.25195526312639505,-0.05825366035767136,-0.08863356524775276,-0.16123070428257044,0.07490714227872192,0.21257760080303595,-0.568719498363951,0.37124456489559365,-0.2442950814722229,0.14494473453165402,-0.4842062038154046,0.5144405457884078,-0.20018793169051863,-1.0854215791470656,0.13026328041043045,1.2437697109797567,-0.5109686649068412,0.2107524524239158,0.2011647594834053,-0.32715423886087364,-1.3542706654113768,-1.6811051401229338,0.11028002232207659,1.2353150440414844,1.1898975548390527,,,,,,,,,,,
elconfidencial,-0.05570610569725407,0.054441922660453494,0.045002193895433494,0.047426343751448365,-0.06695752654448511,-0.21175834951006497,0.03009455272027913,0.3271623734116675,-0.10859384768755725,-0.2232385532431621,0.3521892927642562,-0.00416811321637892,0.31413282420955946,-0.40515519710543796,0.1592743343563201,-0.2516610551994133,-0.2870408891011236,0.0407370625859927,0.09533265206492966,0.10868801166657291,0.12281118955273189,-0.12030437867948188,0.029366489670967916,0.5507514755134721,-0.011682086546707993,0.02836559928091558,0.3621911095016087,0.0559715228333157,-0.0250812499527583,-0.06041206451261016,-0.06045022995500777,-0.029151470016873123,-0.0010265320101027972,0.08579514645034779,-0.04521677988694761,-0.01796880102589888,-0.022565889470710993,0.019065154617057985,-0.13879081777297927,0.034939319296023404,0.008312923770090306,0.39973317372739536,-0.1627437103266734,0.05471467611970281,-0.2943114975816561,0.09306663848577337,0.07979876892727869,-0.009792288797097155,-0.33771052165002924,0.13472075951862186,-0.4487566351176875,-0.08252639353434336,-0.0868128161273178,0.19983199145588976,-0.180558884272264,0.022856438671255665,0.09999490842153315,-0.027063807705514795,0.10733609296692977,-0.06902443757725589,-0.2439725024722889,-0.1492217572313483,-0.11626081206264435
elindependiente,0.04472805558643275,-0.03134847598151152,-0.2194604019737204,0.2988956063061826,0.06515193917521922,-0.328775957920694,-0.06652960238335742,-0.25737484930079146,0.18249547931895357,0.07314990134709566,0.11018827539987351,-0.37765795343576425,0.045252405511843764,,,,,,,,,,,,0.006084075954409496,0.02197357148430769,0.511691512593992,0.10377259843700466,-0.03440507203378353,0.009456015134004507,-0.07289090065630399,-0.11056631153448519,0.02026045313527296,0.11032057219359809,-0.04600416172962245,-0.0580347038207207,0.08649136748526023,-0.04290198162425311,-0.1734806220679347,0.09376033443465019,-0.08551049156590006,,,,,,,,,,,,,,,,,,,,,,
elmundo,0.26742076608623977,-0.24953445251599493,0.15802026471963415,0.07428048996967919,-0.41343708195590184,-0.1855387938198712,0.1008318336696684,0.33895255836029053,-0.10697371824034396,-0.046867999787185775,0.00025769877084577675,-0.20309842418881907,-0.14272641353155077,-0.05387981765928792,0.02445720110886984,-0.2117891475263798,-0.27302756716444465,-0.2062265864955611,-0.09431200321241234,,,,,,-0.027022051566129853,0.02158501778354485,0.37025457471607,0.13283131801366083,0.047374253305622165,-0.1286820837263477,-0.13863791666538525,-0.11319373760614673,-0.021164132438428237,0.024883523460683427,-0.13614978490661567,0.11418053050162674,-0.08785857621059236,0.09879946984301485,0.09672200871110648,-0.0717800671752524,0.08757594345453865,0.5724383439597684,-0.0926815962046923,-0.034985579453167645,-0.31849054346316324,0.024129164008815866,0.0543071871911915,-0.07001434340018091,-0.2599854123143317,-0.08169256537023062,0.12429150258768262,0.10731827429312132,0.07053477467447976,0.3317336597687067,-0.16801989235717965,-0.28598013131206873,-0.19119161411945507,-0.02079176233178188,-0.15946253928952356,-0.05359702166474185,-0.019703047325936154,0.11956065917687485,-0.5732423201224304
elnacional,-0.011012426230188334,0.06219685323765263,0.04487958695908552,0.23283229673466121,-0.21533957831174452,-0.1813612852746579,-0.044623075657555064,-0.4525356916663905,0.19267942038923594,0.038576670996118244,0.0022758176958786822,-0.3055776725890048,-0.3088974816027691,,,,,,,,,,,,-0.03426222393055143,0.07300645616062582,0.19488945286010753,0.04654274070082947,-0.3004167027696853,-0.18679417626516062,0.6334060339306291,0.3039604691232379,-0.3952423592072678,-0.015280667628975257,-0.10598343703874841,0.15493787649334548,-0.00884285168660557,0.035650607708706566,0.015625180815707393,-0.0499520788934647,-0.10290073482299407,,,,,,,,,,,,,,,,,,,,,,
elpais,-0.1203590176157604,0.0760356844846019,-0.19393132237787894,0.09938606161775604,0.18704961760152938,-0.12778738749148805,-0.11978287652447034,-0.09542508917317336,-0.17375626730820726,-0.29971419177241204,-0.014578148118626998,-0.006425108687185236,-0.04996910643961581,0.18494551765179099,-0.19881140739062347,-0.04290658601186046,0.26120810602836725,-0.08269086471214102,-0.54612733361045,0.04804019195847099,-0.0025155671852359557,-0.028841281435031542,-0.0103766219116452,0.17051060397870474,-0.01978929357883676,-0.004593303442577844,0.11654035058263802,-0.08629017526419254,0.06361031274088157,-0.005250485647333904,-0.030281274720520876,0.014188065986050187,-0.04020730072112948,0.04391378408475961,-0.0583370644919418,-0.011655122036919194,-0.07020164902988878,0.0339041860432725,-0.040771351869052605,-0.005793597160812125,-0.02997248863829076,0.20327327722058489,0.05148243714741493,-0.18167310597145495,-0.14379908199457841,-0.11502751396956212,-0.17321940227666438,0.09395093631899348,-0.07988952401242386,-0.07166645535367226,-0.17326265020184,0.048616803291429485,0.018768125141414075,0.2114669783713765,0.11339787089471581,-0.07163070930002367,-0.29953345289599587,-0.15874134237817877,0.20572493597823904,-0.08862242633195223,-0.183191620470534,0.3577467314377561,-0.1603099792504378
elsaltodiario,-0.6059380726966488,0.5166978420225596,-0.07949227761834647,0.11225913424792133,-0.12448494615107494,-0.016336827218291352,0.04969028838376756,0.08167673190611253,-0.20068231880155696,-0.34156218715871906,-0.18451520176059233,0.5505965456460531,-0.23380639883701027,,,,,,,,,,,,0.013924582112293749,0.021875282356618658,-0.0168869116103814,-0.14883360708817295,-0.40943900721376025,-0.03338002583507222,0.2536839516859225,0.7294395485304841,1.3969537828158236,0.13863327670905318,-0.3348873636313474,0.3337270341669677,-0.04114349447419981,-0.025347259553055168,-0.02136732818095303,-0.030400864169543535,-0.016025753433705436,-0.359227414664568,0.079247882728774,-0.3284097295756658,0.2602389396374033,0.020908094670370053,0.6589467285609781,0.18044516110124512,-0.14218269045499984,0.07521896037704184,-0.04938221086601273,0.057325353390849,,,,,,,,,,,
epe,0.14329130473919796,-0.04866875366684686,-0.11077637698993337,0.28014237613396015,0.16896899139083338,-0.2277900841635685,-0.26849235964129037,-0.11629448637147694,-0.03366287669056894,-0.09379387982431085,-0.12151234507119933,-0.2716028368072832,0.004099481008720636,,,,,,,,,,,,-0.009488087991330628,0.1370860124796874,0.09073165352207065,-0.18895401356640917,0.005877184385392425,-0.012023297191991744,-0.025860812440311246,0.062339896877788355,-0.017627916612105672,0.08947048536841441,-0.013110865416402865,-0.07534793843988039,-0.06362782601307322,0.0069360556613610215,-0.03850402468210821,0.06674655999992686,-0.05512429145420317,0.10154762854462289,-0.14966852722822566,0.07664535799668173,-0.09082501360377701,-0.08439692660101838,0.06617763904942571,0.030163931298926895,-0.013494275215652765,-0.0673884888333065,0.03973082200067767,0.0001891688702482918,-0.14786777999298048,-0.13806606353960016,-0.044716896618430646,-0.07948361488833834,0.1859249409631029,0.01932394160286538,0.3894174563252906,-0.1807570276533154,-0.08772137393181392,0.5289157581111639,0.09540889455293577
heraldo,0.2883973575206394,-0.29514840413925336,0.15347441315750462,-0.2119825160793037,0.12130970389270737,0.5024408549447787,0.4918210231088424,-0.26075175079466495,-0.3468867599027849,-0.10635605466676133,0.11515101839340412,-0.2776717702798909,0.31534445367347375,,,,,,,,,,,,-0.02116563293398655,0.04465142890115581,0.5171324915133393,0.13243216234954658,-0.09971970155382755,-0.14696808422173266,0.017956578947355507,0.098152869757532,-0.03587738586284262,-0.2850074424746979,0.2848918492357931,0.2396069354289886,0.10050844006605716,0.10766726019373668,0.05745532861594021,0.07645058841989731,0.13334093372222672,,,,,,,,,,,,,,,,,,,,,,
laopiniondemurcia,0.1073534731972708,-0.10553362103616615,-0.07330726774632412,0.12368156468201115,0.18888535034601306,-0.27656331106869825,-0.17573224358580072,-0.06039683110411509,-0.016517538702053282,0.3474188978056135,-0.6701011251637123,0.2564371015147265,0.04273613758612489,,,,,,,,,,,,-0.000543730124980665,0.031028378719469417,0.36182617954000057,-0.05914959864723558,-0.02363333468717793,-0.049436998140297075,0.004622360002089305,0.12599506718852746,-0.05759553655329362,-0.10877688945490306,-0.0461597462916369,-0.11322750972170881,0.13704053817963235,-0.01129187993769189,-0.023927352708093305,0.11379671319358813,-0.015359791088003692,,,,,,,,,,,,,,,,,,,,,,
lasexta,-0.19744144042816664,0.09442151867379173,-0.1504489142165446,-0.039377484852542645,0.03924143401374036,-0.011305882126108682,0.18423342133508822,0.03934291037575297,-0.10884061564807071,0.2037139509419726,0.22019991880301074,-0.039398657261952706,-0.00503557831586459,,,,,,,,,,,,-0.028627126547653106,-0.018920179945559612,0.05721127522260864,-0.055826668249839166,0.07457615357875443,0.01835140494617072,-0.04406842064078125,-0.023393807598041924,-0.03750974304003307,-0.0064446311812394325,-0.051778285805515,-0.03609181138384487,0.058243212959113035,0.01606435933238899,-0.04329305497753078,0.031539418067953164,-0.015272168691280457,0.2978284562379646,-0.21828008047690922,0.1428716859268201,-0.11385240036303723,-0.0800465238495956,0.12523658895581935,-0.18645535849425993,0.1086006963278891,-0.15979892784231622,0.38205929556539736,-0.1085126500867487,,,,,,,,,,,
lavanguardia,0.20105937059641196,-0.18503323450630574,-0.12755249468794153,-0.09737553865490299,-0.005119387238876749,-0.2502746186166467,0.025423787687764276,-0.08204240698330803,0.10316467353006425,0.026348929817415823,-0.05251592997082935,0.12603668338788857,-0.15868467187800134,,,,,,,0.19423700308025094,0.14455451521936796,0.006532171919699698,-0.5751907127075777,-0.13046068080654613,-0.025686508402545175,0.012812699250783353,0.23412097411051636,0.025670987739819056,0.00031687559822654067,-0.07087424998617696,-0.0217991571598085,-0.022073888677037683,-0.03561041068190342,0.032597898120783876,-0.09583526752197374,-0.001326384552121858,-0.005281160264324497,0.03487529055864352,-0.06746508962487985,0.07328406231820743,-0.04975513981441718,0.18099398471231465,0.343222745654155,-0.2413762513996479,-0.09140349745608917,-0.1465524312690242,-0.2694116303833085,0.11272235841616772,-0.22516648737321798,-0.07678366305142667,-0.21807699756678206,-0.10113019451189789,-0.1796987163506511,0.2553229342539598,-0.3335299582931515,0.01086862169446427,0.08806036369551276,0.006097619332686266,0.09171627948912871,-0.40952844686909723,-0.5091330124825364,0.13542196749299554,0.332496311349178
lavozdegalicia,0.256050165108561,-0.26259720627014765,0.11644539218631073,-0.15858257290526553,-0.11165349928757927,0.17775783884079485,0.1485766063035292,0.1260895007406193,0.08050099166543956,-0.0434972668407429,-0.2597846156275844,-0.005802185530586368,-0.0646549774954377,,,,,,,,,,,,-0.013817542646716186,0.07636456824426481,0.5716381029671854,0.14361885984514342,-0.0709985267679912,-0.09505457137159604,0.03745395654058149,0.10762512581591434,0.030802396725808482,-0.28072491301230257,0.4074027689286825,-0.27082860218736154,-0.2501223618511446,0.10045801015810399,0.005293676678539796,-0.6291212514331915,0.17385362211001104,0.5330620551081164,0.8680897204543663,0.179448074959158,0.008599455538849707,0.45416792101391656,0.15427150034017434,0.05392278291774765,-0.29409080316630026,0.33657747189876547,-0.1950819384573943,-0.45104116342373474,,,,,,,,,,,
levante-emv,-0.06757844307063506,0.01658922840860743,-0.07960423734606506,-0.0778368395723317,-0.05992381644961581,-0.019608843333910796,0.06394832719022682,0.038562563125405576,0.2554745256030556,0.41465920832293623,-0.3343394943994803,0.14286689277558529,0.28345859114314587,,,,,,,,,,,,-0.015311012189695708,-3.4203581881232065e-05,0.17056972574942264,-0.1767632778584876,0.10362904297605602,0.047050160241416596,-0.0068220324921314385,0.09304347524890065,-0.054818913647439856,-0.0393182212601179,-0.002755816347222318,0.10456394589166798,-0.059154000553732156,0.11624361931362205,0.09888558521804883,0.10123232904698543,0.006576201081490171,0.43043548904287726,0.20552095146752047,-0.1896665768877141,-0.30623194215960897,-0.47548868600851,0.27816203869736744,-0.6125888813433087,0.3315595866732465,0.05729853699923354,-0.8234541647691656,0.8244291812355462,,,,,,,,,,,
niusdiario,0.05118379606476861,-0.06010398298722171,0.04866710824285954,-0.07678953207935083,0.3214555219136307,-0.027873132980571088,0.005074920431638149,0.2021246947367546,-0.026677838078705593,-0.15266688133303824,-0.09595922417402164,0.024962952921309393,0.25114424030425136,,,,,,,,,,,,-0.020527395576520953,0.028796303431256182,0.5043824138536702,0.0468535001086741,-0.07367629171050837,0.056123902801250104,-0.06368075230849839,0.07830724020512037,0.039188323032838784,-0.017204638476758623,0.12195103073286631,-0.17363037078647992,-0.04346876281007113,-0.059785689625788965,0.07257871663941336,-0.23994060057727118,0.02680614154535236,0.09795974886022188,-0.1872419654665735,0.1604377100166377,-0.11720349363917656,0.06511926370179025,0.07197367757379301,-0.023560185991660303,-0.037615197841295626,-0.13969488866977853,0.020365662697587404,0.048817251197044,,,,,,,,,,,
publico,-0.43697259299365065,0.46229450111386494,-0.0069480984745397285,0.08571933944661854,-0.10214696918255013,0.1836390924469377,-0.08617955187910277,0.23574204623676784,0.019163524263300313,0.61549493866309,0.2943575303913296,-0.02544426024547672,-0.09597967694147629,,,,,,,-0.3752035182043786,0.3219008430225378,0.25373227787377756,0.04706192793721351,0.35230650281672027,-0.03300959016290114,-0.025678764933611035,-0.12097586669100041,-0.16240678716771362,0.03594663426414969,0.036380185109976274,0.007838804324743655,0.0014716388373045403,0.007697612691191615,0.015369270537468773,0.027101501697227602,-0.008663791329201555,0.03220782792517479,-0.009676838252591446,0.025544710866073784,0.005344246544279064,0.02981618873591028,-0.18811145766884374,-0.09524102146380765,0.07795351005850101,-0.019448377396482787,0.010313609390419896,-0.02604665012749384,0.0073999600537251005,0.0728640573224733,-0.11647343007492622,-0.011340391371121129,0.10058708888096272,-0.35200375970660447,-0.24107405662075776,-0.3077657610481324,0.0004540511766160009,0.6031674812411657,-0.026431326428999435,0.2560715292274891,0.24874223591435973,-0.05107712367495193,-0.055248117323218056,0.07143801567122128
telecinco,0.1813953733767681,-0.13557638212532638,-0.13216283723388406,0.08095617583514224,0.08839791054331007,0.05633263954379612,-0.12398980669799994,-0.18395985115336339,0.18241222969704618,0.06131474525495187,-0.023888079144676496,-0.08042083741237704,-0.26303226164382787,,,,,,,,,,,,,,,,,,,,,,,,,,,,,,,,,,,,,,,,,,,,,,,,,,
youtube,-0.08458793760407392,-0.03439073790962626,1.6837490860660096,-0.10371649594024296,0.8134640326120124,-0.48969012435937925,-0.6053535148810053,0.0799114709110969,-0.45788577789982454,0.32214997879432017,-0.13130045524382936,0.031088020778846363,0.0341559428764112,,,,,,,,,,,,-0.07889057334083499,-0.03963555579415339,-0.3428596159856303,0.1504579609548396,-0.2796134010020845,-0.06216215271824417,0.08507574108417261,-0.08967076005459348,0.062123024202641354,-0.03888024680639067,0.17732648513396876,-0.18483280665014576,-0.006998144809360275,0.058374754074459786,-0.11098638624755301,0.14668144074947087,0.119121494816165,-0.22511624399285476,0.02442263460885989,0.07396280528700948,0.14773863500224613,-0.06281892665985347,-0.07708876394803396,-0.02867064912276334,0.01200965724092528,0.38213311581201287,0.14963627065398855,-0.4596554893076668,0.008049866784253061,-0.3088910526910452,0.19496306903441243,-0.12495341964630205,-0.22971306318969237,0.022776683849639094,-0.002734446686410013,0.3684350857737182,-0.3176345499554438,-0.1864051126054244,-0.053941942562176784
bbc,-0.11171022866584111,0.03043421002694393,-0.12627708826472486,0.05321916330043298,0.33821951773981906,0.31660035117756624,-0.35806396424708636,0.08666524038371234,0.045561845076994206,-0.04504144462795288,0.10268166942826534,-0.061304523638420504,-0.5274315863163794,,,,,,,,,,,,0.03262035216162118,0.016284935190814906,0.2927965618355586,-0.059301928552198346,0.1527357675608347,0.014706186820811113,-0.004911821528764811,0.1048975498920521,0.13905509286908782,-0.03802614039612265,0.09403148534245083,-0.05381176483645939,0.13810715290117498,0.09425272878352417,0.11621013544956912,-0.06694555315580199,0.22482509369306294,,,,,,,,,,,,0.04042312698973069,0.36532766546981493,-0.13032266264746448,-0.12143083801447951,-0.06987782388352966,0.07614968763733265,0.5182681031188877,0.30407032225485203,-0.006274955559881565,0.16185219697862963,0.15919970589745797
diariodelamancha,3.611856312437453,3.636414660025709,0.028256046098555747,-0.2808848491970887,0.11522910799805597,-0.043150522696323926,0.09829308806522988,-0.010440123808228025,-0.01277844508748895,-0.031875005150229174,-0.032776583796637525,-0.00466187887901523,0.03252964811374414,,,,,,,,,,,,,,,,,,,,,,,,,,,,,,,,,,,,,,,,,,,,,,,,,,
lavozdeasturias,0.2835728611552254,-0.14850736887446667,-0.16903274426837792,0.24181425464167958,0.0067703603541032584,0.46939523730336263,-0.577082934802884,0.834250209834936,-0.04902038625190683,-0.25105205482905585,-0.1211809834387007,-0.36943194058059214,-0.1802576860196481,,,,,,,,,,,,0.007599977978462555,0.07915458350916289,0.46074562771073946,-0.0034644373395889506,-0.10702137637738089,-0.004432613995166696,-0.07190422379852848,0.15869987203284752,0.11831649460927995,-0.47819838052162156,0.19334676418012325,-0.474127476339026,0.07260720866411445,-0.08699286764535373,0.46401121961121755,-0.12911340900488386,-0.6258060721396381,0.09623460147759891,0.12711322129776784,-0.12119817525186917,-0.187087183049382,0.036029159112654356,0.139727167830315,-0.5493635903787973,-0.13907290196546773,0.06525673968533696,0.597998628803238,0.17165770592163462,,,,,,,,,,,
vozpopuli,0.568532892480583,-0.30621034790244184,0.33404124619191206,2.145171651163034,0.608061849530213,0.16565898656368255,0.8324196372262399,0.058331544457695214,0.41944820239179037,0.03495053807325696,0.2270587650300318,0.3760458137650492,0.13080087019869283,,,,,,,0.5985134611003892,0.7797369564825256,1.1942560850861614,0.6470369992959863,-0.3564681479070293,0.004068959983188951,0.06073926491616776,0.8373798901965617,0.26733256626652074,-0.1044459088729783,-0.09533576851546634,0.005461595693771226,-0.11491285673840854,0.08678109551029291,1.5851546382654935,0.48148896234511557,-0.22291162442878787,0.6965734438796756,-0.026118116145901007,0.21174854938491244,-0.18946600401006147,0.0021335073908953714,,,,,,,,,,,,,,,,,,,,,,
000b2b9c728a45b39d4fe302df79f591206d2247,0.5556487799639673,-0.6344569994989124,0.5134820803085323,-0.3358934235719381,-0.7286966918357775,0.671206114901655,0.3920053805981625,-0.26079901118557713,-1.129625050469348,0.47157681539011786,0.6367931201254912,1.465386782118583,-0.38834083894939186,,,,,,,,,,,,-0.12645473969251866,-0.04499423972085186,0.261270055376099,1.1690724103350443,1.1461263550836778,-0.12026901791983435,0.18411461426549056,0.3221709951464487,0.02714943111879737,0.5016775718695776,0.2819475177579822,0.2719903241781136,0.1738757605338383,0.03411915658261565,-0.1634186023007915,-0.06533109501473165,0.11555262680799552,0.15153653536264133,0.21193649661076958,-0.4609227204248562,-0.38653012472997283,-0.13381458526647935,-0.6030795642460487,0.1827193540456343,0.0415046762796845,-0.5327873318462513,-0.5450425407267705,0.21994670502725783,-0.06784422947047546,0.10944547479265983,-0.15379127178385874,-0.48342362711022113,-0.6232969136948415,0.3846576816488741,-0.03311151995934653,0.12826738803197818,-0.17619299263007948,0.6516627243403201,0.09254458631942379
003c8dd146a994d2a322285f2ced831235162181,-0.03093928247096958,-0.10926180107714585,-0.005844931803149127,-0.21059399085335034,0.5949723508841148,0.6915709943052271,-0.7016163261022231,-0.4133843079499004,0.6437287172212326,-0.20130570687983965,0.23615401589140708,0.02698075991576507,-0.26490125704370737,,,,,,,,,,,,,,,,,,,,,,,,,,,,,,,,,,,,,,,,,,,,,,,,,,
004f3d20a8e743a73c5c0fd4b92e72cf8c20a972,-0.02664798151102286,-0.08959945876746507,-0.03251112959486266,-0.14034022755671588,0.037465923644114135,-0.15861437309390683,0.03135276301030142,0.11794471697919168,0.07938272613825782,-0.04104055423775471,-0.0137044334809827,0.1443369613474453,0.08748267777419644,-0.024744051946310415,0.10644381749484196,-0.1762045840886566,0.04931655077668741,0.10872621903071791,-0.028857682803817782,-0.4545717664920941,-0.21091558959112536,0.11735957488285617,-0.2487335944840923,-0.12885711434655253,0.0008816553527585195,-0.030239992290160687,0.009628084243342003,-0.12733283948185312,0.013784864701669832,0.11322142622763658,-0.020511517327013253,-0.012827578173091261,-0.037840718020072786,0.0009903695614513334,0.0173250668850549,0.05096486650156386,-0.034390597201964995,0.032274071466474326,-0.017596041382454818,0.01151590106104481,-0.053443483669310024,0.11971907345937546,-0.22056977487869606,0.09832595966103203,0.10303320853586277,-0.18451346704825064,0.10439747245362667,-0.2280806235257954,-0.008821982652217493,0.08308180382958648,-0.08186934939720104,0.06418502435017771,-0.22024632717472845,0.26234418271225324,-0.3512420131763219,-0.01345422444237434,0.09174738630505097,-0.17900687516346048,-0.118768562841496,-0.2708169543665224,-0.0026469525217887348,0.15201956328703772,-0.16228365602071895
005176b0bfd439e2d4aa0db31dee9318aeff5c2c,-0.15509183602510274,0.005248155322927334,-0.007199877263458227,0.04672070382966731,-0.09688290647850019,-0.802219781127229,0.2565626946697387,-0.09716595682292144,0.6850214688476394,0.005956759746555201,0.4742882529219437,-0.6751670686294082,-0.16595929803453963,,,,,,,,,,,,-0.11911767773686087,-0.07435864103847258,-0.2112821993651593,0.011162096516623903,0.23085182094319748,0.016760685106728693,0.024358839134791067,-0.2289757900965495,0.004164601143790186,-0.07284093967170996,-0.03496749931697538,0.06488067296164544,0.03807479858788775,-0.004371078482801203,0.05937881243452331,-0.30574193631477403,0.024300539424737696,-0.37000955694283,-0.1611729128523542,-0.10090515446240554,-0.03128544677800481,-0.15851998119328176,0.0517173214940083,0.0026478015996534705,-0.0018480857554570881,0.08858365996532072,0.021513205434183016,-0.06776148534355621,,,,,,,,,,,
00595df7f1fea5879cfa94abb5ba2bdb9597e40e,-0.07724237109864422,-0.02837518971941393,-0.23740302646219982,-0.026223260289399256,0.25058917193450403,-0.09761750855418107,0.08815516099084104,-0.03016056022078157,-0.25710228399515217,-0.19973731524724261,0.10995152002687703,-0.24435504717798473,0.024002086557925448,-0.907415438296537,0.19040106446572957,0.43794537988773413,0.39930153795175083,0.06984101891987371,0.34039596299622593,,,,,,0.09099450164557314,-0.014810011228505143,0.3139428624406242,-0.053414189422542446,0.053066143426062314,-0.12850870794707706,-0.07391152327378556,0.04433619144280115,0.13223923738065937,0.05718416797140077,-0.07928925677278996,-0.09464731169007058,-0.2535390560450556,-0.11096010949321876,0.2567683081550459,-0.5131527307022534,0.5647429840776639,0.9964374865170671,-0.02746320800581359,-0.007014440496429151,0.5357112686769585,0.3045446864244096,-0.11331907199295943,-0.009111309619872965,0.1783700192391008,-0.08166451267754112,0.02979625702648165,-0.01732380812624591,,,,,,,,,,,
0078efb4fc3829c84a36ad622987e8a73981d76d,0.1521052602896728,-0.12246243842529175,-0.1114948886292345,0.17236376778002968,0.013240398477904668,-0.04580625656513554,-0.13410602591731752,0.001477875827575692,-0.006785584692957241,-0.004802147624366234,-0.04176447077858177,-0.04217786324996893,0.0180874481592334,0.4291974528510293,-0.02274544746133048,0.010358529178394686,-0.01757350277580762,0.19485203038491636,-0.018475198926002266,-0.04067746838599258,0.10958133072701635,-0.10711298339774816,-0.11833252716953263,-0.0582523922202945,0.1418280028617483,0.0730255534522198,0.2618826360204195,-0.08645822777588809,-0.05177627175009147,-0.036857961048018126,0.10151756220433018,0.11588515871564717,0.021230190495262667,-0.0875731450830974,0.025355705338654277,-0.06095057351931405,0.06136274585619194,0.016877260706798312,0.01781642029559705,0.02429871130071787,-0.03780871134125793,-0.040401205135981014,0.4742783448327717,-0.13501387537657614,-0.011235047065485953,0.06999325789381745,-0.08621906266427375,0.002333642595163537,-0.033418762078946264,0.02167177454500635,0.040006299525709145,-0.01942290557341633,-0.1689062849481075,0.25677140904953316,0.09151473762089576,0.13943971467190863,-0.09516504369460707,-0.02664568388045988,-0.0560599684718769,-0.007770332663837338,0.12720892418822832,0.04368356336885549,0.052874056804788586
00869ff0486a12bedd8cbef27219345a7cf3f34c,0.27083559297174326,-0.31010059865897893,0.14192552408207038,0.6366105112545306,0.44193700907039896,-0.18757805389714843,0.375285558167732,0.07648424377029285,0.20447595132080984,0.10509494794027113,-0.1445828727365642,0.30745542656972935,0.03754935736800691,-0.6047982114968078,-0.622384779865043,-0.34444167371052714,-0.006770199947654675,-0.009429363077013916,-0.5898438987480775,,,,,,0.02920484739804681,-0.05257071301224031,0.05652538894814816,0.05038391857120776,-0.09111508068289238,0.2093443743154523,-0.09517098316701197,-0.2371785192473487,0.0017717684232819659,-0.03262846256146402,-0.07534064642857485,0.28259170241096254,-0.10087150137784613,0.09214380231416959,0.2180171197028285,-0.1499852162011789,-0.04086757757944811,-0.002265917925242505,-0.037157276135760656,0.6311627214200148,0.10863063027589485,-0.49573366012997916,0.003233535166833496,-0.043990001043294896,0.0770593921203046,-0.16114663104179497,0.059107837479178305,0.3672347823508226,,,,,,,,,,,
009cb63e70e2af27b45e135a600ce9cd1f4285d2,-0.18222562938477554,0.1109207071564537,-0.09161162639397717,-0.009601837117997652,-0.16574816120397773,-0.06366803450583754,0.030256236316928285,0.29020071064405506,-0.09829644821237063,0.08274872749719174,0.04998685573245169,-0.1252275928098455,0.10079398384340714,,,,,,,-0.32370016187797057,0.021513302798781473,0.09914763860054546,-0.12362605338846347,0.12875588226321802,-0.049157154234778774,-0.030511715178271698,-0.024624406514027333,-0.22457683853797633,0.0548429094007075,0.010250349430502058,-0.07702744499155674,0.06746887886384352,-0.08215074541792511,0.0023382400140936643,-0.02432053945128152,0.08911482774638373,-0.05217007096270248,0.0398591435143565,-0.02652450659567012,-0.06897517167040634,0.056933449620411074,-0.2202881692885105,-0.2012064171090328,-0.1408267397723908,0.16382233725342243,0.062016757516783406,-0.010859975060836307,-0.03796014660967698,0.10940689779268985,-0.2068691279150245,0.02147082916399029,0.08334974157535463,-0.27518873047697695,0.13832365921650694,-0.18798075448326224,0.4734365924693353,0.3480276711529848,0.6161306751936956,0.5615513695405949,-0.5942186020013336,0.5245827728045572,-0.778830244543837,-0.06322069866570208
00b56dac8f6181e53a7596ae9a39903cd4c40b47,0.10560775820500541,-0.16212572012625986,-0.05655923962993227,0.10687493067335159,-0.14178454417585085,-0.27577931652628596,-0.17410276759292126,0.1673817142722655,-0.14922958240569323,-0.10440050064517084,-0.17169694538763133,-0.2164409581098953,-0.13733592090950988,,,,,,,,,,,,-0.05453344852477485,0.011976470213434702,-0.10684647723763334,0.012152200209146482,-0.27534974865905176,-0.04245705478490711,-0.08087322401945002,0.1757540193431411,0.39295076151586167,0.014718845882101013,-0.06062970924698874,-0.019146146109530235,0.014933739379028274,0.1245438146171403,0.06854806393962859,-0.04075605483542494,-0.16566440510960884,-0.006112051022041983,0.2845677111642519,0.051447094312237505,-0.045976466065275313,0.08309608618389651,0.11391667763214056,-0.05386742349543904,-0.006534809972327203,-0.16359052854505543,-0.08889579444282818,0.2211553551506979,-0.027467425876689225,0.4470240590642542,0.20649863100403693,-0.3882534829045527,-0.4193985931010668,0.04095919960004627,0.3660305541743559,0.019694578355696876,-0.16659733818169947,0.04194550317124776,0.29227081636226265
00f57d128b7395158119413cc187a6cc1a6914f8,0.13055413428790005,-0.25181351431915366,0.21193372091855128,-0.30835275786089916,-0.1907840211639598,-0.5073181130086766,0.4206414787405501,0.33894513828076983,0.03188912752641655,-0.2999453658208417,0.43682392800741937,-0.11202496060426752,0.1369913588184503,,,,,,,,,,,,0.09101717098649448,-0.03887777641055555,-0.08429198335087604,-0.11386589780108121,-0.18364029438162316,-0.05348722272492336,-0.053125187727018866,-0.16389690702150742,-0.16473188869899294,-0.015084651774205825,-0.18275339338297594,0.029348527847186785,0.021488467275764693,0.029699603509338434,0.03227510988960539,0.014463811372242693,-0.13567870996166995,-0.44004092456305094,-0.47486740268045224,0.5196403314862212,-0.34206120100107323,0.055238899978297146,-0.1254035204547818,-0.2803901529587656,-0.4188386682694603,0.5790165593691675,0.18968436478963438,0.17798307662152205,,,,,,,,,,,
0122b40e97cb1cfb692f7add316c3e911378c493,0.05140367226262077,-0.23794089089878448,0.05046025118434121,-0.18610301816072977,-0.39661115755230764,-0.2665258008901015,0.6439676277170627,-0.05071605350095927,-0.48629818378634637,0.14125248533773052,-0.2704496565701314,-0.08804109027275525,0.25270964602150464,,,,,,,,,,,,0.06983058277976083,-0.050091661423557456,0.045915552249238475,-0.05603156282091609,0.5179213562798464,0.00265447600972866,0.1157662736913385,-0.1468707722376931,0.13506459672000592,-0.06524938181649827,-0.09198230813987911,0.30995782579372844,0.006578622550225047,0.125601835830683,0.014196732991841625,-0.09439152729002363,0.07452536348094096,,,,,,,,,,,,,,,,,,,,,,
012efe8b9d80fb22f5f9f033761714a7c14cfb15,0.09706047953090922,-0.18573412703668984,0.1782788098170316,-0.11424321560848223,-0.11473472662109459,0.13730303727494564,0.002507367928370607,0.13019992219740142,0.2252811223241562,-0.2229766049849863,-0.2925706377026659,-0.14148220213489476,0.05442825501248263,0.34438698245569277,0.3077070000566149,0.003686172547267812,0.2603938454487315,-0.4349384526263549,-0.09227763812987962,-0.09686415094684457,-0.3157438759702816,-0.16318172342471024,0.32884790181425133,0.18133592224220285,0.16203766998225758,-0.013094424919461946,0.0820803418586712,0.025944710683224112,0.12291667508429768,-0.01677947556379725,-0.009545449146104926,0.009920226037981338,-0.005291210928344145,-0.12328240661450025,-0.012411519330664101,-0.16068565353831293,0.03350135973660313,-0.06798589797345043,-0.07010335216049972,-0.059860780077752716,-0.07765954675473498,0.1152413336474508,0.551003910335277,0.02832175292631276,0.07491128190613508,0.21574412988082198,0.09215557653470087,-0.18701448289708233,0.045508505061416606,0.15135963765795007,0.10658119358384634,0.04622245572333357,-0.10379212416481139,0.5636574554956857,-0.08167493338582575,-0.06656745914779469,-0.12174043561904428,0.04172734387255236,0.17267340545458823,-0.08350655381918387,0.07623983921027108,-0.06638531196371351,0.15252039349644375
013d16398ab81bacba94af3b05b0a2847cf63f27,0.11772907872983975,-0.12698460255564625,0.09666614351738131,0.7531240680499027,0.49403718701938315,0.08591581673200525,0.2178813483415954,0.20249924947301076,0.20657172944541216,-0.5384844928894797,0.306684397722441,0.5603020095665752,-0.06994685076750803,,,,,,,,,,,,-0.06318944033694102,1.146235872572366,0.8040608589527529,0.37946252882771936,-0.17933764301032745,-0.3765434018586366,-0.2750647883409932,-0.2818222156075088,0.009396956655521618,-0.15760981052498957,-0.19115529973667728,0.0011602270149630005,-0.021237560596950582,0.10103126497930506,0.7662620540598387,-0.3307715910918916,0.2962139906429827,0.8201844677459468,0.3131847421094636,-0.7777224864321313,-0.6356618881888092,-0.5166032464769238,-0.5002564800694193,0.42152440068234726,0.6591260053805648,0.8488307481696552,-0.046779040106862575,-0.16636314497369312,-0.19645312475203625,0.30290420982608024,-0.17809619564685555,0.22060441788973262,-0.045758341057374724,-0.43463375594300524,-0.09887407328591408,-0.0028989291841218447,0.26719038476719054,-0.09567163968898104,0.20649643556487976
01455e099e13f294ca96cc75c9387c8fe500734f,0.22580638646216966,-0.4602075208481223,-0.3545648727827861,-0.9366640504765749,0.6299835496564505,-0.7888318430846868,0.2644219401172219,0.3514490943149616,0.9144109465532942,-0.047016410018083474,1.0758358464204187,0.48890658004350945,-0.3767458870163733,,,,,,,,,,,,-0.059783667879606234,0.022514088100809924,0.6879708132222079,0.03723751419401622,0.014469286353275523,0.09009521567145175,-0.04051749253634022,-0.06274888369838201,-0.07673199606685188,-0.2769113517822036,-0.3415698958351408,-0.2836517448399908,0.07880464588678963,-0.06544050583198092,-0.5803833878268101,0.25954192770273893,0.21333900268755215,0.5147373438423902,0.07533119379560083,-0.4130630216177222,-0.30990877639389064,-0.4832030045961871,-0.022036463381343428,-0.5560705051387689,0.22481722985819613,0.15565047824391354,0.1374696102683862,-0.506876449685457,-0.1998938211199054,0.39278108761873504,-0.012635462044343576,0.384987247133863,-0.15322862912269228,-0.6901798432304711,-0.038171129646653035,-0.22808391744425607,0.5622325537560285,-0.38318582230336934,0.3562082335584762
01a1473cbfb84ebfad47f8569516cec806fc9c54,0.008018222977260781,-0.08177083407849584,0.044395539478337374,-0.00560974989290041,-0.4248339769496269,-0.24475539956268152,-0.14148465862528112,-0.20008424799678687,0.29422070415551876,0.07036904122054484,-0.050500703388740825,0.19883535420484488,0.04632609673083311,,,,,,,,,,,,0.06847047944204288,-0.02010543515104185,0.3129237768730972,0.2476859993592985,0.08503486353436789,0.21468351396319918,0.2160251157451621,0.02117042519110278,-0.0558433927516599,-0.08304632128479464,0.43642933073424367,0.17092812561460946,-0.45453688643325724,-0.3571699195129826,0.04655661685162112,-0.13202934159043514,-0.22273796554333455,0.8354617100918525,1.0113789884299207,0.9162656239372045,1.1090533275610834,-1.4358190245066422,0.2161367107601629,0.10825408990936758,-0.022296921854368854,0.2130154377153084,0.15960132221148188,-0.6372492079586147,-0.321721684109545,-0.2517104237198024,-0.3766395859814354,-0.20044998273219275,0.36426960666145297,0.187124630865006,-0.49106460453489037,0.2391598162232159,0.13178403314165194,0.26801609340398763,-0.10518938918840684
01ca6288e65faee81ed55d92a67e8d9c41e74bff,0.0979300743261629,-0.18449655023557499,0.022962833629719712,0.20776133755724255,-0.36437036875676826,-0.2724766438802937,0.18735076669905193,-0.6505116847564756,-0.2644142224038164,0.48219542134292975,-0.09670262150050762,-0.11241596056262436,-0.4402448456381048,0.860088977269916,-0.5579428103459549,-0.051171440002108805,-0.3336576298618628,0.32060535855461664,-0.6430457999282319,-0.05790873174378241,-0.26813455508935596,0.15785825816827082,0.30487674330214265,-0.011209802621104758,-0.09700954733570709,-0.03320629797848763,-0.05339267236526762,-0.09647286124794205,0.044005286077753086,0.01245540601133046,-0.087661815060799,-0.008344753068165497,0.10359217200634188,-0.08317909381309614,-0.0906026064214479,-0.14457984411641872,0.10646385967106024,0.008490071862114023,-0.09680742200082623,0.06907975848304561,-0.14282765851752344,,,,,,,,,,,,1.529776729521299,-0.11324695921769694,-0.029179401509679393,-0.044566774054634675,-0.1937196476910894,0.05394501617724313,-0.1632952552547264,0.04395955687547525,0.01989973710727779,0.02711407811533762,-0.007545112351582621
01daff9e9b17fef7e5e949a8a69e338f263cff19,-0.13644608554443716,0.0530687275801248,-0.10333360055522035,-0.0815438359683705,0.1006947925586367,0.23419335921030943,-0.001708609932916517,-0.05287323765091524,0.20704379504549872,0.10235979648700101,-0.12158685066571717,-0.05442217838622135,-0.10490788279299118,-0.11245646446208483,-0.3353146493394043,0.19547134282063974,-0.08717570669276291,-0.08216872262814186,0.021269856417426784,-0.3970127478142311,0.23913926583371853,-0.14655287846106665,0.13359542556351472,0.006538031536505275,-0.047069748831919465,0.044917182698899015,-0.08998920349258072,-0.08967107087111072,0.07169309027593675,0.0027651937773554166,0.04384757249524117,-0.0009587708486051939,-0.034130649801916775,-0.019753889599595745,0.02674634134777905,-0.03619272294664732,-0.024789558015596097,-0.05725185418513286,-0.022737492449940073,-0.02013677235713224,-0.0169108384006643,-0.24874132660835854,-0.053844976450349684,-0.19655562625348055,0.024150219187672333,-0.08708342367744525,-0.11981830473552385,-0.1640585530197129,0.030547405949681826,-0.05590155023258638,0.03452593628622942,0.0017059013146387557,0.038006030600565226,0.47122681646172965,-0.12765421701731786,-0.568270728115067,-0.4344434039374776,0.17692853512461873,0.806552736307905,0.9210667159130744,-0.30035361961295926,-0.032137955479358986,0.3847154465411604
021a43a12624d8a69295cfcba3f7e4e704d9b101,-0.16305791613549794,0.12785906601903468,0.05283967963269758,-0.09649296935333851,-0.2800049320045867,0.21629660696756287,-0.09988466013286468,-0.022966325314405355,0.2735849984442391,-0.08964755971615253,-0.0419072625356155,-0.1344708012620045,-0.007892280032187777,,,,,,,,,,,,-0.10917120759248207,-0.04479126026597749,0.057462103173726874,0.3675425736978509,-0.15424135164932012,-0.08052985995818286,-0.3014169989481237,0.051437957638711805,-0.12386183757085735,-0.08449984825565342,-0.1457632288819305,0.055025191507504484,0.002745460435149374,0.06781440111613704,0.012890942334078073,-0.19166960574565065,-0.11638709635231297,,,,,,,,,,,,,,,,,,,,,,
022ca2fc728aecec88ce05dc42362dbf2e193df5,0.13108648807715045,-0.20653254904378626,0.25377213818184013,-0.2423514698158433,0.24536190573062336,-0.46907429602281003,-0.07516238982101936,0.10370263412409154,0.2560201467325217,0.31757371886484115,0.24301734062462488,0.026508465735814633,-0.16866454845460846,,,,,,,,,,,,0.23629394371619575,0.003000887379903387,-0.03542413486464994,-0.3449181785979109,-0.05912950924623322,-0.01365615797236935,-0.033139331784410975,0.043912725033706836,-0.09146590661765885,0.011030813857776486,-0.07786811668984979,-0.18737974189128995,-0.021060990112247265,0.03336954084114259,0.011312429689664871,0.04103074936113157,0.22134070441504916,0.22145315991513306,-0.45178440121589597,0.29349857579858396,0.05648294866801914,0.111250007699695,0.04027591179495373,-0.12728152119706895,-0.2478855055152707,0.2531192490489661,-0.044640864538353614,-0.14281629553571049,,,,,,,,,,,
02437dbbc7689f27dc62cd9b7f3ee447390dcf0e,0.02793391611108718,-0.11618830373215626,-0.14466131618188802,-0.0996214704353924,-0.023348621491444795,0.02237678008237162,-0.04405493282944081,-0.06941749411378996,0.1402143811199821,0.06727412322197242,-0.14977287815320164,-0.0019367243087328402,0.0947086899843246,-0.4575674480515492,0.12574841650642263,-0.1049467748552185,-0.6872606461662508,-0.08381746721949375,0.17235146451988323,-0.060952454678142046,-0.0392662835756058,0.18542852090712605,-0.012535525311558942,-0.20403294375883985,-0.06128316021697065,-0.027195394113377753,0.1502129739095324,-0.014773211238201746,0.132511773924861,0.02006642162102894,0.010649623651542815,-0.08369810271436211,-0.04201685885797529,0.09961226600806516,-0.02672970498931318,0.03145862301899695,0.11951346708518437,0.04122126360664844,0.0043048094611504144,-0.006389483057956285,0.06312338889740224,0.2242957707521527,-0.23477045663627819,0.03729854990366885,0.0035565429004219104,-0.021056167412709156,-0.051730066841038515,0.053387340043141024,0.2051217221044089,-0.10801885260700586,0.18786050552369546,3.3445967681806785e-05,-0.32277445258594256,-0.1999783299122454,-0.25483672383536027,-0.06233410933272475,0.32341994335935786,-0.3118899060236314,-0.2259742886366463,0.042747080867673516,-0.10767206872935416,-0.5903070933460176,0.012916446391569506
024c414994a64bc8f659667b22394d57520ee82b,-0.9421646577463194,0.8169450677679081,-0.2770655639980603,0.40341057375766926,-0.03789477917860129,-0.27171411889328306,-0.1340124838841169,-0.4425049524108978,-0.3579412845992843,-0.9064310292130554,-0.23313370639298392,0.3198857152897604,-0.48878295714510145,0.5576907552678724,-0.7487230134776363,-0.4499264226062134,0.034073330185738514,-0.0026049532785470584,0.7135766117299397,,,,,,-0.0574532468889955,-0.040167365497829434,-0.34413294941246014,0.223885838220156,-0.005818708769178979,-0.05304419180034908,0.1842087613064563,-0.04405805522657868,0.005237127622276722,-0.058335708430271103,0.023855657287269714,0.09694127082082114,0.03459658990390411,0.01824032687880024,0.013503431642215194,-0.1706018004713252,-0.09723466283103803,0.06480080414376707,0.07069560832662955,0.15056145863113737,0.5749596584296279,-0.6782052823223751,0.4326907210159158,-0.147150389495316,0.12208241846487908,0.0013428829385605055,-0.05852444989475472,0.1305971503609992,-0.35917284733599375,-0.7755627881850873,-0.18476913177298565,-0.44912914859076486,0.29879437099749273,0.6507111544104067,-0.5022604687192508,0.35373566118176697,0.1135368348366788,0.13181222561350964,-0.11770475523424828
0257a0dfdaba5baa4db97d65218a58f17988d786,0.28401235250970486,-0.34024727304968705,-0.09513278751952822,-0.08163601124484333,-0.10273226704384837,-0.09450508566885762,0.051194496909144,-0.4475780829288668,-0.03006283091148493,0.10231695987169306,-0.040957625218774066,0.18366794447130255,-0.24030190170047735,,,,,,,,,,,,-0.06011626555104859,-0.01018523644991977,0.5746370229965069,-0.1314976312669976,0.10214430890096382,0.019569885869773297,-0.14806390985723927,-0.08513210972111902,-0.038428230886929954,0.42899029670332695,0.3742305535165375,0.41113322090071147,0.29109195790415393,0.15233526898806668,0.0018895971911940177,-0.33137338513982956,0.07883732332616714,,,,,,,,,,,,-0.20677206650493093,0.36858981708590227,-0.49487999135398536,0.06484496576495408,0.2576912937808553,-0.187169492777265,0.16712953099649752,-0.3121699239086449,-0.3759745402644985,0.0657028703664107,-0.26084218214559846
0278bba4f150a27baa03818bd98dba13a4d4c93f,-0.19043347211557352,0.04376474071894666,0.21269966059033893,-0.24932215092892387,-0.13969293251473103,0.10684099858173723,0.30929723916017016,-0.15173484467492165,0.8589672417137356,0.18742488961320275,-0.854409210759933,0.09537986242154936,0.3283914331965346,,,,,,,,,,,,-0.1412121611464664,-0.08191764061722207,-0.31412816077318123,0.3562293328885416,-0.13150336224398027,-0.09047870757786938,-0.250047071893468,-0.3759445998655829,-0.07452218433833539,0.011485548989029913,-0.306806166641468,0.21106640323086234,0.06296665265216939,-0.10253016499830654,0.14100436215629875,-0.14869107132889947,-0.13171540403996232,,,,,,,,,,,,,,,,,,,,,,
027bab5e51d6de60156b2e017c1c22e5169d6104,0.29753214666956784,-0.06308294564493559,0.02579066581676533,-0.18480087526328864,0.0799334800891255,0.24285365948548873,0.027168534968189197,-0.007520439497021669,-0.15261782836057544,-0.05808379038946397,0.017922822668120692,-0.003879800161042635,0.07244821213553383,-0.3832534241345957,0.14678195594304208,-0.2590936807902667,0.014829385282418414,0.087248442801883,-0.16250341493419257,0.33893361609622524,0.0735995121369415,0.08591108741402428,-0.26063403897902754,0.2721045676320447,0.05814865065664434,-0.0018170256910819554,0.4698593334640206,0.2745788567220867,0.35751790512851983,-0.09477229088838247,0.024765808760178375,0.013656259934556419,0.14773880214832066,-0.16559273992588122,0.17283808803499529,0.0006961016383677449,-0.0273289163316905,-0.03882255985123628,-0.056999920759060636,-0.08578024443730103,-0.1263494603792238,0.6537466079748269,-0.2529841491112259,-0.16053666565605854,0.3001592209205075,0.05656642673026036,-0.05091569081456613,-0.23790123853657963,0.05389125914211711,-0.12447304282886919,-0.20624852349146588,-0.12270102984078589,-0.2171833215653927,0.29308914156160093,-0.44748167549070494,-0.09300061325750968,0.3308013066572127,-0.14814168735198083,0.28266568178027823,0.10534192290283327,0.15849017940755308,-0.48187590339268344,-0.013301610912207575
02aec93db9a9c3c5aa78af6f19700533e2e9f0d6,-0.3106161397382858,0.2034613000889044,-0.040136206209606944,0.050646469561508714,-0.26144584882704325,-0.09152838274881085,0.147807163631191,0.21098777356367457,-0.27351777897847684,0.010337905307184493,-0.0009736623580796398,0.02543560807202943,0.07897581953788096,-0.07004301176088382,0.10115933246443413,-0.3319083036620011,-0.12426289912067676,-0.5038756327595841,0.19660762184816466,,,,,,0.02515809673799563,-0.015154564457546454,-0.06255136983538472,0.009789128884019485,0.15184366441256178,-0.026181186574842946,0.04089072997004528,0.14823678992164976,-0.05270202207561777,0.07456176073733732,-0.007047721520291904,0.009206308908799171,-0.14739239051392997,0.050584382945921776,0.027302818021538108,-0.05220079474345022,0.038497523314373505,-0.007543295731869539,-0.001737992502357074,0.184025064883642,-0.19688268216747748,-0.09759562967353308,-0.1774976725842347,0.06646094800177069,-0.09130178481698048,0.04046738519686547,0.030616141466466136,-0.16741699817590988,-0.19497891871947015,0.2562349060140512,-0.24959571861962918,0.10250040234866895,0.15787969532781682,-0.002631711876097171,0.09680365729484246,0.20453631068414624,0.01375809363472207,0.11759421149700565,-0.05563316231817243
02d6ece266263d1a3dd4b317ac04ff300baca34b,-0.11476641189363952,0.06200092976240399,-0.05861405287237396,0.13670969201428002,-0.09447958989696788,-0.09105941270316552,-0.243028224299572,-0.7659195166503288,0.49108573813703305,-0.08701627909205122,-0.08763567118346242,-0.35056005672966617,-0.7027218694343735,,,,,,,,,,,,-0.12142353522786897,0.44450540496539764,-0.21788549848415847,0.40458982849148495,0.5186324832840422,-0.03030161079458366,0.3206125991623503,0.11124791588294985,-0.08282188467134206,-0.001665987820112863,-0.032257480299568514,-0.054733958076090425,-0.13058810669159307,-0.1850371130126288,0.03571511588944497,0.07857531926715967,0.10587098011211334,,,,,,,,,,,,-0.29346703945703545,-0.8281682408936716,0.041776686019288745,-0.38594049037954026,0.14223638832476906,0.6967747207766128,0.9270202066187243,-0.027027303330839313,0.1754341264720036,-0.39975206352624165,-1.1909632013351148
0335a320b4579f466f5bffd67882579973f38f99,0.027836850314940584,-0.05914969168970152,0.0837714137274976,0.5290432509711427,0.6451666013650383,0.17263502934671277,-0.507412927466439,-0.2993038375345925,-0.3979301909383027,-0.13631723426765596,0.38555100493963373,0.14129853250893176,-0.14685094575610044,,,,,,,,,,,,-0.05677916029513682,-0.001488866739595321,0.250712888525872,0.31040595866198095,-0.31185156556309046,-0.04763732628864357,-0.20841706395298837,-0.26872216025817974,0.09856229429909981,-0.17887774823436553,-0.11773887344779957,0.09116766877663779,0.08002486781052878,-0.2095613066216641,-0.1464864258685753,-0.15398730652150003,-0.10115316991268453,,,,,,,,,,,,,,,,,,,,,,
03635637942fa13e11f925aa4a7927d589831144,-0.1777660893573619,0.0946347475735031,-0.08182553048795917,0.18617792782717738,-0.025806389221300467,0.03406293998288782,-0.16474692692617177,-0.1270771453914342,-0.10699738030672429,0.014391851803151915,-0.03986596964589894,0.011308432074933601,0.01608311009657462,1.1328640509879753,-0.8577512131717328,0.7761360858997883,-0.7782165332416126,0.32957643094124356,0.49297509881802887,-0.1731831356383506,0.09125103051557631,0.08295782627174514,-0.7484363557578884,-0.28510738245128703,-0.06319871068514715,-0.017433880356859662,-0.18669955914118294,0.08766366701961606,-0.1239951488564358,-0.017674600309875263,0.073517510414604,0.0012448569872348092,0.11709981420531347,-0.00690905107028555,0.059434274726205376,-0.02339657930148436,-0.00939504854800268,0.0761653736190496,-0.057984578215879205,0.05174645102053358,-0.03171287402348048,-0.39443224841249186,0.039050295888513074,0.022572246597468933,0.010406638166946152,-0.017765752115955432,0.28011055794634493,-0.06980020729296141,-0.0629916618764747,0.1039436129770324,-0.02755047032261044,0.037927515264677004,-0.26419832553078326,-0.38290134504220924,0.12409250560261503,0.034190164475583575,-0.12478157812627902,0.17306923676775615,-0.016290545924250815,-0.10225855034169977,0.020056827794264993,0.27542990209504997,-0.11790063055724859
0363fbc84b03f8f0c36b026387b9664fb6702e8d,0.21608241397604688,-0.3039000772868906,-0.12082254853469163,-0.048896848998212436,0.0649249282099411,0.21906799932264692,-0.39831056447748414,0.46758285611864436,0.15552677825547293,-0.0048496060460580075,-0.061278106047209124,-0.26333407082124044,-0.09579450008437954,-0.10214658656417659,-0.2554276379208013,-0.5077573851252914,0.16254882723548053,0.17235873298831078,-0.6668095072311723,0.2296248901693228,-0.017822161689237215,0.1569605121792288,0.15485466723255806,0.30407870146389976,0.0021643025331297048,0.0439869037882718,0.636861280820125,0.09914220675903193,0.03800458114614368,-0.16913780962325617,-0.06260156317561541,0.14100074641624233,0.08984748339989394,-0.3662489421762601,0.11210756766796177,-0.2906045601931115,-0.0469915713576864,-0.06143920492605436,0.1661254366354835,-0.47228897977147277,0.3123180729126474,0.41370603182440374,1.0660235525654465,0.2596642312376821,0.19934458739320451,-0.040739128288151474,0.228405621477256,-0.22462234959692118,-0.4473563682763525,0.11621214200106997,-0.005896458205611257,0.12329244422571564,-0.143598542150777,0.44574792740413943,0.4143789326630491,0.11097237212251128,0.22852747387759026,-0.19852800932038556,-0.009630615676812766,0.08664551909030441,0.11512750952979582,0.03695287706372009,0.028545512177251306
03810eea8644295c76493bd923051834311751fa,-0.19656806054742845,0.09677818767133874,0.009653475510639062,-0.13817205861827375,0.059703689394543076,0.19426064784345148,0.21530448458832616,-0.28792765585786395,-0.001905178770858526,-0.19420650159156772,0.08537166252756871,-0.3039633578887503,0.1963255871136166,-0.15204821601439486,-0.18360063815907826,-0.0008429546690556775,-0.6897217365557281,-0.05071661911539342,0.1552575215087208,-0.5199252430709691,0.015116121792332127,-0.17083569679071753,-0.008508978859351882,-0.46285130917921297,0.020557373601822457,-0.03628717152646346,-0.1458144620798188,0.02281802772462974,-0.05523719775444329,-0.05814535375186098,0.1790523093822563,-0.034854942255411844,-0.014293638743692369,-0.03700645228199812,-0.01625547442299256,-0.012364585141086473,0.05258724360212791,-0.005251872551245507,-0.013189249231819975,0.06271804811693966,0.058682599512974686,-0.2439061406905343,-0.05439780721034435,0.10525977433480822,-0.11523111876192431,-0.021610467373182795,-0.037387068136078866,-0.07082302707311457,0.09999062308094382,0.03518810987914272,-0.26634261602693343,0.05744882707142798,-0.2766936409800147,-0.3867305661643466,0.12716517127062218,0.16382846141559104,-0.0014323028266227148,-0.03148406845049554,-0.18996899936076508,0.013856391961749013,-0.17782914200747132,-0.0754643373425016,-0.08461392300473955
038c3e5e206f35215e7b7607e66e196744a280cb,0.16633490155964212,-0.19358531081489264,0.5065071287174217,0.13717317359599654,-0.007611586095058584,-0.6179272901294878,-0.2601812729650922,-0.20112007030127826,-0.2216272898986747,-0.040678128681134275,-0.3388572465625053,-0.11094215684939965,-0.11967269818094337,,,,,,,,,,,,-0.09872032107209718,-0.031108207730144964,0.22993796905188338,-0.09270189030778783,-0.038923631244008224,-0.0620182571338334,-0.2025819146435432,-0.1888615143373553,-0.16007843475486663,-0.12851983706207545,-0.3699990033753605,0.1184461024159109,0.20347128144149668,-0.08902523612297378,-0.15548770534572762,0.16202772538775065,-0.0520806284296727,,,,,,,,,,,,-0.06301054604509657,0.6686279360491345,0.18670118387597975,-0.3007265049616778,-0.015253656379386912,0.049747744553537254,0.12015882451278892,0.20665721738597037,0.26851296735250657,-0.055309570914085525,0.09844142661707708
040046bc958103fe16cd3833b3f57d04dde6a04f,-0.5105083141470989,0.3749406943663095,-0.42066198913881214,0.16994068023699554,0.12038563907240825,-0.23253032930413894,-0.0442805923223811,0.28538821535119246,-0.2156788442411849,-0.09117676684421419,-0.39525777507176624,-0.02832627185719958,0.51050246251239,,,,,,,,,,,,-0.09200280235250795,-0.017694557657682138,0.016407750437404615,0.02143890862201678,0.035082527027161116,0.2043147220651649,-0.13760405903893086,0.19404826270921685,-0.13730809681179312,-0.1587084775294484,-0.010520513018641885,-0.2115073662913659,-0.03219638161796091,0.01233820471900619,-0.08830162333310593,-0.02993238217567321,-0.0315558091732697,-0.15518077330191263,0.6484145150406987,-0.19364584957805014,0.25194849592557855,0.06860865263442427,0.013341527875789736,-0.0828870012427042,0.03066111087781035,-0.27677740079047736,-0.11838380224943501,0.05545045811357624,-0.22687858540086714,0.0015440031077135177,0.017662778902519938,0.25993491871242214,-0.028264464860364446,-0.3910784503162179,-0.2072454556264573,-0.2543977781401684,-0.21427385481496078,-0.2104934176648244,0.010302485080705933
042227f0fab7249ad93606c42111babcc501c2cc,-0.33150618185080233,0.20752537357880171,-0.09757875766551107,-0.05312256176035934,-0.048619851640499895,-0.013361930244899659,0.16378240695606747,-0.08736330184053925,-0.10635983650497836,-0.07009941267440827,-0.09946783456056614,0.07978696904542817,0.02272273405392329,-0.5258492338345434,-0.3688429984082082,-0.35863045088790224,-0.025441251455151505,0.44220083876721067,0.40783244539180696,-0.21773717802508044,-0.06664223194713922,-0.03109677772098485,0.05406150276688472,0.40113978336031497,0.03206658049326983,-0.04507601672557851,-0.06508420797889335,-0.06542134561776253,0.01153297124347018,-0.0006181923524575909,-0.013569942694490762,-0.09900411048252843,-0.020399012879055187,0.034470406316777155,-0.06138716558936331,0.016323952081435136,-0.003951807643079426,-0.0043174348117487734,0.04953183740115892,0.028984466127295223,0.008868621230979265,-0.18397287149704458,-0.03205889378422361,0.3073327281332352,-0.04042747650603273,-0.030765128366510408,-0.024150263588491767,0.057719250326291605,-0.017778273508619064,-0.04625676694651584,0.05958654772676793,0.014830577472438902,-0.293269989913344,-0.3049866003108208,-0.29933575986709604,-0.23564945106610766,0.3451886720788738,0.2522973516697209,-0.28184010688608657,0.22770822599687518,-0.15473431829353454,0.1276342700550147,-0.010026552663547645
0431a1b005b63a403a77c7c45a0bcd57f516afa0,0.07294138175534025,-0.1359586557794831,0.041852630454999935,-0.006833885029410166,-0.02493055787257995,-0.16792378804065486,0.14864852675175255,0.21185474511180133,-0.09690143565729364,-0.10795373297075492,0.01876322345839375,-0.2028214707937347,-0.05705186312926822,-0.4507176003128664,0.5234409489211064,0.07229623482461693,0.19486486644423795,0.07272071941126283,0.6031142506070891,0.4903660463751279,-0.38179917126950336,0.18096670165720258,0.6837187182442773,-0.20543141177835186,-0.0771341911343842,-0.010439786095984704,0.4612409582109994,0.13160053124094281,0.3154505777875014,-0.10163489380818912,0.03035424899565695,-0.17325769252722445,0.06674053325830379,0.10297410293704844,-0.06693133341757435,-0.10102353902243255,0.2018686555590079,-0.008540162853361085,0.04196911904145219,-0.015432294905838003,-0.01359888740057289,-0.05420334801820358,-0.0606468271382942,0.12291725845577509,-0.3283749360415019,0.14887538471654965,0.22050408478977024,0.29625511893341383,0.17938605877788222,-0.22732547178717633,0.23322173216236544,-0.28055205077077483,-0.17604375188059038,0.35545433729784803,-0.40595953449534716,-0.2851969560045374,-0.2547008530334549,-0.017205716432253007,0.37446576964392847,-0.5464920451913782,-0.06409186185653123,-0.7727483865172728,0.6869576918018506
0442251ad6e4744029d7f9169c70fdb8167dd594,-0.41888564395489153,0.3149910792988918,-0.19940774569204062,0.07378852486579308,-0.1920144452478356,-0.17566584779552324,0.07666627469034462,-0.15689557409494065,-0.23317898160844563,-0.08692772084793672,-0.027280807618182627,0.245138020632473,-0.1636394512923163,,,,,,,,,,,,-0.08952811202457686,-0.045328675802514574,-0.019815080993700728,-0.3184185900859264,0.03623036563024125,-0.001263638564163815,0.005712056572012877,-0.01653767674617542,-0.11714984295258032,0.11838108600413573,0.045087514746051924,0.17368018926450024,0.03443520006695177,-0.08346730381690011,-0.01708533259150874,-0.03608720175302721,0.023258569000427585,-0.31661142581653084,-0.2251460070841943,0.05273362991275629,-0.17978663627968297,0.0031808642699189564,0.18291123079101249,0.16660809556509293,0.06173203077862144,-0.23627898922356852,0.08698706359644903,-0.005246337437983585,-0.15595950026929378,-0.23258039193500188,-0.1813096823933011,-0.5376481362681632,-0.09826137663591995,0.34094869772489567,-0.1289157390057448,0.5684184736839425,-0.16248301165741516,0.4410434265970425,-0.4820413858129169
0463fcf43f5afcc541c5e08d61d0bc4746826f99,0.10967844539364602,-0.18159532110107965,0.045530046582648226,0.3244676314358166,-0.07633873700116309,-0.0424421529095087,0.5885619696353439,-0.027792224444711994,-0.30729701126253905,0.11444301104896612,0.017313823750523313,-0.1562726148786826,0.26314431874063693,-0.1570675381534457,-0.07250772170599581,0.03973106563574685,0.007675397495551047,-0.09506015839225132,0.09927025006793669,-0.01396349850427842,-0.015832174538457554,0.03432897323939733,0.0038034348139378855,0.16556089664158946,0.08155686210788836,-0.01537632930992215,0.2626456144804815,-0.28340071612116263,0.062208477887634304,0.13461219391347243,-0.0685884224478893,0.01682136255258257,-0.09965697695550348,0.096592205717485,0.004017341810220498,0.1547230859136348,0.03472965329001137,-0.03706753656584182,-0.09287971579397365,0.039977534563442774,0.026119565933751532,0.04004343190470794,0.10508614564641736,-0.25071728858150566,-0.2658128860605063,0.038872748236549584,0.12780012029408028,0.14196471925255222,-0.14901786599678585,-0.021024692018493506,-0.10510277428615511,-0.01494813764657655,-0.05594223910524974,0.5470680984193579,0.03477799288009103,0.03341658699716896,-0.08645589768188856,0.014371647092027456,-0.14047724710717313,-0.12201043462235606,0.19248443483006766,-0.040115137327388715,-0.12240920039232561
04f1b74e9ce64c61cfa48a5e10592190e089ec1a,-0.006602094875288883,-0.09677123672719967,-0.33433209397692637,-0.03214551536913569,0.09962311961246505,0.12052676445552446,0.054663276276878864,-0.7281392861341001,-0.041482725758323666,0.165364663641111,0.19990638313252312,-0.4405856013728856,-0.13569403282467707,-0.22591152640732404,0.9765321554887542,-0.7524925407230403,-0.448800370072947,-0.019827501432087117,-0.11949539010351284,,,,,,-0.07320576232851758,-0.026437614277499744,0.3776118758788447,0.022552047761531947,0.03968379091355842,0.9225567579554438,-0.1965073029651439,0.14225828234985205,-0.1751591523165825,-0.007238582917592742,0.08425897082050715,0.3356873037926759,-0.018880105596467554,0.11518883728270009,-0.10574388166758927,0.11836564435791551,0.07969975257580789,0.03481571949665879,-0.1373107286447502,-0.17811552110622872,-0.3998912693445352,-0.09141997783411913,0.30995765742393394,0.2983115701680896,-0.024368396157600922,-0.35618030225122277,-0.37995500974629653,0.2833606148363259,,,,,,,,,,,
05131c7aa49789595cd0d00a17c36a1f27d63d25,-0.19881388899479968,0.09143953021828172,-0.02153504835485407,-0.010215515192134764,0.11596945792668185,0.08893637393012004,-0.029989969337291762,-0.1223938824032852,-0.20006791049517808,-0.022188847576895262,-0.022685822652776723,-0.10009638949958438,0.05898154529476733,-0.1450333399030142,-0.13106187486551887,-0.1348081570058852,-0.05335497581020967,0.05956231197495102,-0.11690989697371855,0.17879353470099962,0.0481690127916243,0.03731685371397135,0.19665716035154465,-0.10360641542551191,-0.025942371130209214,-0.03011284950246628,0.009917254396648143,-0.09954964220881439,-0.01381612458648641,0.04873479470824939,-0.06839778628140085,0.03512215746943754,-0.05014897270439228,0.03721500248986551,0.0033726317494226247,0.011303568786770302,-0.04264776469570187,0.014897748167886759,-0.006488478382763662,0.001607217061328547,0.048957663407566486,0.08818259403794358,-0.059891645252962866,0.01248964920877699,-0.05818242003717039,-0.0534991485296037,-0.03189276225424318,0.06124279965101826,-0.04067852613080891,-0.07104050631143947,0.0034871313984023507,-0.057201783409996806,-0.28843736978934864,-0.058287751999700224,-0.24304299603937532,0.013059327600107086,0.3011900147394811,0.16849237925996458,0.3547806813159537,0.2517859736396095,-0.038700610110443484,0.28818372483556226,0.3132622436615638
0519c14fe5da347f710ac058f73fd2c4f302db61,-0.28590564744115243,0.06638127056127713,0.9126590329707459,-0.4932517220355296,1.1800402769552416,-0.2738318272011486,-0.2724827423511247,0.2692539138643916,0.13970490940931027,-0.10560923193274109,-0.03775665076525603,0.09437125827750295,0.5412253837805874,,,,,,,,,,,,-0.10180959108950062,0.0037785353479894666,-0.054089156520768025,0.3468786341808207,0.09229276581752383,0.27760082971467004,-0.30071036692063563,0.6475213108504775,-0.18455557277319695,0.11387932807834067,0.05020851381509389,0.10471997568847155,0.16354736925517194,0.0655501677232493,-0.055322118914129755,0.024701522217036354,-0.0850421486531153,-0.29701750711434427,0.07284757189172932,0.19046692013463398,-0.19987566492782066,0.1370557143559203,-0.11595786411310041,-0.15209297129830315,0.35183426423222314,-0.027769168927084472,0.13572736361420504,-0.3025179059073436,,,,,,,,,,,
0615b413f12a510f105fb9359fc1d3123532eef4,-0.19465543097493848,0.12914133980148831,-0.1559894019127863,0.15178503296005735,-0.04968480444294664,0.06797538917810388,-0.12275295831567201,-0.1551301165975404,-0.012305981708907645,0.06148373945607775,-0.014465335665182181,-0.0973933071781934,0.052214016468104106,0.4840430192687811,-0.6449636897825809,-0.0048667990058936595,-0.07405359355031474,0.14021686125272617,0.16928486841511717,-0.2126072346040882,0.014558209519203438,0.13318270817563302,-0.3260682699276476,-0.04764480891201142,0.06879748540455577,0.07244914515156756,-0.007835399443681328,-0.11655317334161494,-0.026425412096403297,-0.002034253747638209,0.02856785799325651,0.04373467939345306,0.043176959226048445,-0.07038108134670557,0.03238241341418797,-0.07987724348467953,0.04939890766998121,-0.035777218699193584,0.0365450651180039,-0.0005819105537345494,0.02162500996703669,-0.26450659583571784,0.27375895174457554,-0.13364008768867378,0.06481128780021007,0.04164802327480366,-0.05559147471523562,0.07033603622881927,0.017826931558036708,0.05708244633180549,-0.05379631714529016,0.02834530306826975,-0.1746391421375019,0.10441097876037206,-0.08374958302015398,-0.2084216897259018,-0.0325325025388465,0.19456773605398672,-0.13219588976269256,0.1333149769446572,0.1579579965179607,0.04598646116130641,0.06163907558958136
061f4a7aae33e3d8506debf6d891d47c434aaeda,-0.06278780358236828,0.010953957683341467,-0.012554209877349896,0.031921524189144325,-0.37705937384635035,0.3595850407182641,-0.1179259852188749,0.3654174614114424,-0.47620590102688215,-0.37104329794815577,0.11998553640722417,0.6466054066617372,0.08677064770026173,,,,,,,,,,,,-0.13521081547923375,0.012486049631391148,-0.31926063894479306,0.44434638038383967,0.04479296190146872,-0.044439990330310895,-0.039522683013191576,0.2642676656331086,-0.03678573565866292,-0.15603280523390317,0.3480050910721923,0.07307488118408319,-0.0010566652742215012,-0.09699058642187093,-0.0945832301900109,0.017046732179753676,-0.016148104592059325,,,,,,,,,,,,,,,,,,,,,,
06c3f07114389bc253f6ec8b2e69547fb12f7fcc,0.03787332191701455,0.414997168108488,0.21378386849570757,-0.035465557927237906,-0.08215362644491513,0.08024127843234292,-0.20074671225902826,-0.31057882987589785,0.0866236337754456,-0.009289541011009721,0.004017622685231985,0.15211455561202394,-0.1642111437521846,,,,,,,-0.2246471747691422,0.0921137808989582,-0.1811820271600939,-0.0993073773663859,0.7312780864097266,-0.10626775613730212,-0.03703850669276063,-0.03896841409605953,0.12051843972783824,0.21897506276145381,-0.04814220122645814,0.20113884667764986,-0.04137181335266719,0.056930231818362334,-0.05651210647436798,0.006090917807083659,-0.18591444804598492,0.017471659621706895,0.008551307001916293,-0.13381655801463632,-0.07568692371304885,0.10311738117885162,0.04990059662379672,0.2804879729664367,0.2400153954190941,0.2520930711345751,-0.5956210058937492,0.24216751862458968,0.2330902517318011,0.09991197665522192,0.16169738875076756,-0.09589046181264423,0.06880256072125779,-0.16433076918578773,-0.20515063106395479,0.32272648416013194,-0.03669217046171556,-0.6675905230697105,-0.23488036429663586,-0.20785455688583376,0.1811413152747302,-0.15003403905148088,-0.35752458147663985,0.13554083853033608
06d227116ed652f8be0b8a73677a9f86d4d50b04,-0.37769490428842156,0.25685206579353886,0.13093763657681465,-0.06343665326809729,-0.2991640442270916,0.031914723314757414,0.11638538449227316,-0.05951808653604741,-0.00014418064024751686,-0.37991347686512256,-0.29870604064217826,0.26128662054412577,-0.0833172543137581,,,,,,,,,,,,-0.09753065206065646,-0.03184700493482093,0.008787518403161493,-0.06728034085598592,0.07873242654761868,-0.05290780186944214,0.07227240866197476,-0.07641444380729397,0.026866520294591727,-0.06724052329100673,-0.020823840049378185,-0.004495668879927218,-0.00741917741286457,0.060277951578512,-0.0488620796697469,-0.07241975473272325,0.028716693833776893,-0.2938531115852278,0.23549882687473767,0.03953755407942235,0.031831503904373455,0.48494631791204906,0.6478418848460663,0.21686268433391495,-0.00023017128301974063,-0.15340960471105733,-0.025472863572620102,0.09377796535296522,-0.36754418624724317,-0.3466803836386671,-0.42256349029036017,-0.1021915303953432,0.6452215382581022,0.13765878487893707,0.30454109192777773,-0.20086438300592735,-0.1713485751727737,-0.2339947562104393,0.013052420854042209
0717e15bef41d083887fbb47d727dfad90885ec2,-0.24056246094461076,0.121729544833467,-0.12931611935838402,-0.022469320706261703,-0.02659180421075272,-0.061029155714246226,0.05568686304724308,-0.3646839023039811,-0.030117531902885523,-0.1304620732153699,-0.17735584948648592,-0.08239467857074773,0.011614370142564973,0.5045661429112989,-0.36315304334930515,-0.015955637771990095,-0.1267221076388922,-0.29745378685193097,-0.11088472654353229,-0.2839759013482415,-0.03756169716173689,-0.19902262095656265,0.06765840238977466,-0.14483754168487126,-0.06729602909618523,-0.010684375473058385,-0.04591427794711492,-0.09377407040318607,-0.06570846435166658,0.03550307785531859,-0.08358794078334035,0.11646306725669625,-0.021413149298369346,-0.07124975737801834,0.027430594125915867,-0.050664592504769894,0.06524718985100368,0.0009676650614743223,-0.045443802320763296,0.05566888435265665,0.052660165316748525,-0.3191554865890232,-0.01729142612650203,-0.16753096357260644,-0.04077569344536833,-0.12496618896639507,0.020001350133134744,-0.17021666943603875,0.11833344857417108,-0.09249520940508575,-0.14958455711566182,0.12411401575224713,-0.24576255120711596,-0.14281552801411287,0.0006843036719660139,0.04417497073151958,-0.02979504454189287,-0.091785239799653,0.015973222702306368,-0.11074780808323743,0.07911792025901465,0.0945151276586811,-0.1366112931483889
077b2752ac755ba0f6ad683a7ef3df9013a1344c,-0.04018179691202534,-0.07281062896097554,0.0651518549945555,-0.16772459969271533,0.13422687593575927,0.03701453559871766,0.12042608684315528,0.2992327031723342,0.006028099728341723,-0.2453719775556517,-0.2288721232941684,0.040422383918427084,-0.020305123516644798,,,,,,,,,,,,-0.08453555987836398,-0.016978501689658483,0.2335094334154172,0.024865564380404076,-0.012978904856968326,-0.02815828176406687,0.11965996817810276,0.024412154015215994,0.08518697322479815,-0.16368700950706877,-0.12692814750793063,-0.09674761690570119,0.09123639110769995,-0.1740644192167559,0.13433463901281428,-0.39718406619087665,-0.3107101661408562,-0.02916981057037189,1.04054298757361,0.5998609558198263,0.3214739068112043,0.27015911697693445,0.07074601397789748,-0.11266951432088818,-0.32295569218045,0.04090921174009966,-0.026202168130195568,0.33809618251599294,-0.008987153317872695,0.15428449226035293,0.24382646820062634,-0.28971338164142096,-0.7358248253817252,-0.025104037217814373,0.4914357141832783,1.002895792790804,-0.30242159321901335,0.015287855198227236,0.2624029410536324
077f7ee5ef0dcb6280fa66c4227bbf62b67a6203,-0.6096356305769703,0.4099960209171134,-0.4574290275770341,0.1653160838843046,0.4153964580568105,-0.06555773435002854,-0.2695069725598561,-0.1635240980177522,-0.46724364737326884,-0.013283654271111979,0.10335409210651687,-0.27808101650242545,-0.6790176925876372,,,,,,,,,,,,0.08439156829493628,0.10497245488060274,-0.19852043210817283,0.013169693993190078,-0.25730231984557866,-0.06477291832120202,0.5002912127814892,0.08762058035608834,-0.28492635732441174,0.11204121292524144,0.028076093910676295,0.03321810121318941,0.04760874794346178,-0.06352106893728342,-0.0002148346178131363,-0.007568899179071713,-0.0005162467154263909,-0.48200936431678676,-0.2749534445891785,0.0486253916287117,0.11056718279600856,-0.1885999433489535,-0.2542971225403494,-0.010214529072034906,2.037516953655805e-05,0.35094968289228556,0.039688615058224797,-0.30698339931070423,-0.3134734621280242,-0.4227915956972926,-0.24455378779991377,-0.19277084884964615,0.19486598514482134,0.15840659068829982,-0.4106680437230164,0.0160854889506406,-0.11601342601832686,0.417844024778565,0.03284488490096915
07d1a260bc02a2b9164a5bf66822104f58942d76,-0.481132236516502,0.34686682082261394,-0.07140926231584957,-0.01718244291204076,0.12483481564881438,0.1812728525811113,-0.05240100156265184,-0.17840443371662282,0.008512794959398535,-0.2891038456228866,0.011062889142393308,-0.00603943563970977,-0.11440485390774185,0.8618263802691455,-0.8977409668253375,-0.23511195017667086,0.7911668449547777,-0.007418977906594118,-0.22560197450679081,,,,,,0.006803504223690783,-0.004880166608647792,0.0503950033503692,-0.048476910612518846,-0.1941931034835999,-0.11551122275922984,0.3328816585252302,0.27742058638291683,-0.21337603230113236,-0.04077248664878226,0.02870696579912946,0.12295630228621393,0.01722320251388665,-0.024981510102370173,0.08446475117859419,0.07000158588932646,-0.1122311094681748,-0.10416144827698712,0.27901421989794134,0.03360073257239637,-0.10554099796260737,0.09519595623194983,0.0601895105828369,-0.09083448046963749,0.12927326943411407,-0.09878984488622357,-0.27444802247819183,0.02123330841052904,-0.2876925061602718,0.08395223185742638,-0.5517220202796554,-0.07093949535778112,0.7061923206816328,0.046365048158468966,-0.2208096276584423,-0.049810644039685825,0.4907741004677737,-0.06230294307177254,0.03226614444028272
07ef32e5eedac30fd9601e66081e37e41f6b8aa2,0.24992590734830453,-0.3090421516609477,0.22810596999529242,0.11132463721758723,-0.14836535277254287,-0.1941491309400295,0.26987736817966934,0.1728687078621423,-0.1730971224277995,-0.11278442071524528,0.022437035463081213,-0.04683939886718747,0.07585015929178951,,,,,,,,,,,,-0.06928930010980207,0.054120657732164686,0.6478753872877461,0.18208261437241002,-0.23940446864288406,-0.2620110214345356,0.06620545605292917,0.007638836596876335,-0.09303615478027008,-0.08196896382267932,-0.02610262737548411,-0.2509192269943941,0.17712032819932483,0.007514037228120213,0.1555633685536427,-0.07203127249087958,0.019655310762293914,0.351758842122036,0.1699894064943632,-0.5813064489665408,-0.4945148838585548,-0.4998163423652119,0.2948273313113775,-0.6147881495538956,0.5319624783232614,0.08770988126338267,-0.20780507364357367,-0.9299194034571461,-0.008042168480687582,0.4469294869807013,-0.07532575198606811,-0.3241800495998898,-0.6238930103823762,-0.0450505717543815,0.2735607550949094,0.6077294152663799,0.17425201009952893,-0.8721348035925927,0.3733973917085935
07f1ce15c19200e12b04ff6c0f205f1882785315,-0.08597978141309226,-0.03283492251281611,0.18004585399165884,-0.08555929055260851,-0.2463546730938656,0.1747673605247834,0.499726433048678,0.2599878462010642,-0.3409272570522979,-0.31256276890637014,0.13597823120815256,-0.5901179759801773,0.42338136952570404,,,,,,,,,,,,-0.08690953579685178,-0.04761667357714592,-0.018387031708461742,-0.30250767708611515,-0.02210770376734798,-0.006786533837511409,0.050400832707574304,0.05180795562588509,0.10433822396485713,-0.003975638242988986,-0.1533561593787204,0.3662707169442523,0.013520842145090313,0.1809883071234806,0.0587359103233613,-0.12954184534512894,-0.012563861311187535,0.2734579145068583,-0.6063663916436393,0.21968010043806988,-0.028458161464191074,-0.030702522660270477,0.35306039680839774,0.06972808548197879,-0.44472772119186565,0.11899435050547941,-0.12941302792494144,0.13024425282986224,,,,,,,,,,,
08159c3c553f25c6b3ca4f2a728bf1825fbfb5a8,-0.2083206371529948,0.08993891971016454,-0.4552848447227304,0.04914677938184666,0.04671506426123785,0.04237919519194738,-0.07930597309634761,-0.07365556165496948,-0.42560463192287273,-0.0058692551800743195,0.0516869024384826,-0.3885551918113962,-0.06346477737937528,,,,,,,,,,,,0.006445530851308866,-0.048764457016535694,-0.06930527540828026,-0.23615106336096064,-0.006765560311909503,0.01640926878134358,-0.10871745873238979,-0.012780925830756549,-0.03777070389623565,0.021423761086506277,-0.061356859967140825,0.11746867584873422,-0.07668652922793774,0.005544612038652608,-0.03304438874408847,0.048553025627927855,-0.034214471461963054,-0.23620649479167663,-0.20587414725100497,0.0552512329717012,-0.26536518435188394,-0.08827591206182689,0.17554830715184838,-0.11981428858688767,0.08094473005504413,-0.0005069708332387723,0.0921552067437237,-0.04435228115146481,,,,,,,,,,,
083aa9d805a7053557891a09d6e24e657301fa2b,-0.16756437600338964,0.0742679914314367,-0.02917839136972027,0.27471164353294486,0.12062382686464249,0.08182518476768776,0.14200760583446329,-0.29663127810831075,0.33157772146258085,-0.12724912127521767,0.11728478106352501,-0.2516161067737225,-0.09776593495034507,-0.16910180355166274,-0.07118815323212159,0.028048154866675896,0.2730705975157468,-0.11349671131498336,0.39150995529708515,0.0988342239936722,0.24577239247994512,-0.4329253870788135,0.14871732542230373,-0.055492409722273844,-0.0015133137926281015,-0.04358995569852718,-0.1475887378841764,-0.12862526401433594,0.08928993120063482,0.08868966343140766,-0.0003659146366381735,0.024783603128193728,-0.037823868820921425,-0.04154718580503979,0.027298614913547146,0.04267933122835177,0.042768164376039475,-0.00912878031043281,0.0032955136323861516,0.05217377099731071,0.00019939540612355614,-0.21651130353340992,-0.2556702818125706,0.04882421079493774,-0.10292253910437284,0.017576656038898294,0.0557372404854619,0.08039863198218243,-0.0016960443827359888,0.036672845402054725,0.11826001102117603,0.0853153966599699,-0.24909331948590757,0.04092932052679931,-0.362854935345474,0.06453599715355376,0.3618285444718852,-0.1873832717629234,0.08163535366576362,0.07425741411238163,-0.48395592684826394,-0.34562538106173185,-0.3858007681315042
0881199053e24fe82162cbc4bdae863d884c36e8,0.1650266810024268,0.07413333004270914,-0.120600953842819,-0.0812699150581224,-0.0576871756636143,-0.012536436564930488,0.11660249483724992,0.022259125516546126,-0.13724649636817265,0.006173521460070789,-0.021978213227133926,0.09385563055919925,0.23856979797018196,-0.2658274910910279,0.25577870352446397,-0.37927474455461596,0.11769619255948824,0.2116971956653837,-0.31892336727678106,-0.09440884957040126,-0.031475894891436484,0.035286846516435384,-0.2118960650141124,0.05768372446870496,-0.06601570698986887,-0.03163974666780496,-0.0051893037619023105,-0.1690497160186066,0.17223295306701575,-0.00013130849155043462,0.04489211266599166,0.026571684906962247,-0.07892264761377164,0.05713461117291084,-0.02320017763105577,0.03173482439624487,-0.11430856502205024,-0.06384718650680785,0.0043292700872113125,0.03967403123538798,0.06024793512515832,0.04424059944630893,-0.17368760986697043,-0.0022843126176345504,-0.05797036580474456,-0.1706110059561569,0.21708843078464454,-0.22511488204738236,0.02472785078981558,-0.012619385029606849,0.14217136605518543,-0.00237999926538932,-0.21124567242725395,0.30236175213017386,-0.13228924733102093,0.5067116073661816,0.1894943320268353,0.36669079145511724,0.07924716875354162,0.0742823945855621,0.0337900644345556,-0.2715617212474727,0.5790640059457736
08898ab83cbcadb3ee1432053061f27afc6cb811,-0.606486971094966,0.500432965916777,-0.40369027200257146,0.13648704628177977,-0.24050369934298638,-0.04526014736826655,0.022717799055253916,-0.35026448294865636,-0.6125750024499886,-0.3823701057923045,-0.04279541052382862,0.48752779657295,-0.4158753167139351,,,,,,,,,,,,-0.09360072714649231,-0.04030556157761915,-0.19640473173414072,-0.09375415855281494,-0.056765422889095134,-0.012689669232958792,-0.17537814335293522,0.2714802603087008,0.05528517264798523,0.10876692012799302,-0.05507874717189758,-0.0807649281324884,-0.2777528606131246,-0.10999916978692377,0.05336541005368072,0.11300265024457273,0.05314953388783375,,,,,,,,,,,,-0.1779375285676707,-0.40268809614439,0.14459140428143458,-0.1491833958720113,-0.07252516218849345,-0.22062457091197335,0.08422897382407128,0.7529210236608874,-0.4125214992227794,0.028277203058881414,-0.3148003276310271
08a97b45b3c0d25ebd5997844fba74aeb7a75384,0.05095381063251253,-0.0908805314620894,-0.0418570478904462,0.36972684443817694,0.21021755773222053,0.15679391085375266,0.19439045758430276,-0.08205971763062951,-0.16273646669840885,0.037324690072119,0.16022482760401235,0.21843618963802114,-0.30477297370357526,0.26323917229815263,-0.31718597035723717,0.8864452307438295,-1.32429791769065,0.13550150940595154,-0.1380144486212477,-0.174676285517701,-0.2462319804107032,-0.10721177425268215,-0.12530863875591847,-0.17734676986433764,-0.0960524930741421,0.024714439932272254,0.07444069865619081,0.10731737860140456,-0.08943891425427979,-0.09373044509226709,0.36846180618176927,0.3108451473899291,-0.2310076261072147,-0.0031704643843441568,-0.07067891587077464,-0.07093637210782129,0.15848964879166258,-0.15898828638780502,0.145556537403377,0.15062320986770633,-0.016993047540853748,-0.46558664296476204,0.5270993565839655,-0.12319257122649874,0.520106457667668,-0.5593941599428659,0.19516750563782523,0.05272015973181695,-0.14249517323727182,0.05386457868589777,0.09389562683461126,-0.348038261604605,-0.2855681280951094,-0.5340582753900985,0.234827754973562,0.0371744450826007,-0.175370742885481,-0.14681845548079278,-0.21530371898117423,0.10213943627747765,0.020696771176433686,0.04880377976024772,0.17126696338214767
08c946c01254867ae5ff7058d0bad55f9205b140,-0.496949023063329,0.3748340860052016,-0.12259290831991851,0.2716091051077353,-0.6710833039717133,-0.5132443042327814,0.3240910332727218,0.7379988883661263,-0.667718004434299,-0.16850309637336414,0.30742911878637325,-0.05083934187287805,-0.09178670396156538,,,,,,,,,,,,-0.10326569049267606,-0.0767410773753155,-0.19812926244566348,-0.1201975489847439,0.1232624769561917,0.07528974040550716,-0.1762365857865571,0.1039616007613548,0.020573762982552795,0.03948295712288874,-0.08695298787744327,0.10197545824278657,0.0028382342644163545,-0.09512706878033172,-0.07572731838067304,-0.023688426514742372,-0.054378410107560206,0.18761005509007692,-0.5466888079289163,0.507473250451283,-0.6543310540505002,-0.03055609729352454,0.144484781333328,-0.05178126079889299,-0.4368327910681308,0.49027961824117106,-0.6690938652210515,-0.19999770676276746,,,,,,,,,,,
08e1a76c26a5fc7aa62201e469074e28dc825307,1.1769477073514705,0.4455549655386552,0.20414841042031287,-0.174059096260551,-0.32185607259947674,-0.06776506695894569,0.2058576749426082,0.19034006816087817,0.07637076047332482,-0.1670074981607917,-0.27769119348046223,-0.30102443002531354,-0.11796050098713186,,,,,,,0.12292965520687345,-0.23492350164801476,-0.09657122905455703,0.14596502670438546,0.3953424156415973,-0.08151963046906611,0.02506012238849907,0.7391708469234061,0.278626489339965,-0.16022973780980573,-0.08399299441435248,-0.23174664000161338,-0.2654014983117047,0.020565723896565784,0.17064699675788975,-0.2794606200554964,-0.13802748685139313,0.15946373084938945,0.009915023825071367,-0.2690133205653695,-0.05038127423876822,0.058564209369027766,0.7355343085033099,0.27126307066850086,-0.3640166576439243,-0.5931986186681765,-0.17475247143342393,0.11364823182523316,-0.17306518245742356,-0.1813772502370293,0.21396993418041593,-0.703145044322489,0.4569772031830352,0.5280046636806797,0.44564523239430465,0.5329291230276378,-0.3223627100925773,0.15836690510607124,-0.1180690748482131,0.06292159483212828,-0.0425922912451986,-0.2920400553874337,-0.02509884900772586,-0.2669712721747574
08f4782f87b4f2809cdca15e7a6f356a200b05a4,-0.07277988529169545,-0.03653977124211814,-0.02942292235736804,-0.1010233530418375,-0.22501112152310215,0.001937363510078165,0.32981291220210945,0.1550396583363016,-0.1169243341182096,0.6907962918924522,0.004948716798157598,-0.013663340114784634,-0.07278255110716245,-0.05923854723526157,0.3003177795764488,-0.49711395563495164,-0.4097122375262212,-0.3170710149073426,0.4097714978657415,0.029959232948025487,-0.08402641316821631,-0.16168668750176732,0.18445502986503445,-0.0822204090182453,0.0015477445424046839,-0.015953549994962495,0.08904483794408549,-0.08957429169573802,-0.1118983678308516,0.04482702469279239,-0.07439205444956772,-0.09923181185235776,-0.13153203506206673,0.13905117849627047,-0.006467932944548732,0.03168623487130299,-0.08828121083762676,0.026408524167696,-0.0918964128751433,0.031077362912699465,0.015920636343645638,0.2016228467773267,-0.3304741057385654,-0.056887434434445765,-0.12555365355238463,0.15282792408568427,-0.07288439040258997,0.22655146640872595,-0.08448729093599687,-0.07225138379078741,-0.007749379767397209,0.11895219004134515,,,,,,,,,,,
0909b6e4b5a72c8a2c256e9bcdfe1e90e6b04418,0.03131194828271155,-0.12670576545046275,-0.0437529617694899,-0.09101259450452191,0.012522133402130469,-0.08181809988839332,0.023435219827891027,-0.06571626807747491,0.06016289868941676,-0.010931789342869619,0.029971259357141254,0.0887115204561338,0.03222457454450512,-0.21946441304842576,-0.008658715108827666,-0.027748288604614164,0.13189749688449995,-0.10898538192201301,-0.14211498432273176,-0.0015784107425267104,-0.1887987582703171,0.06156091225732021,0.16681252072738534,0.10514874647736638,0.04054549303708503,-0.011795447418898255,0.14736716578545112,-0.12357698825489083,-0.019585377569938285,0.009980415304984822,-0.07804261771090124,-0.010108518800446175,-0.04738091104751227,0.019128021924114762,-0.0022797949063545556,0.051694130586977256,-0.006539729247629444,0.07049497052953031,-0.03591516193357875,0.04460844081931261,-0.021762281666701494,0.16271907327645616,-0.11401165148433164,-0.004711267455283099,-0.014891981599103191,-0.003412988724149638,-0.00922539304235767,0.07690761491187861,0.12650209662572615,-0.02929899886895364,0.037907014203700524,0.0660400351961841,-0.20588209486467246,0.3852835219279426,-0.27411637018578855,0.2488335293906722,0.061596889617206364,-0.05481272381905954,-0.1253240328824447,-0.3374779819471813,0.11653110030027321,0.007396444031565016,0.02424875707664259
091f6db2bcfea1cd2db398465a88df2ad650d39c,-0.9476622292775734,0.8618775914937303,0.769529216618685,0.10347569288954331,-0.5524347673951475,0.27384915066074844,0.056955615117765736,-0.16861601184989114,0.8130279391331612,-0.16853086553692256,0.5033279082937818,-0.49013276704702546,0.02425829110522984,,,,,,,-0.04796138244277385,-0.449248074337683,0.05553928882738631,0.08811342849613256,-0.09328591981197477,-0.053474326533695625,-0.051073972623664574,-0.14894735104213214,-0.16020814844773804,0.11449099604588368,0.04004958960425633,-0.043355979659553255,-0.0042174879537766104,-0.000792524300257855,0.11904908007149585,0.050622004670892194,-0.09261662151397054,0.030786813164796166,-0.06467959502097241,-0.00026060279677996256,-0.07468638369079435,0.027252460424949287,-0.7005224800920582,0.0015561525416918475,-0.2226009335834566,0.015024864921880269,-0.07615781601045887,-0.3555110651848603,0.058564485857255114,-0.030711293113742613,-0.255092873880349,-0.04450353106230088,-0.08756315508220724,-0.26420735364432985,-0.5208593749851325,-0.09015838210527988,-0.5290650766441026,0.008498671474511367,0.6411727238515198,0.0005388675989453293,-0.051335479123976534,0.2554976843779256,0.48519155642675393,-0.3950357263929174
