story,Politics_0,Politics_1,Politics_2,Politics_3,Politics_4,Politics_5,Politics_6,Politics_7,Politics_8,Politics_9,Politics_10,Politics_11,Politics_12,Politics_13,Politics_14,Politics_15,Politics_16,Politics_pca_1d,Politics_pca_2d,Russia_0,Russia_1,Russia_2,Russia_3,Russia_4,Russia_5,Russia_6,Russia_7,Russia_8,Russia_9,Russia_10,Russia_pca_1d,Russia_pca_2d,Public services_0,Public services_1,Public services_2,Public services_3,Public services_4,Public services_5,Public services_6,Public services_7,Public services_8,Public services_9,Public services_10,Public services_pca_1d,Public services_pca_2d,Crime_0,Crime_1,Crime_2,Crime_3,Crime_4,Crime_5,Crime_6,Crime_7,Crime_8,Crime_9,Crime_10,Crime_11,Crime_12,Crime_pca_1d,Crime_pca_2d,Crypto/net_0,Crypto/net_1,Crypto/net_2,Crypto/net_3,Crypto/net_4,Crypto/net_5,Crypto/net_pca_1d,Crypto/net_pca_2d,Inflation_0,Inflation_1,Inflation_2,Inflation_3,Inflation_4,Inflation_pca_1d,Inflation_pca_2d
elespanol,-0.007972110499791,0.0374792841965699,0.3763004192663589,0.085058985219757,-0.0146641337196527,-0.080963054595939,-0.01388972103131,-0.0701502790068118,0.0046963397638391,0.0421839224557023,-0.0614450182930929,-0.0505408914730104,-0.1246812261601047,0.1245997109565566,-0.016556588821942,0.0814043335214771,0.0291074384486555,-0.42776504029181434,0.24802440836582001,0.0050048189214395,0.4436824499722791,-0.1959976848706672,-0.132262220465287,-0.4098709503160375,0.0189218301445033,-0.0438197402661356,-0.4845836662654594,-0.1039820421529167,0.5084345093428019,0.22082869154911,-0.002902117955760554,0.599498707175112,0.3703916677653149,-0.0303679504955273,-0.1545015514946894,-0.0684124474743898,-0.1835481304389169,0.0900381837385998,-0.1848495167235394,0.0273506344489064,0.1193208993845708,0.1107572858636295,-0.0812421536237283,0.3432054572914981,0.46750651595885523,0.0542176192761573,-0.1204112755652301,0.1183361282048163,-0.1275429818754582,-0.0541916684221249,-0.1195557665453602,0.2055341447267757,-0.0405252884664811,-0.0497842570753873,0.1046654707733262,-0.0064983545989442,-0.0240218007853522,-0.1390346064918514,0.5787628582430907,-0.13848904598777398,,,,,,,,,0.7506768732788789,-0.0671884817299234,-0.1871725209343667,-0.895525042935263,0.4731217563084564,-2.273287540501994,1.1313801945704045
20minutos,0.0023829365874856,0.0421063608306089,0.6503184203952704,0.2501460276902365,0.0189977142031162,-0.1073626577236445,-0.0716089399833065,-0.0315099977739396,0.096287805524266,-0.4130991996814802,0.9751594151485948,0.9321218268694864,0.2632471157712276,0.1102906757683255,-0.1659499477829459,0.0478521714013433,0.0985388878772002,-0.6152838316056746,-0.4975094862307146,-0.0070242236604724,0.4470739694202736,-0.0626205314123394,-0.0215013649871336,-0.3024692786064124,0.1151800207156407,0.0727949039861491,0.3854919144739634,0.4774436997681611,0.0840712929740102,0.3795509746754023,1.1863470015303221,-0.22165988444727014,0.3384233688822274,-0.1094035919409047,0.002253799496875,-0.323348395963472,-0.2438134698489772,0.2994712572761164,-0.1265250828208027,0.3773377915322874,-0.0068954609599573,0.1167733746966842,-0.3525903160059728,1.8444932246715906,0.3619068084041959,0.0769781470458349,-0.1285247541931344,-0.1216154883017458,-0.1196741065519329,0.3304034014068035,0.3947911618406629,-0.1715482428205247,-0.1636886178534697,0.0311186575276626,0.0660023012974096,0.0266739760249305,0.0147593491331715,0.0318974934988027,-0.874676784938416,0.10409007134273583,,,,,,,,,,,,,,,
catalunyapress,-0.0389090458907734,0.00318590520669,0.173165852808827,0.073302085757584,-0.0408643707626819,-0.0864833909190243,0.0203227461534224,-0.121583039390868,-0.0211885623404453,-0.0382049769577647,-0.0266257100805309,-0.0433348238263093,-0.0271733073361751,-0.0736178778606146,-0.2870703574789368,0.1128021320837937,-0.0390748609321225,-0.3204932596897852,-0.4708714288283686,,,,,,,,,,,,,,,,,,,,,,,,,,,0.0900491722427887,-0.214646437857988,-0.1295709059669401,-0.4572691219999264,0.3487583399261078,-0.3634979742145622,0.133418608710167,0.2338974018230419,0.4810274317935408,-0.0523403099758132,0.3995540420955614,0.2594895852032314,-0.0937356985018414,-0.30043991466103237,-0.1430092068369056,,,,,,,,,,,,,,,
eldiario,-0.0179612644690465,-0.0164516317799343,-0.0135883986181962,-0.1884318241999888,0.0757225468208779,0.0522871270551726,-0.0231818424229743,0.0486326627102993,-0.0405970293356467,-0.0066248063327647,-0.0030047692500559,0.0063925314042244,0.0099925167273624,0.0025789211680513,-0.0073767680814488,-0.003020747550397,-0.0009808225689339,-0.36856176559725856,-1.133561158559122,-0.0536028469574812,0.2323373245877897,-0.075796040031231,-0.0534103237926781,0.089330853146768,-0.0332960218202749,0.3002816274315406,0.0705945414602071,0.0182051651143753,-0.0529049922865187,0.1565433015416666,0.14399143169851805,-0.3150499096643705,-0.1136020138606621,0.0686420019039004,-0.0357619870365349,-0.0309107569564398,0.0590000032466867,-0.0644582250453437,-0.0245521132575304,0.0953370719355823,-0.1237316349444891,-0.0219728769380168,0.0286019828747673,0.2953477995599426,-0.32007637670412603,-0.4293861147173026,0.3292501536388931,-0.1655306963224078,0.0812294617660068,-0.0132409750864064,-0.0687503549740755,-0.0013472691361486,-0.0556607947376801,-0.1378990556801603,0.1136385937089986,0.0076727707233893,-0.0835407108133384,0.0459938910785481,-0.6372476834015334,-0.280825489168713,-0.2668720332715975,-0.306660031672426,-0.1503997475145372,0.0362133370506992,0.3028825791903871,-0.1891216259064082,-0.6509292720233626,-0.5600158045561918,-0.3685559194900396,-0.0392162343810969,-0.000329017322765,-0.0987655960661169,-0.1835592843955352,-0.002967443514472784,-1.0033343402761392
elperiodico,-0.0015836697587779,0.0706538020884169,0.2753638474316422,-0.0027994707406735,-0.0168584162910065,-0.0577249030774464,0.1467676236809171,0.097540445863469,-0.1278137057310107,-0.1059673414092969,-0.0657603044330278,-0.0106651724677764,0.089730236235425,0.0699946025814916,-0.028051286583678,0.0978447583089655,0.0218497448923697,0.48206632524744764,-0.19269307450777978,-0.1013967346277894,0.0523133034919491,0.1860208533617387,0.1508092589937902,-0.0986421960560829,-0.0985596800197455,-0.0098218285657194,-0.0041596229910629,0.2948709953625711,0.0180077624282971,-0.0240198770766868,0.06589421851896501,-0.07574091837795384,0.2947113758268699,0.2013633072266067,-0.3633507260733317,-0.1172017990882332,-0.3634903115232432,0.2989588915850273,-0.378146101218779,0.4273280209927309,0.1591287054050489,0.1460018494749726,-0.5370608509175994,1.0974491116557161,0.4661539177701227,0.2290530646594622,-0.2330315008306984,-0.1378894569393769,-0.0794284627690733,0.0410889105298762,0.1159706854395352,-0.0751486985284707,-0.1750319741809408,0.056187727870627,0.0001390170949006,-0.1108615931979553,0.0898199653686495,0.0390938794754404,-0.3744320651990558,-0.21004422440974546,,,,,,,,,,,,,,,
europapress,-0.0157596282015234,0.0514708172416706,0.591934152798913,0.1675519670546884,-0.1275621667674128,-0.0752131012774011,-0.1025416978224617,-0.0235588339679734,0.0273666554645179,-0.13531498396914,-0.1431116533957578,-0.1567696153829497,0.064780112949532,-0.0771434134402761,-0.2126656332603682,0.0821662436813362,0.0014949694066893,0.07290190110638572,0.29825696519876765,-0.2488658964106458,-0.0063325770091386,-0.0865433569486294,0.2495333121894398,0.2012838296602388,-0.2819145379793694,-0.1602944760902962,-0.1347622268784511,0.0399044486666963,0.0332814485352269,-0.0352008013241176,0.26733194975445707,0.5218801534470089,0.2831685486493987,0.1122950295228396,-0.0542130559001029,-0.1571917663879948,-0.0951606088421032,-0.1197378518905357,-0.075533417896568,-0.0142256962275717,0.2511158238545258,-0.0881863301937533,-0.2285750365986876,0.42324091522380797,0.7467052660786517,0.1393450318370614,-0.1103028798229293,-0.1279865343661663,0.0175749288395738,-0.0343169896073294,0.0104179976682219,-0.1229952760869408,-0.0132775857600729,-0.0475561851370325,-0.071765198157371,-0.0056611278052991,0.0019847442237986,-0.0430078284963765,-0.6260368919156516,-0.12769925761669543,,,,,,,,,0.2031082424490156,0.2599924141531136,-0.0377858103107777,-0.5024261827268057,-0.175758621334251,-0.13561765788977628,0.33289042065980023
infobae,-0.0410206911572007,-0.0035732006341299,0.1571745572082499,-0.1113741298577404,0.1476012179242286,0.0274092798835446,-0.0664520750355774,-0.0201731468266439,0.0355233828399183,-0.2235659242360586,0.3708058566122665,0.5017169478789849,0.1001940630267747,0.1664328203125251,0.0372692642613373,-0.060402200404741,0.054021482048582,-0.8327034751456993,-1.191818663086313,0.2774605860361671,0.636536565326036,0.0540867327148363,-0.3109714808274638,-0.5294808929174968,0.1368562720475849,0.0205088920157662,-0.0159887816112279,0.1231761541630263,0.1731336768971199,0.1887546405568551,0.8464478854168479,-0.009453262737393688,,,,,,,,,,,,,,0.0045161220353505,-0.068273904443397,0.0469485986719732,0.0800783275779572,0.3217202103817626,0.024374985330717,-0.4421740288447207,-0.2116278078708078,-0.106037580992224,-0.30445450494512,0.2024990856664409,0.0192218437093114,-0.2150855158999582,-0.3910093764757913,-0.04896445762725837,,,,,,,,,,,,,,,
rtve,-0.0018069964706568,0.0327959065856073,0.5136616509818658,0.2980047174186293,0.0009868705855886,-0.0343390288615046,-0.1633189177653845,0.1175880587188363,0.0129717966392464,-0.3579045062169426,-0.2736762299420551,-0.1390570095540236,0.3474696387477725,-0.224849407190683,-0.3655918884828854,0.1451963646246415,0.064207802193193,0.3951043691177813,-0.30509904183096986,-0.0501047698176508,-0.0362713881354373,0.3969726313905352,0.2462558654374417,-0.3896424192901299,-0.2841983818475486,-0.0229292972971074,-0.0147315342115064,0.2148954676357643,0.0605975443516285,-0.1255176324984397,-0.1436082726656227,0.5577245039009409,,,,,,,,,,,,,,0.040553999634108,-0.0756617505502752,-0.0185932447220664,0.2746861750624161,-0.0383426904908219,0.0119431013379529,-0.6539180137014424,0.0402481163745354,0.0263472931077685,-0.0307795176313688,0.2864136106206145,-0.2803222926142797,0.120053191390639,-0.5274729991732522,-0.7557244407672551,,,,,,,,,,,,,,,
abc,0.0058017453706282,0.0190780086402308,0.5179866248172235,0.1832683340400938,-0.0008500886240547,-0.1396747554122041,-0.0677197149527917,-0.1061000484760047,-0.0060309844748514,-0.0231202691383984,-0.1396722134291507,0.096905838536613,-0.2074726022170543,0.3019651770174687,0.1709760083842077,0.355171287917995,-0.0190790064618868,-0.6420391972049657,0.703059538005106,-0.1255692070549018,0.1897036954621523,-0.2353614726088448,-0.1299543286223875,0.1366671517886395,-0.0921347020171469,0.1773846051601149,0.0609900798935575,-0.0604232972760617,-0.296075225564108,-0.0310221442062639,0.22284150811955442,-0.18909776517129828,,,,,,,,,,,,,,0.0709632525371071,-0.1062564999452563,-0.0032501993780181,-0.087207650507906,-0.0338844424870167,0.0369776873762878,0.0931974069810509,-0.2879507893476734,-0.0897979746015333,0.0046314386640926,0.1503883690392854,-0.1060148308395013,-0.0751420111493307,0.23238560191336055,-0.2221212672614533,,,,,,,,,,,,,,,
antena3,0.0081752837679487,-0.0075813948626134,0.2993667175177821,0.094061682015505,0.0761553220221915,-0.0628473435317017,-0.186011517674964,-0.1448158088530122,0.0084584712542695,-0.0343072398080743,-0.113366546593649,6.519832070207149e-05,-0.0516015938742608,0.1756852760066809,-0.1275293298290112,0.2155172239532948,0.0224069628225359,-1.0179296069176846,-0.21277821384450385,,,,,,,,,,,,,,,,,,,,,,,,,,,0.089275933242372,-0.1467921446517739,-0.0642783444624645,-0.0216128343017731,0.0862840861171875,0.1174590275088652,0.1276647802380598,0.14772284070231,-0.1359319369613098,0.1593130384005846,-0.0981741661349747,-0.1811601861438129,-0.1425341303652699,-0.9597595020488503,0.3583128308274696,,,,,,,,,,,,,,,
cadenaser,-0.0173009877102005,-0.025917895323106,0.0201582187009227,-0.1583519043038022,0.0698843903435033,0.0310556046389081,-0.0579797318245173,-0.0107230270200681,-0.0328460885509771,0.0379371712613257,-0.028901611356208,0.0298336676424944,-0.0240161323009767,0.0106515776061256,-0.012568000740748,0.0103224804296921,-0.0115900887792435,-0.5323867648619439,-1.066509861960202,-0.0615067362673476,0.4199791433415581,-0.3592612823210317,-0.1078835174321289,0.1432324385733152,0.1077630287004125,0.0436062764024268,-0.2654868932850124,0.302956464374812,-0.4963375260022323,0.2354550436688396,-0.11138045264668897,-0.1164512440919701,-0.1621831106406021,0.072355386166506,-0.1483182965444006,-0.0594412752077958,-0.0528193954662737,-0.0073154005577562,-0.1279758776555091,0.087708297795805,-0.028521012194423,0.1028019137106861,-0.1638226195741586,0.2546182721337321,-0.17179740751627076,-0.0923039999080381,0.0059037041213928,-0.1090000286012072,-0.0479039043238886,0.0418471716344471,-0.0989622532650723,0.1286704193370548,0.0199311784260292,-0.02594783952346,-0.0497527520544371,-0.1688517223629281,-0.0578600044571379,0.2504388481073946,-0.3741818313456009,-0.08973089041775402,,,,,,,,,-0.2405069243868118,-0.0792666533700931,0.0936719300452081,-0.0967995552850939,-0.1307908070285847,0.026113664783555944,-0.7060396729367175
diariodesevilla,-0.001918847590372,0.0450603166048162,0.4941934198830409,-0.071592692841352,-0.0299608969083862,-0.0670845305428829,-0.0753557784476946,0.2022901136442154,0.0047608578291483,-0.3169974073928233,0.0911955551190869,-0.0674487963717584,0.1255119809590707,-0.0949676201542703,-0.0293279769100213,0.0469243550167348,0.0348737400457725,0.247940644991978,-0.39285127622473764,,,,,,,,,,,,,,0.2549746051361374,0.0045107290119867,-0.1511519375749005,-0.1255485694517016,-0.1468570320730797,0.0418777176072358,-0.1223092119546016,-0.0060081162544229,-0.1263277467469649,0.1953555407033635,-0.1858320539260147,0.3902683735570381,-0.08752508190616379,0.1606661214775491,-0.0853657268866033,0.0604350528727875,-0.0074868115113531,-0.1049419008323901,0.1037462524352136,-0.0900588509269729,-0.0540457677246636,0.0288666296701922,-0.0679991291272684,0.1044164324369651,-0.1150805427552236,0.1268435658884582,0.3076147022186372,-0.2877113037153948,,,,,,,,,,,,,,,
elcomercio,0.0027983308840252,0.0789018154810764,0.9049569435137788,0.251955263126395,-0.0582536603576713,-0.0886335652477527,-0.1612307042825704,0.0749071422787219,0.2125776008030359,-0.568719498363951,0.3712445648955936,-0.2442950814722229,0.144944734531654,-0.4842062038154046,0.5144405457884078,-0.2001879316905186,-1.0854215791470656,-0.47811119042287653,1.2867568966052716,,,,,,,,,,,,,,0.1302632804104304,1.2437697109797567,-0.5109686649068412,0.2107524524239158,0.2011647594834053,-0.3271542388608736,-1.3542706654113768,-1.6811051401229338,0.1102800223220765,1.2353150440414844,1.189897554839053,-8.206870192402038,-0.32810219985307015,0.0724513690370676,-0.112934036692921,-0.2403520896732919,0.0535928141411656,-0.0418728054901124,0.5458776571961723,-0.3445347924375447,0.570330118380865,0.3546795944385923,-0.009647008127792,-0.325928116536363,-0.0361493290711181,0.1996523906675205,-2.2886411279189223,0.10511925513294794,,,,,,,,,,,,,,,
elconfidencial,-0.0116820865467079,0.0283655992809155,0.3621911095016087,0.0559715228333157,-0.0250812499527583,-0.0604120645126101,-0.0604502299550077,-0.0291514700168731,-0.0010265320101027,0.0857951464503477,-0.0452167798869476,-0.0179688010258988,-0.0225658894707109,0.0190651546170579,-0.1387908177729792,0.0349393192960234,0.0083129237700903,-0.29007676698461654,-0.14230680104612187,-0.0868128161273178,0.1998319914558897,-0.180558884272264,0.0228564386712556,0.0999949084215331,-0.0270638077055147,0.1073360929669297,-0.0690244375772558,-0.2439725024722889,-0.1492217572313483,-0.1162608120626443,0.1468749882875455,-0.13409260369244103,0.3997331737273953,-0.1627437103266734,0.0547146761197028,-0.2943114975816561,0.0930666384857733,0.0797987689272786,-0.0097922887970971,-0.3377105216500292,0.1347207595186218,-0.4487566351176875,-0.0825263935343433,1.0733040204583255,0.7958778174448611,-0.055706105697254,0.0544419226604534,0.0450021938954334,0.0474263437514483,-0.0669575265444851,-0.2117583495100649,0.0300945527202791,0.3271623734116675,-0.1085938476875572,-0.2232385532431621,0.3521892927642562,-0.0041681132163789,0.3141328242095594,0.4739518867675703,-0.3291386877876498,-0.4051551971054379,0.1592743343563201,-0.2516610551994133,-0.2870408891011236,0.0407370625859927,0.0953326520649296,-1.7921732701007491,-0.03288831426691927,0.1086880116665729,0.1228111895527318,-0.1203043786794818,0.0293664896709679,0.5507514755134721,-0.7649627395137776,-1.2011688431140168
elindependiente,0.0060840759544094,0.0219735714843076,0.511691512593992,0.1037725984370046,-0.0344050720337835,0.0094560151340045,-0.0728909006563039,-0.1105663115344851,0.0202604531352729,0.110320572193598,-0.0460041617296224,-0.0580347038207207,0.0864913674852602,-0.0429019816242531,-0.1734806220679347,0.0937603344346501,-0.0855104915659,-0.40456662190371057,-0.022968945300889138,,,,,,,,,,,,,,,,,,,,,,,,,,,0.0447280555864327,-0.0313484759815115,-0.2194604019737204,0.2988956063061826,0.0651519391752192,-0.328775957920694,-0.0665296023833574,-0.2573748493007914,0.1824954793189535,0.0731499013470956,0.1101882753998735,-0.3776579534357642,0.0452524055118437,-0.531493559356972,-0.4535520282282758,,,,,,,,,,,,,,,
elmundo,-0.0270220515661298,0.0215850177835448,0.37025457471607,0.1328313180136608,0.0473742533056221,-0.1286820837263477,-0.1386379166653852,-0.1131937376061467,-0.0211641324384282,0.0248835234606834,-0.1361497849066156,0.1141805305016267,-0.0878585762105923,0.0987994698430148,0.0967220087111064,-0.0717800671752524,0.0875759434545386,-0.5732351417086741,-0.02851154863400965,0.0705347746744797,0.3317336597687067,-0.1680198923571796,-0.2859801313120687,-0.191191614119455,-0.0207917623317818,-0.1594625392895235,-0.0535970216647418,-0.0197030473259361,0.1195606591768748,-0.5732423201224304,0.8756496409436318,-0.9784590858966404,0.5724383439597684,-0.0926815962046923,-0.0349855794531676,-0.3184905434631632,0.0241291640088158,0.0543071871911915,-0.0700143434001809,-0.2599854123143317,-0.0816925653702306,0.1242915025876826,0.1073182742931213,0.1773173003130151,0.6759395060631014,0.2674207660862397,-0.2495344525159949,0.1580202647196341,0.0742804899696791,-0.4134370819559018,-0.1855387938198712,0.1008318336696684,0.3389525583602905,-0.1069737182403439,-0.0468679997871857,0.0002576987708457,-0.203098424188819,-0.1427264135315507,0.28654686227961934,-0.17512845488575232,-0.0538798176592879,0.0244572011088698,-0.2117891475263798,-0.2730275671644446,-0.2062265864955611,-0.0943120032124123,-1.6005556238280163,0.13396361055304326,,,,,,,
elnacional,-0.0342622239305514,0.0730064561606258,0.1948894528601075,0.0465427407008294,-0.3004167027696853,-0.1867941762651606,0.6334060339306291,0.3039604691232379,-0.3952423592072678,-0.0152806676289752,-0.1059834370387484,0.1549378764933454,-0.0088428516866055,0.0356506077087065,0.0156251808157073,-0.0499520788934647,-0.102900734822994,2.7465401025448326,0.17144149710757786,,,,,,,,,,,,,,,,,,,,,,,,,,,-0.0110124262301883,0.0621968532376526,0.0448795869590855,0.2328322967346612,-0.2153395783117445,-0.1813612852746579,-0.044623075657555,-0.4525356916663905,0.1926794203892359,0.0385766709961182,0.0022758176958786,-0.3055776725890048,-0.3088974816027691,0.43340950071584666,-0.5299157898735891,,,,,,,,,,,,,,,
elpais,-0.0197892935788367,-0.0045933034425778,0.116540350582638,-0.0862901752641925,0.0636103127408815,-0.0052504856473339,-0.0302812747205208,0.0141880659860501,-0.0402073007211294,0.0439137840847596,-0.0583370644919418,-0.0116551220369191,-0.0702016490298887,0.0339041860432725,-0.0407713518690526,-0.0057935971608121,-0.0299724886382907,-0.39715061903112314,-0.6746369307463498,0.018768125141414,0.2114669783713765,0.1133978708947158,-0.0716307093000236,-0.2995334528959958,-0.1587413423781787,0.205724935978239,-0.0886224263319522,-0.183191620470534,0.3577467314377561,-0.1603099792504378,0.04183997605267566,-0.12032666039535644,0.2032732772205848,0.0514824371474149,-0.1816731059714549,-0.1437990819945784,-0.1150275139695621,-0.1732194022766643,0.0939509363189934,-0.0798895240124238,-0.0716664553536722,-0.17326265020184,0.0486168032914294,0.2945950608465186,0.24850973080377003,-0.1203590176157604,0.0760356844846019,-0.1939313223778789,0.099386061617756,0.1870496176015293,-0.127787387491488,-0.1197828765244703,-0.0954250891731733,-0.1737562673082072,-0.299714191772412,-0.0145781481186269,-0.0064251086871852,-0.0499691064396158,-1.0863530334498985,0.1362781322263936,0.1849455176517909,-0.1988114073906234,-0.0429065860118604,0.2612081060283672,-0.082690864712141,-0.54612733361045,0.3629655289353812,-0.21378976936631586,0.0480401919584709,-0.0025155671852359,-0.0288412814350315,-0.0103766219116452,0.1705106039787047,-0.35617653767904234,-0.6764912750213864
elsaltodiario,0.0139245821122937,0.0218752823566186,-0.0168869116103814,-0.1488336070881729,-0.4094390072137602,-0.0333800258350722,0.2536839516859225,0.7294395485304841,1.3969537828158236,0.1386332767090531,-0.3348873636313474,0.3337270341669677,-0.0411434944741998,-0.0253472595530551,-0.021367328180953,-0.0304008641695435,-0.0160257534337054,0.5879453991085354,-0.393244024440176,,,,,,,,,,,,,,-0.359227414664568,0.079247882728774,-0.3284097295756658,0.2602389396374033,0.02090809467037,0.6589467285609781,0.1804451611012451,-0.1421826904549998,0.0752189603770418,-0.0493822108660127,0.057325353390849,0.6149116030710052,-0.4679448769905459,-0.6059380726966488,0.5166978420225596,-0.0794922776183464,0.1122591342479213,-0.1244849461510749,-0.0163368272182913,0.0496902883837675,0.0816767319061125,-0.2006823188015569,-0.341562187158719,-0.1845152017605923,0.5505965456460531,-0.2338063988370102,-0.1829055895621646,-0.06854217324453916,,,,,,,,,,,,,,,
epe,-0.0094880879913306,0.1370860124796874,0.0907316535220706,-0.1889540135664091,0.0058771843853924,-0.0120232971919917,-0.0258608124403112,0.0623398968777883,-0.0176279166121056,0.0894704853684144,-0.0131108654164028,-0.0753479384398803,-0.0636278260130732,0.006936055661361,-0.0385040246821082,0.0667465599999268,-0.0551242914542031,-0.39733899419725527,-0.3769637411021058,-0.1478677799929804,-0.1380660635396001,-0.0447168966184306,-0.0794836148883383,0.1859249409631029,0.0193239416028653,0.3894174563252906,-0.1807570276533154,-0.0877213739318139,0.5289157581111639,0.0954088945529357,-0.6553608986945568,-0.8285768371927447,0.1015476285446228,-0.1496685272282256,0.0766453579966817,-0.090825013603777,-0.0843969266010183,0.0661776390494257,0.0301639312989268,-0.0134942752156527,-0.0673884888333065,0.0397308220006776,0.0001891688702482,0.7520795441469184,-0.22255529564330762,0.1432913047391979,-0.0486687536668468,-0.1107763769899333,0.2801423761339601,0.1689689913908333,-0.2277900841635685,-0.2684923596412903,-0.1162944863714769,-0.0336628766905689,-0.0937938798243108,-0.1215123450711993,-0.2716028368072832,0.0040994810087206,-0.811101126278518,0.0028037904115818624,,,,,,,,,,,,,,,
heraldo,-0.0211656329339865,0.0446514289011558,0.5171324915133393,0.1324321623495465,-0.0997197015538275,-0.1469680842217326,0.0179565789473555,0.098152869757532,-0.0358773858628426,-0.2850074424746979,0.2848918492357931,0.2396069354289886,0.1005084400660571,0.1076672601937366,0.0574553286159402,0.0764505884198973,0.1333409337222267,0.33329372057696366,0.0805976340527144,,,,,,,,,,,,,,,,,,,,,,,,,,,0.2883973575206394,-0.2951484041392533,0.1534744131575046,-0.2119825160793037,0.1213097038927073,0.5024408549447787,0.4918210231088424,-0.2607517507946649,-0.3468867599027849,-0.1063560546667613,0.1151510183934041,-0.2776717702798909,0.3153444536734737,0.6735268579450913,0.5088607775710193,,,,,,,,,,,,,,,
laopiniondemurcia,-0.0005437301249806,0.0310283787194694,0.3618261795400005,-0.0591495986472355,-0.0236333346871779,-0.049436998140297,0.0046223600020893,0.1259950671885274,-0.0575955365532936,-0.108776889454903,-0.0461597462916369,-0.1132275097217088,0.1370405381796323,-0.0112918799376918,-0.0239273527080933,0.1137967131935881,-0.0153597910880036,0.24271129034286598,-0.3762551891970908,,,,,,,,,,,,,,,,,,,,,,,,,,,0.1073534731972708,-0.1055336210361661,-0.0733072677463241,0.1236815646820111,0.188885350346013,-0.2765633110686982,-0.1757322435858007,-0.060396831104115,-0.0165175387020532,0.3474188978056135,-0.6701011251637123,0.2564371015147265,0.0427361375861248,-0.037911917807040105,-0.28053801801727996,,,,,,,,,,,,,,,
lasexta,-0.0286271265476531,-0.0189201799455596,0.0572112752226086,-0.0558266682498391,0.0745761535787544,0.0183514049461707,-0.0440684206407812,-0.0233938075980419,-0.037509743040033,-0.0064446311812394,-0.051778285805515,-0.0360918113838448,0.058243212959113,0.0160643593323889,-0.0432930549775307,0.0315394180679531,-0.0152721686912804,-0.4625953245482558,-0.8516207044302649,,,,,,,,,,,,,,0.2978284562379646,-0.2182800804769092,0.1428716859268201,-0.1138524003630372,-0.0800465238495956,0.1252365889558193,-0.1864553584942599,0.1086006963278891,-0.1597989278423162,0.3820592955653973,-0.1085126500867487,0.6927262016543857,-0.33540536901657636,-0.1974414404281666,0.0944215186737917,-0.1504489142165446,-0.0393774848525426,0.0392414340137403,-0.0113058821261086,0.1842334213350882,0.0393429103757529,-0.1088406156480707,0.2037139509419726,0.2201999188030107,-0.0393986572619527,-0.0050355783158645,-0.39492658272525805,-0.17181761131808398,,,,,,,,,,,,,,,
lavanguardia,-0.0256865084025451,0.0128126992507833,0.2341209741105163,0.025670987739819,0.0003168755982265,-0.0708742499861769,-0.0217991571598085,-0.0220738886770376,-0.0356104106819034,0.0325978981207838,-0.0958352675219737,-0.0013263845521218,-0.0052811602643244,0.0348752905586435,-0.0674650896248798,0.0732840623182074,-0.0497551398144171,-0.2344679865945322,-0.34273775660755257,-0.1796987163506511,0.2553229342539598,-0.3335299582931515,0.0108686216944642,0.0880603636955127,0.0060976193326862,0.0917162794891287,-0.4095284468690972,-0.5091330124825364,0.1354219674929955,0.332496311349178,-0.255643268311539,0.9462430083385915,0.1809939847123146,0.343222745654155,-0.2413762513996479,-0.0914034974560891,-0.1465524312690242,-0.2694116303833085,0.1127223584161677,-0.2251664873732179,-0.0767836630514266,-0.218076997566782,-0.1011301945118978,-0.11987481362739527,-0.06668055511243275,0.2010593705964119,-0.1850332345063057,-0.1275524946879415,-0.0973755386549029,-0.0051193872388767,-0.2502746186166467,0.0254237876877642,-0.082042406983308,0.1031646735300642,0.0263489298174158,-0.0525159299708293,0.1260366833878885,-0.1586846718780013,-0.18344591988863632,-0.24503218050598297,,,,,,,,,0.1942370030802509,0.1445545152193679,0.0065321719196996,-0.5751907127075777,-0.1304606808065461,-0.39279351997425127,0.4249291769615948
lavozdegalicia,-0.0138175426467161,0.0763645682442648,0.5716381029671854,0.1436188598451434,-0.0709985267679912,-0.095054571371596,0.0374539565405814,0.1076251258159143,0.0308023967258084,-0.2807249130123025,0.4074027689286825,-0.2708286021873615,-0.2501223618511446,0.1004580101581039,0.0052936766785397,-0.6291212514331915,0.173853622110011,0.06466370883967623,1.0376329583342812,,,,,,,,,,,,,,0.5330620551081164,0.8680897204543663,0.179448074959158,0.0085994555388497,0.4541679210139165,0.1542715003401743,0.0539227829177476,-0.2940908031663002,0.3365774718987654,-0.1950819384573943,-0.4510411634237347,0.10510836922410957,0.4689532713746819,0.256050165108561,-0.2625972062701476,0.1164453921863107,-0.1585825729052655,-0.1116534992875792,0.1777578388407948,0.1485766063035292,0.1260895007406193,0.0805009916654395,-0.0434972668407429,-0.2597846156275844,-0.0058021855305863,-0.0646549774954377,0.023910327784809022,0.17025868462314628,,,,,,,,,,,,,,,
levante-emv,-0.0153110121896957,-3.4203581881232065e-05,0.1705697257494226,-0.1767632778584876,0.103629042976056,0.0470501602414165,-0.0068220324921314,0.0930434752489006,-0.0548189136474398,-0.0393182212601179,-0.0027558163472223,0.1045639458916679,-0.0591540005537321,0.116243619313622,0.0988855852180488,0.1012323290469854,0.0065762010814901,-0.3239438804659941,-0.7662996668294273,,,,,,,,,,,,,,0.4304354890428772,0.2055209514675204,-0.1896665768877141,-0.3062319421596089,-0.47548868600851,0.2781620386973674,-0.6125888813433087,0.3315595866732465,0.0572985369992335,-0.8234541647691656,0.8244291812355462,0.6642000762351541,0.6280519526021163,-0.067578443070635,0.0165892284086074,-0.079604237346065,-0.0778368395723317,-0.0599238164496158,-0.0196088433339107,0.0639483271902268,0.0385625631254055,0.2554745256030556,0.4146592083229362,-0.3343394943994803,0.1428668927755852,0.2834585911431458,0.2947958540278697,-0.6142751000883842,,,,,,,,,,,,,,,
niusdiario,-0.0205273955765209,0.0287963034312561,0.5043824138536702,0.0468535001086741,-0.0736762917105083,0.0561239028012501,-0.0636807523084983,0.0783072402051203,0.0391883230328387,-0.0172046384767586,0.1219510307328663,-0.1736303707864799,-0.0434687628100711,-0.0597856896257889,0.0725787166394133,-0.2399406005772711,0.0268061415453523,-0.013168223378116066,0.27220324065179763,,,,,,,,,,,,,,0.0979597488602218,-0.1872419654665735,0.1604377100166377,-0.1172034936391765,0.0651192637017902,0.071973677573793,-0.0235601859916603,-0.0376151978412956,-0.1396948886697785,0.0203656626975874,0.048817251197044,0.7408563330504008,-0.2980234087835329,0.0511837960647686,-0.0601039829872217,0.0486671082428595,-0.0767895320793508,0.3214555219136307,-0.027873132980571,0.0050749204316381,0.2021246947367546,-0.0266778380787055,-0.1526668813330382,-0.0959592241740216,0.0249629529213093,0.2511442403042513,-0.1819873939013256,0.29802900467261934,,,,,,,,,,,,,,,
publico,-0.0330095901629011,-0.025678764933611,-0.1209758666910004,-0.1624067871677136,0.0359466342641496,0.0363801851099762,0.0078388043247436,0.0014716388373045,0.0076976126911916,0.0153692705374687,0.0271015016972276,-0.0086637913292015,0.0322078279251747,-0.0096768382525914,0.0255447108660737,0.005344246544279,0.0298161887359102,-0.4362108672981486,-1.1650654601196149,-0.3520037597066044,-0.2410740566207577,-0.3077657610481324,0.000454051176616,0.6031674812411657,-0.0264313264289994,0.2560715292274891,0.2487422359143597,-0.0510771236749519,-0.055248117323218,0.0714380156712212,0.18432000212356092,-0.775350107165454,-0.1881114576688437,-0.0952410214638076,0.077953510058501,-0.0194483773964827,0.0103136093904198,-0.0260466501274938,0.0073999600537251,0.0728640573224733,-0.1164734300749262,-0.0113403913711211,0.1005870888809627,0.4887802381175403,-0.5071743806461172,-0.4369725929936506,0.4622945011138649,-0.0069480984745397,0.0857193394466185,-0.1021469691825501,0.1836390924469377,-0.0861795518791027,0.2357420462367678,0.0191635242633003,0.61549493866309,0.2943575303913296,-0.0254442602454767,-0.0959796769414762,0.01382205968607008,-0.5057605716019942,,,,,,,,,-0.3752035182043786,0.3219008430225378,0.2537322778737775,0.0470619279372135,0.3523065028167202,0.4892627793578318,-1.8654886763516028
bbc,0.0326203521616211,0.0162849351908149,0.2927965618355586,-0.0593019285521983,0.1527357675608347,0.0147061868208111,-0.0049118215287648,0.1048975498920521,0.1390550928690878,-0.0380261403961226,0.0940314853424508,-0.0538117648364593,0.1381071529011749,0.0942527287835241,0.1162101354495691,-0.0669455531558019,0.2248250936930629,-0.5318959284876754,-0.5358552964345243,0.0404231269897306,0.3653276654698149,-0.1303226626474644,-0.1214308380144795,-0.0698778238835296,0.0761496876373326,0.5182681031188877,0.304070322254852,-0.0062749555598815,0.1618521969786296,0.1591997058974579,0.49218537635578585,-0.959282620356552,,,,,,,,,,,,,,-0.1117102286658411,0.0304342100269439,-0.1262770882647248,0.0532191633004329,0.338219517739819,0.3166003511775662,-0.3580639642470863,0.0866652403837123,0.0455618450769942,-0.0450414446279528,0.1026816694282653,-0.0613045236384205,-0.5274315863163794,-2.02794803777922,0.47108534543080166,,,,,,,,,,,,,,,
lavozdeasturias,0.0075999779784625,0.0791545835091628,0.4607456277107394,-0.0034644373395889,-0.1070213763773808,-0.0044326139951666,-0.0719042237985284,0.1586998720328475,0.1183164946092799,-0.4781983805216215,0.1933467641801232,-0.474127476339026,0.0726072086641144,-0.0869928676453537,0.4640112196112175,-0.1291134090048838,-0.6258060721396381,-0.19753170703607742,0.9451216432050394,,,,,,,,,,,,,,0.0962346014775989,0.1271132212977678,-0.1211981752518691,-0.187087183049382,0.0360291591126543,0.139727167830315,-0.5493635903787973,-0.1390729019654677,0.0652567396853369,0.597998628803238,0.1716577059216346,-1.2109054092511855,0.41384388618445983,0.2835728611552254,-0.1485073688744666,-0.1690327442683779,0.2418142546416795,0.0067703603541032,0.4693952373033626,-0.577082934802884,0.834250209834936,-0.0490203862519068,-0.2510520548290558,-0.1211809834387007,-0.3694319405805921,-0.1802576860196481,-3.373102957378283,0.8877153493724307,,,,,,,,,,,,,,,
vozpopuli,0.0040689599831889,0.0607392649161677,0.8373798901965617,0.2673325662665207,-0.1044459088729783,-0.0953357685154663,0.0054615956937712,-0.1149128567384085,0.0867810955102929,1.5851546382654935,0.4814889623451155,-0.2229116244287878,0.6965734438796756,-0.026118116145901,0.2117485493849124,-0.1894660040100614,0.0021335073908953,-0.4609175288415286,0.7645936240002266,,,,,,,,,,,,,,,,,,,,,,,,,,,0.568532892480583,-0.3062103479024418,0.334041246191912,2.145171651163034,0.608061849530213,0.1656589865636825,0.8324196372262399,0.0583315444576952,0.4194482023917903,0.0349505380732569,0.2270587650300318,0.3760458137650492,0.1308008701986928,4.320440622826756,-0.041145132731801475,,,,,,,,,0.5985134611003892,0.7797369564825256,1.1942560850861614,0.6470369992959863,-0.3564681479070293,4.498797668062704,0.9507981181461131
elboletin,-0.0149214895765315,0.0363253953407136,0.5909885150356422,0.0723015083583348,-0.0245343583805934,0.1300575183431665,-0.1407302820255537,0.0124206065236837,0.1506820261566343,-0.0103724816315602,0.5048329431204057,-0.2201269515887871,-0.0222668431454774,-0.806585098315719,-0.4264415792535395,0.3589895924088735,-0.4788880139244418,-0.8355928378020094,-0.4046491963123048,,,,,,,,,,,,,,-0.674252610765175,0.6696809893465752,-0.9296890759180834,0.2319125703704268,-0.2341930011664043,-0.6620952932090609,0.0092961478796547,-0.3102072202064025,-0.1732307929907652,-0.0986617744422447,-0.3533853139196344,-1.839348029425849,-0.8256977284153022,,,,,,,,,,,,,,,,,,,,,,,,0.7969902390739431,-0.508303974951458,0.2361473329709845,-0.4627640629086141,-0.1401016085086326,-0.8859653211036818,2.207412152587771
eleconomista,-0.0726121673711472,-0.0532310298532308,-0.0324613229349549,-0.07870210005757,0.1553602121784374,0.0222015612117893,-0.0787823506412186,-0.1059589539975892,-0.0606614862348673,-0.0941245468684594,0.1069252031067308,0.5227758823250179,0.0137421956643428,0.0321865672654208,-0.0326777390654299,-0.3456561874384483,0.1178910414126918,-0.5991298248488003,-1.6699814181552497,,,,,,,,,,,,,,0.4296089133311507,0.0336140598632705,-0.3611814891315514,-0.2093143536651996,0.0592617003425831,-0.2083529838122959,0.4911636870536645,-0.3631246070214736,0.1084720280623928,0.2679946064866028,0.2680400812910682,-0.6918559228520123,1.582101136820442,,,,,,,,,,,,,,,,,,,,,,,,0.1240394771675689,-0.2798929684834606,-0.1388643133812355,0.3109198925399776,-0.0301944145831273,-0.31341378721150187,-0.43742238368812764
elmundotoday,-0.0772765232789616,-0.0415261905835388,-0.1118140572216045,0.4257465140920058,0.7413877084872166,-0.0126383257194718,0.4727238450162885,-0.1286100801025537,0.1715825968791307,-0.0276009807366913,-0.0201779449258741,-0.0670445245362573,0.0077476657517963,-0.0332134208485386,-0.0762159749024752,-0.0478568437621981,-0.0008119081673038,-1.522763780536765,-0.5559710426865788,,,,,,,,,,,,,,,,,,,,,,,,,,,,,,,,,,,,,,,,,,,,,,,,,,,,,,,,
canarias7,-0.0498731243006406,0.0314771355796541,0.3735835358581701,0.2224228035764097,-0.0875503099518834,-0.1717418817629235,-0.0760611190748805,-0.0602417154195635,0.0866034144287509,-0.1346933496675579,-0.2675841641913596,-0.044997956836144,-0.1393255468569735,0.1712917999391185,-0.0790157870586101,-0.2926625013795806,-0.0197737973944889,-0.13481678017572263,0.5413848883932781,,,,,,,,,,,,,,,,,,,,,,,,,,,,,,,,,,,,,,,,,,,,,,,,,,,,,,,,
ondacero,-0.0460498672736148,0.008060671467078,0.4078468905800649,0.1560533964942581,0.0262997749925017,-0.1247160504580199,-0.2293527154646035,-0.2773739448376096,-0.0898256545600965,-0.0654516668818296,-0.3914155839153793,0.2312555751124675,0.1460936443281255,-0.1285477049366613,-0.0856443692006429,0.0224362953483017,0.1430555412043904,-0.4171789026037821,-0.7924577153319476,,,,,,,,,,,,,,,,,,,,,,,,,,,,,,,,,,,,,,,,,,,,,,,,,,,,,,,,
cronicalibre,-0.0413972185794219,-0.0404809622771702,-0.2217557101539448,-0.1868457577189453,-0.0743258744530111,-0.001763027604878,0.1758669373516845,0.0942070824316552,-0.1569159917393158,0.1852955906098043,0.1392979930839006,0.0820263905341407,-0.3196062107719628,0.1008031596914831,-0.1641814071155518,0.0381118454260953,0.0052554642474266,0.15258632335514913,-0.9103135335887028,,,,,,,,,,,,,,,,,,,,,,,,,,,,,,,,,,,,,,,,,,,,,,,,,,,,,,,,
maldita,-0.0346577317129643,0.0256341971882608,0.2809571965769798,0.2512178171730537,0.1013325314396757,-0.0430949902722769,-0.1175980726387138,-0.0686940338701272,0.0448731617861287,0.0019713568958763,-0.0788870479582356,0.0113582423883947,0.0937524876786382,0.0918498044167374,0.0364850554449157,0.0553361352449028,-0.0480617875150799,-0.7187881444532345,0.08464394897769306,,,,,,,,,,,,,,,,,,,,,,,,,,,,,,,,,,,,,,,,,,,,,,,,,,,,,,,,
theobjective,-0.0154302809449765,0.0500637893952455,0.5725224338354075,0.2906963239112323,-0.1185066990403325,-0.2644741472358936,-0.0130769557074902,-0.1446603485993332,-0.0129284535592347,0.0294467438520697,-0.2638585293771207,0.0999401166954754,-0.1844425599280533,-0.0026387491176128,0.1890424986054774,0.1174272892697575,0.1766177295207213,0.03643374310799258,0.6763974641746022,,,,,,,,,,,,,,,,,,,,,,,,,,,,,,,,,,,,,,,,,,,,,,,,,,,,,,,,
blogspot,-0.0864009097968619,-0.0127074373574185,-0.1748867392413697,0.3410351312676944,0.0102148518869798,-0.0732432823730991,-0.1824316523522991,0.2740664875059505,0.1175137339907601,-0.2320669493089189,0.1867771467134861,-0.0497028650453413,0.0152741561161062,0.0937472774857963,0.0881533607277604,-0.3080495609621774,-0.7753021397329248,-0.41052233295667995,0.37065928915909757,,,,,,,,,,,,,,0.5805542116602322,-0.5032431626121594,-0.1137065890479517,0.752102664264044,0.1746487716615402,-0.1132088684600731,-0.1127381295471653,0.0318405680817773,-0.041774887858985,-0.0451764776975666,-0.0117779965121872,0.23563186793274243,-0.5513925309211067,,,,,,,,,,,,,,,,,,,,,,,,,,,,,,
ccma,-0.0733875653327098,0.0075663921492236,-0.1111866777541057,0.127403156771554,-0.2981119078436521,-0.21276180862662,0.6264738513647848,0.0146721516745444,-0.3026744937097437,0.192070316619555,0.0042103221785069,0.1495678214817035,-0.1811028374888197,0.1479385890527964,-0.1606338357815927,0.0900285786667752,-0.1061220793582064,1.6432883749074139,0.08929701579013125,,,,,,,,,,,,,,,,,,,,,,,,,,,,,,,,,,,,,,,,,,,,,,,,,,,,,,,,
cope,-0.0147395722617187,-0.0079917261727609,0.1085444731105026,-0.1620894703307361,0.0960645101116469,-0.0287235144793169,0.0169658420942251,0.0011280677295262,-0.1126995927215176,0.0509312761431725,-0.1348685877226897,-0.0445308887935255,-0.033323994501682,0.0003514151445523,-0.0001817246566388,-0.0587727085576345,0.0671140195777033,-0.2084740433840046,-0.9547927007123128,,,,,,,,,,,,,,,,,,,,,,,,,,,,,,,,,,,,,,,,,,,,,,,,,,,,,,,,
ctxt,-0.0590541039711358,0.5511585036537718,-0.3425388316814809,0.1167248431774929,-0.1704240298940159,0.0661395034293726,-0.0477252641455252,0.2188153835019916,0.2056646079070027,-0.1476472204191102,0.316208606383887,-0.3442364837799233,0.2036044266527074,0.0031600832265889,-0.0495948882055907,-0.0280760489760949,0.0155389545602803,-0.40178114138425663,1.263824719241766,-0.4269288146360178,-0.7538694507713632,0.3853787061088153,0.1422781976650902,-0.1972408133724832,-0.0805552974388925,0.8114192052726044,-0.5504882205935216,-0.1951258614575236,0.3465035982524257,0.3202731586642587,-3.4999478726057336,0.4191683661426904,,,,,,,,,,,,,,,,,,,,,,,,,,,,,,,,,,,,,,,,,,,
diario16,-0.0194716996301654,-0.0237228379398345,-0.134413360231574,-0.1831593917749954,0.0173930469086846,0.0843889424306097,-0.060577514745119,0.0175453990292908,-0.0265755606062639,0.0415998604018307,-0.0010394713171693,0.0147054631369522,0.0186312276200857,-0.048665475497605,0.0401318924263577,0.0109672789048378,0.037960130355929,-0.39550143336895466,-1.2627140512759352,,,,,,,,,,,,,,-0.3198311002325005,-0.0235053310410092,-0.0401940450405924,0.0253123711681232,-0.0129988616235121,-0.1254567872736846,0.1052336053966793,0.1223339585666327,-0.0699616942036666,-0.0538010383417654,-0.0315438971235126,0.49341403452847515,-0.4396246821104456,,,,,,,,,,,,,,,,,,,,,,,,,,,,,,
efe,-0.0477300018958027,0.0350400805469994,0.9527776142115344,0.932250106505937,-0.7965236159120543,3.949594973485968,0.5660275213127454,-0.3143808691810055,-0.0696117985046587,0.014275612553044,-0.1227879501261845,0.124094684297212,-0.2752571412829854,0.0978113181645181,0.0001553306804896,-0.0294789479511811,0.0856582246147788,2.5806968824332057,4.34458540872164,-0.105477723413771,0.5708447040178563,0.3689183122822271,1.5368214949070305,0.0224386474243666,1.2098578083839076,-0.0366982942004705,0.063123643273411,-0.1841162810140026,-0.0837374045995343,-0.0564695352258181,0.20994794453971063,-1.784028824464927,,,,,,,,,,,,,,,,,,,,,,,,,,,,,,,,,,,,,,,,,,,
elcorreo,-0.0511801783000986,-0.0163099342406154,0.1543866740252317,0.0135844345470901,-0.0042815772085622,-0.0575151361230958,0.0261880918437239,-0.0216571620915138,-0.055427859310205,-0.0172451640715682,0.0626318564334087,0.1625468716082017,0.0869784093861096,-0.0751998313484844,-0.0403254151748939,0.0934548647653899,-0.129720468357666,-0.11614662911765974,-0.7916542131335446,,,,,,,,,,,,,,,,,,,,,,,,,,,,,,,,,,,,,,,,,,,,,,,,,,,,,,,,
eldebate,-0.0112190131326619,0.0030307266947406,0.5786976929392991,0.073567021711721,0.0493896715307783,-0.2295543115589558,-0.0283897662222426,-0.1059927979626697,0.0798509798906235,0.4627319102404666,0.5515510866071361,0.1162446056637993,-1.6373054215161889,-1.1261773392882208,0.1157476476073366,0.328342977980881,-0.1593956662031179,-1.5862951617250138,0.3928622063399621,-0.2183848960400758,-0.1857399104733005,0.260269953243442,0.1995822341333169,-0.0670292440873724,-0.1133412964970214,-0.2578282781429798,0.0404966326830783,0.5820782256378378,-0.1083032752205016,-0.3005262809730505,0.079081078419572,-0.40685858480204384,,,,,,,,,,,,,,,,,,,,,,,,,,,,,,,,,,,,,,,,,,,
electomania,-0.0380907344079451,0.0428718081758776,0.4771440069046148,0.1771552687636117,-0.06460369684879,-0.1609719540635245,-0.093200999788845,0.0402109221561063,-0.0841571789703479,-0.1437885155943446,-0.0968373875694216,0.0005408108853942,0.1657205039104781,-0.0234679154741378,0.1317539759335027,-0.0051315549655244,0.2343783701674102,0.3584595279837011,-0.00393855241276419,,,,,,,,,,,,,,,,,,,,,,,,,,,,,,,,,,,,,,,,,,,,,,,,,,,,,,,,
elmon,0.0158114711619676,0.2314995745435203,0.3367735168142728,0.0059299557538053,-0.7828043480186777,-0.3302090294050119,1.5839713258403227,0.8857404222973692,-0.8970758850403859,-0.0493050150685778,-0.2028532473974997,0.1461991190062174,0.0962481583659212,-0.1970258384151172,0.0827108213439666,-0.1306067388582745,-0.0709993048871217,7.493689589987845,0.9830946740027873,,,,,,,,,,,,,,,,,,,,,,,,,,,,,,,,,,,,,,,,,,,,,,,,,,,,,,,,
elplural,-0.0008740984704609,-0.0213230114362109,-0.021683388273179,-0.2356366240980144,0.073201655215156,0.0598416430122685,-0.0380669576519302,0.0381026442057304,-0.0482935594151775,-0.0160474873367958,-0.0297638980289901,0.0145908118613069,0.0626269234749691,-0.0185943053551176,0.0464981792622442,0.0127385948561177,0.0474725701246191,-0.3448405612658962,-1.3318208508567952,,,,,,,,,,,,,,-0.3228636204036187,-0.1150905095788301,-0.0882551950504482,0.0110872117813023,0.0180298406034329,-0.0449839048408805,0.0376730516743296,0.0495357546334771,-0.0833452248419319,0.156860251437924,-0.0967534158800696,0.32179736192125596,-0.3872875669383316,,,,,,,,,,,,,,,,,,,,,,,,,,,,,,
huffingtonpost,-0.0345244802683085,-0.0279951738539348,-0.0918270379160707,-0.0580937105375407,0.0375147169608933,0.0271254178304369,-0.0613324908940869,-0.0759252394851861,-0.0191014263449686,-0.0015157034124486,-0.0262783166558558,0.0370527798740437,0.0504864246306027,-0.0218219248901582,0.0148851943795535,-0.0178355037370497,-0.0034644556885202,-0.5499163708894705,-1.057603988003129,-0.151454684529251,0.1133901568804062,0.1899156764572885,0.2478921533106893,0.015376763004661,-0.3831859437596112,0.3019497834898758,0.4484962908237889,0.1499300899522603,0.3705717618115823,0.3843625588142469,0.9006976773625065,0.4551453578738391,-0.2250587696707165,-0.0569814502248639,0.0396820031516208,0.1333496920805175,-0.0714915187852587,-0.0868669920993307,-0.1867723181702975,-0.2279412636335319,0.2486254771847728,-0.064251104097968,-0.1328882357785172,-0.10360924617341154,-0.3218506349921,,,,,,,,,,,,,,,,,,,,,,,,,,,,,,
infolibre,-0.021669830319177,-0.0160803406388804,-0.1072064103379202,-0.2039026098064874,0.0537997549885786,0.0351494795863104,0.0107057664934336,0.0777629759760313,0.0085572863819903,-0.0046719574082978,0.0020143650871933,-0.1511384386270939,-0.0125007395503912,-0.018766963031379,-0.0232210732341958,-0.0200370384855858,0.0383331221194111,-0.36066919043770956,-1.0862132012921537,,,,,,,,,,,,,,-0.3104871242124283,0.1180788156760189,-0.1540620870191217,0.0094202564688534,0.0589538336944313,-0.112810599883208,-0.0009297286465291,0.0515479375816313,-0.0560582903233626,-0.1145396720202075,0.0394369233518182,0.06808858077084823,-0.2442304726882529,,,,,,,,,,,,,,,,,,,,,,,,,,,,,,
jotdown,-0.0160873010364343,1.5155806117902533,0.1982942392044919,0.3324394729285199,0.2411000827671062,-0.1936104681637293,-0.0326999795282965,-0.1216186921948817,0.347288549720534,0.2716175556848353,0.2673644191149701,-0.3215829810337404,-1.0168873636977815,2.8204007235789605,0.4248325855140786,0.3969931985542125,-1.1165646097652508,-4.854243202932739,9.64324104895126,,,,,,,,,,,,,,,,,,,,,,,,,,,,,,,,,,,,,,,,,,,,,,,,,,,,,,,,
lamarea,-0.04078135796425,-0.0315826505689987,-0.1559599072087368,-0.1362382890900671,-0.0516399276666517,0.0305551990884051,0.0207727953547951,0.2008023158053157,0.1964120630095545,0.064301422933354,-0.0086556680609314,0.0859440274728047,-0.0636338076781025,0.0095337001102711,0.0456883885967868,-0.0266231413863483,-0.0544730911085609,-0.13333741019142406,-0.9467642607761788,,,,,,,,,,,,,,,,,,,,,,,,,,,,,,,,,,,,,,,,,,,,,,,,,,,,,,,,
larazon,2.464561435069641e-05,0.0392174485862293,0.2836792960124404,0.2328684223079454,-0.1181988733976913,-0.0821652727795361,-0.0661917045614501,0.000300348122142,0.0073880964110121,-0.0471719231684501,-0.0559301915987398,-0.0719616886132922,0.0555474063116474,0.092558468232874,0.0161259280039934,0.1241006814743113,-0.0410499759607942,-0.052201336110059025,0.39597948935513344,0.0600775224067957,0.4366104378305609,-0.2670352543496255,-0.2985870845151233,-0.3562946740930903,0.0171232820508348,-0.0545611715347373,-0.2462088014264134,-0.2022657343688826,-0.5844597430179959,0.1092608697041969,-0.005571162230668622,1.077450073187783,,,,,,,,,,,,,,,,,,,,,,,,,,,,,,,,,,,,,,,,,,,
laregion,-0.0336661843585519,0.0135567181192251,0.1753628456828092,-0.0755421375396495,-0.0413811631007876,0.0676913959203066,-0.008927192440054,0.174036248489329,0.0270247112516205,-0.2463640939816533,0.5358727035982981,-0.4989319521870256,-0.321800743490568,0.1016244510669578,0.0751878139312399,-1.059699560964162,0.2461581169097327,-0.12082718882204467,0.4005636044287388,,,,,,,,,,,,,,,,,,,,,,,,,,,,,,,,,,,,,,,,,,,,,,,,,,,,,,,,
lavozdelsur,-0.0395434047791307,-0.0259594771697435,-0.0317337753130235,-0.1374135525074421,-0.0125207497853573,0.0270414573305608,0.0201455025313102,0.0314365986203171,-0.0277335478361699,-0.0464595523998608,0.0753938539385079,0.058114675398673,-0.0255888149517036,-0.0689378530776647,-0.0219928757849799,-0.1481806997399509,0.0913162918111612,-0.08403519234076876,-1.1205474084038953,,,,,,,,,,,,,,,,,,,,,,,,,,,,,,,,,,,,,,,,,,,,,,,,,,,,,,,,
marca,-0.0276407011870775,0.0021187775276512,0.2379529786734548,0.3105079171114197,0.0037530728486121,-0.0985442851256107,0.0446649301707023,-0.1726959209569984,-0.0285701992578657,-0.0160272409453443,-0.2346067356777885,0.064053945433186,-0.1298665047615311,0.225364670322353,0.3338906832713875,-0.4264949517078359,0.1924920365692574,-0.12597848055954894,0.5357067458889715,,,,,,,,,,,,,,,,,,,,,,,,,,,,,,,,,,,,,,,,,,,,,,,,,,,,,,,,
moncloa,3.635646275389353,-0.0304195051982557,-0.1517279215196939,0.1050576190829731,-0.0167227736104884,-0.0054989590754892,0.0069530794413754,-0.0383431960495281,-0.0076461469103125,-0.0005093906751334,0.0014016000535304,0.0038308748950863,-0.0010555156872673,-0.0062940847723015,-0.0047498094538801,-0.0070264765736035,-0.0070077956019465,-0.4794511540705758,-1.1106824222191845,,,,,,,,,,,,,,,,,,,,,,,,,,,,,,,,,,,,,,,,,,,,,,,,,,,,,,,,
naiz,-0.0404987476544841,-0.0157088485933418,-0.0778951944985675,-0.037604065692134,-0.0668656816812184,0.0677183277514391,0.1691273448139081,0.1705966127373372,0.0855690667026596,0.0087466096014138,0.1320600110623045,0.1168226476343686,0.0482767869543652,0.0811613235400598,0.0027871796471401,0.0773336965540187,-0.1329532240647825,0.18011601011894907,-0.6163647888553433,,,,,,,,,,,,,,,,,,,,,,,,,,,,,,,,,,,,,,,,,,,,,,,,,,,,,,,,
newtral,0.0125918972388448,0.0178193275368968,0.1284320489299169,-0.1831566429399932,0.0325525078335998,0.067413796141391,-0.0887865620334401,0.1875169274140303,0.0800501799188952,-0.2595937463775115,-0.0138694188613692,-0.1075741679541708,0.099844038394001,-0.0905706902767651,-0.0509813601902712,-0.0498094330403182,0.0489736398532531,-0.10869958200973079,-0.9931545719060164,,,,,,,,,,,,,,,,,,,,,,,,,,,,,,,,,,,,,,,,,,,,,,,,,,,,,,,,
noticiasdenavarra,-0.0498160149602309,-0.0382312182850224,-0.0822948774467852,-0.011596994640166,-0.0139509993409803,0.0400565315643727,-0.0700243409509395,0.0012999433394383,0.0192014821027448,0.0509790427492849,0.0202911109204633,0.0172511413342308,0.0542013570604263,0.010441019051128,-0.0294643383279806,0.1162916294313841,-0.0364972613766112,-0.45351092402682525,-0.8683963791328513,,,,,,,,,,,,,,,,,,,,,,,,,,,,,,,,,,,,,,,,,,,,,,,,,,,,,,,,
nuevatribuna,-0.0261996325775173,0.051294485274546,0.0933133650257546,-0.0738496941606528,-0.1206232209473028,0.0026235419713138,0.0513264571183151,0.1465291081977671,0.2168872941867206,-0.2597379799666945,0.3128521789992171,-0.4050230223502707,0.2302113208150805,0.0009643223225627,0.0619219251279615,0.0120255688812633,-0.1006673367427512,-0.23118366071971594,-0.0658085639360079,,,,,,,,,,,,,,-0.2964035884376262,-0.0905079816792348,0.0562214521565218,0.229999631090137,-0.0709368368401966,-0.1283916696883466,-0.0327039817068367,0.0589950536573513,0.0988823905693817,-0.0351439158919526,-0.0955865528861865,0.2955201714430193,-0.67306598487143,,,,,,,,,,,,,,,,,,,,,,,,,,,,,,
threadreaderapp,-0.0644404443443167,-0.0422309739026997,-0.2156832462013674,0.0895166980270568,-0.1397749950624649,-0.0397642158808764,-0.0645603152408822,-0.062213434061659,0.0024382573297414,0.024807931340015,-0.0334403562809073,-0.0476123928868242,-0.0823191134858576,0.0379725355841673,0.0105443443506672,0.0110857399209291,0.0517011956572393,-0.2799415661163901,-0.5221535431974662,-0.3693738314726918,-0.4145600602486736,-0.3184341731675462,-0.1840219345853108,0.4924749062412527,0.2716343838981813,0.0676987926941288,0.0833306742336711,-0.3280205921239598,0.1977059166910281,-0.0541886918268259,-0.002303919645616923,-0.9762335997446351,,,,,,,,,,,,,,,,,,,,,,,,,,,,,,,,,,,,,,,,,,,
valenciaplaza,-0.0136070579588259,0.0369917809396945,0.204724591747104,-0.066820000805019,0.0244318261333151,-0.0046473571335621,-0.0397235676359267,0.2554827867063832,-0.0736363386575099,-0.0178276042657379,0.0523139521162976,-0.1338334186678013,-0.009620686732276,0.3565138464788542,0.0121437692698876,0.0470101534484675,-0.0712760448836437,-0.0231294682906683,0.09136395455965518,,,,,,,,,,,,,,,,,,,,,,,,,,,,,,,,,,,,,,,,,,,,,,,,,,,,,,,,
wordpress,-0.102803747437545,-0.0508312859510936,-0.43855765008253,0.2753846745888254,-0.0818973336220086,0.0074221552398095,-0.1261296959012571,0.0247508211274972,0.0674248364495292,-0.1637551899287847,0.1156483040666479,-0.1220083965763852,0.1667362397249686,0.0764397796371419,0.1274162359720635,0.025071726086447,-0.1176201267961393,-0.47252986304985306,-0.3953539964926011,,,,,,,,,,,,,,,,,,,,,,,,,,,,,,,,,,,,,,,,,,,,,,,,,,,,,,,,
confilegal,0.0127938505220242,0.1386041509432492,1.0059216647162816,0.6180278461162627,-0.5016917716023747,-0.6032706954988749,-0.0485994917497218,0.1799473666648391,0.1433376476653943,-0.2648591689695061,-0.3767660656454129,-0.2260650591038207,-0.57956624863654,0.1514060462579592,0.7554184353850473,-0.7207789044100513,2.0406477924041204,2.0114935325718593,2.5276604461988605,,,,,,,,,,,,,,0.5889690248458868,0.3680563832115792,-0.6680173065745791,-0.0206945517591107,-0.0331603601236161,-0.3216394372935778,0.7641134268064609,0.7843493812691301,0.9934082969967052,0.4095598713819244,0.5940858188872546,-0.7252601316415327,4.509246119776274,,,,,,,,,,,,,,,,,,,,,,,,,,,,,,
galiciapress,0.0299207714348364,0.0536572564823332,0.280583014233552,-0.2276241054787258,-0.0458873892152905,0.0016609682545427,0.0724405126800405,0.1968235993678395,0.0505007695884109,-0.2386146273514044,0.4811522205425867,-0.5567081329664931,-0.3759585238298132,-0.021270632846431,0.17871630899663,-0.7803590806116922,0.3444510033210318,-0.04982035096577158,0.2971706017138171,,,,,,,,,,,,,,0.0785946419365926,0.8383977609499149,0.4610585435934257,0.0974648703857263,0.6844011897193527,0.0328281771963089,-0.0690603505948431,0.2523285973400543,-0.0280505660862715,-0.0285935024937073,0.0478460503089261,-0.13006463124660608,-0.514037370683906,,,,,,,,,,,,,,,,,,,,,,,,,,,,,,
as,-0.0116201748652728,-0.0243168782960921,-0.0105937950420625,0.1640066164505007,-0.1147714726075567,-0.0511523080765332,-0.1951538160061896,-0.2098096794738398,0.0167772860409313,-0.1519991238168258,-0.1997048296414198,0.0349677236662061,0.082221895419377,0.0835081175989831,0.3400424203347298,0.0110497859995606,0.4611210092759269,-0.43010106603643233,-0.4635667755380079,,,,,,,,,,,,,,,,,,,,,,,,,,,,,,,,,,,,,,,,,,,,,,,,,,,,,,,,
diariolarealidad,-0.0266424883194262,-0.00576442884392,-0.0539367491488371,0.1764577021755418,0.3630498903785083,0.1739391643566,0.4925182426778287,0.1466208035093785,0.0672074473227953,-0.2898005559329347,0.2321366857233897,-0.0876600955603088,0.4003589049106671,-0.4043586619568058,1.9503447845667177,1.501123555075646,0.597537416031619,-0.28211354934458854,-0.4030728626383961,,,,,,,,,,,,,,,,,,,,,,,,,,,,,,,,,,,,,,,,,,,,,,,,,,,,,,,,
elconfidencialdigital,0.0114590769275087,0.1775040407422293,1.05831982613203,0.3817612232330571,-0.3858582381858311,-0.2079570863959561,-0.3258961440332446,-0.0662780328806256,0.1926563796725187,-0.388760802446683,-0.4970680475775365,-0.8397143280804784,0.4290095048337518,-0.4050817489942612,-0.5429357944653487,0.356960288153782,0.1429299774440065,0.4444098573532344,1.255016433411765,,,,,,,,,,,,,,,,,,,,,,,,,,,,,,,,,,,,,,,,,,,,,,,,,,,,,,,,
informacion,0.0627088316340499,0.053627676160972,0.3145158401526566,0.0614590638534799,-0.0522023712043615,-0.052618595696789,-0.0875701856981264,0.0904346917739163,0.0987752836247,-0.3044897552128636,-0.0412845395894133,-0.1351059147839735,0.0190505330201786,0.0267830938246902,0.2286193086130884,-0.0828909556080911,0.1239252969625798,-0.08859906405735356,0.1335889896338268,,,,,,,,,,,,,,,,,,,,,,,,,,,,,,,,,,,,,,,,,,,,,,,,,,,,,,,,
libertaddigital,0.0496413212861978,0.0489823054088877,0.5152292319841624,0.1838357676006504,-0.1430252808643471,-0.1720216912793934,-0.1696081325546469,-0.225527172015033,-0.0470947790008622,-0.0719114298854339,-0.1901282493257842,-0.0531979217533372,-0.1247953175999303,0.293677665768419,0.347774233612588,0.0155564090228975,-0.0105500293797727,-0.524667047980247,0.9899081543127922,,,,,,,,,,,,,,,,,,,,,,,,,,,,,,,,,,,,,,,,,,,,,,,,,,,,,,,,
nortes,0.0160195315354232,0.1196982290657408,0.4412345302789269,0.0288258761642493,-0.1929061450622288,-0.0702019180861669,0.1019143232309974,0.1803603347669125,0.145715937921434,-0.438793980171006,0.1434156312323754,-0.5422945745679623,0.0802828970648014,-0.0421477410155242,0.6193713850081215,-0.094979374163575,-0.7460609412500795,0.18441766313386102,1.4771869359415015,,,,,,,,,,,,,,,,,,,,,,,,,,,,,,,,,,,,,,,,,,,,,,,,,,,,,,,,
politicaprosa,0.031636078366679,0.1243042053382571,-1.0441488182392284,-0.0445891466610909,0.2764543010408037,0.1390860938995723,-0.2084270291760205,-0.3293750658630138,-0.1411860536847118,0.0757102181254984,-0.2233064044129782,0.3686972864218523,0.0832940471985855,-0.6603186005568911,-0.0848869970906827,-0.0696268175572138,0.2725837993040806,-1.3586031834305776,-3.0211889844647355,,,,,,,,,,,,,,,,,,,,,,,,,,,,,,,,,,,,,,,,,,,,,,,,,,,,,,,,
theguardian,-0.0157912020673088,0.0012362341322784,0.0692099399546935,-0.0702092975361931,0.1962153644320967,0.0948524683500516,-0.1073181170477061,0.1181422081505347,0.0550210071072254,-0.0830111558766386,-0.0183318427489467,-0.0659532984457228,0.191652646262495,-0.0492966044110445,0.283352954662272,-0.1337292663790261,0.158352863609288,-0.5117376644386434,-0.9672468232850752,-0.2191676501690633,0.011838852735122,-0.1602997722123564,-0.0620130170804924,0.4086897624961751,0.0981294551482682,-0.1806289976999148,0.0746754522032275,0.211788378091638,0.1933537831050432,0.0167810647796366,0.8695858108816669,-0.8127710492555132,,,,,,,,,,,,,,,,,,,,,,,,,,,,,,,,,,,,,,,,,,,
vilaweb,-0.0306320087295823,0.2086533520637497,0.2906433474532863,0.1524653767424297,-0.970566403390256,-0.4995147823233882,1.8817964721927587,0.934457327666542,-1.106474685747313,-0.0216954147334889,-0.2530882684930953,0.2467442809418016,0.3140890612487292,-0.1609234966567113,0.0824435700169308,-0.1614089228885847,-0.2298202546979849,8.966742845827662,1.154745689844132,,,,,,,,,,,,,,,,,,,,,,,,,,,,,,,,,,,,,,,,,,,,,,,,,,,,,,,,
cnn,,,,,,,,,,,,,,,,,,,,-0.0551737612645645,-0.066688453467896,0.2666001223662831,0.2357919043794166,-0.1249431346423783,-0.4321393738531656,-0.0099128421674831,0.2103490762852022,0.1399064342137,0.0628171076990237,-0.1849076022971402,0.5206049072853287,0.3952047218716711,,,,,,,,,,,,,,,,,,,,,,,,,,,,,0.4904858379771802,-0.3450991336433493,-0.108501440906392,0.4749845451203974,0.0245218823366411,0.5355238509586802,1.160785267303061,-0.6771786602625056,,,,,,,
swissinfo,,,,,,,,,,,,,,,,,,,,0.070894032865953,0.2554689664914796,-0.0091021218605855,0.0220231849868967,-0.1950027497330199,-0.1140748897140846,-0.017696507180963,0.0404582943554486,0.0479240300500174,0.1526033004933642,-0.2851791933386081,0.682245055061891,-0.4361631789542424,,,,,,,,,,,,,,,,,,,,,,,,,,,,,,,,,,,,,,,,,,,
dw,,,,,,,,,,,,,,,,,,,,0.0346166638918406,0.3652269751474804,-0.0272428090661053,0.0872402248795834,-0.2104280055372271,0.0072484898467572,0.0968130033857383,-0.0939658969075731,-0.1697236765962234,0.0207215008208344,-0.4287774073891738,0.2207458146234225,-0.6954967150905647,,,,,,,,,,,,,,,,,,,,,,,,,,,,,,,,,,,,,,,,,,,
msn,,,,,,,,,,,,,,,,,,,,-0.0727516566465804,0.3162779338218691,0.1011400935563238,0.0564765044481025,-0.3178036007838239,-0.1766092725869413,0.0031144898601778,0.0114469265685544,-0.0348188380971063,-0.2418463177649759,0.1787960623076545,0.2846123052993196,1.1377765678004843,,,,,,,,,,,,,,,,,,,,,,,,,,,,,,,,,,,,,,,,,,,
newsweek,,,,,,,,,,,,,,,,,,,,-0.3107051836155226,-0.2583852635176465,0.243333703004118,0.1705218755240334,0.0225869063598413,-0.3848408189135215,-0.1211115610524565,-0.0210540611001658,0.0274387514771949,-0.3192079591914981,0.0055332173101773,-0.27039924710271307,1.2772282675637678,,,,,,,,,,,,,,,,,,,,,,,,,,,,,,,,,,,,,,,,,,,
politico,,,,,,,,,,,,,,,,,,,,-0.097365813255712,0.1294360052700485,-0.2260075575295556,-0.0481249314198556,0.2910618610138145,-0.086563540242012,0.1406922405000942,0.2403148244887905,0.1356049479100538,-0.4046529765046752,-0.4397996166532488,0.5563324386185886,-1.3086542426603538,,,,,,,,,,,,,,,,,,,,,,,,,,,,,,,,,,,,,,,,,,,
reuters,,,,,,,,,,,,,,,,,,,,-0.1282276676146278,-0.0239146940303031,0.0189279297198216,0.1408121596596891,-0.1288673893804674,-0.1787461995769679,0.1158017057958488,-0.1637366408420495,-0.0977236170876559,0.0632709100754146,-0.288610910110413,-0.4223793272578728,-0.08954267985666081,,,,,,,,,,,,,,,,,,,,,,,,,,,,,,,,,,,,,,,,,,,
apnews,,,,,,,,,,,,,,,,,,,,-0.1575475170055819,0.0996126242828437,0.323427565593169,0.4161488127877727,-0.0243160354101405,-0.219995384097742,-0.2298537700442191,0.2246039780409662,0.3224709141361483,0.1225191734301322,0.1109016937096802,1.0037340237977226,0.5537166193970734,,,,,,,,,,,,,,,,,,,,,,,,,,,,,,,,,,,,,,,,,,,
diario-octubre,,,,,,,,,,,,,,,,,,,,-0.338000733504025,-0.8913720743018125,0.6164003948428478,0.167628653798587,-0.3458153290413058,-0.2597630678312977,-0.2044090374382224,-0.4142033674029016,-0.1966449740137087,-0.6341330362555033,0.6489582403786152,-2.218107231528474,3.737870570223139,,,,,,,,,,,,,,,,,,,,,,,,,,,,,,,,,,,,,,,,,,,
euronews,,,,,,,,,,,,,,,,,,,,0.1745346813478502,0.525506153718778,-0.1155041168916705,-0.1072318357032159,-0.3279255859848696,-0.0437489891362794,0.0300294014829565,0.0671393459688304,0.4050393207908324,-0.2656301633287097,0.1275231618906798,0.7003047203434871,0.02407171539269681,,,,,,,,,,,,,,,,,,,,,,,,,,,,,,,,,,,,,,,,,,,
galaxiamilitar,,,,,,,,,,,,,,,,,,,,0.3512491000804323,1.1367779412792405,1.9906188451310152,-0.8279094480157771,1.0915082188295666,0.117715101434993,-0.1234882734554429,-0.1896010573216071,-0.0973284675132122,-6.241941634145542e-05,0.027291423559182,1.6728166529378738,-1.5567840713787906,,,,,,,,,,,,,,,,,,,,,,,,,,,,,,,,,,,,,,,,,,,
nytimes,,,,,,,,,,,,,,,,,,,,-0.1780321191405777,-0.3646621756751408,0.1324976973156861,-0.0455934861977852,0.0692697151555048,-0.1272642408092386,-0.1463394973818062,0.3176517326761983,0.1919275599813491,0.1107734380320453,-0.0525450498792567,0.6319456582550034,-0.05369093374747549,,,,,,,,,,,,,,,,,,,,,,,,,,,,,,,,,,,,,,,,,,,
rafaelpoch,,,,,,,,,,,,,,,,,,,,-0.4064382361422413,-1.2687649225334965,0.5196158659647037,-0.1452898648319186,-0.0760753967131433,0.5416251605492932,1.2455245182308667,-0.6043824972374722,0.8273485848835775,-0.2262415179375599,-0.5186261353884692,-5.71081738544934,-3.8516003052895607,,,,,,,,,,,,,,,,,,,,,,,,,,,,,,,,,,,,,,,,,,,
rt,,,,,,,,,,,,,,,,,,,,-0.3496911683142926,-0.6926479190325575,0.6290333793086135,0.2015272843889188,-0.4014216906690494,-0.3210589697548477,-0.1699055341992771,-0.2861748910478761,-0.3507233897507286,-0.2625662450588346,0.5075658929671869,-1.5559352872819805,3.406293831374121,,,,,,,,,,,,,,,,,,,,,,,,,,,,,,,,,,,,,,,,,,,
washingtonpost,,,,,,,,,,,,,,,,,,,,-0.3216753871666593,-0.2123632164454956,0.0446122873592463,0.2300689120161978,0.1822142340488047,-0.128178290681302,-0.2097307955650091,0.5183372120255967,0.2684984154098695,0.2225185370077051,0.3727275625509345,1.3625336712498841,0.5650202684914205,,,,,,,,,,,,,,,,,,,,,,,,,,,,,,,,,,,,,,,,,,,
yahoo,,,,,,,,,,,,,,,,,,,,0.0696530006934291,0.2737590075151967,0.3338033980608573,0.1183844240427532,-0.389827864721592,-0.1028739838241419,-0.148257460852924,0.0992401558431375,0.0481375878131571,0.0218477012435651,-0.0516635243930726,0.7412958976270428,0.5463550929091734,,,,,,,,,,,,,,,,,,,,,,,,,,,,,,,,,,,,,,,,,,,
revistaejercitos,,,,,,,,,,,,,,,,,,,,2.6698888490418247,-0.3135337788672929,-0.0951175652378836,0.111075287900667,0.1345875952096813,-0.019998824125952,-0.0091824945454541,-0.0564041797927454,0.019466395221025,0.0196486407820098,0.0385328410983736,1.5331259803525321,-0.6854710407968478,,,,,,,,,,,,,,,,,,,,,,,,,,,,,,,,,,,,,,,,,,,
actualidad-rt,,,,,,,,,,,,,,,,,,,,-0.3032803255780139,-0.7113265357641864,0.4578579774445546,0.1090714446244496,-0.1367468856790678,-0.1514162062131049,-0.0788034831094349,-0.2913247981111423,0.0600920304917462,-0.1406046699074275,0.0650142194286716,-1.5889771720808519,1.160188300141548,,,,,,,,,,,,,,,,,,,,,,,,,,,,,,,,,,,,,,,,,,,
xataka,,,,,,,,,,,,,,,,,,,,,,,,,,,,,,,,,0.4837214515279718,-0.2167424712873488,0.0482343022405946,-0.3391469191250708,0.2081560741322356,0.0923797972177509,0.6332581057884622,-0.2190032425682465,-0.4063855317002229,0.2586241127446936,-0.0093678577195908,1.176181756446323,0.24462395253165106,,,,,,,,,,,,,,,,-0.0238121237900306,0.3578066851367769,0.0251733971460269,0.042330614051783,-0.4007681956114224,0.1663636550603467,-0.05757309955555596,-0.2880333507301385,,,,,,,
elcorreogallego,,,,,,,,,,,,,,,,,,,,,,,,,,,,,,,,,0.3897143163404708,1.0195529155787182,0.9586718268925014,0.724258236305641,-1.2226852032339055,0.0563650600522304,0.3330950865847515,-0.1186729917416762,-0.2302946426503517,0.1288686430474859,0.088930098986613,0.18465270236666576,-4.8469479580201655,,,,,,,,,,,,,,,,,,,,,,,,,,,,,,
diariosur,,,,,,,,,,,,,,,,,,,,,,,,,,,,,,,,,,,,,,,,,,,,,,0.2708688660684761,-0.2435261672163217,0.0244906512049753,-0.1013650889728961,-0.0858150719124112,0.3489389570621411,-0.0106351078932423,0.0067728466399987,-0.2809532410617822,0.0724194478661523,0.4000833353920763,0.4739490646196007,-0.0215402497393522,0.9556668805858094,-0.4461726092425164,,,,,,,,,,,,,,,
ultimahora,,,,,,,,,,,,,,,,,,,,,,,,,,,,,,,,,,,,,,,,,,,,,,0.2946516954269851,-0.2695614344714755,0.3125854589301182,0.0768058663923675,-0.4999047780798256,0.2399378001413564,0.0102075904972319,-0.1886413114890433,-0.435592096966288,0.1006977267333453,-0.1898298593448737,0.4641013758343265,-0.0359815895847609,2.341855821987318,-0.8065592979395775,,,,,,,,,,,,,,,
telemadrid,,,,,,,,,,,,,,,,,,,,,,,,,,,,,,,,,,,,,,,,,,,,,,0.3630979505155653,-0.2190206306220471,0.109534180520655,0.129323974045519,-0.0048901956799474,0.1105747222175892,-0.1353545914668477,-0.0283777675194464,0.4688560899800297,0.0914063492936095,-0.3133570996705509,0.1462430335366277,-0.6649484969854896,-0.07948271395594758,0.10523163389236734,,,,,,,,,,,,,,,
diariodemallorca,,,,,,,,,,,,,,,,,,,,,,,,,,,,,,,,,,,,,,,,,,,,,,0.5216392665485514,-0.345968286191588,0.0933459586770121,0.2538283728208189,-0.9304624820147948,-0.3014579275057075,-0.9522352462811902,-0.4783100373531999,0.3501623092702234,0.0338426467307813,0.3637452864307338,0.4436587868703145,0.7687669864834656,3.508280507512735,-3.322595717375426,,,,,,,,,,,,,,,
telecinco,,,,,,,,,,,,,,,,,,,,,,,,,,,,,,,,,,,,,,,,,,,,,,0.1813953733767681,-0.1355763821253263,-0.132162837233884,0.0809561758351422,0.08839791054331,0.0563326395437961,-0.1239898066979999,-0.1839598511533633,0.1824122296970461,0.0613147452549518,-0.0238880791446764,-0.080420837412377,-0.2630322616438278,-0.7301419400907146,-0.060432916682020894,,,,,,,,,,,,,,,
diariodelamancha,,,,,,,,,,,,,,,,,,,,,,,,,,,,,,,,,,,,,,,,,,,,,,3.611856312437453,3.636414660025709,0.0282560460985557,-0.2808848491970887,0.1152291079980559,-0.0431505226963239,0.0982930880652298,-0.010440123808228,-0.0127784450874889,-0.0318750051502291,-0.0327765837966375,-0.0046618788790152,0.0325296481137441,2.529728604757497,7.207140997828309,,,,,,,,,,,,,,,
adslzone,,,,,,,,,,,,,,,,,,,,,,,,,,,,,,,,,,,,,,,,,,,,,,,,,,,,,,,,,,,,,-0.5688428909761628,0.1179200865491941,-0.1435435431796942,-0.1042739132113274,0.4965827186950465,0.3640440148678078,-0.9103270001679596,-0.5417746948793051,,,,,,,
bandaancha,,,,,,,,,,,,,,,,,,,,,,,,,,,,,,,,,,,,,,,,,,,,,,,,,,,,,,,,,,,,,-0.5301782044967406,0.0803004226303054,0.6663944114133027,0.5373621889459357,0.0819033864972661,0.0235918230531216,2.6061500028723343,-2.326431811999722,,,,,,,
bolsamania,,,,,,,,,,,,,,,,,,,,,,,,,,,,,,,,,,,,,,,,,,,,,,,,,,,,,,,,,,,,,0.4551465500200754,1.2217953870796632,-0.1870895547729805,-0.1364924840322115,-0.3939617745669422,0.2998101594774426,-0.39275282332150746,1.7047841888645339,,,,,,,
elchapuzasinformatico,,,,,,,,,,,,,,,,,,,,,,,,,,,,,,,,,,,,,,,,,,,,,,,,,,,,,,,,,,,,,0.1226483039875456,0.3452817421012973,-0.4088033290277636,0.0860084628052076,0.5924364214044207,-0.5175507478230434,-0.5445607528567429,1.376576545487511,,,,,,,
genbeta,,,,,,,,,,,,,,,,,,,,,,,,,,,,,,,,,,,,,,,,,,,,,,,,,,,,,,,,,,,,,-0.2523448442597196,-0.1386964255549691,-0.062258833075966,-0.0402247104588937,-0.3082700848783452,-0.13922006149675,-0.8431554216266675,-0.7236179207688735,,,,,,,
hipertextual,,,,,,,,,,,,,,,,,,,,,,,,,,,,,,,,,,,,,,,,,,,,,,,,,,,,,,,,,,,,,0.4987140152289286,-0.4082249233895693,-0.1377222125515432,-0.0625459049552023,-0.0468548114249216,0.0269310544763601,-0.525019879073445,-0.035006037827421954,,,,,,,
businessinsider,,,,,,,,,,,,,,,,,,,,,,,,,,,,,,,,,,,,,,,,,,,,,,,,,,,,,,,,,,,,,0.554929028322829,-0.4435801635920797,-0.1022517308254196,0.2075617483089584,0.0784520009263097,0.420544051070333,0.44935903133718064,-0.44608165250495646,,,,,,,
criptonoticias,,,,,,,,,,,,,,,,,,,,,,,,,,,,,,,,,,,,,,,,,,,,,,,,,,,,,,,,,,,,,1.448215169717791,1.3004011958927109,0.129925064024175,0.3572042027065776,0.3654659717807404,-0.1305655483485164,2.73778731210605,2.629493672257263,,,,,,,
lainformacion,,,,,,,,,,,,,,,,,,,,,,,,,,,,,,,,,,,,,,,,,,,,,,,,,,,,,,,,,,,,,,,,,,,,,0.4046735196132039,-0.1162561297458154,0.2413797524398776,-0.1619461636004737,-0.1220958495404855,0.11101043518440626,0.842535128462306
