story,Politics_0,Politics_1,Politics_2,Politics_3,Politics_4,Politics_5,Politics_6,Politics_7,Politics_8,Politics_9,Politics_10,Politics_11,Politics_12,Politics_13,Politics_14,Politics_15,Politics_16,Politics_17,Politics_18,Politics_19,Politics_20,Politics_21,Politics_22,Politics_23,Politics_24,Politics_25,Politics_26,Politics_27,Politics_28,Politics_29,Politics_30,Politics_31,Politics_32,Politics_33,Politics_34,Politics_35,Politics_36,Politics_37,Politics_38,Politics_39,Politics_pca_1d,Politics_pca_2d,Russia_0,Russia_1,Russia_2,Russia_3,Russia_4,Russia_5,Russia_6,Russia_7,Russia_8,Russia_9,Russia_10,Russia_11,Russia_12,Russia_13,Russia_14,Russia_15,Russia_16,Russia_17,Russia_18,Russia_19,Russia_20,Russia_21,Russia_22,Russia_23,Russia_pca_1d,Russia_pca_2d,Public services_0,Public services_1,Public services_pca_1d,Public services_pca_2d,Crime_0,Crime_pca_1d,Crypto/net_0,Crypto/net_1,Crypto/net_2,Crypto/net_3,Crypto/net_4,Crypto/net_5,Crypto/net_6,Crypto/net_7,Crypto/net_8,Crypto/net_9,Crypto/net_10,Crypto/net_11,Crypto/net_12,Crypto/net_13,Crypto/net_14,Crypto/net_pca_1d,Crypto/net_pca_2d,Inflation_0,Inflation_pca_1d
20minutos,0.0053675367552408,0.0007743698057084,0.0031323572919902,-0.0020555270023762,0.0018988729869901,-0.0003998063386007,-0.0017453745394651,0.0005753747714375,-0.0004260977126967,0.0018037779377283,0.0093493641974128,0.0037301689772366,-0.0022840970861133,0.0013078274815309,-0.0025953657901981,0.0014833686093366,-0.0018168973265269,-0.0002065992184573,0.0036084058517447,-0.0024105697723413,0.0037538733936953,-0.0015196664004266,0.0022491059630217,-0.0009605772431339,0.0003961455921635,0.0005963567896781,0.0049088119163846,-0.0007287695496623,-0.000621008458148,-0.0014144814703434,0.0023262590951328,-0.0028557832747533,-0.0002942391735554,-0.0005543304878125,0.0038850605352103,-0.0023962028182194,0.0002024699386644,-0.0024613653300097,0.0019659239846838,0.001166180003254,0.5035488689641489,-1.829409269668136,0.0038293191991006,-0.0154149659222257,-0.0028122644560688,0.0055688958735847,-0.0095496622696665,0.0105952524316729,0.0001497976811575,0.0099046491366354,0.001139554740215,-0.0053319846884581,0.0062904533472261,-1.2194524818109204e-05,-0.0013093488323821,-0.0004248246773963,-0.0051628606859074,8.418216237124094e-05,-0.0077503497241357,-0.0046102808836174,0.0010949369219105,0.0008855668470098,0.0081945819227435,-0.0123597734390875,-0.0064096561997876,0.000208260983258,-1.5076707377822263,1.586861498081938,-0.0013636775231888,-0.0002816150973915,-1.256181613833424,0.523460019497159,-0.0219180454106367,-1.0454512869274866,,,,,,,,,,,,,,,,,,,
antena3,0.0025324668097477,9.72732758712554e-06,0.0006184641859238,-0.0007249304589822,0.0004557901924531,-0.0006844892841823,-0.0002897686135977,-0.0012310860208448,-0.0009449337095196,0.0005326887218664,0.0010895947729867,0.0004381581444456,-0.0004055570967043,0.000781977736117,-0.0004114778998055,-0.0012550427910613,-0.0010728072793835,0.0006536260241012,0.0028438105190797,-0.0006746736744962,0.0005386816710434,-0.0004792056564279,0.0007153252345079,-0.0005574984474349,-0.0004638948512183,-0.0014917346469416,0.0031472089997507,-0.001500519851536,0.0013881587721366,-0.0041363479445381,0.0019341027981427,-0.0043362092904156,0.0013341494225412,-0.0007177644810425,0.0007388690831639,-0.0030006245174105,-0.0003135522593593,0.0013586097221762,0.0028027784543844,0.0008461661697965,3.4785649721247274,0.781337838150437,,,,,,,,,,,,,,,,,,,,,,,,,,,,,,,-0.0134331554311983,0.3397225791645812,,,,,,,,,,,,,,,,,,,
cadenaser,0.0061323813075477,-0.0053502908232688,0.0028991754332724,-0.0033812776371748,0.001862914933567,-0.0024915003254122,-0.0024417803760436,0.0010228220264786,-0.0018284311209666,0.0011334748448866,0.0017953604701075,0.0009301098998063,-0.0005634062610557,0.0024837911515336,-0.0010565371243524,0.0016045107779384,-0.0017209019373982,0.0010796523674705,0.0021270961990417,-0.0018405961017303,0.0009686927549587,-0.0007955290637044,0.0015396064838658,-0.0018953074899336,-0.001113263163099,0.0017162981004257,0.0011983753596569,-0.0018215427299368,-7.083930398049491e-05,0.0003427220100888,0.0014047589646378,-0.0011139771125422,-0.0002739174704303,-0.0003969025100902,0.0020255015928071,-0.0013493206991107,-0.0017006598819498,-0.0008200930541521,0.0013376523713724,0.0011599604021987,-2.4364879327686695,0.4398448643122256,0.0045476332280963,-0.0115544493319611,-0.0111336321915184,-0.0007440128251171,-0.0026485192909591,-0.002340243711274,-0.0027045927001652,0.0063320552341715,0.0066256850960305,-0.0036325207759869,0.0153692642843659,4.579227076964651e-05,0.0026991651558378,-0.0020097193288582,-0.0019752242569234,0.0055956164802352,-0.0053744091524818,0.0009265281235299,0.0068036004447674,-0.0017240289254338,-0.0042212844224446,-0.0080947798361673,-0.0006320507182977,0.0088088786957969,-2.1700700140517455,0.8440372359331824,-0.0135421785646815,0.0111487015390772,1.1559266779632575,0.24284546258540246,-0.020532270323791,-0.819220959930698,,,,,,,,,,,,,,,,,,,
catalunyapress,0.0026906030334571,-0.0011338940466765,0.0049428228027932,-0.0028395113598431,0.0029576764966772,-0.0012940350198134,-0.0041201074910935,-0.0007860143768936,-0.0005106448313427,0.0004633614837247,0.0039975095554467,-0.0007948037834419,-0.0002589266632752,0.0034014070142445,-0.0030416958181573,0.0024008731033345,-0.004632982369199,0.0015205337201663,0.0008196289223089,-0.0025381809426121,0.0002814758937237,-0.0004841589064704,0.0026015889289307,-0.000504393327753,-0.0023902783688898,0.0021464331491986,0.0025082433968253,-0.0017621603735232,-0.0012743754113147,-2.7713505466784453e-05,0.0011364377006284,-0.0028999258774138,0.0023076996198353,-0.0016175343054482,0.0024214777872722,-0.0026273064920824,-0.0003129032974432,0.0009468532832529,0.0058281829780518,-0.0009958363929799,-1.382904588616972,0.9066685752378,,,,,,,,,,,,,,,,,,,,,,,,,,,,,,,-0.0157494426083774,-0.03841555485575169,,,,,,,,,,,,,,,,,,,
eldiario,0.0066134982277959,-0.0089883721161707,0.0037065065685571,-0.0047156533049404,0.0023253247914353,-0.0032308798931385,-0.0038118437181091,0.0012739468634719,-0.0027891614213546,0.0012100757268424,0.0021940902441646,0.001332338445992,-0.001211690706742,0.0035986211067283,-0.0028761261302367,0.0014640225678733,-0.0025933935876306,0.0014519207884201,0.002027731127991,-0.0023369778079113,0.0014459936017188,-0.00173934728972,0.0018911845572202,-0.0014402752637237,-0.0016019544768418,0.001483234847478,0.0013031462763011,-0.0019678246911027,5.00222516456783e-05,0.0013913328911656,0.0015288167635872,-0.0002053593551805,-0.0005956666454177,-0.0003008331501091,0.0017006183877299,-0.0013781103470743,-0.001645195865773,-0.0016434580357329,0.0012374136397253,0.0013639891154788,-4.422628995063603,0.4199348181959229,0.0032971416143212,-0.0109125890559406,-0.0031475769582207,-0.0004983008447718,-0.0023671472345754,0.0019028573175732,-0.0040941198912278,0.0059394083722402,0.0009931678708269,0.0009852373169156,0.0021489936163093,0.0014778426160243,0.0006478275369797,-0.003966347547306,0.0011274309879743,-0.0002198905148553,-0.0004548822737073,-0.0028310291734659,0.0084901907142904,-0.0018065202091937,0.0029718011229708,-0.0009917733015723,0.0047459203716653,-0.0040613698788277,-1.5924729363209231,0.05521527462312238,-0.0117149359539317,0.0150152041017654,1.3144281215981484,0.8053586898820182,-0.0054339733423576,1.645603740431835,,,,,,,,,,,,,,,,,,0.004051117648098,-0.4298798820977806
elespanol,0.0033462118422873,-0.0003769786903558,0.0015659799951983,-0.0035521612147252,0.0011129746975805,0.000971286468827,-0.0029455626660358,0.0010228875422099,3.513193902482392e-05,0.001345496541402,0.0050265661792749,0.0015638199303469,-0.0005391782568915,0.0010898063100949,-0.0009534086163827,0.0017889178404615,-0.0010881295515411,0.0002845759129502,0.0011355042855822,-0.0017009093376407,0.0007757725893075,-0.000757923826517,0.0027136528168505,-0.0020186216917177,-0.001575494693977,0.0006195306950679,0.0021071472132847,-0.0026240993087998,-0.0011088978337528,-0.0004017753560486,0.0037102983805584,-0.0039548219547299,0.0003374211085346,-0.0007142486156548,-0.0003634305393428,-0.0017553959029612,-0.0008401288819194,0.0016748523002711,0.0025422976346825,0.0005977057778614,0.14428985002759653,-0.37378547515150184,0.0052634497500463,-0.0094520562608285,-0.0036881834562306,0.0034404728798551,-0.0056914904252295,-0.0028430756591121,-0.0022546619760054,-0.0016842786108393,0.002491037028122,-3.214546465664728e-05,0.0043450500011637,0.0015305238608318,0.0006951554576464,-0.0055108571543681,0.0030665180547437,0.0006715610792457,0.0012258903820046,-0.001967281256277,0.0011225272415613,-0.0035304146605303,0.0001360993930467,-0.0041840157069345,0.002239542934767,-0.0048466756884093,-1.3415544105057355,0.6507899127783052,-0.0043535406443375,-0.0020392406214982,-1.0895239044951974,0.029045178658796512,-0.0135621975796297,0.3186562115316824,,,,,,,,,,,,,,,,,,,
elmundo,0.0028399257860229,0.0026507182621618,0.0014265718421601,-0.0010838027585486,0.0030796716434111,0.0009836021858358,-0.0012521213712204,-0.0003559531739868,-0.0003762754455048,0.0020423947435199,0.0073807908072145,-0.0001554966949847,-0.0015198453459331,0.0012655121467271,-0.0002529641361103,0.0012608907827964,-0.0016740647650748,0.0010353972078344,0.0009777155950291,-0.0014449820398794,0.0027463362779191,-0.0007354443830954,0.0012796877805393,-0.0005452354439084,-0.0010953997081288,5.157729547759435e-05,0.0016089682090682,-0.001737509605288,0.0006965174538601,-0.0002887630183113,0.0023235774459325,-0.005416064249018,-0.0018022984702881,0.0008077315326872,-3.039068219205365e-05,-0.0006676163981937,-0.0002241602793794,-0.0020569488976542,-0.0006384755299333,1.953895412584207e-06,2.0420446047438348,-0.37783298551649686,0.003010047551925,-0.0165097513532026,-0.007811500172934,0.0089987470227305,-0.0081836313658849,-0.002416949014002,-0.0008440690338626,0.0017324272583267,0.0027128227566758,-0.0010836110158652,0.0006706014402955,-4.686284724331018e-05,-0.0028516532114681,-0.0041886674587828,-0.0014397831015206,0.0010864594240671,-0.0057083800147994,-0.0029038760121719,0.0010848245572769,0.0030394816495791,-0.0005674948910525,-0.0039862258971742,-3.1545032233683615e-06,0.0059786545089365,-1.9087288905011386,0.7240072992894238,-0.0052603943289319,-0.0175587457083748,-2.4362862608683007,-1.5182267173221022,-0.0227412888736324,-1.179847293609504,,,,,,,,,,,,,,,,,,,
elpais,0.0059667111386285,-0.0042885143714374,0.0017327667682571,-0.0007236256582718,0.0019560601068977,-0.0014735774866104,-0.0030425899370316,9.513480339387766e-05,-0.0009699878801007,0.0018254325141522,0.0034354089952376,-0.0005508268154101,-0.0007872364016234,0.0019876522658285,-0.0013750746147146,0.0015298116859422,-0.0018732063184218,0.0006849403087721,0.0018961942358919,-0.0012494114476687,0.0011109245270643,-0.0016940259931293,0.0015035827608383,-0.0014999732628073,-0.0009559824874057,0.001152212267764,0.0013203532847259,-0.0020487590027619,-0.0005211514206655,-9.538755145051387e-05,0.001473790949609,-0.0014060441062738,-0.0014543541312257,-0.0002450976936742,0.0007966092078926,-0.0013798444166594,-0.0009682841482924,-0.0018970128009099,0.0011448805664165,0.0008684546904193,-1.2524798040568652,0.3585669907541914,0.0065912525654847,-0.0151037208527585,-0.0084534658397184,0.0042120385906878,-0.0043802041018635,0.008079220593648,0.0009767822190861,0.0056380193332333,0.0131989808247034,-0.0062760032437519,0.0092801159827073,3.400530802378371e-07,-0.0030570439035598,-0.0046472273972442,0.0038851185170553,-0.0001406683649615,0.0055936778652526,-0.0084474860255057,0.0028212577347725,-0.0046437165058102,0.0079208010934354,0.0040785727338335,-0.0001076016362325,-0.0014025550326622,-0.527794263716805,0.9073735453694975,-0.0143569089657438,0.0087534685405394,1.0226688037548002,-0.07055306760389553,-0.0097309830500816,0.9441090169991141,0.0060273500112378,-0.0152735609247397,0.007101036933076,-0.0109373646017883,0.0078526336598555,-0.0002701534622096,0.0110154838202846,0.0008306488850071,-0.0028460137229339,-0.0030073065005405,0.0140049082722066,0.0022399686732034,0.0076939685428891,-7.320643729733444e-05,-0.0029119065062033,1.9673613074407645,1.1978945987892131,0.0032376304788592,-0.46688464138426955
epe,0.0038976886521928,-0.003987174398331,0.0027384266369534,-0.0026200628374123,0.0020901145327014,-0.0035908063282281,-0.0024916661833238,0.0013167540433379,-0.000512852443244,0.002323838667498,0.0065438632651185,0.0002726310178278,0.0005585179376692,0.0019146767557861,-0.001897831664837,0.0002722164460149,-0.0032639434729342,0.002497443587464,0.0007674037857491,-0.0009680261253694,0.0006731177180831,-0.0006420044318576,0.0010879403370719,-0.0013585621172574,-0.0023735424577878,0.0005239952290857,0.0013214237387214,-0.0011101801724883,-3.1448300433138167e-05,0.0009777632737883,0.0009183368715124,-0.0007227090449387,-0.0007430631058123,-0.0006127732501849,-0.0009706888059232,-0.0015751954883951,-0.0007606584698378,0.0001221226751529,0.0035698264123782,0.0007211674222984,-1.0690204673809627,1.5295874617813396,,,,,,,,,,,,,,,,,,,,,,,,,,,-0.005298562027255,0.0068865645361555,-0.15281991613851964,0.7568005729618906,-0.0127169056882588,0.4566516646234625,,,,,,,,,,,,,,,,,,,
europapress,0.0086293816923419,-0.001067760937558,0.0028946433389022,-0.0069681747906905,7.351193953659269e-05,-0.0001310339864465,-0.002390696679766,5.551634736178715e-05,-0.0015270502774216,0.002053508773967,0.0094946639855761,0.0003120580507116,-0.0014027939577102,0.0006678769929055,-0.0003598749615567,0.0017839678118111,-0.001999652009878,6.406356727880341e-06,0.0012785318469998,-0.0011572472136077,0.0014911481674884,-0.0011728304646766,0.0009317867723807,-0.0013623243980232,-0.0008857114285307,-0.0008481276609005,0.0037420041401053,-0.001254515155803,-1.8563357737651763e-05,-0.000797646284956,0.0028304515339456,-0.0060511515935748,-0.0011274686002397,0.0017620770678467,0.0001910590211592,-0.0027698223485578,-0.0004170399848176,0.0005133029027518,0.0053613739908828,0.0004579980462047,1.2377423410509296,-0.7666121428352731,0.0141769943164325,0.0124220106871083,-0.0096093886592995,0.0051142778098346,-0.003574977240395,0.0095624907217721,0.0003210103391336,-0.0007993315439522,0.0010062208190861,-0.0034882001935987,0.0047027872707682,-0.0004903889888982,0.0093083728071193,-0.0045622763333777,0.003040253328039,0.0017793423164479,0.0059790255903973,-0.00640588175094,0.002276913741325,-0.0064794227247975,0.0019553491697973,-0.0008335240433758,0.0053030332661345,-0.0044948074421789,-0.05070136969858531,0.4821659946950412,-0.0059039612123948,-0.0009257587810351,-0.8143018267645485,-0.038537894629673816,-0.0302523633752329,-2.406043995169582,,,,,,,,,,,,,,,,,,,
lavanguardia,0.0063161448911514,-0.0045337927808525,0.003875882589416,-0.005799283157247,0.0018641091136607,0.0007988692510454,-0.0031330514766731,0.0003579891317909,-0.0017419082798084,0.0016878469618669,0.0084733621586712,0.0011255464836311,-0.0006484019426088,0.0015268921381218,-0.0008003904875195,0.0024827107905367,-0.0014247744545271,-0.000511036558272,0.0016417008331856,-0.0012625047641417,0.0013827201532592,-0.001175609008206,0.0017149493349476,-0.0022749221024003,-2.460537584579592e-05,0.0007397549718889,0.0020260487281026,-0.0013220501541889,-0.0012837772697283,-0.0001099721306763,0.002347127081978,-0.0012446495967346,-0.0008812891521622,0.0005029966245163,-0.0003301759914936,-0.0018301206096929,-0.0022352707835058,-0.002087326217926,0.0026902917212176,0.0012632333542655,-1.1247903342241408,-1.0097102688057684,0.0038683588164933,-0.0010055252570173,-0.0032850924460379,0.0039504525123965,-0.0024053654401408,0.008529211791524,0.0021527890493808,0.0022901605133715,0.001381096169427,-0.0008672582553965,0.00174848177998,-7.257890163281898e-05,0.0026649428376714,-0.004556576395411,-0.0043087584914107,-0.0008679464301002,-0.0005148943987504,-0.0050988495701249,0.0056245774267966,-0.0017483455681325,-7.089951691163776e-05,0.0039886215270916,0.0018101909674177,-0.0015981404677319,-1.3938578518858742,0.2955768658756495,-0.0116231450745884,-0.0003120145118673,-0.12480817430927135,-0.6135822185003978,-0.0191426820538938,-0.5923681238003357,,,,,,,,,,,,,,,,,,,
lavozdegalicia,0.0004085258095081,-0.0002715260084642,-0.0014872065565788,-0.0073351561432113,-0.0034292779272333,-0.0007728972425579,-0.0012403055932508,7.566970283991951e-05,0.0019778977722122,0.0019030253532029,0.0248554388222147,0.0002212842763703,-0.0017357239575677,-8.113385973852576e-05,0.000107818309395,0.0035525466505302,-0.0006038339518236,0.0004293879343357,0.0007361827194184,-0.0013817111027792,0.0038059683715444,0.0002114737454718,0.0005079591736548,-0.0004369091382133,-0.0004802418110264,0.0004167963950789,0.001413018165324,-0.0012423074552669,6.501163097676174e-05,0.0001132517378312,0.0055846729698596,-0.0186574506290049,0.003326385816465,-0.003189376987399,-0.0072645775258171,-0.0007856360650319,-0.0008535163662062,-0.0009672832425594,0.0040569420577694,0.0004256529846264,4.934885978729959,-3.8931692443325545,,,,,,,,,,,,,,,,,,,,,,,,,,,,,,,-0.0214264791212747,-0.9652021877492843,,,,,,,,,,,,,,,,,,,
levante-emv,0.0011609617591368,-0.0020643616793002,0.002837623950197,-0.0030778083024589,0.0012103038931415,-0.0024755859931315,-0.0033762526716801,0.0020772388765232,-0.0017936011127286,0.0019422212054056,0.00123246024356,0.0006888067144254,-0.0013737601231818,0.001908975676523,-0.0002622875006461,0.0008885922900797,-0.001726125634347,0.0027261941330387,0.0020144452326961,-0.0013092690937879,0.0011196293692517,-0.0035937638922141,0.0009887504032485,-0.0016638884519915,-0.0016105418486249,0.0005776753915673,0.000728697055922,-0.0011960718247833,-4.803904134225703e-05,0.0005961728160945,0.0027699764566347,0.0007270666446845,-0.0013022050000378,-0.0007656113165256,0.0028154775400426,-0.0010173604492686,-0.0020343853919763,-0.0026616881838072,0.0004921216320522,0.0007912470850837,-2.4665778787006407,0.09956601579357881,,,,,,,,,,,,,,,,,,,,,,,,,,,,,,,-0.0167617210260676,-0.20367186493065315,,,,,,,,,,,,,,,,,,,
abc,0.002071264537338,0.0020795497778372,4.004900029166807e-06,9.451583900930637e-05,-0.004334092284961,-0.0032715945791053,-0.0010557183394077,0.0002386098467951,0.0007378916035067,0.0011097353002742,0.0077652715528118,0.0011391702980379,-0.0006185363891188,0.0016186368938845,-0.0008443872613703,-0.0009057725979848,-0.0012656848909341,0.0014558800971104,0.0024697442409081,-0.0015880765915621,0.0005065891877741,-0.0012305071169826,0.0008143136320168,-0.0013222190444982,0.0002469403592145,0.0006664966022654,0.0041750691030688,-0.0010479838374333,0.000545702924764,-0.0006972669051956,0.0024671967470128,-0.0045390420315214,0.0019264649461392,-0.0007138415644145,-0.0019086780197429,-0.00226781437067,-0.0004689260724453,-0.0011179045955828,-0.0014499387364743,0.0001110349027355,2.2865281312744625,0.65499888312199,0.0044889009423863,-0.0074966729318535,-0.005248828184023,0.0113307456399225,0.0028068353706086,0.0052981568926471,0.000897387065742,-0.0048256448251559,0.0007274071067541,0.00033922473924,0.0019811583205997,-0.0001040185066606,0.0003865332754646,-0.0028966329298882,0.0005622513186572,0.0003313166973136,-0.0031872689759442,-0.0061288842449,0.0051651494852759,-0.0059059466852734,0.0188737106476949,0.0052083756436443,0.0001333420755272,0.008003535760568,-1.2456883802807377,-0.685554345867984,,,,,-0.0109091243226042,0.7517752913742155,,,,,,,,,,,,,,,,,,,
elnacional,0.0050631943622706,-0.0015269761041028,0.0039013027485918,-0.0009889863820019,0.0001333598634732,-0.002102092878427,-0.0025899834434183,0.0006709655308194,-0.0026772481145793,0.0026360353730203,0.0034926668418579,0.0004778979534534,-0.0038723726833801,0.0020366983367141,-8.928357561538772e-05,0.0014452371964304,-0.0012478880409149,0.0008022321166823,0.0029394056049158,-0.0011061876897604,0.0013255875348899,-0.0005793168606721,0.0019055540166085,-0.0025618735259869,-0.0018596039566452,0.0011757705920996,0.001392485316928,-0.0020390083765099,-0.0014593726976342,-0.0004754600951821,0.0009926387146125,-0.0011044999738769,-0.0005481439112266,-0.0007494916698679,0.0020280196912326,-0.0013558203171885,-0.0019214728558746,-0.000351832454624,-0.0040637789522184,0.002560148392573,-2.3815568739770945,-0.18846559212797012,,,,,,,,,,,,,,,,,,,,,,,,,,,,,,,-0.0092066924011114,1.0297004279602306,,,,,,,,,,,,,,,,,,,
elperiodico,0.003150835838718,-0.0032717559462103,0.0004153055284221,-0.0019627974285799,0.0006491927587071,-0.0021729084626684,-0.0025977119422473,0.0009797622447774,-0.0007768709003227,0.0006104678695022,0.0033078875295036,0.0009403786697754,-0.0016883017196114,0.0019553191481981,-0.0034309484479371,0.0016716838343237,-0.0037157398848693,0.0010544273795109,0.0032487153160011,-0.0012035661579998,0.0021880287959134,-0.0010807876437663,0.0009543621946405,-0.0014460353295842,-0.0014400231022701,0.0013493734332859,0.0008039320655679,-0.0015760309185326,0.0004889673194791,0.0002532282685549,0.0011996997200172,-0.0022743933346957,0.001083297070739,-0.0009597175477814,0.0023543266570193,-0.0007003646020954,-0.0015772622254746,-0.0011656119424306,-0.0041209419135222,0.0016350945589267,-1.683854842120009,0.5564400636196687,0.0086170366426392,-0.0080669547791919,-0.0068489290584671,-0.0029191548346233,-0.0079383394502111,-0.0034010678617016,-0.0082624912765137,0.0022461881606098,0.0033131215861771,-0.006266576989181,0.006723151218846,-8.688638458535097e-05,0.0016857351161941,-0.0060242501146059,0.0037142297527115,0.0051446600474154,0.0013475180501694,-0.0145172546343871,0.0037389168212169,-0.0039851441936714,0.0049644958064658,-0.0107475856963078,-0.0023427454598335,-0.011227313377282,-0.911925753077465,1.5087357088783329,,,,,-0.0099763842297277,0.9040468239031889,,,,,,,,,,,,,,,,,,,
heraldo,0.0022920906326964,-0.0039589765343875,0.0005725676047319,-0.0047083830409032,-0.0029483568632553,-0.0009203667283143,-0.0014808169469476,0.0007538746398885,-0.0032894735754988,-0.0003504498702582,0.0012070468204311,0.0072829897171161,-0.0017617652983369,0.0004107259790531,-0.0002723243988358,0.0005407658524119,-0.001568179601797,0.0036330154264588,0.0006424633537851,-0.0010395078573371,0.0009926712933482,-0.003755900255829,0.0005294601241086,-0.000437903451028,-0.0005057763150876,0.0004899394221717,0.0043236942703544,-0.0005255762859332,1.221983169587386e-05,0.0002379967699751,0.0014632782723952,-0.0036569233805823,0.0011758342785744,-0.0005896095408687,0.0079727491242714,-0.0008565297359984,-0.0005624017020572,-0.0009957237321646,0.0079617264537493,-0.0002932806589747,-0.13742476849058455,0.579746151791497,,,,,,,,,,,,,,,,,,,,,,,,,,,,,,,-0.0158214233958809,-0.05016655056131687,,,,,,,,,,,,,,,,,,,
lavozdeasturias,0.001001606686535,-0.0060462632214865,0.0010378308577389,-0.0025808860931844,0.0024798584755503,-0.0013800050949639,-0.0031450061230904,0.0012201817648247,-0.0016140197356741,0.0002273249248713,0.00342512350121,0.0016716314204975,-0.0032989904838972,0.0014793375003143,-0.0026277863200167,0.000753507929923,-0.0025050207189218,0.001544587545903,0.0009300730914892,-0.0022067116089824,0.0005519972730135,-0.0016677427271026,0.000944015317858,-0.0017638394059123,-0.0004967828270092,-0.0005534091396565,0.0021323809206229,-0.001786385969319,-0.0009160996854293,0.0002628234247121,0.0010110497735394,-0.0006458827961687,-0.0025521006016036,0.0014895053634728,-0.0005232829562467,-0.0047025620264984,-0.0003409863903986,0.0003377908608531,0.0042429698460499,0.0005022831353269,-0.9044866528118357,0.8682021763589142,,,,,,,,,,,,,,,,,,,,,,,,,,,,,,,-0.0252438782573377,-1.5883996048673432,,,,,,,,,,,,,,,,,,,
publico,0.0067844374934578,-0.0043473788725746,0.0041505660775517,-0.0054887969077505,0.0031410569399156,-0.0044696165977839,-0.0048024461607896,0.0023714894188702,-0.0031454331455399,0.0010279829944857,0.000397567175274,0.002169299478984,-0.001422982561869,0.0030196871919973,-0.001608716837323,0.0028843021881722,-0.0024648229489634,0.001425932735475,0.0021530435983588,-0.0023913796761039,0.0014387097315662,-0.0025383835658891,0.0016380803304869,-0.0016188456422875,-0.0014178204880961,0.0018548836639084,0.0013166549528018,-0.0024714234144411,-2.8774412841358395e-05,0.0009859492784264,0.0022980571716257,-0.0002974826226857,-0.0011653111759564,-0.0010590859344663,0.0022113366975869,-0.00133147499719,-0.0022514992268643,-0.0017931033735836,0.0017204470469296,0.0017915266536379,-5.074006844229753,-0.7491369240955792,0.0101786754069852,0.01087741399813,-0.0056232231793747,0.0029761127347871,-0.0046908956146506,0.006508910242329,-0.00137056639686,0.0030987869911151,-0.0005359839113402,-0.0022117246919624,0.0066208100070176,-0.0001296466667208,0.0111552790999321,-0.0048267845277682,0.0017339024575517,-0.0004602590316083,0.0024556935356914,-0.0042815801747974,0.0022211487369923,-0.0066023546373679,0.0055356601324015,-8.745387238785415e-07,0.005230923864905,-0.0062261898470512,-0.009425274067785218,0.32930873327466526,-0.0115477257051119,0.0056765767082118,0.4252219783572412,-0.04687649478186203,-0.00659902465801,1.455406974297137,,,,,,,,,,,,,,,,,,0.0035392182908824,-0.4531656980380576
vozpopuli,0.0016772920844132,0.0034815587961604,0.0016983353421413,0.00377589060832,-0.0024168023632853,-0.0007859948253391,-0.0030449433723271,-0.0014443936871484,0.0039836582917265,0.0004678568684171,0.01279683142966,-0.0020607165289716,0.0013622883170359,0.0005700948869842,-0.0002636993865869,0.0020536655644447,-0.000217417537595,-0.0023825425672866,0.0011137203067666,-0.0027059767905877,0.0017781280802818,-0.0001478980307223,0.0006745578675944,-0.0005291963035131,0.0008535217791582,0.0008024527940286,0.0087821210746662,0.0001079340305176,3.858395616478496e-05,-0.0013794441074144,0.0024695518611107,-0.007155889078756,0.0003441308127722,0.0010123617810624,-0.0012313781909382,-0.000642219379658,-0.0004454295302764,-0.0003955592906268,0.001984282083857,-0.0010168971020721,5.1680474307235,0.1247498509937506,,,,,,,,,,,,,,,,,,,,,,,,,,,,,,,-0.0095926422879041,0.9666934003968838,,,,,,,,,,,,,,,,,,,
elconfidencial,0.0032914492747215,9.515601754969684e-05,0.0023885905094563,-0.0005254597712032,0.0022610328922374,-0.0013318660435274,-0.0032386208813297,0.0004478931291684,-0.0012772547569938,0.0014337244812263,0.008012927100027,0.000969295968995,0.00053649271641,0.0018934242817606,-0.0009885961143001,-0.0007679908715502,-0.0021027062105429,0.0008851598694028,0.0008519384028822,-0.0010513806300231,0.0011635475970629,-0.0005128733813813,0.0009773974147911,-0.0012071365566207,-0.00161842209092,0.0005076108747394,0.0009750192221835,-0.0010938823444613,-1.0134184204066247e-05,0.0003842837929296,0.0022126022711854,-0.003644665925705,-0.0005555475508284,0.0007921910576726,-0.0013903505021225,-0.0029757095288676,-0.0014026719812074,7.128036912841182e-05,0.0025036465193964,-0.000787066417592,0.7179876906424333,1.275916821858369,0.0017548681070735,-0.0149694035227593,-0.0082849205660326,0.0041806405674283,-0.0026608463162843,0.0107897596866412,0.0023583025734529,0.0025354133815654,0.0030559863537377,-0.0012623052270009,0.0018954725023196,0.0007849319044324,0.0004820419052802,-0.0068371374747324,0.0033943441227697,-0.0005194562148754,0.0042462101131946,-0.0054558066918357,0.0032198294842243,-0.001700903952963,0.0027598482136857,-0.0005749390812179,0.0033455076787354,0.0021542461560245,-1.2486786743588227,0.18848447693711332,-0.001242267471068,-0.0019930156523889,-1.4291723893233421,0.37731356748307077,,,,,,,,,,,,,,,,,,,,0.0036061319862556,-0.45012185754015316
elmundotoday,0.0038148697301986,-0.002741974049665,0.0022540579567846,-0.0015045457571009,0.0007295925820528,-0.0021422491970505,-0.0023719934905474,0.0012266587677239,-0.0002228604253325,0.0003484302602449,0.0001685645917175,0.0023857869674735,-0.0003066330975138,0.0021658473612752,-0.000446755518017,0.0008300885085487,-0.0019025416361675,0.0050670422718554,0.000355109609944,-0.0007709197282416,9.1667547755977e-05,-0.0006727079159507,0.0009781944258269,-0.0010189749500082,-0.0013771247676612,0.0025953200028152,0.0007405565368416,-0.0008862499444322,-0.0002616273696625,-0.0003645241382419,0.0004485724001122,-0.0002879329337037,-0.0004033088914987,-0.0003105816193644,0.0004096622033519,-0.0009859803813516,-0.0002840999214364,-0.0006858913798365,-0.0011724733345757,0.0009284813165927,-1.5113159559397416,2.2997782442345605,,,,,,,,,,,,,,,,,,,,,,,,,,,,,,,,,,,,,,,,,,,,,,,,,,,
huffingtonpost,0.0062780394101019,-0.0045093032489887,0.003758136037886,-0.002105238520372,0.0032241992328911,-0.0049905051802932,-0.0034732535017632,0.0014019466262515,-0.0022870989159112,0.0013245628071501,0.0048942640150191,0.0005887170105497,-0.0005266365508762,0.0019512493023153,-0.0010218728325526,0.0024588289626479,-0.0028080696300364,0.0017944560184121,0.0013352811957031,-0.0021177353440179,0.0014374411125234,-0.0010642540761337,0.0024466566578084,-0.0016086535982409,-0.0015076647526569,0.0014977477917272,0.0021658619423746,-0.0023467385867319,-0.0007960370110963,0.0015194461300005,0.0021263707458468,-0.0005870139032949,-0.0006368598901573,-3.578677372340425e-05,0.0008006408564602,-0.0016180790180913,-0.0014112149453215,-0.0030701510869695,0.0019481409718607,0.0014469075429437,-3.403644677295616,-0.4092685734495611,0.0053918284936661,0.0005951774502778,-0.0103265064264679,0.0184110784346959,0.0004048164963678,0.0112995004820469,0.0024119866134313,0.0015680867618171,0.0031069744340301,-0.0060588627755144,0.0085245232519999,-8.098824797527979e-05,0.0061431236179828,-0.0043699867241256,0.0061394698279896,0.0078329335744507,0.0042082922912408,-0.0065032400506657,0.0102709042677762,-0.0083353265968288,0.0071646669518841,-0.0026873812146494,-0.0056310711876825,-0.0068032633983135,-0.5615450065475228,0.20830633984475674,,,,,,,,,,,,,,,,,,,,,,,,,
newtral,0.0045509199171607,-0.007104565687551,0.002311795591701,-0.0052464663687109,0.0022894955988253,-0.0015520045438369,-0.0028203567983578,0.0023777305827024,-0.004811900130785,0.0006668241451441,0.0021618443406516,0.0028518432614254,0.0003119218261198,0.0013614898487528,-0.0018632298904897,0.0036672848602397,-0.0028954744215229,0.0017946851005083,0.0023835285090806,-0.0023657705768948,0.0004456151434669,-0.0018946358762477,0.0009517556388911,-0.0020246046073,-0.000527140556091,0.0005968284478688,0.0008577672190399,-0.0020315975870585,-0.0011341347336569,0.000216128502429,0.0011787202309889,-0.0021982366195805,6.928024789071285e-05,0.0017132124666009,0.0023964620611873,-0.0011886651861598,-0.0038963626250771,-0.0004968614880963,0.0020176838931452,0.0004560485649879,-3.5382877850722227,-0.17303112338799065,,,,,,,,,,,,,,,,,,,,,,,,,,,,,,,,,,,,,,,,,,,,,,,,,,,
lasexta,0.009050815262501,-0.0064871302326158,0.0043056642553121,-0.0044064902176463,0.0027904184631925,-0.0022994340949813,-0.0034339549308908,0.001622719847712,-0.0014109989632501,0.0010337818505171,0.0043771583057939,0.0009571611037221,0.0006926936727675,0.0018457434679346,-0.0006521597462869,0.0012775494627623,-0.0020385852372523,0.0006109558044489,0.0015295773426422,-0.0017602506586892,0.0012700123685094,-0.0018425673665135,0.0023013389838235,-0.0013748192856835,-0.0014974873563037,0.0010634641472744,0.0021092801475813,-0.0022576699670949,0.0001896453393098,-0.0006538741368021,0.0018193346960167,-0.0020540807635517,-0.0014088555999736,-0.0005310597115661,0.0003408917948434,-0.0012113904223521,-0.0008865698934136,-0.0012479346363663,-0.0009907875553425,0.0021518827403718,-2.6334457108559657,-0.2694946045471643,,,,,,,,,,,,,,,,,,,,,,,,,,,,,,,,,,,,,,,,,,,,,,,,,,,
ondacero,0.0015908870548458,-0.001125186749983,-0.0006610666483171,-0.0005465899911515,-0.000798888857388,0.0006947418995929,-0.0006454395072422,-0.0009826155573568,0.0003290382317312,0.0011653496839537,0.0063676213584007,0.0001692668620095,-0.0011425271741098,0.0026249200198627,-0.0013749533075389,0.000644055653753,-0.0024822494769594,0.000171363607391,0.0008182132544027,-0.0011927986936364,0.0021953835287306,-0.0002539100639116,0.0007891285158715,-0.0006322492121548,-0.0006867085202209,0.0006674168274585,0.005898900934768,-0.0005687227134452,3.3197008188436434e-05,0.0003246281702905,0.0018738027010849,-0.0040178910160444,-0.0029589503278776,0.0027478755319848,0.0020852010015785,-0.0008231365750137,-0.000509959599896,-0.0006706593644642,0.0055569034808819,-0.0014092936359454,2.5282619662894974,2.126279167033295,,,,,,,,,,,,,,,,,,,,,,,,,,,,,,,,,,,,,,,,,,,,,,,,,,,
threadreaderapp,0.0033368754138376,-0.00111363942078,0.0028131000575118,-0.0019553727375387,0.0023337912711856,-0.0032357527480431,-0.0026372382112009,0.0007786499164635,-0.001883760798335,0.0015177346472175,0.0012598676262861,0.0009706338270175,-0.0004178400676574,0.0026129921169078,-0.0010070137275885,0.0026882980155638,-0.0014470130165757,0.0016964112302909,0.0020216325637471,-0.002183199078858,0.0014761024087352,-0.0009079299132206,0.0024027054052987,-0.0013887449451201,-0.0011324984209896,0.0015732855165284,0.0008201281743976,-0.0027084660890237,0.0002288071427629,0.0005339697858135,0.0015360695041564,-0.0001856823563287,-2.171400880729944e-05,0.0002448610533223,0.0003278346371076,-0.0015196433027127,-0.0018325073816565,-0.000918552459475,0.0014415934010397,0.0020264992992604,-2.368375210142271,0.05674890903531223,,,,,,,,,,,,,,,,,,,,,,,,,,,,,,,,,,,,,,,,,,,,,,,,,,,
cronicalibre,0.0022108092739436,-0.0010449800735868,0.0010244461204906,-0.0037378142585215,0.0009585601011594,-0.0021884950216677,-0.0023594876024963,0.0003275747598327,-0.0018196429539433,0.0010909708730371,0.0013492114654986,0.0013199794941464,-0.0002359866928672,0.0018674633021327,-0.000246632702773,0.0036069936934141,-0.0021299802657056,0.0013476473856156,0.0008009903578632,-0.0009436500187795,0.0006583500076441,-0.0006019021381701,0.0009569873729493,-0.0007583791715024,-0.0017536943952186,0.00157912372848,0.0015841932523596,-0.0003519568583377,0.0006809405634563,0.0006516886503399,0.0010476198782385,-0.0008644920400573,-0.0011700820691183,0.0003919193525929,0.0027644941678136,-0.0019831640252072,-0.0043947036652137,8.106132756310067e-05,-0.0016392235486948,0.0005347925446035,-1.186427321717132,1.5955963662206814,,,,,,,,,,,,,,,,,,,,,,,,,,,,,,,,,,,,,,,,,,,,,,,,,,,
diariolarealidad,0.0030716641254457,-0.0030864528510673,0.0036900318631609,-0.0012147584841151,0.0020142727734884,-0.0045750971477493,-0.0025816781964227,0.0035043782079427,-0.001531938293922,-0.0002001885507966,0.0018267591243381,0.0022223473842699,-0.0015159579733893,0.0007285816884868,-0.0003721597887491,0.0007465112963759,-0.0018729087889131,0.0042506525013334,0.0024086104336439,-0.0006324700552715,0.0004921144551427,-0.0004685569650736,0.0007865482113181,-0.0006104298703308,-0.0006989994960246,0.0007791136062414,0.0026119976551849,-0.0020256382402874,-0.0013994217081246,0.0001493280244858,0.0006569135821699,-0.0003469795096936,-0.0004100756407977,-0.0001716159247933,0.0025840336400794,-0.000772242182405,-0.0026410430806701,-0.0019582632129241,-0.0036595905195141,0.0005176477250001,-2.5755302607903787,1.0070871759296534,,,,,,,,,,,,,,,,,,,,,,,,,,,,,,,,,,,,,,,,,,,,,,,,,,,
electomania,0.0003244889670857,0.0006705141530033,0.0007088682202812,-0.0011469039016432,0.0020745009692695,-0.0007674774126887,-0.0017925124403798,-0.0022029058958196,0.0008744642395503,0.0010950001831403,0.0061097899348425,-0.0019537038671365,3.652419745656804e-05,0.0031147770933349,-0.0016192778023224,0.0005888637922669,-0.00087277801438,0.0005475750476777,0.0007966017641525,-0.0009056940643042,0.0006347931585853,-0.0005779449962509,0.000931254466644,-0.0007694499200717,-0.0027170285083736,0.0004459751510554,0.0027989303975369,-0.0007371914297583,-5.3171409441802805e-06,0.0003757544979087,0.0011017478544513,-0.0013881574239579,-0.0018143820142087,0.0011674371802394,0.0027423805443835,-0.0010218923727329,-0.0026908055843093,-0.0003232498539048,0.004749949977143,-0.0018100073201812,1.3711868316063776,2.67979017954766,,,,,,,,,,,,,,,,,,,,,,,,,,,,,,,,,,,,,,,,,,,,,,,,,,,
elplural,0.0079782158601437,-0.0054386429598036,0.0034223331014084,-0.0019635607303761,0.0019991601664367,-0.002456085161289,-0.0034126375769412,0.0020513770201218,-0.0036290352549929,0.0005500882699596,0.0016286042652354,0.0002247090362941,-0.0001107603522817,0.0018350016694163,-0.0009872932983056,0.0022551804987136,-0.0024404256913917,0.0008986560700769,0.0012790233352906,-0.0018147249763839,0.000940839955513,-0.0012384164535849,0.0028257085296721,-0.0004594580123167,-0.0010905471028765,0.000730599505404,0.0014620513981135,-0.0018200894747898,-0.0007252421292185,0.0005617855701135,0.0013605171292639,-0.0013693809843521,-0.0003767133987315,-0.0010145075169884,0.0012335533565931,-0.0013825040799421,-0.0011811169928777,-0.0016685376119871,0.0014381693169775,0.0010580482140762,-2.780388343268192,0.44832909204146654,,,,,,,,,,,,,,,,,,,,,,,,,,,-0.0113966288728787,0.0106740923677445,0.8744793022099452,0.4357890367916116,,,,,,,,,,,,,,,,,,,,,
elsaltodiario,0.0039777079644299,-0.0048242398127347,0.0031999137702743,-0.0032628297009465,0.0003627972100277,-0.003165322556899,-0.0028890222756557,0.0025133968994548,-0.005416410081586,-0.0008849687901278,0.0010217644806446,7.22757195636475e-05,-0.0014194155381077,0.0025374609378727,-0.0001945499967116,0.0031946644423918,-0.0024417361677284,0.0021510816142901,0.0019809678460509,-0.0029365656633326,0.0013964858802364,-0.0020010576584794,0.0033424099735963,-0.0018266184654128,-0.0013172727927479,0.0013373597126914,0.0007030927978153,-0.0022127740748166,0.0020456836878216,0.0002450249329146,0.0002198282515507,0.0005034138828536,-0.0038514003316485,-0.001847340339499,0.000880401576382,-0.0013316738379299,-0.0028838055532457,-0.0032753788239783,0.0014440776927081,0.0021432083095646,-4.459163437961315,0.41440841104949094,,,,,,,,,,,,,,,,,,,,,,,,,,,-0.0093073136032164,0.0087005190968148,0.4594874383994501,0.48275443238498356,,,,,,,,,,,,,,,,,,,,,
infolibre,0.0072942071960149,-0.0046467693774514,0.0036472715441779,-0.0027986682961129,0.0021118657064108,-0.0024526219250931,-0.0034405991760673,0.0023587876849445,-0.0019497793071006,0.001268265815039,0.0016701937873748,0.0009785498206219,0.0001995567589893,0.0018562755563569,-0.0003185631014732,0.0013204294752797,-0.0016535047884662,0.0006849284825759,0.0015150179841835,-0.001993132051701,0.0006301722841422,-0.0014630116960858,0.0012686199935447,-0.0002086020274381,-0.0008110341206159,0.0007984875869264,0.0008727744535578,-0.0020934312941493,-0.0003985069499084,0.000340781280623,0.0009164193953208,-0.0005371801944757,-0.0005327377545737,-0.0002092147683787,0.0026182425243662,-0.0013768475197603,-0.0012682519200845,-0.0008332565242163,0.0014796095845109,0.0008961174853535,-2.177856633219804,0.47519300172730405,,,,,,,,,,,,,,,,,,,,,,,,,,,-0.016803894126306,0.0021972267313546,0.6818937744729953,-0.9523678217128457,,,,,,,,,,,,,,,,,,,,,
maldita,0.0033268026713451,-0.0024104441967784,0.0003304070748297,0.0004725996443699,-0.0042601207164752,-0.0006194992869207,-0.0008265276989692,0.0002651957737623,-0.0004224533098604,0.0003736932291636,0.0043339742257322,-0.0053838661283581,0.0022093441931281,0.000778404796902,-0.0003944811552244,0.0006279852986689,-0.000834793597075,0.0005182502508896,0.000733186465039,-0.0008154744563107,0.0005798518820983,-0.0005098561669115,0.0007295571632178,-0.0005660848662366,-0.0006190760721448,0.0005488806834643,-0.0025417594343363,-0.0017612690296362,-1.1555315697595134e-05,0.0007524670805193,0.0026643892154238,-0.0040607205007289,-0.0074595919493374,0.0014357575681198,0.0113265803040574,0.0002322512272682,0.0039898920739094,0.0028632094373428,0.0009457804003955,0.001169066053856,1.7787164573514067,4.08464729754535,,,,,,,,,,,,,,,,,,,,,,,,,,,,,,,,,,,,,,,,,,,,,,,,,,,
niusdiario,0.002998384708891,-0.0037349082554722,0.0008135246250352,-0.0026791442117979,0.0027593255304142,0.0018833682772655,-0.0015514744488067,0.0005603999915685,-0.0008097680351601,0.0006477163871706,0.0064914803250285,0.0013528327311582,-0.0006135588274289,0.0006204478678722,-0.0003329751197607,-0.0008280247629016,-0.0011084740103275,0.0006835691003924,0.0025668491556886,-0.0016633198857471,0.0049621398647709,0.0003616079783503,0.0004248517272447,-0.0003321704424856,0.00105760487988,0.0006264416030821,0.0008062924243713,-0.0008084778779199,-1.2373252301675567e-05,0.0003168182575676,-4.0077996434621395e-05,-0.0038797732991649,0.0008209786376646,-0.0006360996643481,0.0006850787456143,-0.0008572641702865,-0.0021524372895659,0.0011285915795262,0.0006984984819981,0.0008461509742992,1.5604698386574276,-0.03608222577795898,,,,,,,,,,,,,,,,,,,,,,,,,,,,,,,,,,,,,,,,,,,,,,,,,,,
theobjective,0.0020966071948439,0.0024823759169476,0.0002435913352359,0.0058180258306445,0.0053627925267026,9.663169673788594e-05,-0.0003740693140143,-0.0037873601088365,0.0092154482379418,0.0035745001733207,0.0100070781370878,0.0021763035346915,-0.0027672699450458,0.000232993357648,-0.000111591895214,0.0003503765770276,-0.0002042312037743,-0.0018836588844724,0.0031017041384027,-0.000892977072661,0.0027378652747485,0.000124092629796,0.0026848678800744,0.0001285008798379,-5.822248241918286e-05,-1.0489168347081744e-05,0.0032993757696614,0.0019677135128246,0.0018554311937779,-0.0022359447118285,0.0023789461439274,-0.0077999468816098,0.0031497806687043,-0.0009149576894844,-0.0074720602733172,-0.0058351264593827,0.0023500297237319,-0.0030255260554005,0.0002806945961076,-9.610761060583652e-05,7.549807689616028,-1.925997353650594,,,,,,,,,,,,,,,,,,,,,,,,,,,,,,,,,,,,,,,,,,,,,,,,,,,
vilaweb,0.0003506744320116,-0.0002711415696142,0.002889664633916,-0.0011247519124896,0.0027584245346703,-0.00111347433186,-0.0026482259707542,0.0033605735280176,-0.0028083911884399,-0.0005749223896384,0.0024687187129011,0.003569611124707,-0.0023781917705286,0.000414505813683,-0.0002405806831593,0.0037879514673368,-0.0071909491782802,-0.0012759030390402,0.0001137656514338,-0.0002412219988772,0.0002011724984758,-0.0001947204739321,0.0003591373042791,-0.000295605346884,-0.0003281764054685,0.0003707481449759,0.0002567132751427,-0.0005010612453098,-5.0329054015636635e-05,0.0002303930210025,0.0003112598964011,-7.523506059301031e-05,-0.0002026142699817,-0.0001289495791287,-0.0035074615739691,7.53814358409456e-05,-0.0040531568401347,0.0015854232246307,0.0007000212373269,0.0020790062474574,-0.6068750105485614,0.7512445583852888,,,,,,,,,,,,,,,,,,,,,,,,,,,,,,,,,,,,,,,,,,,,,,,,,,,
ctxt,0.0056936736067285,-0.0057204603356469,0.0029462965760982,-0.0030528946741882,0.0033051717032808,-0.0043433894216357,-0.0057728674502986,0.0036235891992019,-0.0028301613230902,0.0023115026437658,0.000159778526935,0.0012237196165714,-0.0016629308054408,0.0017985779035913,-0.0009701995774581,0.0021631728200089,-0.0033255604608035,0.0011369394790709,0.0036020688526235,-0.0039815957600808,0.0006494582789158,-0.0009320789957447,0.001700614183304,-0.0013735207826863,-0.0036970350303081,0.0021864855187851,0.0006036329322663,-0.0014131574654984,-0.0004768653573195,0.000415597400436,0.0014383001134977,0.0001571166565267,-0.001314395257235,-0.0018398268440586,0.0008899506012279,-0.0027926093879164,-0.0009706935841966,-0.002177756131776,0.0009316344717158,0.0020141700313529,-5.069462910216085,-0.45560911920047004,0.0118241218838367,0.0354694930413058,-0.0107833688419728,0.0057830725897939,-0.0114520095023975,0.0157712896284474,-0.0063491034286407,0.011565634894963,0.0004983404716063,-0.0049278274620692,0.0059858197140967,-0.0002501365995835,0.0266994834781061,-0.0108134869589009,0.0146134571107077,-0.0086917837191498,0.0139210847031917,-0.0103960266849733,-0.0065016858248841,-0.023820866469843,-0.0013794023020049,-0.0022335187862981,0.0026485784138976,-0.0141664459804204,2.7974528755208605,1.4418014474524352,,,,,,,,,,,,,,,,,,,,,,,,,
diario16,0.0077901955348788,-0.0034876082399898,0.0035717133072578,-0.0031968362585166,0.002031385488683,-0.0050519320413713,-0.0041625140888211,0.0022611274995461,-0.0018444736164601,-6.886241856483085e-05,0.0021474540270574,0.0003741662578723,-0.0012744201415284,0.0018739107945609,-0.00302734952433,0.0010116146079495,-0.002580489534833,0.0016234577015811,0.0030819736630995,-0.0037516761983707,0.0002761984905714,-0.0006578329976873,0.0054199844319558,-0.000177623979226,-0.002406615754661,0.0006829703167566,0.0018805412790356,-0.0038646555718888,-0.0002690540213494,0.0017761682149086,0.0032999252735619,0.0006831779218423,-0.0019583552730517,-0.0019947322708325,0.0006801078480003,-0.0017283059103817,-0.0007675935148425,-0.0008262215113741,0.0006844462305812,0.0012149802027003,-4.549852855188532,0.2943033107572261,,,,,,,,,,,,,,,,,,,,,,,,,,,-0.0197589476810614,0.0102271739408129,1.7572829105245027,-0.5303546798774271,,,,,,,,,,,,,,,,,,,,,
efe,-0.0005641729793192,-0.0016481930457693,0.0024779560544509,-0.0043740189058703,-0.0004972779723342,-0.0007964377153208,-0.0012732659836493,0.0005164788046163,-0.0011503941451702,0.0026539245110229,0.0047442044573416,0.0022243409131937,-0.0038668099862047,0.0003136595334194,-0.0001937745246266,0.0004942541994869,-0.0032960253882403,-8.904953488764407e-05,0.0008990998596611,-0.0038971785754526,0.0026449447911368,-0.0022465702433684,0.0005187333896644,-0.0027286821865489,0.0001644828061463,-0.0024170254730197,0.0035159630439186,-0.0032398702955536,-0.0001871132341248,-0.0035864652227734,-0.0011400414633812,-0.0056871890419707,0.0019125361024198,-0.0009010103347858,-0.0023185778189286,-0.000682841038944,-0.0009152284319293,-0.0033087132328217,5.338526699707677e-05,7.849760671549779e-05,1.411030223991116,-3.4863613426037072,,,,,,,,,,,,,,,,,,,,,,,,,,,,,,,,,,,,,,,,,,,,,,,,,,,
elcomercio,0.0006236093336134,-0.0014342654096138,0.0005688081411756,-0.0006763980760236,0.0004186900562672,0.0013506610806503,-0.0004159391391047,-0.001345663534051,-0.001107902096529,0.000594147583463,0.00119724582406,0.0004907919046855,-0.0004698732996647,0.0015055972971821,-0.002549233237719,0.0006946351510057,-0.0015716876756475,0.0028915008272916,0.0030153213569289,-0.0006329003881513,0.0005420240256729,-0.000508448382108,0.0011942915030565,-0.0030352663879393,-0.0026951061760014,0.0001604743444595,0.0006910678292637,-0.0007900882802444,-1.2288861975960967e-05,0.0002973295335386,0.0011614791052313,-0.001723501667777,-0.0019699314202426,0.0014153070993931,0.0005299827631661,-0.0011632149872886,-0.0010943019901235,-0.003636883855552,0.0056230789263667,0.0008923278844982,0.054635034075503366,2.0161933420119893,,,,,,,,,,,,,,,,,,,,,,,,,,,,,,,,,,,,,,,,,,,,,,,,,,,
elindependiente,0.004102596194612,0.000130969207078,0.0032213673521633,-0.0023224958103428,0.0014335184010276,-0.000873269614988,-0.0031283407969974,-0.0020754289478248,-0.0005466361422775,0.0006571269924368,0.0116159198858772,-0.0042731605369704,-0.0006670188853591,0.0005328413531414,-0.0002709400174548,0.001983555787715,-0.0005056260794173,-0.0009275875109032,0.0008912180462375,-0.0011789659675903,0.0020537861275646,-0.0002768711957068,0.000734333007869,-0.0005900706099907,-0.0006067233953692,0.0005190841168752,0.0026366581567708,-0.0008578694632945,2.091851478147654e-05,0.0001794274326925,0.0011345364649502,-0.0074576421973543,0.0002564844654902,-0.0012066569490565,0.0004858443171885,-0.001095485578147,-0.0005638966820985,0.0004337114972136,0.0099733832179173,-0.0013094604726953,2.915188248579043,-0.23174579701538509,,,,,,,,,,,,,,,,,,,,,,,,,,,,,,,,,,,,,,,,,,,,,,,,,,,
larazon,0.0005922765163407,-0.0004375682244431,0.0023641680355028,-0.0015657896435394,0.0036328320734069,-0.0010698714939877,-0.0015592767507068,0.0006224412904998,-0.0012370536495847,0.002310048066273,0.0042125934777846,0.0019461057284213,-0.0032317905878595,0.0006592452063873,-0.0003659090756966,0.0007288085496243,-0.0011014925420184,0.0006598853084718,0.0010260056795547,-0.0012066442798876,0.0008767338832268,-0.0007793950986316,0.0015248824012867,-0.0029567112416693,-0.0027443255755989,0.0006420341750361,0.0034461697397126,-0.0041424326445947,-9.692190581684243e-05,-0.0002066118417983,0.0048005037627212,-0.0062637784574722,-0.0036221322016397,0.0015871948664349,0.0025696530571725,-0.003154238641842,-0.0006338604059102,-0.0029091666209197,0.0080901161516831,-0.0017753238750911,0.4072873054869667,-1.1836540942177605,0.0062181480033469,-0.0107540014520636,-0.0058134810210987,0.0005786520838411,0.0002593190307669,0.0034503680941344,-0.0036152406029443,0.0036773400000213,0.0026568567669753,0.0021215201606627,0.0014851855463279,-0.0001826319815652,-0.0003381312826949,0.0007307903211457,-0.0038901210852322,-0.0037417512597483,-0.0017329105350682,-0.0048572829984278,0.0041949843608294,-0.0026415928070777,-0.0021737619263666,-0.0025935802939211,0.0017126022026895,-0.0024896648123709,-1.7686678363422645,0.6278961735817279,,,,,,,,,,,,,,,,,,,,,,,,,
marca,0.0027816898491819,-0.0008545835040729,0.0008147810318064,-5.8021683977094694e-06,4.326689290885897e-06,-0.003879927900357,-0.0028992576276754,0.0002560117158827,0.0013217726708283,0.0009508310019364,0.00410793351133,0.0044382053055538,-0.0008650037652284,0.0013074624835521,0.0007756012990284,0.0016448794055808,-0.0010197846737685,0.0006386987079964,0.0018137713329995,-0.0008872994150243,0.0006575520368533,-0.0005973738628794,0.0010312962723454,-0.0016153527583633,-0.0006469151917881,0.0006836288843848,0.001057442335972,-0.0021050272598201,0.0006528123247913,0.0012083744067008,0.0035916820184684,-0.0042309748734148,0.0020000492872228,-0.0006976458136645,0.0015873859248023,-0.0006700257463389,-0.0006432156580991,-0.0006250399724223,0.0004618959146232,0.0006154118608384,0.3086239362933165,-0.3645229613134314,,,,,,,,,,,,,,,,,,,,,,,,,,,,,,,,,,,,,,,,,,,,,,,,,,,
moncloa,0.0099302109549154,-0.0047575158942088,0.0036622857172087,-0.0013708997482695,0.0019889876284133,-0.0020364979391247,-0.0021670920482836,0.0013981662174803,-0.0023812506216386,0.0016502805006993,0.0101717575788115,-0.0039840273880426,0.0004994279784032,0.0014903880646389,-0.00018708866138,0.0007811213394909,-0.0011621096938815,0.0007564664035013,0.001791034601479,-0.0012625782346238,0.0014857008810165,-0.0006169145991033,0.0033168386452912,-0.0011255482848826,-0.0013665992670897,0.00130788582778,0.0022820876525319,-0.0008691882700479,-1.5661939642079895e-05,0.0003713163765117,0.0018999838520436,-0.0017500599232634,0.0003571059661212,-0.0003423626477054,-0.0022114261219499,-0.0037873499424413,-0.001153480458308,-0.0030197453321963,0.0081489235697958,0.0006673095150362,-0.5733222323409376,0.24061300139486103,,,,,,,,,,,,,,,,,,,,,,,,,,,,,,,,,,,,,,,,,,,,,,,,,,,
nuevatribuna,0.0034986497623543,-0.0045046807210755,0.0040793441322767,-0.0003816107911531,-0.0012522210350625,-0.0014150659234132,-0.0033395933606697,0.0044602806334442,-0.0023530710560706,0.0015671287044176,0.0007252181464064,0.00030694066956,-0.0003050097363843,0.0013246900666245,-0.0024316448200362,0.0005647390283675,-0.0003400004591127,-0.001663720063153,0.0008732148421093,-0.0009117849435683,0.0005903115669457,-0.0005687414998602,0.0007680419531679,-0.0005935692287893,-0.0006353207021833,0.0005864630229939,-0.0016237193619288,-0.0024261932971963,0.0015421589204013,-0.0022745844778101,0.0009391137463611,-0.0005391956912077,-0.0005129128819847,-0.0001978459735546,0.0007914067769506,-0.0008765566380875,-0.0009755586831395,-0.0029392774273476,0.0003797717928217,-0.0017139691746314,-0.4882727974241635,0.9416926478017725,,,,,,,,,,,,,,,,,,,,,,,,,,,,,,,,,,,,,,,,,,,,,,,,,,,
lavozdelsur,0.0025158697880339,-0.0043052634147651,0.0008387370430505,-0.0060386460892509,-0.0006040705846935,-0.0074805993062055,-0.003509624451783,-0.0010960887240648,-0.0002563643281779,0.0002148809581051,-0.0002866955962864,0.0055725857394899,-0.003047625298859,0.0007349189981418,-0.0004366628092632,0.0044978710144048,-0.0013486363676375,0.0008387690904961,0.0018237491026636,-0.007076415231451,0.00801900331582,-0.00286429547669,0.0007715866004004,-0.0042632707527803,-3.641448715800081e-05,0.0003484481196071,0.0005883261684227,-0.0034855160399804,0.0002092109151975,-0.0003295973127975,0.0004491297273284,-0.0001704415229489,-0.0003266672917126,-0.0001639577890121,0.0008979388396333,-0.0012455998963187,-0.0019150869952145,-0.0064057949907699,-0.0001658214338796,0.0076604328947522,-4.515447911508789,-5.593216264134569,,,,,,,,,,,,,,,,,,,,,,,,,,,,,,,,,,,,,,,,,,,,,,,,,,,
galiciapress,0.0008896062684607,-0.0028853511321139,0.0005691796288385,-0.0002705867043974,-0.001716161751505,-0.0008715446735641,-0.0011286792627192,0.0004271367421581,-0.0006470548437532,0.0004765735553526,0.0034783176758847,-0.0007970328827533,-0.0001374664431599,0.0007693964015963,-0.0004149074505155,0.0006858667648517,-0.0009421799614137,0.0005903896065044,0.0008128307901153,-0.0009129151128319,0.0006386172931551,-0.0005765688336117,0.0008335161683854,-0.0006388451322946,-0.0006751674856675,0.000637507044477,0.0009038112665304,-0.0011189475420236,-2.2943874407515484e-05,0.0003977869826298,0.0015978689196454,-0.0035701425546191,0.0010192285359472,-0.0006255047089415,0.000796256721535,-0.0012441548267082,-0.0014296214709843,-0.0047342787184673,0.0040632923769763,0.001623028775974,1.2694716149701222,0.740810451596147,,,,,,,,,,,,,,,,,,,,,,,,,,,,,,,,,,,,,,,,,,,,,,,,,,,
as,0.0065473125183127,-0.0006525084980391,0.0036308063267519,-0.0031707112297105,0.0131302541170983,-0.0003372426702799,-0.0006318451023886,0.0001773507340961,-0.0002923599549953,0.0003720899525753,0.0066300020553058,0.0022090781210684,0.001432163789359,0.0003201022808123,-0.0001558557527595,0.0054891042250444,-0.0007265938271983,0.0004716555624497,0.0011456146644852,-0.0067108214980644,-9.586591148070758e-05,-0.0055082521543184,0.0001142472918571,-0.0002088891906944,-0.0003185419329828,0.0003664426872087,0.0016515057805436,-0.0055059572167136,-0.000236606295247,-0.0010627326337708,0.0102701467130644,-0.0152513204829053,0.0092802195061575,-0.0022618487635658,0.0002160360183838,-0.0008375522599249,-0.0005773241669555,-0.0012769117602211,0.013817961708469,-0.0009778931308372,1.4422415001077538,-8.215901457040099,,,,,,,,,,,,,,,,,,,,,,,,,,,,,,,,,,,,,,,,,,,,,,,,,,,
diariodesevilla,0.0003881854848855,-0.0002892184577257,0.0006072806141558,-0.0011817923827586,0.0026689382457739,-0.0005974285295628,-0.0006759716560064,4.256952988747277e-05,0.0019916942528034,0.0013190974722791,0.0073031046438176,0.0004067946129246,0.0008950701327517,0.0014282585329611,-0.0031113994042621,0.0004807454700129,-0.0007437288007636,0.0004557615474596,0.000673483367072,-0.0007575043441794,0.0005315349716767,-0.0004844796840296,0.0007169132817349,-0.0005531811452733,-0.0005911332891028,0.0005381948298821,0.0008635420313293,-0.0010595817341647,-1.571915998674723e-05,0.0003852066592344,0.0019886860634602,-0.0041406563700247,-0.0008958547356739,-0.0033345406288715,0.0005612156771386,-0.0009407249157391,-0.0008682871361604,-0.001193255649622,0.0046024257391653,0.0021420516259085,2.1046984839683045,0.738675012093675,,,,,,,,,,,,,,,,,,,,,,,,,,,,,,,,,,,,,,,,,,,,,,,,,,,
elboletin,0.003143133542332,-0.0011769132117326,0.0007062241552335,-0.003416491898393,0.0021561126110622,-0.000786815735048,-0.0010879735485278,0.0003969522958646,-0.0006383972817027,0.0004963357989966,0.0058799790283914,-0.0020275982658966,0.0001097062809395,0.0015621521013284,-0.0031168419580862,0.0035284805777294,-0.0036763828109991,-0.0002839199790073,0.0004775155401914,-0.000613902988514,0.0004250490642666,-0.000425003840296,0.0006523809897668,-0.00050834072841,-0.0005626364766399,0.0005831832422748,0.003814151592336,-0.0004489608309995,-2.5110991804361456e-05,0.0003026335140475,0.0005560443557689,-0.0002505825119996,-0.0003487473513745,-0.0001461707870693,0.0006371127612683,-0.0007429069789167,-0.0008464213994978,-0.0009991832999048,0.0004051323162243,0.0035088558270683,0.6201107559206941,1.414321643353086,,,,,,,,,,,,,,,,,,,,,,,,,,,-0.0230056243953828,0.0107481014799065,2.164781082749412,-0.8407117298376724,,,,,,,,,,,,,,,,,,,,,
elconfidencialdigital,0.0069686898449123,0.0023815322411048,0.0005760833469264,-0.0058129301130962,-0.0008728031546153,-0.0005067921342345,-0.0008820217543361,0.0001997505778083,-0.0003660903653229,0.0005325486506932,0.0104840185579589,-0.0043558976270476,0.0006821352751147,0.0014182744707115,-0.0036368214907745,0.0003214804543459,-0.0006013171032561,0.0003368860167885,0.0005717091121899,-0.0006709834404117,0.0005325517256217,-0.0004315836440108,0.0007454987462643,-0.0005928780555176,-0.0006205071231017,0.0006373616781538,0.0139892954826139,0.0008604022541105,9.5135082248395e-05,-0.0003412334151514,-0.0021785608331503,-0.0092848378051114,0.0032988658912443,-0.0014230157976163,0.0003000966545831,-0.0007774873074509,-0.0003088097708882,-0.000484725792499,0.0098100958634944,-0.004499544325413,4.2975366028323805,2.030354356010493,,,,,,,,,,,,,,,,,,,,,,,,,,,,,,,,,,,,,,,,,,,,,,,,,,,
eldebate,-0.0004704428333904,0.0003395236033108,0.0007573696994203,-0.0023686258394195,0.0014975641144537,-0.000717942373257,-0.0009066774597523,0.0003289770909902,-0.0004725622132491,0.0003635578191179,0.0006981176492008,9.979255742013254e-06,0.001132460834477,-0.0005578123865811,0.0039255622963955,-0.0007785386388973,0.0005076817357829,0.000964547197142,0.0009422916179405,-0.0009789589847376,0.0007085733842611,-0.0005899494745776,0.0008512156567739,-0.0006482883102701,-0.0006516595105978,0.0005747541199481,0.000948243324963,-0.0007311754690675,-3.7711907691584315e-05,-0.0012049352726081,0.0032156331677457,-0.0032104623962078,0.0012444114730963,-0.0004965075808032,-0.0027445443508326,-0.0008705211969418,-0.0007699410578787,-0.0006991758030355,0.000572265921024,0.0006598324735863,2.797740218486554,0.17709326139908194,,,,,,,,,,,,,,,,,,,,,,,,,,,,,,,,,,,,,,,,,,,,,,,,,,,
lamarea,0.002356287697754,-0.001079689932248,0.0019186396238693,-0.0012574341023097,0.0016501612478755,-0.0034792167518884,-0.0025178377196684,0.0002863339015744,-0.002224783162071,0.0021854309876954,0.0007160683026426,0.0002683958082908,0.0005956340421095,0.0026778107785554,-0.0022987324715188,0.0007684430095947,-0.0022119863343401,0.0004498745652023,0.0009993927548241,-0.0022418080011438,0.0005649239013441,-0.0016689508848263,0.0009134031287586,-0.000765630935388,-0.0029902204560963,0.0004670389429623,0.0006566796680152,-0.0010730977904494,-3.737268641905302e-05,0.000514993861704,0.0020915455717087,-0.0003059028986826,-0.0010006473168894,-0.0010540384495418,0.0007165060913108,0.0002989147326102,-0.0011919103858499,-0.0031386473687247,0.0003393929219513,0.000347198355372,-1.475120313338216,1.06919488396748,,,,,,,,,,,,,,,,,,,,,,,,,,,,,,,,,,,,,,,,,,,,,,,,,,,
libertaddigital,0.000953915928422,0.0040759529591492,0.0004450738575904,0.0018266758799454,0.0009440749573015,-0.0006044710815532,-0.0006625656396528,-3.693396846435413e-06,0.0023116115978749,0.0014372093445264,0.0081148819845541,0.0004006520793426,0.0010532015084072,0.0005808243544965,-0.0002988449395803,0.0006427585626999,-0.0043638267924422,-0.0003383726449708,0.0006114797680412,-0.0007817537957439,0.0006213290334355,-0.0005193448974064,0.0008956232443776,-0.0007175070037891,-0.0007620643036929,0.0008065222949276,0.0127980047862876,0.0002143723221675,8.43181469087998e-05,-2.908341197120764e-05,0.0028388098409366,-0.0105087555997175,0.005050422767065,-0.0016679461182144,0.0004421231066211,-0.0045299866119114,0.0001834044432191,-4.916832616998879e-05,-0.0002079398083182,0.0001529045240267,5.145491070045183,0.01975725094971914,,,,,,,,,,,,,,,,,,,,,,,,,,,,,,,,,,,,,,,,,,,,,,,,,,,
nortes,0.0009899059639905,-0.0044540028376528,0.0028983405973657,-0.0003637722337337,0.0002226567168894,-0.0004568172235688,-0.0007267156067148,0.0002001604075915,-0.0003459891295305,0.0004018604280446,0.007108716904411,-0.0029249818092928,0.0004379465669529,0.0003659576390551,-0.0001957526911356,0.0004013792036965,-0.0043849404128484,-0.0006985919814047,8.637856971185207e-05,9.650877360547436e-05,-0.000339585766979,0.0038675593932715,0.0006649318623865,-0.0005104619253791,-0.0004581178532752,0.0003559818469827,0.000742189354964,-0.0027864971987343,-4.347804814694462e-06,-0.0050651285972341,0.0007485518212858,-0.0006465007381003,-0.0003030612717368,-6.904951261437828e-05,-0.0042122224193592,-0.0016075267269453,-0.0011364594639803,-0.001753959708781,0.0150966146568244,-0.0006773150680407,3.581223242179198,1.3085750988529068,,,,,,,,,,,,,,,,,,,,,,,,,,,,,,,,,,,,,,,,,,,,,,,,,,,
politicaprosa,0.0008312506439581,-0.0034035200816001,0.010104175144658,-0.0057626785502796,0.0094689862918472,-0.0005549108554531,-0.001206706266052,0.0005051125568018,-0.001527899329518,0.0048017404412653,0.0098139368661719,-0.0031526802008889,-0.0038496689694118,3.624532997121839e-05,-2.0867569450317008e-05,0.000363269993373,-0.0063117935808751,-0.0009411617380431,0.0005316524362731,-0.0016891072305455,0.0061452682456296,0.0007939493130228,0.0002076160795856,-0.0002478752309772,-0.0003967090601796,0.0004810476462553,0.0008889224295759,-0.0054987825099525,-0.0003928269373092,-0.0010829368104827,0.0015960388727515,-0.0058833569893719,0.0028684537168031,-0.0010619113925709,0.0080462243127884,-0.0004989457153287,-0.0011397777115241,-0.0079573310412146,-0.0007337805078784,-0.0009944182284669,0.31518884347706844,-5.6794689417142825,,,,,,,,,,,,,,,,,,,,,,,,,,,,,,,,,,,,,,,,,,,,,,,,,,,
rtve,0.0020616864392693,0.0028640268908522,0.0024010552208465,-0.0073259085983016,0.0020936639055636,0.0026058212905779,-0.0022462806100254,-0.0007737866564336,0.0041211734470038,0.0019540457845436,0.0039405161796867,0.0016382074782114,-0.0015549552084659,0.0013477672987299,-0.0021381383365684,0.0024843245134776,-0.0026933404219293,8.793866742799674e-05,0.0007382730822626,-0.0022122569063667,-0.0016179503573918,-0.000691390463458,0.0007809111979671,-0.0005910759760621,-0.0004420598031368,-0.0030630852983682,0.0051326077541024,-0.001109628458706,2.456655274272806e-05,0.0005131565720418,0.0026664087939324,-0.0063301057544894,-0.0026728809175576,0.0028995213284869,0.004462981064025,-0.0008106182769321,-0.0003329669879837,0.0026682383059632,0.0070417337670035,0.0017468555279246,2.683401948709284,0.5096077337818189,0.0081644679181874,0.0080052288634703,-0.020550558596016,0.0063139157724961,0.0004312914427935,0.0032912494527132,-0.0034160456990086,-0.0020181513594769,0.0008259727925284,-0.0032279470799968,0.0058376277177144,-0.0001202910429441,0.0091959944525735,-0.0039462100892914,0.0011466063960254,0.0001886074182132,0.0037232736405823,-0.0026435157991977,0.0106763647898448,-0.0039371446970382,0.001698009535966,-0.0013708130843903,0.0047218368977644,-0.0014520709322241,-0.8828756267465867,-0.7939061394585845,,,,,,,,,,,,,,,,,,,,,,,,,
valenciaplaza,0.0023713560679789,-0.0042680850653404,0.0003287758820937,-0.0004246822849028,0.0002593809807755,-0.0005388060932238,-0.0007732806114987,0.0002791864640817,-0.0004565751737343,0.0003720787476597,0.0045952944529976,-0.0006415668532327,-0.003451940406937,0.000292498573528,-0.0001760960552221,0.0003788308786289,-0.0046148696884951,-0.0007223991787627,0.0001524673955553,-0.0002501475409368,0.0001528718863638,-0.000203611692503,0.0002085955382145,-0.0001322502080369,6.0277144144413927e-05,-0.0043062317982908,0.0005124841875457,-0.0007277023628978,-4.331661954613657e-05,0.0003187973308699,-0.0001284235145246,0.0014799209325511,0.0028903034399166,-0.0031269782200492,0.0056921965329543,-0.0057243505065958,0.0003976142056146,0.0001008631188217,0.0053252912467546,-0.0045818198619414,3.5930576683442537,1.1766208518962475,,,,,,,,,,,,,,,,,,,,,,,,,,,,,,,,,,,,,,,,,,,,,,,,,,,
cnn,,,,,,,,,,,,,,,,,,,,,,,,,,,,,,,,,,,,,,,,,,,0.009904104558962,0.0015055065603554,-0.0070843307918638,0.006777202273267,0.0025646277581414,0.0095777572268441,0.0006437504570703,0.0053906738187304,0.0019632938588408,-0.005283315836263,0.0055070270269962,-0.0022630808963862,0.0094867496044209,0.0049683289598435,0.001219647469999,0.00029438804225,0.000609451873674,-0.0079251036333715,0.0037943177778029,-0.0067840919346344,0.0088473980541849,-0.0024556685753344,0.0037484100402138,0.000364538558822,-0.5145245446728753,0.6902501245095195,,,,,,,,,,,,,,,,,,,,,,,,,
nytimes,,,,,,,,,,,,,,,,,,,,,,,,,,,,,,,,,,,,,,,,,,,0.0182572676659835,0.0092276808758144,-0.0153773617545402,0.0079345896852524,-0.0064786014850592,0.0079928307076253,-0.0009312141071306,0.0032865435038875,0.0043386967035008,-0.0056377332076772,0.0084590766262218,-8.703037590816406e-05,0.0102771014666263,0.000818452340709,-0.0037635816707214,-0.0018522557482356,0.0066101843094086,-0.0074589036159359,0.0031793021677237,-0.008392739965947,0.0027844643248456,-0.0015896772544329,0.006724491119074,-0.0109245964380566,0.48924154505637285,0.6602523428375486,,,,,,,,,,,,,,,,,,,,,,,,,
rafaelpoch,,,,,,,,,,,,,,,,,,,,,,,,,,,,,,,,,,,,,,,,,,,0.0205956412179993,0.0422701284911836,-0.0116736910716957,0.0065104641356963,-0.0145294603550532,0.0221216860806312,-0.0053707931432893,0.0089738674705482,-0.0011100481761711,-0.0073459623280203,0.0177753153499758,-0.0002324887004103,0.034960026319172,-0.0162797034392132,0.011583191244955,-0.0285059229740637,0.0150500723161335,-0.0121396386452839,-0.0028601621369606,-0.0166162824066793,0.0016756519188803,-0.0020519440029237,0.0046104942802268,-0.0195175199404928,4.422660781251131,0.9891678393616229,,,,,,,,,,,,,,,,,,,,,,,,,
swissinfo,,,,,,,,,,,,,,,,,,,,,,,,,,,,,,,,,,,,,,,,,,,0.000920115262344,-0.0144330552033016,-0.0077580777245742,0.0038258517022966,0.0017836427258085,0.0020498080797017,-0.0007084613195648,0.0013044237340892,6.303972548484665e-05,-0.0007755438106476,0.0004504507463613,-2.2050206060952177e-05,-0.0091433210859332,-0.0098482571256042,-0.0052106405863486,-0.0061409429223337,0.0017940444850489,-0.0019738496503934,0.0054078461991255,0.0023299585452131,-0.0026011403570902,-0.0022585898425056,0.0013625759946289,0.0040346183678494,-2.097136752754302,0.03559018285500606,,,,,,,,,,,,,,,,,,,,,,,,,
washingtonpost,,,,,,,,,,,,,,,,,,,,,,,,,,,,,,,,,,,,,,,,,,,0.0096173977315738,0.0094393002638918,-0.0118260648153479,0.0078887846994751,-0.002326888662089,0.0040404951961253,-0.0014946294956884,0.0011363672900963,0.0091248042790546,-0.0123122973522086,0.0115515070475354,-0.0001006729571958,0.0136887143624441,-0.0050116811358604,-0.0003931859425435,-0.0018355995697739,0.0140019533863431,-0.0115597512658106,0.0032227521127941,-0.0115890421698244,0.0062438941435388,-0.0001943195661465,0.0034537161214345,-0.0174265373089766,0.7724684129597541,0.9253204770241802,,,,,,,,,,,,,,,,,,,,,,,,,
bbc,,,,,,,,,,,,,,,,,,,,,,,,,,,,,,,,,,,,,,,,,,,0.0005964995383073,-0.029751108855819,-0.0090526227846289,0.0072606640886996,-0.0044305737739104,0.0012721998887157,-0.0019452451411032,-0.0071239152308885,0.0096113971843445,-0.0003481056740354,0.0004607005753164,-2.23748739647759e-05,-0.0098712064708789,-0.010340591076601,0.0028919872748786,-0.0009508097510027,-0.0014885717196269,-0.0025542008350356,0.0036327530585878,0.0030025735063074,0.0030702979066539,-0.008119038775456,-0.0046090466612996,0.0017613847900176,-2.4381484180456687,0.4073183936648504,,,,,,,,,,,,,,,,,,,,,,,,,
dw,,,,,,,,,,,,,,,,,,,,,,,,,,,,,,,,,,,,,,,,,,,0.0042275906555558,-0.0115572953617892,-0.0135624683316606,0.0052461041017787,-0.0020218336732435,0.003994411333144,0.0008450361824225,-0.0002714559340593,0.0042030024255546,0.0008474022651691,-0.0015672141945735,0.0021175996728244,0.0020034739106208,-0.0014609006695305,0.0002892927858216,0.0002960173831344,-0.0002031622897715,-0.0014097791831879,0.0013568221478124,0.0007043515608941,-0.0077638687690386,-0.0016663731354829,0.009611313055315,0.0002176522818516,-1.7681427776563876,0.031127006031532956,,,,,,,,,,,,,,,,,,,,,,,,,
infobae,,,,,,,,,,,,,,,,,,,,,,,,,,,,,,,,,,,,,,,,,,,-0.0027384844236156,-0.0306196055152354,-0.0018006320457786,0.0015300270435338,-0.0039164573173922,-0.007186483288909,-0.0044347766406123,0.0008985908492476,0.0042440617498059,0.0043170678594422,0.0012149877410428,-0.0024802739961743,-0.0088828589533938,-0.0082659594437715,0.0017012621565269,-0.0001053386242972,-0.0082146301893687,0.0005198388920659,0.0021734937745661,0.0048180783918764,0.0009694135078816,-0.0049546109227473,0.0018963514545296,0.0026183149656133,-2.50099887781809,0.2689581717568678,,,,,,,,,,,,,,,,,,,,,,,,,
diario-octubre,,,,,,,,,,,,,,,,,,,,,,,,,,,,,,,,,,,,,,,,,,,0.0238543153924732,0.0780433015036867,-0.0011959175043874,0.0066961975010792,-0.0302217356053939,0.038866326861858,-0.0341795454655254,0.0141529875537157,-0.0183817903594275,-0.0197362331659518,0.0216678029050538,-0.0005190146532962,0.0871614976587625,-0.0206889202153061,0.0400859595531473,-0.0072086932464594,0.0139779806615874,-0.0149013109844636,-0.0045759610544887,-0.0311048963249506,0.0113643872010634,0.0018336089444315,0.0153430410282074,-0.0297891721469187,9.028460388352416,0.2205028464604538,,,,,,,,,,,,,,,,,,,,,,,,,
euronews,,,,,,,,,,,,,,,,,,,,,,,,,,,,,,,,,,,,,,,,,,,0.000369922734799,-0.0244529948204237,-0.0043631434646673,0.001100083498524,-0.0057088726905325,-0.0021882673017529,-0.0015439310188455,0.0036048511925752,0.0007095704856629,0.0044946079728686,0.0009726049368799,-0.002399033993671,-0.0088030748243526,-0.0041853279195103,-0.0029477725788135,-0.003763300976632,-0.0095096646844693,-0.0068777364447566,0.0010054579504124,-0.0010460652746936,0.0022942509693056,-0.0042411300031222,0.0033853680829398,0.0059296143320772,-1.9893076756962547,0.4645703369220857,,,,,,,,,,,,,,,,,,,,,,,,,
galaxiamilitar,,,,,,,,,,,,,,,,,,,,,,,,,,,,,,,,,,,,,,,,,,,0.0004231039698852,-0.037643327683867,-0.008015746598237,0.0052773606029175,-0.0145518918212503,-0.0004041838198492,0.0005716110473961,-0.0076936378032022,0.0184906255338229,-0.0090827537920408,-6.488826936885961e-05,-4.316524288619245e-05,-0.0011476886107512,-0.0008309953951624,-0.0004535204743298,0.0011349307671606,-0.0057022823884235,0.0019535537879606,0.002782173727199,-0.0015816059671772,0.0015944742798508,-0.0018473997294199,0.0044832920261124,0.004090395724584,-2.4011501893578395,0.7249563532665784,,,,,,,,,,,,,,,,,,,,,,,,,
reuters,,,,,,,,,,,,,,,,,,,,,,,,,,,,,,,,,,,,,,,,,,,0.0109680580777322,0.0103282728145507,-0.0117417140315993,0.0030919663724419,-0.0077841736862708,0.0059347644276146,-0.0025698247982785,0.0092661546999978,-0.0059713490215477,-0.0014444432882063,0.0028943902026341,-0.0001307066859451,0.0098902272688135,-0.0046053741418879,0.0014230190619309,-0.0001083536077909,0.0034316612003274,-0.0012586403811886,0.0046373132171709,-0.0047866704630779,0.0019373456583184,-0.0012042112681948,0.0050593481811256,-0.0020415958107549,-0.15311039021208336,0.09815499830896446,,,,,,,,,,,,,,,,,,,,,,,,,
revistaejercitos,,,,,,,,,,,,,,,,,,,,,,,,,,,,,,,,,,,,,,,,,,,-0.0109981870039065,-0.0878718918223106,-0.0312421696643913,0.0004336542430441,0.0295161302119101,0.0247695063314812,-0.0084044330339112,-0.0056201994661932,-0.0217075482102118,0.0456191425053111,0.0055662711757994,7.030793069897658e-05,-0.0249329434231097,-0.0164984131765592,0.0019743753929557,0.0033529107780771,-0.0777010938331626,0.0421397085568019,0.0148338384193043,0.0041731914956166,0.0209072136451533,0.0081493620848472,0.0137715432774139,-0.0077191948341821,-4.096696214794014,-10.554907461581148,,,,,,,,,,,,,,,,,,,,,,,,,
rt,,,,,,,,,,,,,,,,,,,,,,,,,,,,,,,,,,,,,,,,,,,0.0218540491993331,0.0952999713327039,-0.0219537375996721,0.0210800548630995,-0.0372469943507919,0.0726821411225876,-0.0032786365621718,0.0037023691281827,-0.017537375462026,-0.0341209698280279,0.0248852536321835,-0.0007428876495058,0.1082625768671602,-0.0311602355124111,0.0161889053952805,-0.0357929799118446,0.0291911660639265,-0.0270295459118775,-0.0064032277853178,-0.0670202806955067,0.0389227976866196,0.0237334838490923,0.0239577669389762,-0.0333535399412224,13.230781696427087,-2.295037608173033,,,,,,,,,,,,,,,,,,,,,,,,,
yahoo,,,,,,,,,,,,,,,,,,,,,,,,,,,,,,,,,,,,,,,,,,,0.0148209042447455,-0.0132264966328445,-0.0120706887116836,0.0034462682725331,-0.0066979912233458,0.0033156545251884,0.0020550334958237,-0.0042421438563898,0.0047353479159819,0.0008918786681905,0.0050581271526807,5.975259948937941e-06,-0.0096364465948714,-0.009255925729877,0.0019535570200258,0.0014399049459876,-3.538821529515846e-05,-0.0108741720736821,-0.0010018776189217,1.0342292968103218e-05,0.0004736212116399,-0.0006120421608929,-8.949091134743774e-05,0.0050674993448512,-1.1113436917837476,0.7706554720566834,,,,,,,,,,,,,,,,,,,,,,,,,
actualidad-rt,,,,,,,,,,,,,,,,,,,,,,,,,,,,,,,,,,,,,,,,,,,0.010396089287527,0.0451863782622135,-0.027306461063854,0.0158363300779954,-0.0159375381344085,0.024741425122238,-0.0191873517918857,0.0039952434387173,-0.0089665334434681,-0.0096528755942559,0.0084874930634676,-0.0003985463045018,0.0499929327242761,-0.0338489039947415,0.0162297904619938,-0.0188314404398117,0.0096706642943254,-0.0081080611991587,-0.0028357442859505,-0.0162654596322419,0.0073555685666727,0.0007301923966472,0.0098798769541982,-0.021080999849979,5.451150859107867,-1.807979496590336,,,,,,,,,,,,,,,,,,,,,,,,,
elcorreogallego,,,,,,,,,,,,,,,,,,,,,,,,,,,,,,,,,,,,,,,,,,,,,,,,,,,,,,,,,,,,,,,,,,,,,-0.0012949244108885,-0.0048660115819973,-1.6912251981361315,0.10361806598465198,,,,,,,,,,,,,,,,,,,,,
blogspot,,,,,,,,,,,,,,,,,,,,,,,,,,,,,,,,,,,,,,,,,,,,,,,,,,,,,,,,,,,,,,,,,,,,,-0.0016511668983295,0.003606776011018,-0.8618508061610178,0.8542255980362929,,,,,,,,,,,,,,,,,,,,,
diariosur,,,,,,,,,,,,,,,,,,,,,,,,,,,,,,,,,,,,,,,,,,,,,,,,,,,,,,,,,,,,,,,,,,,,,,,,,-0.0170550372046386,-0.2515562695656129,,,,,,,,,,,,,,,,,,,
ultimahora,,,,,,,,,,,,,,,,,,,,,,,,,,,,,,,,,,,,,,,,,,,,,,,,,,,,,,,,,,,,,,,,,,,,,,,,,-0.0112496589131841,0.6961823942930842,,,,,,,,,,,,,,,,,,,
telecinco,,,,,,,,,,,,,,,,,,,,,,,,,,,,,,,,,,,,,,,,,,,,,,,,,,,,,,,,,,,,,,,,,,,,,,,,,-0.0177695686084538,-0.3682048330078468,,,,,,,,,,,,,,,,,,,
elchapuzasinformatico,,,,,,,,,,,,,,,,,,,,,,,,,,,,,,,,,,,,,,,,,,,,,,,,,,,,,,,,,,,,,,,,,,,,,,,,,,,-0.0001489065741919,-0.0055283633449498,0.0122916878466723,-0.0058251572262553,0.0146056362291819,-0.0090758331043535,0.0088030379377732,-0.001617640442848,0.0046615630322171,-0.0024380356870067,0.0086821464808496,0.0021304899404616,-0.0002272614293798,0.0043187123432403,-0.0077868493271235,2.098618309927053,1.2050688725964287,,
genbeta,,,,,,,,,,,,,,,,,,,,,,,,,,,,,,,,,,,,,,,,,,,,,,,,,,,,,,,,,,,,,,,,,,,,,,,,,,,0.0136832666297667,-0.005199217273515,0.0068506862268595,-0.0123830731536745,0.0117017567107972,0.0036487243525583,0.0077839212764552,-0.0003024543514439,0.0002747705369553,0.0021256577244389,0.0091252746000373,-0.0034027569882831,-0.0020125070966344,-0.0004721086815953,-0.0072780091793056,0.9809592249862299,-0.9154187443997576,,
hipertextual,,,,,,,,,,,,,,,,,,,,,,,,,,,,,,,,,,,,,,,,,,,,,,,,,,,,,,,,,,,,,,,,,,,,,,,,,,,0.0171146713717987,-0.023336971568025,0.0117099366298874,-0.0137448180485928,0.0145548572412759,-0.0089391553918898,0.0121150266508373,0.0091794209456499,0.0045789777704727,0.0002683530340076,0.0074160926757339,-0.0042049878232622,0.0001659578817605,0.0011941735816546,-0.0063618982326376,0.9866369752623672,-1.719944243938464,,
xataka,,,,,,,,,,,,,,,,,,,,,,,,,,,,,,,,,,,,,,,,,,,,,,,,,,,,,,,,,,,,,,,,,,,,,,,,,,,0.0226913948231571,-0.0176640356965511,0.01347348012885,-0.007365062281127,0.0202938568245567,0.0089711304396465,0.0198043687736401,-0.0137488184306638,0.0036999692007773,-0.0005085055702468,0.0145209595277705,0.0026984411481081,0.0006944497182692,-0.0011473787168246,-0.0169729849868581,-3.32272055057977,2.7141931833363167,,
businessinsider,,,,,,,,,,,,,,,,,,,,,,,,,,,,,,,,,,,,,,,,,,,,,,,,,,,,,,,,,,,,,,,,,,,,,,,,,,,0.0415667467163631,-0.0107685174126208,0.027043519366119,-0.0101322122099695,0.0161949771996791,-0.0041782492330162,0.0128220842695532,0.0079934702935489,-0.000850044914799,-0.0009932052780042,0.016218896490219,-0.0103703252344991,0.0004264889906076,0.0001275996781726,-0.0167313822367774,-2.710855267036641,-2.481793666383738,,
eleconomista,,,,,,,,,,,,,,,,,,,,,,,,,,,,,,,,,,,,,,,,,,,,,,,,,,,,,,,,,,,,,,,,,,,,,,,,,,,,,,,,,,,,,,,,,,,,0.0626539570635411,2.235907665728496
lainformacion,,,,,,,,,,,,,,,,,,,,,,,,,,,,,,,,,,,,,,,,,,,,,,,,,,,,,,,,,,,,,,,,,,,,,,,,,,,,,,,,,,,,,,,,,,,,0.0039197518700479,-0.435855586668235
