story,Crime_0,Crypto/net_0,Crypto/net_1,Crypto/net_2,Crypto/net_3,Crypto/net_4,Crypto/net_5,Crypto/net_6,Crypto/net_7,Crypto/net_8,Crypto/net_9,Crypto/net_10,Crypto/net_11,Crypto/net_12,Crypto/net_13,Crypto/net_14,Inflation_0,Politics_0,Politics_1,Politics_2,Politics_3,Politics_4,Politics_5,Politics_6,Politics_7,Politics_8,Politics_9,Politics_10,Politics_11,Politics_12,Politics_13,Politics_14,Politics_15,Politics_16,Politics_17,Politics_18,Politics_19,Politics_20,Politics_21,Politics_22,Politics_23,Politics_24,Politics_25,Politics_26,Politics_27,Politics_28,Politics_29,Politics_30,Politics_31,Politics_32,Politics_33,Politics_34,Politics_35,Politics_36,Politics_37,Politics_38,Politics_39,Public services_0,Public services_1,Russia_0,Russia_1,Russia_2,Russia_3,Russia_4,Russia_5,Russia_6,Russia_7,Russia_8,Russia_9,Russia_10,Russia_11,Russia_12,Russia_13,Russia_14,Russia_15,Russia_16,Russia_17,Russia_18,Russia_19,Russia_20,Russia_21,Russia_22,Russia_23
004f3d20a8e743a73c5c0fd4b92e72cf8c20a972,-0.0013913478125174234,0.0023294547454779276,-0.003240002117008942,0.00417732014629374,-0.004072805625676996,0.006638143121800032,-0.0008281310141257733,0.0052782511340193836,-0.000696912028107018,0.0015108441632151052,-7.204896468620495e-05,0.005160329831231326,-0.0003667487624992652,-0.0003285428982586399,0.0007033977240200372,-0.005273767287076162,,0.0014269065713568391,-0.0010801237870284742,0.0013735096912624151,-0.0015205966464109208,0.0009908694685635839,-0.0015400836235486108,-0.001907623779799126,0.0007842688485102503,-0.0011987050154071853,0.0007213201082590201,0.001435364822720964,0.0007691810611633926,-0.0007441754906471683,0.0013848802490739635,-0.0007730632454629128,0.001139388807998447,-0.0014542435958212448,0.0009003074864890474,0.001284772764995304,-0.0014118908794156873,0.0009823830048703614,-0.0008551241766538615,0.001272931366967116,-0.0009399599555784878,-0.000983816697337502,0.0009450826939131542,0.001051620814876075,-0.001555429847717792,-7.406197852764828e-05,0.0006336463633515397,0.0012084554210367398,-0.0007822724098789115,-0.0006849219802161897,-0.00026032833280816134,0.0010253217393249264,-0.001079526407965567,-0.001044623816226482,-0.0010232876108531254,0.0007143415505175205,0.0009757752328089678,-0.0015925537640486714,0.0019113976705040997,0.001141948339988763,-0.00032512947012103277,-0.0014518242063682463,0.0010796445443806701,-0.0008421777061968921,0.0012177102777550103,-0.00033231130206408735,1.0432221841362443e-05,0.0005515837193016265,-0.00048568915791549414,0.0010347042935119968,-6.147999111914522e-05,0.0012590580138087245,-0.0014095578601804291,0.0003779937160190627,3.058728943342113e-05,0.0004936312382723112,-0.0017973105531537588,0.0009889176373366363,-0.0014495113762668446,0.0009087719568111607,-0.0005997662085193319,0.0013059418144239793,-0.0007189915686429751
20minutos,-0.021918045410636786,,,,,,,,,,,,,,,,,0.005367536755240892,0.0007743698057084743,0.003132357291990246,-0.002055527002376292,0.0018988729869901335,-0.000399806338600788,-0.001745374539465197,0.0005753747714375497,-0.00042609771269671876,0.0018037779377283241,0.009349364197412852,0.003730168977236672,-0.002284097086113386,0.0013078274815309019,-0.002595365790198156,0.0014833686093366917,-0.001816897326526979,-0.0002065992184573141,0.0036084058517447982,-0.0024105697723413914,0.003753873393695338,-0.0015196664004266556,0.002249105963021711,-0.0009605772431339335,0.0003961455921635123,0.0005963567896781435,0.00490881191638467,-0.0007287695496623497,-0.0006210084581480714,-0.0014144814703434157,0.002326259095132821,-0.002855783274753335,-0.00029423917355544385,-0.000554330487812583,0.00388506053521034,-0.0023962028182194966,0.00020246993866446976,-0.0024613653300097466,0.0019659239846838866,0.0011661800032540504,-0.0013636775231888505,-0.0002816150973915556,0.003829319199100613,-0.015414965922225798,-0.0028122644560688026,0.005568895873584778,-0.009549662269666505,0.010595252431672933,0.0001497976811575194,0.009904649136635482,0.0011395547402150638,-0.005331984688458191,0.006290453347226138,-1.2194524818109204e-05,-0.0013093488323821512,-0.0004248246773963342,-0.005162860685907423,8.418216237124094e-05,-0.007750349724135739,-0.004610280883617486,0.0010949369219105708,0.0008855668470098832,0.00819458192274352,-0.012359773439087599,-0.0064096561997876375,0.00020826098325803233
antena3,-0.013433155431198301,,,,,,,,,,,,,,,,,0.0025324668097477655,9.72732758712554e-06,0.000618464185923893,-0.0007249304589822684,0.0004557901924531028,-0.0006844892841823633,-0.00028976861359773895,-0.0012310860208448085,-0.0009449337095196395,0.0005326887218664422,0.0010895947729867086,0.0004381581444456867,-0.00040555709670436486,0.0007819777361170605,-0.00041147789980559445,-0.0012550427910613057,-0.0010728072793835084,0.0006536260241012596,0.002843810519079791,-0.0006746736744962893,0.0005386816710434201,-0.0004792056564279696,0.0007153252345079986,-0.0005574984474349116,-0.00046389485121830815,-0.0014917346469416396,0.003147208999750799,-0.0015005198515360622,0.001388158772136628,-0.004136347944538196,0.001934102798142744,-0.004336209290415613,0.0013341494225412292,-0.0007177644810425695,0.0007388690831639237,-0.0030006245174105627,-0.00031355225935939283,0.0013586097221762819,0.0028027784543844733,0.0008461661697965156,,,,,,,,,,,,,,,,,,,,,,,,,,
cadenaser,-0.020532270323791013,,,,,,,,,,,,,,,,,0.00613238130754773,-0.005350290823268877,0.0028991754332724634,-0.003381277637174898,0.001862914933567078,-0.002491500325412205,-0.00244178037604368,0.0010228220264786037,-0.0018284311209666795,0.0011334748448866188,0.0017953604701075182,0.0009301098998063285,-0.0005634062610557662,0.0024837911515336805,-0.0010565371243524968,0.0016045107779384046,-0.001720901937398274,0.0010796523674705127,0.0021270961990417676,-0.0018405961017303497,0.0009686927549587589,-0.000795529063704413,0.0015396064838658213,-0.001895307489933662,-0.001113263163099086,0.001716298100425763,0.0011983753596569585,-0.0018215427299368217,-7.083930398049491e-05,0.00034272201008882924,0.0014047589646378452,-0.0011139771125422207,-0.0002739174704303113,-0.0003969025100902558,0.002025501592807101,-0.0013493206991107946,-0.001700659881949805,-0.0008200930541521143,0.0013376523713724436,0.001159960402198703,-0.013542178564681515,0.01114870153907721,0.00454763322809639,-0.011554449331961106,-0.011133632191518472,-0.000744012825117199,-0.0026485192909591337,-0.0023402437112740315,-0.002704592700165251,0.006332055234171505,0.006625685096030537,-0.003632520775986997,0.015369264284365955,4.5792270769646516e-05,0.0026991651558378182,-0.0020097193288582445,-0.001975224256923462,0.005595616480235271,-0.0053744091524818224,0.0009265281235299044,0.006803600444767459,-0.0017240289254338709,-0.004221284422444682,-0.00809477983616733,-0.0006320507182977497,0.008808878695796954
catalunyapress,-0.015749442608377406,,,,,,,,,,,,,,,,,0.0026906030334571023,-0.0011338940466765984,0.004942822802793295,-0.0028395113598431347,0.0029576764966772464,-0.0012940350198134528,-0.004120107491093535,-0.0007860143768936838,-0.0005106448313427245,0.0004633614837247958,0.003997509555446789,-0.0007948037834419768,-0.00025892666327521327,0.0034014070142445183,-0.0030416958181573085,0.0024008731033345206,-0.004632982369199048,0.0015205337201663772,0.0008196289223089263,-0.002538180942612127,0.00028147589372372436,-0.00048415890647045777,0.0026015889289307537,-0.000504393327753062,-0.0023902783688898913,0.002146433149198696,0.0025082433968253164,-0.0017621603735232872,-0.0012743754113147862,-2.7713505466784453e-05,0.0011364377006284193,-0.002899925877413802,0.002307699619835309,-0.0016175343054482293,0.0024214777872722556,-0.002627306492082454,-0.0003129032974432664,0.0009468532832529086,0.00582818297805185,-0.0009958363929799562,,,,,,,,,,,,,,,,,,,,,,,,,,
diariosur,-0.017055037204638634,,,,,,,,,,,,,,,,,,,,,,,,,,,,,,,,,,,,,,,,,,,,,,,,,,,,,,,,,,,,,,,,,,,,,,,,,,,,,,,,,,
eldiario,-0.005433973342357679,,,,,,,,,,,,,,,,0.004051117648098096,0.006613498227795935,-0.008988372116170793,0.0037065065685571606,-0.004715653304940458,0.002325324791435368,-0.0032308798931385274,-0.0038118437181091022,0.0012739468634719925,-0.00278916142135469,0.001210075726842427,0.0021940902441646495,0.0013323384459920681,-0.0012116907067420608,0.0035986211067283243,-0.0028761261302367325,0.0014640225678733418,-0.0025933935876306566,0.0014519207884201538,0.0020277311279910445,-0.002336977807911326,0.0014459936017188271,-0.0017393472897200115,0.001891184557220261,-0.0014402752637237427,-0.0016019544768418963,0.0014832348474780504,0.001303146276301194,-0.0019678246911027635,5.00222516456783e-05,0.0013913328911656754,0.001528816763587292,-0.00020535935518051652,-0.0005956666454177174,-0.00030083315010915706,0.0017006183877299194,-0.0013781103470743498,-0.0016451958657730738,-0.0016434580357329123,0.0012374136397253883,0.001363989115478862,-0.011714935953931721,0.015015204101765448,0.0032971416143212414,-0.010912589055940641,-0.0031475769582207658,-0.0004983008447718429,-0.002367147234575484,0.0019028573175732533,-0.004094119891227897,0.005939408372240258,0.0009931678708269033,0.000985237316915688,0.002148993616309325,0.0014778426160243288,0.0006478275369797559,-0.003966347547306064,0.0011274309879743712,-0.00021989051485531153,-0.000454882273707366,-0.002831029173465935,0.008490190714290406,-0.0018065202091937516,0.0029718011229708796,-0.0009917733015723448,0.004745920371665366,-0.0040613698788277
elespanol,-0.013562197579629759,,,,,,,,,,,,,,,,,0.003346211842287325,-0.00037697869035583503,0.001565979995198391,-0.0035521612147252635,0.0011129746975805238,0.00097128646882709,-0.0029455626660358364,0.0010228875422099576,3.513193902482392e-05,0.0013454965414020567,0.0050265661792749106,0.001563819930346981,-0.0005391782568915301,0.0010898063100949762,-0.0009534086163827567,0.0017889178404615902,-0.0010881295515411046,0.00028457591295020374,0.001135504285582272,-0.0017009093376407908,0.0007757725893075447,-0.0007579238265170152,0.002713652816850501,-0.002018621691717768,-0.0015754946939770496,0.0006195306950679894,0.0021071472132847373,-0.0026240993087998307,-0.0011088978337528812,-0.0004017753560486628,0.0037102983805584336,-0.003954821954729928,0.000337421108534677,-0.0007142486156548724,-0.000363430539342801,-0.0017553959029612586,-0.0008401288819194601,0.0016748523002711943,0.002542297634682515,0.0005977057778614181,-0.004353540644337572,-0.002039240621498295,0.005263449750046334,-0.00945205626082853,-0.003688183456230662,0.003440472879855133,-0.005691490425229593,-0.0028430756591121507,-0.0022546619760054126,-0.0016842786108393825,0.002491037028122028,-3.214546465664728e-05,0.004345050001163767,0.0015305238608318175,0.0006951554576464583,-0.005510857154368122,0.0030665180547437294,0.0006715610792457469,0.0012258903820046695,-0.0019672812562770703,0.001122527241561361,-0.0035304146605303517,0.00013609939304677111,-0.004184015706934504,0.002239542934767051,-0.004846675688409394
elmundo,-0.022741288873632422,,,,,,,,,,,,,,,,,0.002839925786022924,0.0026507182621618892,0.0014265718421601035,-0.0010838027585486736,0.0030796716434111776,0.000983602185835812,-0.0012521213712204347,-0.0003559531739868657,-0.00037627544550481416,0.002042394743519994,0.007380790807214529,-0.00015549669498477955,-0.0015198453459331256,0.0012655121467271555,-0.000252964136110347,0.0012608907827964108,-0.0016740647650748102,0.0010353972078344011,0.0009777155950291506,-0.0014449820398794704,0.0027463362779191324,-0.0007354443830954434,0.0012796877805393526,-0.0005452354439084029,-0.001095399708128825,5.157729547759435e-05,0.001608968209068272,-0.0017375096052880106,0.0006965174538601437,-0.0002887630183113221,0.002323577445932577,-0.00541606424901803,-0.0018022984702881781,0.0008077315326872275,-3.0390682192053646e-05,-0.0006676163981937707,-0.00022416027937944248,-0.002056948897654242,-0.0006384755299333953,1.953895412584207e-06,-0.005260394328931961,-0.017558745708374873,0.0030100475519250214,-0.01650975135320265,-0.007811500172934068,0.008998747022730534,-0.008183631365884972,-0.0024169490140020233,-0.0008440690338626725,0.0017324272583267367,0.002712822756675899,-0.001083611015865224,0.0006706014402955429,-4.686284724331018e-05,-0.002851653211468186,-0.004188667458782838,-0.001439783101520653,0.0010864594240671847,-0.005708380014799411,-0.0029038760121719437,0.0010848245572769206,0.003039481649579124,-0.0005674948910525217,-0.003986225897174254,-3.1545032233683615e-06,0.005978654508936572
elpais,-0.009730983050081656,0.006027350011237831,-0.01527356092473972,0.007101036933076052,-0.010937364601788301,0.007852633659855543,-0.0002701534622096156,0.011015483820284699,0.0008306488850071104,-0.0028460137229339,-0.0030073065005405994,0.014004908272206601,0.002239968673203423,0.007693968542889145,-7.320643729733444e-05,-0.002911906506203322,0.0032376304788592214,0.0059667111386285335,-0.004288514371437461,0.001732766768257163,-0.0007236256582718766,0.0019560601068977813,-0.0014735774866104882,-0.003042589937031631,9.513480339387766e-05,-0.0009699878801007443,0.0018254325141522864,0.003435408995237652,-0.0005508268154101447,-0.0007872364016234435,0.001987652265828532,-0.001375074614714633,0.0015298116859422718,-0.0018732063184218992,0.0006849403087721773,0.0018961942358919626,-0.00124941144766875,0.0011109245270643836,-0.0016940259931293232,0.0015035827608383184,-0.0014999732628073114,-0.0009559824874057236,0.0011522122677640077,0.0013203532847259373,-0.002048759002761906,-0.0005211514206655643,-9.538755145051389e-05,0.0014737909496090804,-0.0014060441062738174,-0.0014543541312257479,-0.0002450976936742757,0.0007966092078926347,-0.0013798444166594238,-0.0009682841482924476,-0.0018970128009099148,0.0011448805664165578,0.0008684546904193019,-0.01435690896574382,0.008753468540539433,0.006591252565484773,-0.01510372085275859,-0.008453465839718427,0.0042120385906878055,-0.004380204101863544,0.008079220593648018,0.0009767822190861197,0.005638019333233393,0.013198980824703402,-0.0062760032437519375,0.00928011598270731,3.400530802378371e-07,-0.0030570439035598473,-0.004647227397244259,0.003885118517055381,-0.0001406683649615016,0.0055936778652526595,-0.008447486025505796,0.002821257734772542,-0.004643716505810247,0.007920801093435459,0.00407857273383358,-0.00010760163623253077,-0.0014025550326622893
epe,-0.012716905688258867,,,,,,,,,,,,,,,,,0.003897688652192854,-0.003987174398331039,0.002738426636953473,-0.002620062837412389,0.00209011453270144,-0.003590806328228135,-0.0024916661833238297,0.0013167540433379897,-0.000512852443244068,0.002323838667498004,0.006543863265118579,0.0002726310178278291,0.0005585179376692239,0.0019146767557861127,-0.0018978316648370955,0.00027221644601498475,-0.003263943472934266,0.002497443587464076,0.0007674037857491488,-0.000968026125369445,0.0006731177180831569,-0.0006420044318576153,0.0010879403370719577,-0.0013585621172574345,-0.002373542457787802,0.0005239952290857911,0.0013214237387214889,-0.001110180172488314,-3.1448300433138167e-05,0.0009777632737883648,0.0009183368715124502,-0.0007227090449387532,-0.0007430631058123669,-0.0006127732501849321,-0.0009706888059232001,-0.0015751954883951175,-0.0007606584698378535,0.00012212267515298008,0.003569826412378233,0.0007211674222984774,-0.005298562027255038,0.006886564536155576,,,,,,,,,,,,,,,,,,,,,,,,
europapress,-0.030252363375232995,,,,,,,,,,,,,,,,,0.008629381692341974,-0.0010677609375580183,0.0028946433389022697,-0.006968174790690524,7.351193953659269e-05,-0.00013103398644650696,-0.0023906966797660884,5.551634736178715e-05,-0.0015270502774216016,0.0020535087739670427,0.00949466398557611,0.000312058050711668,-0.0014027939577102907,0.0006678769929055854,-0.0003598749615567366,0.0017839678118111903,-0.0019996520098780456,6.406356727880341e-06,0.0012785318469998933,-0.001157247213607767,0.0014911481674884852,-0.0011728304646766718,0.000931786772380724,-0.0013623243980232062,-0.000885711428530769,-0.0008481276609005415,0.0037420041401053364,-0.0012545151558030002,-1.8563357737651763e-05,-0.0007976462849560301,0.0028304515339456007,-0.006051151593574807,-0.0011274686002397758,0.001762077067846765,0.00019105902115927956,-0.00276982234855781,-0.0004170399848176399,0.0005133029027518474,0.0053613739908828,0.0004579980462047061,-0.005903961212394809,-0.0009257587810351797,0.014176994316432517,0.012422010687108367,-0.00960938865929957,0.00511427780983463,-0.003574977240395065,0.009562490721772149,0.00032101033913362054,-0.0007993315439522794,0.0010062208190861135,-0.003488200193598738,0.004702787270768283,-0.0004903889888982008,0.009308372807119353,-0.004562276333377746,0.003040253328039026,0.0017793423164479561,0.005979025590397383,-0.006405881750940048,0.00227691374132509,-0.0064794227247975955,0.00195534916979731,-0.0008335240433758051,0.005303033266134526,-0.004494807442178908
lavanguardia,-0.01914268205389384,,,,,,,,,,,,,,,,,0.006316144891151454,-0.004533792780852593,0.003875882589416041,-0.005799283157247037,0.0018641091136607224,0.0007988692510454698,-0.003133051476673143,0.0003579891317909145,-0.0017419082798084407,0.0016878469618669123,0.0084733621586712,0.001125546483631168,-0.0006484019426088172,0.0015268921381218908,-0.0008003904875195263,0.0024827107905367324,-0.001424774454527107,-0.0005110365582720322,0.0016417008331856275,-0.0012625047641417475,0.001382720153259253,-0.0011756090082060341,0.0017149493349476394,-0.0022749221024003993,-2.4605375845795918e-05,0.0007397549718889881,0.0020260487281026363,-0.0013220501541889237,-0.0012837772697283374,-0.00010997213067638623,0.002347127081978013,-0.0012446495967346968,-0.0008812891521622623,0.0005029966245163461,-0.0003301759914936947,-0.0018301206096929725,-0.002235270783505841,-0.002087326217926084,0.002690291721217676,0.0012632333542655777,-0.011623145074588413,-0.00031201451186730483,0.0038683588164933978,-0.001005525257017359,-0.003285092446037946,0.0039504525123965906,-0.0024053654401408886,0.008529211791524077,0.002152789049380894,0.002290160513371527,0.001381096169427087,-0.0008672582553965122,0.0017484817799800212,-7.257890163281898e-05,0.002664942837671491,-0.00455657639541103,-0.0043087584914107135,-0.0008679464301002762,-0.0005148943987504234,-0.0050988495701249775,0.005624577426796659,-0.001748345568132595,-7.089951691163776e-05,0.0039886215270916806,0.001810190967417736,-0.001598140467731976
lavozdegalicia,-0.021426479121274725,,,,,,,,,,,,,,,,,0.0004085258095081838,-0.00027152600846420656,-0.0014872065565788486,-0.00733515614321132,-0.0034292779272333445,-0.0007728972425579423,-0.0012403055932508128,7.566970283991951e-05,0.0019778977722122466,0.0019030253532029194,0.024855438822214797,0.0002212842763703515,-0.0017357239575677974,-8.113385973852576e-05,0.0001078183093950072,0.003552546650530234,-0.0006038339518236522,0.0004293879343357657,0.0007361827194184512,-0.001381711102779247,0.003805968371544418,0.00021147374547189016,0.0005079591736548924,-0.0004369091382133508,-0.0004802418110264788,0.0004167963950789356,0.0014130181653240774,-0.0012423074552669411,6.501163097676174e-05,0.00011325173783129864,0.005584672969859672,-0.018657450629004937,0.0033263858164650725,-0.0031893769873990513,-0.007264577525817195,-0.0007856360650319923,-0.0008535163662062757,-0.0009672832425594085,0.0040569420577694516,0.0004256529846264909,,,,,,,,,,,,,,,,,,,,,,,,,,
levante-emv,-0.01676172102606762,,,,,,,,,,,,,,,,,0.0011609617591368051,-0.0020643616793002894,0.0028376239501970435,-0.0030778083024589897,0.0012103038931415844,-0.0024755859931315555,-0.003376252671680173,0.0020772388765232,-0.001793601112728603,0.001942221205405676,0.001232460243560024,0.0006888067144254564,-0.0013737601231818414,0.0019089756765230462,-0.00026228750064617376,0.0008885922900797455,-0.0017261256343470976,0.0027261941330387965,0.00201444523269613,-0.0013092690937879861,0.0011196293692517269,-0.003593763892214129,0.0009887504032485735,-0.0016638884519915697,-0.0016105418486249065,0.0005776753915673269,0.000728697055922007,-0.0011960718247833596,-4.803904134225703e-05,0.0005961728160945208,0.0027699764566347174,0.0007270666446845438,-0.0013022050000378932,-0.0007656113165256417,0.002815477540042691,-0.001017360449268691,-0.0020343853919763165,-0.002661688183807229,0.0004921216320522531,0.0007912470850837371,,,,,,,,,,,,,,,,,,,,,,,,,,
twitter,-0.005532324877074234,0.03185762439367468,-0.02709822892333002,0.017586367870949866,-0.024101962884700345,0.024807250287552852,0.010608721652375972,0.04214865726478663,0.0007800756944029001,-0.003057264366026544,0.0007127375337401123,0.018365044985397656,0.008161788083685107,-0.004650345267309099,-0.00025714052215565107,-0.017493569279666086,0.029127420970604445,0.0051124468794698785,-0.0023600589150958307,0.0029039429404259243,-0.003913122072656289,0.0022230260671415175,-0.003441037372116873,-0.004127709066197277,0.0015841639049621117,-0.0022793773552361313,0.001222231478363877,0.0019323277562217772,0.0020035914401018186,-0.0023858855544386555,0.0021883630573606844,-0.0005515849779689237,0.002308414651467066,-0.00256642160962613,0.0016324612427304208,0.002176321118521108,-0.0025879594865716414,0.0023543721115869345,-0.0011308406872742802,0.00219746318894146,-0.0012881837859687224,-0.0016987229880352957,0.0019946958526224218,0.0015479818518924215,-0.0031972584232710967,0.0003376551688530486,0.0030622768353355534,0.0018135229972928869,-0.0010055507112297288,-0.0013914999445770408,1.7914115381404902e-05,0.0020208522294143903,-0.001846490563113562,-0.0015878083715184406,-0.0014943954130125885,-3.8722802776565424e-05,0.0019029852669807355,-0.008710288157378954,0.006637486927274727,0.014047894464065125,0.007923309292421594,-0.010195654299754525,0.00750652239879776,-0.010573828031146502,0.008884182050634959,-0.010035744545561907,0.002454908076078198,0.0005176892714389598,-0.005682708415013879,0.009310057785744605,-0.0004636407842041404,0.012683763401193343,-0.007638257767570378,0.0025560287314119884,-0.002861791488448378,0.004884048208581293,-0.009589889460391923,0.0020214581163131226,-0.009002085713382388,0.005049287846584233,-0.0021948875979903824,0.003995034711109836,-0.0046572006075280975
ultimahora,-0.0112496589131841,,,,,,,,,,,,,,,,,,,,,,,,,,,,,,,,,,,,,,,,,,,,,,,,,,,,,,,,,,,,,,,,,,,,,,,,,,,,,,,,,,
00595df7f1fea5879cfa94abb5ba2bdb9597e40e,-0.0008109946673598115,,,,,,,,,,,,,,,,,0.00023555433130413253,-0.00015943300295366133,0.00023735971770220488,-0.00034281090126232023,0.00012191185468963758,-0.00027239087908432244,-0.000409005904042831,0.00011572979355465565,-0.00016977832137468087,0.00016419850451777196,0.0006699785149582201,0.0001197153304744217,-0.00011081923646964964,0.00030375306636975185,-0.00015713434359969293,0.00029005111189780845,-0.00031847960304921407,0.00018448109908273,0.0002874635716103445,-0.0003187170262869438,0.00024036427679843185,-0.0002373420212677266,0.00030574758271638316,-0.0002564473875239687,-0.00023138076269576288,0.0002280700495011301,0.0004049696037760046,-0.0003741833547119,-2.570476760134392e-05,0.00010069947808098592,0.00044266974454530255,-0.0005394330766389621,-9.418989264279936e-05,-3.660634516683723e-05,0.00015716641969986149,-0.0003863934499238851,-0.0003232178920358675,-0.0002849471629981584,0.0005470729298351191,0.00025942373434052757,,,,,,,,,,,,,,,,,,,,,,,,,,
abc,-0.01090912432260428,,,,,,,,,,,,,,,,,0.002071264537338027,0.0020795497778372685,4.004900029166807e-06,9.451583900930635e-05,-0.004334092284961038,-0.0032715945791053063,-0.001055718339407717,0.00023860984679517118,0.0007378916035067941,0.0011097353002742479,0.007765271552811896,0.001139170298037985,-0.0006185363891188381,0.001618636893884592,-0.0008443872613703178,-0.0009057725979848578,-0.0012656848909341541,0.0014558800971104316,0.0024697442409081687,-0.001588076591562119,0.0005065891877741712,-0.0012305071169826506,0.0008143136320168153,-0.0013222190444982394,0.0002469403592145099,0.0006664966022654878,0.004175069103068861,-0.0010479838374333377,0.0005457029247640174,-0.00069726690519564,0.0024671967470128093,-0.0045390420315214505,0.0019264649461392253,-0.0007138415644145954,-0.00190867801974291,-0.002267814370670099,-0.00046892607244536713,-0.0011179045955828897,-0.0014499387364743266,0.00011103490273552813,,,0.004488900942386326,-0.007496672931853576,-0.005248828184023002,0.011330745639922563,0.0028068353706086208,0.005298156892647191,0.0008973870657420675,-0.004825644825155989,0.0007274071067541899,0.0003392247392400849,0.0019811583205997588,-0.00010401850666063271,0.0003865332754646039,-0.0028966329298882876,0.0005622513186572947,0.00033131669731365117,-0.003187268975944242,-0.006128884244900018,0.005165149485275904,-0.005905946685273486,0.018873710647694955,0.005208375643644375,0.000133342075527218,0.008003535760568087
telecinco,-0.017769568608453818,,,,,,,,,,,,,,,,,,,,,,,,,,,,,,,,,,,,,,,,,,,,,,,,,,,,,,,,,,,,,,,,,,,,,,,,,,,,,,,,,,
0078efb4fc3829c84a36ad622987e8a73981d76d,-0.006595533193457773,0.012568146284859083,-0.010811191807741843,0.012072087820599278,-0.01052833267539871,0.013042184780258897,-0.001286855868604185,0.014445016886629997,0.003228780878878783,0.000498570960451996,-0.00030747960854577013,0.010808553545123833,-0.0013937525864038763,-0.00046885366928221556,0.0006734845776031773,-0.009927790262435537,0.010548602829426436,0.003655582615376571,-0.0027062353977921954,0.00245988079766599,-0.002671473436341526,0.0015924722581459796,-0.0022127323556816285,-0.0028547058190209504,0.0011009463142008793,-0.0016676686156080166,0.0011027854409265364,0.0030029637151473988,0.0008797592749500089,-0.0008988134963163524,0.0019445108501881933,-0.0011406385492490336,0.001531035072933679,-0.002002996322297135,0.0011078672584643968,0.0016830801099238946,-0.0017885057024028964,0.0012355094521326302,-0.0011483097669075263,0.0016245804796905547,-0.0012292698572779776,-0.0012434086188111556,0.0011099943553422777,0.0015352804872277668,-0.0018220968436949347,-7.639016625072393e-05,0.0006054087115389779,0.0016304123355745815,-0.0014224650298563,-0.0007512092403919741,-0.0003002636153153651,0.001082239281081472,-0.0015021564559249412,-0.001293222065086197,-0.001228214561222185,0.001436749535524402,0.0010574218972770333,-0.00608594097060474,0.00523957024197963,0.007029686176157938,0.03116244220604167,-0.0034497740919926523,0.004116599746486566,-0.007831365297795313,0.002691025067769132,-0.0012147202133218514,0.0017957934559496083,0.009838977729606777,-0.008383618913289384,0.00448705645003919,-0.0003115798725420397,0.008414150599828335,-0.0031510092768310613,0.001413771728077086,-0.0007374620663902227,0.012123511940078616,-0.011552955738741807,0.0004573881990948877,-0.005593131254393226,0.0009178794968640247,-0.003633043890558181,0.0009461212532166668,-0.0015360004407981454
elnacional,-0.009206692401111433,,,,,,,,,,,,,,,,,0.005063194362270679,-0.001526976104102861,0.003901302748591823,-0.0009889863820019065,0.00013335986347321957,-0.002102092878427081,-0.0025899834434183616,0.0006709655308194534,-0.002677248114579339,0.0026360353730203734,0.0034926668418579776,0.00047789795345341834,-0.0038723726833801153,0.002036698336714146,-8.928357561538772e-05,0.0014452371964304364,-0.0012478880409149407,0.0008022321166823894,0.002939405604915842,-0.001106187689760483,0.001325587534889921,-0.0005793168606721653,0.0019055540166085863,-0.0025618735259869737,-0.0018596039566452635,0.0011757705920996935,0.0013924853169280445,-0.0020390083765099275,-0.0014593726976342967,-0.00047546009518216383,0.000992638714612506,-0.0011044999738769974,-0.0005481439112266871,-0.0007494916698679134,0.0020280196912326395,-0.0013558203171885252,-0.0019214728558746147,-0.00035183245462403444,-0.00406377895221846,0.0025601483925730573,,,,,,,,,,,,,,,,,,,,,,,,,,
elperiodico,-0.00997638422972779,,,,,,,,,,,,,,,,,0.0031508358387180822,-0.003271755946210384,0.00041530552842217183,-0.0019627974285799975,0.0006491927587071178,-0.0021729084626684603,-0.00259771194224738,0.0009797622447774573,-0.000776870900322732,0.0006104678695022705,0.0033078875295036864,0.0009403786697754074,-0.0016883017196114257,0.0019553191481981973,-0.0034309484479371705,0.0016716838343237596,-0.003715739884869387,0.0010544273795109332,0.0032487153160011013,-0.0012035661579998837,0.002188028795913479,-0.0010807876437663698,0.0009543621946405401,-0.001446035329584247,-0.0014400231022701562,0.0013493734332859914,0.0008039320655679437,-0.0015760309185326865,0.0004889673194791093,0.00025322826855490865,0.0011996997200172006,-0.0022743933346957637,0.0010832970707390747,-0.0009597175477814024,0.0023543266570193733,-0.0007003646020954553,-0.0015772622254746765,-0.0011656119424306721,-0.004120941913522256,0.0016350945589267765,,,0.008617036642639297,-0.008066954779191955,-0.006848929058467124,-0.002919154834623315,-0.007938339450211173,-0.003401067861701662,-0.008262491276513718,0.00224618816060986,0.0033131215861771247,-0.006266576989181025,0.006723151218846056,-8.688638458535097e-05,0.0016857351161941314,-0.006024250114605903,0.0037142297527115505,0.005144660047415491,0.001347518050169482,-0.014517254634387154,0.003738916821216909,-0.0039851441936714985,0.004964495806465831,-0.010747585696307859,-0.0023427454598335135,-0.011227313377282097
heraldo,-0.01582142339588097,,,,,,,,,,,,,,,,,0.0022920906326964973,-0.003958976534387503,0.0005725676047319319,-0.004708383040903295,-0.002948356863255356,-0.0009203667283143152,-0.0014808169469476744,0.0007538746398885491,-0.003289473575498822,-0.0003504498702582852,0.0012070468204311857,0.00728298971711611,-0.0017617652983369255,0.0004107259790531829,-0.0002723243988358924,0.0005407658524119206,-0.0015681796017970927,0.0036330154264588906,0.0006424633537851047,-0.0010395078573371096,0.000992671293348266,-0.0037559002558290636,0.0005294601241086894,-0.0004379034510280039,-0.0005057763150876243,0.0004899394221717715,0.0043236942703544865,-0.0005255762859332264,1.2219831695873859e-05,0.0002379967699751291,0.0014632782723952766,-0.003656923380582308,0.0011758342785744406,-0.0005896095408687802,0.007972749124271417,-0.0008565297359984297,-0.0005624017020572167,-0.0009957237321646193,0.00796172645374933,-0.00029328065897475707,,,,,,,,,,,,,,,,,,,,,,,,,,
lavozdeasturias,-0.025243878257337746,,,,,,,,,,,,,,,,,0.0010016066865350826,-0.006046263221486551,0.0010378308577389979,-0.002580886093184429,0.0024798584755503835,-0.001380005094963908,-0.003145006123090468,0.0012201817648247975,-0.001614019735674157,0.00022732492487131245,0.0034251235012100895,0.0016716314204975997,-0.003298990483897243,0.0014793375003143813,-0.0026277863200167744,0.000753507929923029,-0.002505020718921887,0.0015445875459030299,0.0009300730914892053,-0.0022067116089824522,0.0005519972730135896,-0.0016677427271026,0.0009440153178580809,-0.0017638394059123065,-0.0004967828270092778,-0.0005534091396565233,0.002132380920622955,-0.0017863859693190163,-0.0009160996854293396,0.00026282342471212975,0.0010110497735394115,-0.0006458827961687728,-0.002552100601603699,0.0014895053634728437,-0.0005232829562467562,-0.004702562026498462,-0.0003409863903986385,0.00033779086085317534,0.004242969846049913,0.0005022831353269233,,,,,,,,,,,,,,,,,,,,,,,,,,
publico,-0.006599024658010053,,,,,,,,,,,,,,,,0.00353921829088244,0.00678443749345789,-0.004347378872574692,0.004150566077551786,-0.0054887969077505455,0.0031410569399156485,-0.004469616597783901,-0.0048024461607896266,0.0023714894188702693,-0.0031454331455399304,0.0010279829944857752,0.0003975671752740051,0.0021692994789840776,-0.0014229825618690232,0.0030196871919973244,-0.0016087168373230126,0.0028843021881722955,-0.0024648229489634896,0.001425932735475026,0.002153043598358814,-0.0023913796761039427,0.0014387097315662414,-0.0025383835658891584,0.0016380803304869157,-0.0016188456422875502,-0.0014178204880961054,0.0018548836639084645,0.0013166549528018413,-0.0024714234144411623,-2.8774412841358395e-05,0.0009859492784264276,0.002298057171625758,-0.0002974826226857172,-0.0011653111759564183,-0.0010590859344663962,0.0022113366975869096,-0.0013314749971900606,-0.0022514992268643577,-0.0017931033735836578,0.0017204470469296478,0.0017915266536379058,-0.011547725705111908,0.005676576708211811,0.010178675406985277,0.010877413998130027,-0.00562322317937472,0.0029761127347871508,-0.00469089561465065,0.00650891024232908,-0.0013705663968600623,0.003098786991115113,-0.0005359839113402709,-0.002211724691962416,0.0066208100070176,-0.0001296466667208441,0.01115527909993215,-0.004826784527768295,0.0017339024575517628,-0.0004602590316083732,0.002455693535691486,-0.004281580174797489,0.0022211487369923136,-0.006602354637367947,0.005535660132401563,-8.745387238785415e-07,0.0052309238649050314,-0.006226189847051297
vozpopuli,-0.009592642287904123,,,,,,,,,,,,,,,,,0.001677292084413251,0.0034815587961604666,0.001698335342141399,0.003775890608320038,-0.0024168023632853506,-0.0007859948253391563,-0.0030449433723271965,-0.0014443936871484965,0.003983658291726585,0.0004678568684171481,0.012796831429660042,-0.0020607165289716145,0.0013622883170359285,0.000570094886984238,-0.00026369938658694393,0.0020536655644447007,-0.0002174175375950719,-0.0023825425672866322,0.0011137203067666445,-0.0027059767905877816,0.0017781280802818748,-0.0001478980307223158,0.0006745578675944955,-0.0005291963035131061,0.0008535217791582322,0.0008024527940286817,0.008782121074666286,0.00010793403051768263,3.8583956164784956e-05,-0.0013794441074144806,0.002469551861110709,-0.0071558890787560905,0.0003441308127722885,0.0010123617810624385,-0.0012313781909382357,-0.0006422193796580657,-0.0004454295302764033,-0.00039555929062680753,0.001984282083857019,-0.0010168971020721052,,,,,,,,,,,,,,,,,,,,,,,,,,
00869ff0486a12bedd8cbef27219345a7cf3f34c,-0.0010693715854373333,,,,,,,,,,,,,,,,,0.0003291509960913224,-0.00020399316149502785,0.00038335812690198164,-0.00047857162605521625,0.00029952761450835583,-0.0004419937037351881,-0.0006251567213247306,0.000231274398507395,-0.0003708510764049704,0.00026580684109540366,0.0006676747534854424,0.0002820533286871882,-0.0002588669671555508,0.00047409984343871385,-0.0002500890000721972,0.0004330576089187386,-0.0005357704650451264,0.0003302506208177988,0.0004977640699530524,-0.0005470896532336917,0.0004518124638804399,-0.0003832325873178862,0.0005056032359332067,-0.00039967954314352105,-0.0003589282777733485,0.0003458280290235408,0.000471659028305773,-0.0006413987035416577,-3.5832144101891354e-05,0.00024289810985673923,0.0005916715656850339,-0.000487860940234351,-0.0002205699897682232,-0.00010116517643832354,0.00035935863603414717,-0.0004911210644460653,-0.0004933282688605106,-0.0005587686844164533,0.00041238618402689376,0.0004312483706052021,-0.0005606754102530975,0.0007968582451907472,,,,,,,,,,,,,,,,,,,,,,,,
00b56dac8f6181e53a7596ae9a39903cd4c40b47,-0.0021309147674732016,,,,,,,,,,,,,,,,,0.0010137970387806231,-0.0007324957361228394,0.0010593441369636772,-0.0013151010109512305,0.0008034049433864686,-0.0012581675649801297,-0.0015694551944310086,0.000658244750276702,-0.0010048408593312705,0.0005839356780568861,0.0012145394722098937,0.0006229021899156336,-0.0006218902665474994,0.0010926613605503036,-0.0005351837795584404,0.001019361371002602,-0.0012088355426508066,0.0006652725212153028,0.0010604786111480654,-0.0012073201914222617,0.0008242843955720684,-0.0007177562168143544,0.0010260846618381635,-0.0008146090757280232,-0.0008682927904409673,0.0008080193317286565,0.0008562423131936188,-0.0013827157765535208,7.083262384229128e-05,0.0006465324165803251,0.0011107492799730557,-0.0007448774847591801,-0.0006454549796780291,-0.00020647363045678537,0.0008800949187724742,-0.0009938543982111873,-0.0009849879383084983,-0.0008670271632074439,0.0008956421588030385,0.000885394971967762,-0.0012531804831815698,0.001168919258448968,0.001111336674159674,-0.0014422006519947818,-0.002137227395182674,0.0011258320680457411,-0.0015340732354104086,0.0015158565309495117,-0.0004979894236706801,0.0003444219167714522,0.0012285261463492398,-0.0007729813342701412,0.0015914094237314902,-0.00011003788432292275,0.0012029562159587715,-0.002120734717350233,0.0003417928038847277,3.150944011474669e-05,0.00024404277040013624,-0.0019675625744733135,0.0009324609370293386,-0.0016907645539153931,0.001414600403914067,-0.0016163280764630327,0.00111768941777665,-0.0003671671168197088
00f57d128b7395158119413cc187a6cc1a6914f8,-0.000385490232893286,,,,,,,,,,,,,,,,,0.00021497383605364095,-0.00015093929869443588,0.00023480887989164748,-0.00026314195731035376,0.00016174143419576156,-0.00029206522418861146,-0.00038150302096643144,0.0001601959700864585,-0.00024553559387019083,0.0001576683961629119,0.000412229967223008,0.00011208943180539483,-0.0001386617022681259,0.0002876312088411515,-0.0001648247708551532,0.0002722536783540891,-0.00036816213917581004,0.00016363967081464166,0.00031128416209173424,-0.0003277573219860016,0.00026137798890472056,-0.0001916282614230992,0.0003393941591316943,-0.000235789822129705,-0.00023799566534215145,0.00024896342846221704,0.0003568918215222772,-0.0004110772636328196,1.504029847733034e-06,0.00020527072147289273,0.00033986215872482757,-0.0003097065545711224,-0.0001014736278763472,-4.609971085343584e-05,0.00026594693245633315,-0.00039280722952718584,-0.00031467106536614466,-0.00034235361666411115,0.0002588206359481906,0.00028279406531374926,,,,,,,,,,,,,,,,,,,,,,,,,,
012efe8b9d80fb22f5f9f033761714a7c14cfb15,-0.0006993550446630986,0.005547812590084189,-0.005098062075624202,0.005761015037964959,-0.00594962003926254,0.008203527751063727,0.0006522541687871246,0.007030654945146514,-0.00015631203157644852,0.0011194008889425615,0.0004684689415212196,0.006825109262940859,-0.0019218697920181677,-0.000421150916751269,-0.00011905718816398667,-0.0070417357067790315,0.0051468886805595415,0.0016333166531716714,-0.0011893632092183164,0.0014137904212059753,-0.0016537015207774446,0.0008872200185865461,-0.0015570219330113765,-0.0019512459995274384,0.0007583886138949647,-0.0011675992430173136,0.000728391014174414,0.0017345223976436377,0.0006099125808569964,-0.0006691719318088759,0.0013873670229097592,-0.0007665547601202606,0.0011115352841599797,-0.0014706499200281419,0.0009268317005375204,0.0012338339418541653,-0.0013021185608842393,0.000891472000814368,-0.0008676838675176592,0.001192919814628043,-0.0009402599583088777,-0.0009709419530354066,0.0009355875436401211,0.0011471421860149037,-0.001436180882046285,-6.40766439994178e-05,0.0005860316367864121,0.0011938969719093888,-0.0009124353041781151,-0.0006072333046866645,-0.00020504613180898922,0.0010236511561897794,-0.001184861103882825,-0.001012360552729932,-0.000967770413090598,0.0011317382472876586,0.000899223232471508,-0.0012964698087862129,0.0015021746191451746,0.0006421128630210369,-0.0015268055197063114,-0.0012668691528274511,0.0005531119273220874,-0.0007571458531897992,0.0006836348576672686,-0.0003714625535369558,0.0003096274439599382,0.0004481019495369816,-0.0001809800167653637,0.0010836663786447384,-3.070343441564149e-05,2.240566058904535e-05,-0.0013027703425805331,-0.00029538011324261037,-6.150772362990907e-05,-0.0003655081287089225,-0.0013410004395481038,0.0011965546021736693,-0.0006010707242694417,0.0007068213290372894,-0.00120397409224258,0.0011864410214525866,0.0001606476415122759
013d16398ab81bacba94af3b05b0a2847cf63f27,-0.0004249200137302764,,,,,,,,,,,,,,,,,0.00010720192247889658,-6.470344927609527e-05,0.00016149822634168085,-0.00010898885149738537,0.00021224575092022147,-0.00011329225757136362,-0.0002448610566906873,8.172081381535926e-07,5.95590720260669e-06,0.00019765826538306597,0.0008131596334896421,9.480216225725224e-05,-0.00018653860028088217,0.00024779575891302236,-0.00016418494332400235,0.00010678329027678714,-0.00035225908718022306,0.0001261000172360329,0.0002428686699438203,-0.00021761798177395827,0.0002662516725526803,-8.524897288504337e-05,0.0002497139844513706,-0.00017997681505947465,-0.00019014446103932548,9.71846476284687e-05,0.0003902217208521749,-0.00031489176187270986,0.00014583906353467962,1.3924738462981964e-05,0.00042127340292994365,-0.000709327863370766,-7.336996358960751e-05,7.833672185488364e-05,8.916585554099004e-08,-0.0004612099077645059,-0.00015116359164192832,-0.00026399527724154,0.0004020318014391074,-3.0449458342413603e-05,,,0.0002647368681464409,-1.8959410516513797e-05,-0.00038109159051112694,0.00012854253457128545,-0.0001851408020766936,0.0003542247219927754,8.951779055713083e-05,8.00026404137662e-05,5.6613954805773354e-05,-0.00013255655081227994,0.0003907971601992224,-2.64261911795684e-05,0.00040625187919459245,-0.00023890345064668306,-0.00012252006433713681,0.0004012087358846076,-0.00018472752077082857,-0.0001454215788539825,0.000182745816008468,-0.00019248281481199333,0.00011335012636947802,-0.0010450044027915507,0.0001971518993573735,6.673137525223998e-05
01455e099e13f294ca96cc75c9387c8fe500734f,-0.0012694076186419842,,,,,,,,,,,,,,,,,0.0004805947046289428,-0.00031097697683306975,0.0005769488464367832,-0.0007149559123497732,0.00038466125445060003,-0.0005172004013125496,-0.0008298103991622092,0.00019292196207272897,-0.000317499570997187,0.00029212364449398426,0.0010697082624151477,0.00022679831717155948,-0.00019896665964713647,0.0006584303162162027,-0.0004938994280409672,0.0005155440259564537,-0.0008622544641251549,0.0003867160305369819,0.0005216744528294704,-0.0006340266567993692,0.0003347669630440522,-0.0004422703087729143,0.0005957724030408506,-0.0004575962409647125,-0.0005185303076727024,0.00038565336419122873,0.000775467489183375,-0.0006850472856212938,-6.872117271795011e-05,9.177173297144747e-05,0.0007322645563741672,-0.0009255281993568558,-0.00010507450350969371,-0.00010206260212231787,0.0005530589613427853,-0.0007273471833839777,-0.0004674994627605856,-0.000321820543088977,0.0009444685036246363,0.00036435822430893987,,,,,,,,,,,,,,,,,,,,,,,,,,
01a1473cbfb84ebfad47f8569516cec806fc9c54,-0.00039108464064258855,,,,,,,,,,,,,,,,,0.00020307238472841451,-0.00015370068255445512,0.00024869699695284425,-0.0002761837666884737,0.00019887328291299578,-0.00029617101451771756,-0.00039270085095540234,0.00014625322245620488,-0.000211533821662851,0.00017433957093910472,0.00044085193972768556,0.00020833854073347543,-0.0001754696314082315,0.00033395002327725335,-0.00020154169305932378,0.00025668550496858115,-0.00038788127905602684,0.0002901783395528179,0.000331960597082201,-0.00037839917803625975,0.00027459074867401196,-0.00023935733017619665,0.00033905444450811704,-0.0002885529483957086,-0.00027519650146281757,0.00025107738694363636,0.0003690814149691319,-0.0004215293508205676,-4.3267783024338366e-05,9.731723163861105e-05,0.00034458247832852025,-0.0002937710193386639,-0.00020077221447579042,-3.4349896189386894e-05,0.000309340182257826,-0.000364591800619347,-0.00028177508816238706,-0.00037837167637692974,0.00028253833749205236,0.00028292877731377704,,,,,,,,,,,,,,,,,,,,,,,,,,
01daff9e9b17fef7e5e949a8a69e338f263cff19,-0.0008295344221911311,0.004165210758478477,-0.006223737835425069,0.004807337685313523,-0.006023898571946296,0.007625091800039979,-0.0002746261604026981,0.008601921573515997,0.0011823279358932313,0.0012197553171079331,0.00026114880909052754,0.005761765330410951,-0.00046691330828883826,-0.0004966120932214544,0.0001550285259528314,-0.006000318417581703,0.0027423710233240705,0.001992714164552733,-0.0015395726105509086,0.001727483067315196,-0.0019682828004959577,0.001278710567402701,-0.0019407504373804172,-0.0023103444908252613,0.000972646557394403,-0.0014305470274493326,0.0008128937083781917,0.0016354807504077445,0.0008887592764974901,-0.0007821235347278783,0.0016330418810399582,-0.0008987786081117932,0.0013634813656869566,-0.001735560504013681,0.0010963687482625109,0.0014325371996836938,-0.0015926050679271181,0.001045282189557292,-0.000991815543605504,0.0013965340438395583,-0.0010247716331785134,-0.0011346727728602623,0.0011371722160662364,0.0010908456806839834,-0.0017239002850864974,-7.550045872118776e-05,0.0007959844207320673,0.0013721283778191287,-0.0008592173634423554,-0.0006286785479041215,-0.0003107880047029699,0.0010950015217428776,-0.0011842647497771301,-0.0012139012890366244,-0.0011204902476617566,0.0006854807595188396,0.0011424188341203263,-0.0021719517687552527,0.002527397731982937,0.0003342902590116832,-0.0010349128572342636,-0.0006627902771957383,0.0004618855422292708,-0.0004232975869477559,0.0003545784920557096,-0.00020399216242558297,-0.0001595926709044745,0.0005265685834142616,8.996082979367565e-06,0.00047713130040008414,-0.00013047929243391286,7.970006973082857e-06,-0.0011925410828386713,0.0002805885430146262,0.0001705417299027318,-0.00022711929808574144,-0.0006207043582036227,0.00033356126050043027,-0.0003318108621017807,0.001314697544402266,-0.0008551289816844615,0.0004999106957223509,1.607941484396344e-05
021a43a12624d8a69295cfcba3f7e4e704d9b101,-0.0005283936163334892,,,,,,,,,,,,,,,,,9.394529939632037e-05,-6.155126074571067e-05,0.00011674830906745963,-0.00013841582946997932,9.637955874672321e-05,-0.00013508009066723125,-0.00019395642994573137,5.6550247820146286e-05,-0.00010587273520526447,8.844752106954599e-05,0.0002825064577252073,5.459109929714763e-05,-8.217367252809796e-05,0.00016052822133391187,-7.543772436986592e-05,0.00014295553723746226,-0.00019674324078777075,8.115609417387919e-05,0.00016376489183127417,-0.000183870317500328,0.00015422717100199528,-9.686976621473624e-05,0.00016588306498108326,-0.00013196917365245557,-0.0001315677939725357,0.00014085291962218354,0.0002559273152835158,-0.00020654758061463836,7.147261559482316e-07,0.00012012523202894804,0.00021000724959527287,-0.00027469636227091135,-4.927522520602434e-05,-3.522161176646552e-05,0.00015516165735715955,-0.00020037026943373455,-0.00016044191047076485,-0.00016017589184299635,0.0001729639426559411,0.00014026981559284515,,,,,,,,,,,,,,,,,,,,,,,,,,
02437dbbc7689f27dc62cd9b7f3ee447390dcf0e,-0.0015253307359541903,,,,,,,,,,,,,,,,0.004217697946471034,0.0010802635303500043,-0.0007908827199277046,0.0010553076539666808,-0.0012016373055372307,0.0006957938939048617,-0.001207026941733279,-0.0015323507276615996,0.0005698324787873227,-0.0008588966850022926,0.0005892833514042326,0.00146190562669312,0.0006738241701176163,-0.0005050418818514233,0.001105645737252884,-0.0006059565613558787,0.0009421660436008299,-0.0012007214793110065,0.0007951712634678321,0.001004550489110369,-0.0010889253004162484,0.0007742216421508472,-0.0007532395165626033,0.000997756574670484,-0.0008517882477757459,-0.0007800369408515388,0.0007810122124472325,0.001009442695937132,-0.0012218089550452929,-0.00010575250461315397,0.0004051229756223962,0.0010958992224359239,-0.0008566111636859828,-0.00046227310053217386,-0.00018831332370508562,0.0007664253708232378,-0.0009636791628199809,-0.000910744337709303,-0.000905964396552131,0.0007371003141746991,0.0008246686805826707,-0.0009943872757231004,0.0011963746456782813,,,,,,,,,,,,,,,,,,,,,,,,
024c414994a64bc8f659667b22394d57520ee82b,0.0003129467845621115,0.0035701611979828962,-0.00040827263237108724,0.00529121091407074,-0.0007479529349301295,0.0024790975457114894,-0.0038777872546523155,-0.0027787293779156577,0.0034518005477208397,0.0009338736272064968,-0.00022334282655927872,0.0034918216909099638,-0.006841012028170758,0.0010895629980351422,0.00020229867296733426,-0.004041407799312523,,0.000506216395035624,-0.00047694473214393064,0.0006226467104706189,-0.0007738832206197713,0.00044395512928936643,-0.0009239754601173475,-0.0010612465789904585,0.0005573030692938891,-0.0007683681165410552,0.0002851105740540345,0.00013123479985271665,0.0005466143876376523,-0.000425898474541422,0.0008088931309136458,-0.00040659774740001473,0.0006382181499961625,-0.0008497599464355131,0.0007043724023794934,0.0006811902326597078,-0.0008003133936421557,0.0004614102484802149,-0.00045867324169380293,0.0007371863179017851,-0.0004862407497229974,-0.0006791032821216909,0.0007555464805001047,0.00017357643330310297,-0.0010232455392081485,-7.026665369256577e-05,0.0007448138953749413,0.0005539595560251965,0.00018094621711627545,-0.00045663770083498355,-0.00028905363903859466,0.0008029122106566113,-0.0004880291697837195,-0.0007381683832040561,-0.0004734037995820766,-0.00012217190025505076,0.0008117083446307471,-0.00022001260294265802,0.0008459054506669925,-0.0003196382275082841,0.005683664446326425,0.0013935327647287862,-0.000670314222554304,0.0004252674917106888,-0.0010764992817883959,0.0002854916968100833,0.00013726299458056588,0.00010240062838253925,-0.0005296406328437668,-0.000867275444131473,-4.119434423278728e-06,0.0010757802880373944,0.0016569132602847095,-0.0001444399229994412,-0.0002776585704511243,0.0031617278901349254,-0.0003682474987677359,-0.001223075936070482,0.00035021425542300887,-0.0022584753933737704,0.0015759535800281524,-0.0009554990894564642,0.00038879791400020253
0257a0dfdaba5baa4db97d65218a58f17988d786,-0.00063611488804024,,,,,,,,,,,,,,,,,,,,,,,,,,,,,,,,,,,,,,,,,,,,,,,,,,,,,,,,,,,0.0003394836148752645,-0.0002973177924405733,-0.0005552671131738525,0.0003242310380128636,-0.00041573013812555543,0.0005354175173513283,-0.00018060001526236673,0.00022086231630123374,0.00019458307554555843,-0.00014600877087767809,0.0004498227470443477,0.00010084550375504744,0.0006084932479811405,-0.000728539677854118,0.00016813506613641807,-8.63758398383692e-05,0.00027081184869648736,-0.0007298516326399076,0.0005840326155338722,-0.0006380362855393619,0.00024238216454823124,-0.0001594784591351096,0.0009045254030388126,-0.0005675894748576153
027bab5e51d6de60156b2e017c1c22e5169d6104,-0.0010903464693415724,0.0005206657378245966,-0.0009987320030070967,0.002577933348457434,-0.002160401694576833,0.004020581494871167,-0.0014404596858942154,0.0027206394184817375,-0.00039018015193046686,0.0010647506538261102,-0.0003054503624966132,0.003249155351483353,0.00010666548246107644,-0.00030777480105631397,0.001020188194192308,-0.003201488563469128,,0.0003193659008143704,-0.0001621471679350868,0.0003084667757695804,-0.0004127923148725507,0.00015480242563947885,-0.00036749932639723896,-0.000512613861657873,0.00013837806373209163,-0.00023877622290903542,0.00024487093526071664,0.0009044946993813138,0.0002846332382526725,-0.00020802179581778436,0.00041517442341238727,-0.00023655250730016982,0.0003155223289730662,-0.0005206475162352225,0.0004531234655677299,0.0004391453682522687,-0.00045887787563030384,0.0004344442629498664,-0.0003033215512283408,0.0003759933518312085,-0.00037699437285615943,-0.00030306545565463505,0.00031293577477508987,0.0005363389211072802,-0.00048766632778708165,-7.202053183605044e-05,8.353596754166054e-05,0.0005233568030385771,-0.0007219556281398147,-0.00020939442145948657,3.414728714481839e-05,0.00033016254508853524,-0.0005347576822091817,-0.00031485191842119706,-0.000381441432108606,0.0003139996884000233,0.0003977798720620875,-0.0009864743376012761,0.0011921325090325603,0.0005837999523697868,2.9084148573858536e-05,-0.0007385412496174964,0.0005683779179069697,-0.00046574853393649895,0.0009049085492890716,-0.0002004160070893942,0.00030256468154422,0.00026717338524777617,-0.0005150751480187147,0.0008935474814596735,-1.5328652110426516e-05,0.0011034550365647852,-0.0007293364259482445,7.333729776039087e-05,-0.00016053525948774662,0.0004747249744636576,-0.0013001311080824713,0.0005936111867376016,-0.0012687482393042228,0.0013839450347321548,-0.0003634473161434795,0.0006067993129718476,-0.0008774434786222284
02aec93db9a9c3c5aa78af6f19700533e2e9f0d6,-0.0006971107318940945,0.002591916864170464,-0.0026130210436775547,0.003683044394314633,-0.0025123154460662267,0.00409728411392421,-0.0010278409825504216,0.0020704098005885907,0.0003151102038739424,0.0007903684225249313,-0.0002826485289717934,0.004689417180477967,-0.0023437557867316793,0.0012887191755278395,-1.2636983777947891e-05,-0.004025960023773811,,0.0012239673434521529,-0.000983139331226979,0.0011820824095742626,-0.0012999026826939423,0.0009071932710161906,-0.0014226243510311399,-0.0017513792895944903,0.0007658069966341374,-0.0010533355020802952,0.0006221599938676541,0.001108505243182099,0.0007170363592227454,-0.0005833822450940659,0.0013048166663107337,-0.0006468164023506831,0.000998745295100166,-0.0013601572526009897,0.001036888240258895,0.001086555861410489,-0.0012500044759504523,0.0007806959889978676,-0.0007670510283670437,0.0011714484780248264,-0.0008468374053316527,-0.0009976325205139458,0.0009934832948926358,0.0008579789135877841,-0.0013908126010716906,-5.316285166406535e-05,0.0005946022890923489,0.0011253363953927385,-0.0006161637635897761,-0.0006069498294089914,-0.00024785488173619327,0.0008306330546689611,-0.0010047099158263322,-0.0009462755919104552,-0.0009244974220666179,0.0005650571465125257,0.0009093693458520565,-0.0009177766594928015,0.0011524722611664952,0.0010389289987000774,0.009665738057365364,-3.4733819023313045e-05,0.0008340191569469226,-0.001760938228216181,7.019649570084172e-05,0.0002567583461808869,0.000579849625320628,0.003334111842306366,-0.0027485000426535045,0.0006989736694262066,-3.389270900212816e-06,0.002304724753702792,-0.00010108837979641913,0.0001223881670843525,-1.980250286123442e-05,0.005850081307572802,-0.004394386195696258,-0.00032049696646422937,-0.0014268486951197813,-0.0006794719885748098,-0.0019034539507415515,-0.0007462815971159133,-0.000441330547010378
0335a320b4579f466f5bffd67882579973f38f99,-0.0008694923970879703,,,,,,,,,,,,,,,,,0.0011189025346007525,-0.0006050812355839564,0.0010482783289110457,-0.0015000165069313496,0.0007256646653024208,-0.0010534725974398885,-0.0015586296222335132,0.0005058879537297767,-0.0008544993238582951,0.0006735598311720681,0.001967615695855603,0.0006024148582539283,-0.0007449025281901613,0.0010061734470531141,-0.0004805191789175019,0.001017504751444078,-0.0012604332066493552,0.0006203616115739348,0.0010683422391645574,-0.001220693780864313,0.0010328561909179483,-0.0006842419123871586,0.0010369305547268252,-0.0007838220401516636,-0.0008159363573384191,0.0006634559386491127,0.0011881626548857882,-0.0013843354807898808,5.00094460672732e-05,0.0007074814127548631,0.001174673990418616,-0.0013500112645232951,-0.000689710713008258,3.3946225075771195e-05,0.0008452466030047214,-0.0011235864547490587,-0.0008633074304505352,-0.0008098990690552014,0.0010132297157329467,0.0008907119196023038,,,,,,,,,,,,,,,,,,,,,,,,,,
03635637942fa13e11f925aa4a7927d589831144,-0.001844966311400594,,,,,,,,,,,,,,,,-0.003151168023558187,0.0018655856687184629,-0.0015662086115848495,0.0017243775823101942,-0.0019261127323047598,0.0011488334707191901,-0.0021100507882361396,-0.002334439525543874,0.0011321032083604233,-0.001623980634947782,0.0008282448785715151,0.001194308426805524,0.000985915676631045,-0.0008258858468085765,0.0016483860361895363,-0.0008829839499272772,0.001346375269336849,-0.0017244594950832335,0.0011890537573920937,0.0014774063146761863,-0.0016737100656001934,0.001010107482216926,-0.0010020360986326242,0.0013940330994938902,-0.0010767026934782788,-0.0012270022722079387,0.001180286035185781,0.0009509263640975873,-0.0017858042313283657,-5.7003039286830567e-05,0.0008003491905877094,0.0012684882394132539,-0.00045198571683170924,-0.0008630235189088401,-0.0004041468139584877,0.0012757553241133414,-0.001130769722436117,-0.0012309738807335553,-0.0012107483662555387,0.0007699365834082299,0.0011735666770813578,-0.002045889121349856,0.0023256929190574437,0.0025488964092587204,0.003529291239538544,-0.0031387991510581537,0.0017536750035637674,-0.0027206119464410067,0.003893824764455993,-0.0014776021955256696,0.0006509680263341239,0.0002672090713041942,-0.002369036596409917,0.0033207511207523858,-0.00012120168042714804,0.007201077561456893,-0.0038687646742126937,0.0019985761947451945,-0.0017314285717112857,0.0036573797860500806,-0.0037445182051828625,0.0003289935013766087,-0.005280780225701004,0.0025227618109532517,-0.0006090337542239634,0.0030625030298534013,-0.004334177413605826
0363fbc84b03f8f0c36b026387b9664fb6702e8d,-0.0018685783435166128,0.0004631101022284645,-0.0022164041453861527,0.0021727752531300604,-0.0024899894498097153,0.0029786955494698897,-0.0009550932619567312,0.0033039866252801142,4.815007739352589e-06,-0.00011431542803028161,-0.0009387186564584634,0.004500559993744671,0.0008215865853444934,0.0018913730349427883,0.0005212940513260166,-0.0019068325281692972,,0.0005492831865147802,-0.0003985975151488917,0.0005919839228782264,-0.0007125755006323151,0.00039687336362835275,-0.0006266791011065422,-0.0009029594055743527,0.00033402760603383713,-0.00048679740432599865,0.0004004270587792129,0.0013559315816961104,0.0003171568897251702,-0.000279831028099524,0.0006875372977196365,-0.0004536107395517376,0.0005367127327976769,-0.0008014746118686635,0.000560725657090929,0.0006728861827529449,-0.000704383943384714,0.0005164650108835106,-0.0004706856534124438,0.0006456816184614873,-0.0005770224650697032,-0.0005799294048033588,0.0004478381706361989,0.0006352183612173487,-0.0007795314897244964,-4.129027888733573e-05,0.00024067250956449253,0.000801427751672911,-0.0009549926307498679,-0.00041692982970747234,-0.00010228482563493012,0.00042964581853235234,-0.0007870726249782622,-0.0005807156944419405,-0.0006333631685082038,0.0009445890888299913,0.0005197207896325165,-0.001083918649763208,0.0009926808832630635,0.0017582484953366896,-0.0005122485678011118,-0.0026084346326683003,0.0017377460069630244,-0.0013256639439323049,0.002024123517570602,-0.0003710406353715282,0.0002802641785820191,0.00122870982484132,-0.001389277392387586,0.001919191764346077,-6.171933573801655e-05,0.002150479273677566,-0.0019251851082006128,0.0006260989205121715,0.0003763830105457524,0.001197437966469659,-0.0029759821995383193,0.0019955879822826286,-0.002643667636202514,0.0019089834637222836,-0.0006852389322963325,0.0017102823166926632,-0.0017139500021747297
03810eea8644295c76493bd923051834311751fa,-0.0006980607099112079,0.0032489165808048635,-0.0036129758872522344,0.003512052705980484,-0.0057141988768078245,0.006115965709830057,0.0010453640682746915,0.006849007698989933,0.0008179445832620358,0.00021299965161251672,0.0006686441631246363,0.005235717932947165,-0.000622288962961362,-0.0010505416937039314,-4.791140339217674e-05,-0.005000033193709119,0.0018304546054036463,0.002071485267600915,-0.0015005831314792034,0.0018323722410198817,-0.0019829019057850715,0.0013031938178787198,-0.002061414824442595,-0.002434101639095375,0.0010500303829675249,-0.0015036780301585211,0.0009189320596706224,0.0016626910609313199,0.0009761437723861534,-0.0009108208932914854,0.0016680413300295578,-0.0008278083331359027,0.0014309424067247723,-0.0017746830537768974,0.0012091086923192097,0.0014873792840787293,-0.0016341808850119865,0.0011272333338887503,-0.0009922889557193813,0.001428831709915095,-0.001112875261872951,-0.0012185370579722314,0.001192977053401346,0.0011623244790470344,-0.0018122229518249692,-4.756126350699205e-05,0.0008464601154547623,0.001373186779918753,-0.0008258634998775894,-0.0008546606748293419,-0.00028618108544314316,0.0011725652185353569,-0.0012440886823615778,-0.0012738530885589468,-0.0011924913803085385,0.0006567010835849224,0.0011472902405552925,-0.0022761963668863562,0.002172246744696828,0.004614660175263309,0.006001521555949804,-0.004836606931605178,0.002836082048263723,-0.004040606730607963,0.005744937229829455,-0.0022126326766269116,0.0009798378900042213,0.0013105937650197408,-0.003255892530006653,0.004149984478659522,-0.0002384396372659734,0.009264148551021829,-0.004892205509615527,0.0028192194271576933,-0.0007082605536092145,0.004460059577437977,-0.005480716078587732,0.0008141836506701059,-0.006164218865818522,0.0035196258161865695,-0.001643609430741923,0.0038805306907040743,-0.004604715329261178
038c3e5e206f35215e7b7607e66e196744a280cb,-0.0002942780916855222,,,,,,,,,,,,,,,,,9.988083304249519e-05,-7.590754192169448e-05,0.000111581461593632,-0.00016351328525184981,8.675033121113352e-05,-0.00014247644992297366,-0.00019576271644074922,6.991738621686536e-05,-0.00011468221124911061,7.092967357561974e-05,0.00018991774533713137,8.723925563134435e-05,-7.483483067188381e-05,0.00016977663361190823,-9.801062206505297e-05,0.00015180972574778176,-0.00019111050191256512,8.817637155673157e-05,0.00017205809888186006,-0.00017346802722217642,0.00014896907083292648,-0.0001228321373895994,0.00016153180146676846,-0.00013763650437826312,-0.00011814165615579674,0.00014261695393553314,0.0001786087970970847,-0.00021536308329554206,2.3270125282235824e-06,9.395267400553748e-05,0.00018941463069872236,-0.00013084860404057974,-9.756536188810285e-05,-7.446805410440201e-06,0.0001760462375727771,-0.0001645276119253332,-0.0001981215646774952,-0.0001676461341511082,0.0001171094410037243,0.00017458955434387924,,,0.000984939479835291,-0.0020877737011542755,-0.002069950189027812,0.0011669477800213067,-0.0012271733327134321,0.001199342962109945,-0.0005200079549245243,0.0004631140017875711,0.0012622883409924763,-0.0008694047691466093,0.0016326316294138208,3.4092802375885336e-05,0.0005101242316048697,-0.0017202849481660403,8.911734126345011e-05,-7.71012757989321e-05,1.7612896723869604e-05,-0.0018410882440915767,0.0014081624877286284,-0.0010357908732863122,0.0010182716103054547,-0.0013479266326027874,0.0009135665471494214,0.0001788671554732805
042227f0fab7249ad93606c42111babcc501c2cc,-0.0010340504723976684,,,,,,,,,,,,,,,,0.0032895669677491858,0.0021962573678558583,-0.0015736279704205052,0.0018640160767252625,-0.0020594095276671885,0.0013096466055003326,-0.0020786623903408215,-0.0024623690575749494,0.0010114680879303878,-0.0015201659737676667,0.0009201266187673248,0.0017068206786509726,0.0009767819214871142,-0.0009054578962449256,0.001715226837479709,-0.0008558552265156243,0.0014384303186061149,-0.0017627454491489624,0.001138984227819259,0.00151093798425576,-0.001643193300854225,0.0011476636709648936,-0.0010177770346575946,0.0014643786087721465,-0.0011020334591325905,-0.0011954134009727294,0.0011809167221915452,0.001211148526430515,-0.0018420996379306309,-3.1263357554329517e-05,0.0009034774317499154,0.001418192296366303,-0.000865233784551498,-0.0007994678100980503,-0.0002559987767007882,0.0012454361354110799,-0.0012597613535502202,-0.0012578590363334294,-0.0011705169689416677,0.0007780012680832583,0.0011597465814816967,-0.0021313562886117513,0.0026174856173218014,0.001608064465347277,0.0005689433971439931,-0.0018894134555832952,0.001124480529917103,-0.00152241939572512,0.0019234146275217121,-0.001015184795008828,0.00028522254630680325,0.000630594916828306,-0.001100315651806806,0.0019488071116015248,-9.983374374151078e-05,0.0028161879418406406,-0.0021757952734280583,0.0005495275249682041,-2.9218850108367182e-05,0.0014989459085125302,-0.0025391568909034386,0.0006839108237724472,-0.002602016458245211,0.0019446253203475512,-0.001080332693510786,0.0017844396291993724,-0.002008352270960516
0442251ad6e4744029d7f9169c70fdb8167dd594,-0.0004236661465573009,,,,,,,,,,,,,,,,,0.0003698666481790368,-0.00030717190736679,0.00042292002371925467,-0.0004559455199043584,0.0003235914893108254,-0.0006028822008711476,-0.0006752657480331247,0.00026542300797310447,-0.0004484365489354357,0.00023364310323454652,0.0004814121202999332,0.00025090867407042696,-0.00018723783932338568,0.0005410189982476772,-0.0003022323417044381,0.0004158020853391193,-0.000558641379668303,0.0003273600036656934,0.0004872495676178391,-0.0005619604981895458,0.00039665224740816594,-0.0003976789212831052,0.0004938651230353589,-0.00037832832091259873,-0.0004064437092720131,0.0004451001872868251,0.0004369654533619002,-0.0006088034841711715,-3.0273506753173088e-05,0.0002845955458009152,0.0005400392371656478,-0.0002473337791010536,-0.00023791884661071181,-0.00015429086755050134,0.00042670085484351793,-0.0004582264433717636,-0.0005116301715340117,-0.0005951889727837667,0.00031623532402069845,0.00043821530007488035,-0.0010431429370112602,0.0010934965981871006,,,,,,,,,,,,,,,,,,,,,,,,
05131c7aa49789595cd0d00a17c36a1f27d63d25,-0.0014959901755755376,0.006696833796753729,-0.007038401309010095,0.007322680164950746,-0.007109280209887103,0.009091528079472277,-0.0005674707598963789,0.008183957539217246,0.000744866815618573,0.0007927672748459166,-0.00024545684247343543,0.00848151826873031,-0.0016322198750351666,0.0008765303411530818,0.00018764600529433753,-0.006904073088992657,0.004564042154809853,0.002274237752918279,-0.0017394922693567366,0.001888053261352033,-0.0020737110677933553,0.0013313137351033406,-0.0020174298728964637,-0.0024421793621458394,0.0009904342230426934,-0.0015393839218278812,0.0009466185690282165,0.0018151247511381933,0.0009163975012751812,-0.0008393830497942009,0.001753840382602508,-0.0009444021803778332,0.0013806633161707472,-0.0017811809135281484,0.0010748319522688888,0.001532909873859321,-0.0016623456644454374,0.0011257993227374978,-0.0010403169116405685,0.0014714140642599419,-0.0011117973311450024,-0.0011976239161889898,0.0011089224685291534,0.0012197206136655265,-0.0017841946941627887,-8.481865829759517e-05,0.0007673579688712744,0.00140546761946264,-0.0008932106468871851,-0.0007404037285136385,-0.0003065142905268601,0.0012214619883674756,-0.0012277350722232725,-0.001243104919765186,-0.0011489918839849473,0.000886172377671679,0.001104736352114513,-0.0031968858162676663,0.0034351672307625565,0.001309978546692339,0.0001813987460682742,-0.001862399204334226,0.001378982158757258,-0.0012380383967508452,0.002036521811295651,-0.000569169514930697,0.0005452580297017082,0.0006066124755227632,-0.0009514241013229579,0.0016411973983696544,-1.4190980749891643e-05,0.0022736239611691553,-0.0017472059126988776,0.0007844700078998034,-7.74565626878064e-05,0.0012207662350172009,-0.002260436867251098,0.0009439157598429208,-0.0024169857816033016,0.0013967659760096777,-0.0011467592658793433,0.0010474290650144798,-0.0017334080234943446
0615b413f12a510f105fb9359fc1d3123532eef4,-0.002975088373654105,0.00909607416850777,-0.007500284836990098,0.009616548480596288,-0.007681660407289102,0.010087664779595495,-5.6682952581738055e-05,0.011447917876659608,0.002265917520783374,4.537223370132404e-05,-0.00019999432978083913,0.009539487450421574,-0.0019962725558794097,-5.537739450936106e-05,4.322559664476054e-05,-0.009367213561161873,0.004805447672145905,0.00392747494605271,-0.0031319164352764375,0.0026805207163358787,-0.0030315354171884788,0.001790272034780732,-0.0027317329919682967,-0.0031727874202677154,0.0014070881850614678,-0.0020759852419722606,0.0011054101051865032,0.0019809295280711955,0.0011617548044119221,-0.0010609909017432484,0.002150385841855012,-0.001196120175917977,0.0017673382158159092,-0.00217747103624015,0.0013320385792745034,0.0017975173908085123,-0.002001184281992295,0.001296006469623559,-0.0012953596777267097,0.0017149954536176445,-0.00130399949310834,-0.0014020302490212874,0.0013193173032222147,0.001326511739152581,-0.0021126261358170965,-7.07090420789282e-05,0.0009459573749943263,0.001602896270698925,-0.0008575896407076872,-0.0008937827620187141,-0.00039037785328971397,0.0014908580110368284,-0.0014014001309316365,-0.001456530347414827,-0.0013822176641599495,0.0010172666092767271,0.0013736315784950708,-0.006176293724831764,0.005126556124247272,0.0027311259901018105,-0.0009801010125841093,-0.003642055445129062,0.0022929812400084744,-0.002945765470233644,0.0027577167991173048,-0.0019173450339052206,0.0010410028338937744,0.0011656337557477093,-0.0016783707912801024,0.003116194152323097,-0.000157262622151995,0.0034216973773535265,-0.0033822463161753955,0.0006315113838434338,-0.00047775824115253924,0.0009900520814237629,-0.003813891002005421,0.0016429712615478632,-0.003221824612211363,0.002640455079193244,-0.0019341521717853225,0.0020221080596338234,-0.0020799926906599608
06c3f07114389bc253f6ec8b2e69547fb12f7fcc,-0.0008051922234638135,,,,,,,,,,,,,,,,,0.0009353006801359371,-0.0006593191379979343,0.0010010730365691705,-0.0011379648097338468,0.0007205563172195862,-0.0012043209112058651,-0.0014847007167670422,0.0006392120790271747,-0.00084581852397518,0.0005684710466957225,0.0009973499450858783,0.0006986735101076802,-0.0005133453384564988,0.0010887581141940197,-0.0005558636793907695,0.0009414454988655111,-0.0011922890541839742,0.0009352530160573343,0.0009903432812708836,-0.0010553040441095211,0.0007188390761736828,-0.0006733868386398234,0.0009436285380570933,-0.0007997069127090588,-0.0008273517539649643,0.0008707247153766009,0.0007439157866334143,-0.0012510434887098728,-4.4990626348213646e-05,0.00045461916177784705,0.000965082059191439,-0.0005837093611035715,-0.0005201456997319883,-0.00022384633103321292,0.0008190334311781499,-0.0008751677603721173,-0.0009243166736989583,-0.0007274370011037478,0.0004895191505820332,0.0008787899241351024,-0.0007778078558852038,0.00088827488839988,0.0017332792588434591,0.001618048378832459,-0.0026246048819360377,0.0015143163135840853,-0.002010098462201285,0.003463636678614549,-0.000782445642150251,0.0004740120385930886,0.00031019600043932045,-0.0019141521666380498,0.0024598951718377135,-0.00017691880527979334,0.005557726672317196,-0.00279187768391288,0.0009988985694358216,-0.0012310228426907388,0.0022466238166558555,-0.003251571177818033,0.0007114156272508972,-0.00483786342684829,0.003416227844139821,-0.00013977087109238008,0.0026326050240888686,-0.00266890021886896
06d227116ed652f8be0b8a73677a9f86d4d50b04,-0.00028331295539135297,,,,,,,,,,,,,,,,,0.0005917949204742571,-0.0004281871825617982,0.0006655739274412638,-0.0007002247958195016,0.0005011731078410939,-0.0008072936088790373,-0.0010175353129370038,0.00042241464819762684,-0.0006325222812637712,0.0004027989393859911,0.0007578510221544996,0.0004384354849132466,-0.00037573864405412093,0.000777494535576263,-0.0004033834266591934,0.0006089356736110439,-0.0008552082439021295,0.0006241957987154867,0.0007025844565871072,-0.0007888382019167939,0.0005630380237413909,-0.0004978737396167148,0.0007175262329209234,-0.0005456758226490655,-0.0006339378900708253,0.0006155941356772888,0.0005817929257852608,-0.0009059095422609459,-3.9382581039381536e-05,0.00037529769758591256,0.0007186591009410921,-0.000481843750819609,-0.00045161391421716303,-0.0001458764829978235,0.0005993108373097799,-0.0006817155086591432,-0.000636906813746391,-0.0006580715901638918,0.00029044550849171284,0.0006344391268530517,,,0.0012552703759411837,0.0013469639145234661,-0.0015946408865167541,0.0010352957964478741,-0.0011087470750460462,0.0019616525902320563,-0.0005721942934244674,0.00032350593628877364,0.0001393259264201945,-0.000847001414317119,0.0015221408177132159,-6.0198196665470905e-05,0.003212273669537967,-0.002070739164852621,0.0008124186564324973,-0.0008889448117008473,0.0013793255364315672,-0.002009562222360993,0.0005394360245166789,-0.0024363560932781727,0.0016232394213697373,-0.00023303997578045382,0.0016279832355625373,-0.0020326097276586255
0717e15bef41d083887fbb47d727dfad90885ec2,-0.0008517252150075379,0.00933191902973208,-0.009447251664744982,0.009012081136361316,-0.009353745449698359,0.010762087682214816,0.0001097560578461193,0.012410869136385505,0.002205499038441361,0.00011211428787039068,-0.00012699466947734786,0.009810414244249083,-0.001099318001268751,0.0002603186449499067,7.293069643427713e-05,-0.008310460920619933,0.002861528675695051,0.0023671900022767217,-0.0019453165415821898,0.0019529082317579615,-0.0022144028708493847,0.001431530668632957,-0.002127054474938603,-0.0025590555152151637,0.001062307890485113,-0.00159598255801307,0.0009821630949443652,0.00186772208760366,0.0009418115291804745,-0.0009256416270825678,0.0018167394622362685,-0.0010449894007699355,0.0014748200886781778,-0.0018516177034362184,0.0010626555352556194,0.001604512528500795,-0.0017779451587354262,0.0011686312575531336,-0.0010915248433994733,0.00146912742010895,-0.0011571986222700989,-0.0012345270349702544,0.0011358661352084203,0.001205271894214881,-0.001817357560579386,-7.238152398292229e-05,0.0008324565698251459,0.0014295669963787431,-0.0008690528475949951,-0.0007834550355813306,-0.0003165135640156273,0.0012788224325898168,-0.0012743351036538812,-0.0012749053798229056,-0.0012125599005350296,0.000978120152037215,0.0011816801285137184,-0.003060868384379537,0.003285477125507028,0.005018053639896506,0.002483265134093979,-0.005386825585514867,0.0032379002734468417,-0.003841066155053529,0.005339890255139599,-0.0019235869381037914,0.0013596481010518307,0.0011731346447437316,-0.002487034351673823,0.0042800821894204265,-0.00023406578298076236,0.006650088159454101,-0.004337540015462414,0.0018350263393794774,-0.0011173189472876695,0.0030084163157382392,-0.005433690328655154,0.0015294551666802042,-0.0055827543269266824,0.002990405156417934,-0.0015300565317616032,0.0030101659182624647,-0.003589433282108435
077b2752ac755ba0f6ad683a7ef3df9013a1344c,-0.00015647020858332498,,,,,,,,,,,,,,,,,0.00013171709574905988,-0.00011286001846924226,0.0001662780852389239,-0.0001954647218131481,0.00013087378154375093,-0.00019823635788322812,-0.00029039440531816014,7.292070920401667e-05,-0.00011768204050258705,0.00010211939507027988,0.0003116922617171572,0.00012069088575633908,-9.825455460802216e-05,0.0002293873739845682,-0.0001550925051642022,0.00016875424041241533,-0.00026899122684921265,0.000203579811972794,0.0002013851443300515,-0.0002311428734971945,0.00013443334670159294,-0.00016307317826856776,0.00020562287165847752,-0.00019339270008570135,-0.0001966267846206923,0.00014285190156725688,0.00023648081655117098,-0.00026935197138770685,-1.2359044010165817e-05,0.00011484477370990302,0.0002568485493782907,-0.00026781122518884865,-0.0001513078438507222,5.600469603583884e-06,0.00018397750407141177,-0.0002666059409681807,-0.00019332270906407016,-0.00019611304887722736,0.00036982077780391067,0.00018747185514705645,-0.0005430991211427867,0.0002567214499558086,-0.00012789523170676908,0.0038357118865316128,0.0007822415814977446,-0.00032752183984857035,-0.00016408890520892887,-0.0005459543581344232,0.0002508922795923912,0.00020419718938889068,0.0008911794726271751,-0.0007948498003652681,-0.0005171693975431612,1.0913255443193625e-05,0.00036388155209974324,0.0010513117584742232,-0.00027332749095619125,-3.9471406778757544e-05,0.002001872451263018,-0.0006965256946128861,-0.0005936767568815999,0.0004130705972779968,-0.0009044394413681596,-0.0007913378487427721,-0.0010052054560071206,0.00046174277086094605
077f7ee5ef0dcb6280fa66c4227bbf62b67a6203,-1.4727131447935578e-05,,,,,,,,,,,,,,,,,0.0010879406023773547,-0.0010195116591166608,0.0012785603575509001,-0.0014256162830982473,0.0008445092719219643,-0.001859927693400043,-0.001826462619347955,0.0010585442125048113,-0.0015977197911560582,0.0005394167223450823,-0.0003941613307891084,0.0008703943111178919,-0.0008174224206823847,0.0013497776421099892,-0.0005525020725140879,0.0012557210937138553,-0.0013638632432520985,0.001118589733733219,0.0011676873409348146,-0.0013375425368491365,0.0007564206834910177,-0.0008278714453129167,0.0011770132880216816,-0.0009254518754469164,-0.0010943023505564512,0.001198997587829644,0.0002687239369802612,-0.0016282301357380927,-0.00017937390814913728,0.0010301588827546708,0.0006889553581418124,0.0007967233316013554,-0.001022786500562214,-0.00039520317677060337,0.0014365789852050191,-0.0007179047613292385,-0.001334882875021138,-0.0011033675038989062,-0.00041474464346073347,0.0014930060209679746,-0.0008933721858861892,0.0009325149983215224,0.00014549888059164806,0.0018248876869973699,0.00041486429956155756,-0.0003861608013747558,-3.1893359058580246e-05,-0.0001700893503522693,-8.309209978555319e-05,-0.00016499567825980208,-0.0004020721089056144,-0.00017155719945613295,0.0002118701236417922,-4.1099749420730504e-05,0.0012054789062720566,0.0003395802158217998,0.0002612206185595891,5.816511422151798e-05,0.0008940155466446399,0.001001369132232817,-0.0008348407852697415,-0.00047722766107770255,-0.0013108485294052023,0.000308101701416649,0.00048058609195782425,-0.001996655292064676
079dfa649f70cd0738758d15c40fea4649c96938,0.0004494551191747503,,,,,,,,,,,,,,,,,-0.0003228567570082762,0.00016307370989775656,-0.0003763233480530261,0.00045202622815481667,-0.00030790136403953524,0.00041503323702260834,0.0007487104120639615,-0.0001887700669687733,0.0003230059087613369,-0.00038525026711472353,-0.0015288658435776076,-0.00031485031339725843,0.0003424848754809542,-0.0005664005079681636,0.00028595810132254394,-0.0004076161033313066,0.0008251262916012484,-0.00044441485130551996,-0.0008629119458327191,0.0008185021359734322,-0.000853151146594649,0.0004385002152573924,-0.0007898408398460164,0.0006693518337717055,0.0006100133495973364,-0.0004950709592426447,-0.0010067822393862048,0.0009949553466270195,0.00010385610966292612,-0.0003207981519690274,-0.0011454655104953372,0.0017696817151358615,0.0003591942898930956,3.647451075315005e-05,-0.0003749951011482978,0.001540305960111901,0.0008548431762019741,0.0007831446486676863,-0.001522334636471218,-0.0007636270711658502,,,0.00034970290599922125,0.029272339235353752,0.004710405681774485,-0.0011366014685329634,-0.0018274754341141963,-0.003012440719590735,5.4733448054287634e-05,0.0012411492188642425,0.0048666330088797845,-0.006948028374008109,-0.001768300556540106,-7.45846040579052e-05,0.012455288811035678,0.006121454129366179,0.0012575506963776353,-0.0030819004325861148,0.027321971069684186,-0.011464002510920003,-0.009321310516327504,-0.004774601454418732,-0.01608883588672083,0.0006655868385456142,-0.009554999676538292,-0.0073161251138991815
07d1a260bc02a2b9164a5bf66822104f58942d76,-0.00040352007202332566,,,,,,,,,,,,,,,,,0.0007479246400551274,-0.0006090922877480944,0.0008168401426412837,-0.000971610351282467,0.0005446469306459544,-0.0009418463546643562,-0.0012276930922609918,0.0004927670505484613,-0.0007321513451016446,0.0004608265553561931,0.0012140042648334886,0.0005335850822323516,-0.0005230077495732576,0.0008979443103110247,-0.0004954807791804087,0.0007726324048197404,-0.001011858820665078,0.000632437802104907,0.0008785959382628334,-0.0009597122839758208,0.0006847261381023412,-0.0006232011153564399,0.0008912184360994724,-0.0006701809210548116,-0.0006667580211880108,0.0006389014771732905,0.0008032440169014727,-0.0010638065809096527,-6.236082092626633e-05,0.0004696626026355891,0.0009168954189717867,-0.0007079635449617191,-0.00046956465683065324,-0.0001676346235232518,0.0007278508360090803,-0.0008939629285021363,-0.0007659827476872924,-0.0006984927658572147,0.0005511913925522803,0.0007560638852883816,-0.0008613913539163807,0.0011690063659750745,,,,,,,,,,,,,,,,,,,,,,,,
07ef32e5eedac30fd9601e66081e37e41f6b8aa2,-0.0013703438030973918,,,,,,,,,,,,,,,,,0.0003394364621528725,-0.00020131960057244693,0.00036099730173545655,-0.00045949468110169193,0.0002851320292874978,-0.0002974450746254208,-0.0005905266576514555,8.73442735097713e-05,-0.00010359954339889945,0.0003232255383387373,0.0012964285333062987,0.00014689200124274942,-0.0002461870323422585,0.0004577442964563452,-0.0003446238861871815,0.0004004248990039041,-0.0006148786269287868,0.00021077235489891204,0.0004934365132782533,-0.0005116497362083615,0.0004495244342163369,-0.00024388628609693826,0.00045030790467850555,-0.00034805296095041403,-0.0003203759602061879,0.00023841344363893877,0.0008086282134958695,-0.0004985099973069075,2.322066676539974e-05,8.16170390714856e-05,0.0006224079364869297,-0.0010743875762820806,-0.0001812850013469256,-4.4541292817884895e-06,0.000237524549933863,-0.0006765219089277741,-0.0003954026290334795,-0.00036638065629220843,0.001046102617939321,0.00031132486318708125,,,0.0003580605542276382,-0.0010084665584959313,-0.0005990292509504737,0.00025655645945193897,-0.00039290175900142754,0.00046894288879565586,-0.00013327371822545973,0.0002270751594063999,0.0003775860618556169,-6.892719823211354e-05,0.00045507944300577263,-4.639433801598218e-05,-7.867471057307861e-05,-0.0006593277214475774,-9.902747486790177e-05,0.00021387255055802423,-0.0004021444287463661,-0.001056877613694657,0.0004865613503509937,-0.00048341332262197604,0.001333184189394691,-0.0011588117957597168,0.0002862320184449251,-0.00021537425857400802
083aa9d805a7053557891a09d6e24e657301fa2b,-0.000462114988699824,,,,,,,,,,,,,,,,,0.0014499194064606354,-0.0011866356638271494,0.0013920280248694457,-0.0015742782229168648,0.0009951633023799048,-0.0016668239288917268,-0.001931796269899953,0.0008245427749443356,-0.0012573804963173932,0.0007091230456548633,0.001249454908540093,0.0007484936627668339,-0.0006743096180192024,0.001450359571168886,-0.0008237837067068487,0.0011349675915294287,-0.0015012080410505835,0.0009973482809393086,0.001244096065619137,-0.001384992976097683,0.0008950351779613559,-0.0008660624250548914,0.001233153152181035,-0.0009052837907374173,-0.0010562696681210377,0.0009852261791419277,0.0009620357762320929,-0.0014746748314073965,-7.735061695628132e-05,0.000716014846648288,0.0011499627836977931,-0.000578212142247442,-0.0006953406199528755,-0.00027561176029617654,0.0011004480350577878,-0.0010255808247397946,-0.0010750769402226596,-0.0010311317683961967,0.0006738695359713956,0.0010194357843560068,-0.0010078631930945825,0.0011555799955623501,0.0004955564576303756,-0.00017481695994703736,-0.0008403057175054688,0.00043527180141531507,-0.0004728789150690232,0.0009028237268062109,-0.0001002433923320267,0.00012134602126698474,0.0002979612625282585,-0.00028431651589507596,0.000552705522384437,3.4972320113683225e-05,0.0008899197194362197,-0.0009074882722862182,0.0003566543734997364,4.950651906947647e-05,0.0006061773688853405,-0.0009449534047277336,0.00032781275564604934,-0.0008351956178136958,0.0005332281873706944,-0.0004115480784767945,0.0010837888835273626,-0.0004467956504473512
0881199053e24fe82162cbc4bdae863d884c36e8,-0.0007770873377350468,,,,,,,,,,,,,,,,0.00227213485326609,0.0010860210498352394,-0.0008221275004728173,0.0010721310780650707,-0.0011756153387969047,0.0007952236944507307,-0.0013149387208692496,-0.0015622639482129577,0.0006445170894963987,-0.0009665238199308467,0.0005574666874216031,0.00097763750479776,0.0006504389724482287,-0.0004819932259949382,0.0011723383302344628,-0.0005584374558612014,0.0009340782364774785,-0.0012140961323774617,0.0009231208467693959,0.001001648577886198,-0.001104432076755338,0.0007330662575383361,-0.0007274521020474445,0.0010080137796190554,-0.0007614543956378855,-0.0008705077503964918,0.0009050677852180764,0.0007969362408774041,-0.0012317592338235487,-4.544826501585008e-05,0.0005249876264074207,0.0009849771195402802,-0.0005863566514498139,-0.0005360843286814842,-0.00023136551988514324,0.0008609960181576949,-0.0009145885529508064,-0.0009290003535051723,-0.0008939114846542751,0.0004889263937061566,0.0008629137375138712,-0.0010044185893943204,0.0010272670524824432,0.0004675999475970339,0.0001502653759078106,-0.0006585148221882164,0.0005230024637448033,-0.00028759418271052776,0.0007373658927497546,3.8948623877478725e-05,7.429657920870482e-05,0.0002834467731544386,-0.0003498672606302869,0.0005847792387875432,-3.0310463002812576e-05,0.0007657446432857486,-0.0005212082733292332,7.531187142172942e-05,0.0002609815855347007,0.0005058044696769845,-0.0008138165203955424,0.0005240678525972178,-0.0008877215822115968,0.0006108292218647864,-0.000294298467267578,0.00044942629702751717,-0.0008867856930275718
08a97b45b3c0d25ebd5997844fba74aeb7a75384,-0.00046796784289179126,0.004210345166092934,-0.006902854310173116,0.004358510690655015,-0.008564405095378314,0.008975981360034857,0.0034240776315814514,0.015501751791268632,0.0003617805390881369,-0.0005924399787418013,0.0005668764971193706,0.007267254126896189,0.003524784313700761,-0.002084170130758926,-4.339347900311416e-05,-0.007319324303975111,,0.00045309734827020094,-0.0003529750068930948,0.0004556245068604545,-0.0006331968709318745,0.0003577079074770285,-0.0005670617574320338,-0.000749298387753656,0.00028397274718660936,-0.00042849982749404143,0.00023322484523045255,0.0007539745237290657,0.00026133216685516166,-0.0002762097985812419,0.0005635411484855131,-0.0003158141014800855,0.00055741761395862,-0.0006872428020559545,0.0003177779340588161,0.0005273702169306267,-0.0006035453688045375,0.0004581713078187179,-0.00040917846922235276,0.0005844411471636099,-0.00040409970350219134,-0.00042279257106510646,0.00040505371209956025,0.0005417961753750063,-0.0006782593748674443,-6.733003829181432e-05,0.000348062914566885,0.0005604840839362321,-0.00047137060296459875,-0.0002540945292378923,-0.00012837590653745788,0.0005459362273907851,-0.0005448058237940501,-0.0006485908783251861,-0.000486934805171575,4.904671220263147e-05,0.0006404074607403915,-0.0009760007908832009,0.001166017124470587,0.002141512767146434,0.015938529215931526,-0.0012872441062946615,0.0016923679786465156,-0.0016522135858671324,0.006411406372230921,-0.00020907582032201385,0.0004444660809720903,-0.0018400671113841058,-0.00521078735140444,0.0029012727344397624,-0.00020267817351052645,0.020178453069258914,-0.001786359196253579,0.004831500033894685,-0.004405736945582772,0.011239273922550155,-0.006180201236928621,-0.002468119136106747,-0.014888796917120877,0.005084322123376027,0.006271745702283869,0.006471116546614445,-0.01329832871445973
08e1a76c26a5fc7aa62201e469074e28dc825307,-0.0011238359398155627,,,,,,,,,,,,,,,,0.00042931817020984376,-0.0002638758172726569,0.00058214652715006,-0.0005640824027826567,0.0005037655656207202,-0.0005282407366509357,0.0010441975524124077,0.0008766412005611485,-0.0008794861577766603,0.001055187640729087,5.010447178900373e-05,0.0022694016111266414,-0.000650025645803735,0.00020222857247898917,-0.0007671616612896892,0.00041803467969899236,-0.0005647496623437674,0.000767498292613052,-0.0006895264116362808,-0.0006160168650141051,0.0008133923948321718,7.843693017975774e-05,0.000580084074482718,-0.000767558958114852,0.00033206142434159987,0.00061192054131976,-0.0008686050606138522,0.001261042147472512,0.0010098902387048175,7.749319954609686e-05,-0.001064065706645908,0.0001473406192333813,-0.0033681432341005606,0.0006937725118441023,0.000741845104989309,-0.0017190701847190452,0.00013479202248808594,0.0012466482585804378,0.000875486811125977,0.002038903629368016,-0.0017944430963618939,0.0034070770191143482,-0.005477081142682975,-0.0006318377858956926,-0.033885101577199254,-0.004752964454255074,0.0011100074631342823,0.0023476439274854512,0.0007960596219180925,0.00044896087093138646,-0.001478834491590681,-0.002279081327290191,0.005076532820805012,8.7300950806413e-05,0.0001333861504739641,-0.009985658448636107,-0.0016802893361451748,-0.00142118444392027,0.0033745078916568197,-0.011898526441172074,0.004983184016380345,0.004066546460879863,0.0033938459543971537,0.0026921874573460364,-0.0005863830186213506,0.0019257209513411663,0.0035405742880962503
08f4782f87b4f2809cdca15e7a6f356a200b05a4,-0.0004900886452633314,,,,,,,,,,,,,,,,,0.0005973899594395319,-0.00035968281048082986,0.0006494854712213761,-0.0007018787974401339,0.0005034567786112508,-0.0008076560242583977,-0.0010576797651911302,0.0004076741985738106,-0.0005801552435951984,0.00042690147496148446,0.0009473494938762224,0.00039331212950957596,-0.00038516808946321653,0.000704180089315733,-0.0003543845601130301,0.0006868628881010692,-0.0008537017900632127,0.0004307164180713277,0.000744701019159663,-0.0008699755701182088,0.0006376167168379548,-0.0005198134584867174,0.0007654944650825892,-0.000542961141838016,-0.0005975629135934917,0.0005440262022616456,0.0007358103322734292,-0.001007167480144129,-3.595630678271995e-05,0.0004303480935052861,0.0008211402272237334,-0.0006617593766471176,-0.0004754673276819914,-0.00014753574586652687,0.0005826663124921042,-0.0006883767249555697,-0.0006483511934607406,-0.0007088834192850439,0.00042309063971980126,0.0006308721185649749,-0.0006725222187689196,0.0009409401602931849,,,,,,,,,,,,,,,,,,,,,,,,
0909b6e4b5a72c8a2c256e9bcdfe1e90e6b04418,-0.003009120347952473,0.00420721109497862,-0.005460800728353534,0.00606578374606484,-0.005698259444859549,0.007796890612253277,-0.0014342372842416507,0.006861308807079677,0.0006488236030108771,0.0010108840489798515,-0.0004751410978844721,0.0072063925023582165,-0.0009402182168334848,0.0008232220868925975,0.0005942095448324448,-0.005827036050088261,0.00416926530049906,0.0021046925928815533,-0.0016175847646243684,0.0017456365234192876,-0.0019407965698612552,0.0011944158726862612,-0.0018722761254882554,-0.002320666493967184,0.0008787836306004948,-0.0014149041888619964,0.000903097047420203,0.002069005673207341,0.0008518118248202684,-0.000814830816952388,0.001683374314160462,-0.0009383994065585628,0.0013240400504478948,-0.001710696651705018,0.001003242155798237,0.0015003096885831497,-0.0015701492931066057,0.0011265925719612115,-0.0010114000990684385,0.0014268996071965046,-0.0011087190390900738,-0.0011165257354137299,0.001066475608082952,0.0013056523605014785,-0.0016889257686849256,-9.096671706289614e-05,0.0007326530889378933,0.001414719696383061,-0.0009592728483357323,-0.0007058734780652692,-0.00022668772435595292,0.0011517635903737322,-0.0012751861258961626,-0.0012345372619880978,-0.00114765061439128,0.000928130074885894,0.0010271258485718834,-0.002644486412030021,0.0030268598332086507,0.0014476950918627784,-0.00041555429576660516,-0.0022400305897220317,0.001323398592627681,-0.0012574204516077703,0.001686074922320744,-0.0006327232547119427,0.00014083304184134147,0.0006053812859169085,-0.0007924705306294531,0.0015680521667525587,-5.182264495028798e-05,0.0017141631729271486,-0.0020915634337637895,0.000493690800437802,-2.2290396806783265e-05,0.0007458745711595965,-0.002427604101858293,0.0015934254275375395,-0.0018193947050213536,0.0013177065523610788,-0.0009467823430606784,0.0014789309247917784,-0.000983471893025632
0932041a2a181156882276c17268f4909168c13a,-0.0004951151285349873,,,,,,,,,,,,,,,,,0.0001022771047818712,-7.307605756258545e-05,0.00013303486739335197,-0.00014038310885710053,8.92306743959202e-05,-0.00017072247589976995,-0.00024250353267805122,7.421961537017912e-05,-0.00010139737566249531,7.743002988138901e-05,0.00023149200832366332,7.773975207565315e-05,-7.71714613886912e-05,0.0001934205958214722,-0.00011531100593718197,0.00017563111682034912,-0.00022371388297691864,0.0001167459854169244,0.00018498003594433562,-0.00020661432315483485,0.00013825333283951657,-0.00012771477106872787,0.0001764773274958381,-0.00014551272079611218,-0.00014117612441315883,0.00018424132428069683,0.00021569510180671818,-0.00022031777834013132,-2.3654610868199667e-05,8.006607115793605e-05,0.00021066131040409816,-0.00016821967070222883,-6.478093945531949e-05,-4.895385360182276e-05,0.00017928740018554386,-0.00017840736238211748,-0.0001861131750937868,-0.0001709400392026024,0.00012141899153184957,0.0001576935995703661,,,,,,,,,,,,,,,,,,,,,,,,,,
0a744f13d431cf2358569332c293d8947f8cd7fa,-0.00020163955679079604,,,,,,,,,,,,,,,,,0.0008080146990589912,-0.0005741238015540955,0.0008803005775772214,-0.0009547009229001447,0.0006333874287472467,-0.0011041339720745088,-0.0013303228154690205,0.000575401330998124,-0.0008021399566904507,0.000474959449069641,0.0008297064032570826,0.0006426499942687441,-0.0004712903319944329,0.0009667416332310526,-0.0004416412349566702,0.0008541602326340667,-0.0010796273381747062,0.0008563499415307197,0.0008674281469023529,-0.000986007433019159,0.0006742154197519146,-0.0006269552750827456,0.0009120779930126572,-0.0006875830245053515,-0.0007602664158681214,0.0008165595194364505,0.0007339491036587025,-0.0011833442245048303,-2.238394025637972e-05,0.0005367149709806813,0.0008768704098157145,-0.0005311897340911604,-0.0005384340827289034,-0.00016297884193777355,0.0008092972521344716,-0.0008219619723080337,-0.0008064258320016997,-0.000771968420516916,0.0004310685869524744,0.000793604405866784,-0.0005612243452575164,0.0007389086077134733,,,,,,,,,,,,,,,,,,,,,,,,
0acfb4c3dfc4759d8dad08b528fc6c596501a745,-0.00045258485470557803,,,,,,,,,,,,,,,,,0.0001709737612708589,-8.975568915815869e-05,0.0001766620912674983,-0.00022036503871267435,0.00017657088076009425,-0.00013009921619002059,-0.0002966171535715057,7.429294671819689e-05,-0.00010204181665179088,0.0001582499052439622,0.0006048069225337556,0.0001609470409891583,-0.00010909463945122237,0.00022595730407795253,-0.0001527500324146384,0.00020563202221219343,-0.0002960356011309282,0.00014153603448919898,0.00025774235205853395,-0.00032910259510968783,0.00018465525167959919,-0.0001670600755804652,0.000262866005200108,-0.0002199226030164781,-0.00019301204472570404,0.00012097973938651795,0.00035959627951011124,-0.00034668656886833885,1.7304912033327139e-06,3.4645170595159775e-05,0.000449281221755959,-0.0006399478706962205,-3.6610289387553705e-05,1.0411097829677918e-05,0.0001228742456607834,-0.00038627924540299025,-0.00018001720992196456,-0.00014235562704050008,0.00047854235282403636,0.0001516338141550682,,,,,,,,,,,,,,,,,,,,,,,,,,
0bc9930a31dd7573aef4edc74c42e42e24b024f9,-0.0020213686343968276,0.012185793011650086,-0.010940109069094919,0.01186628678954138,-0.009230335817181079,0.0125711026706746,-0.0016869511074997811,0.012830123363524376,0.0023782246145004765,0.001022349248131077,-0.0005657308804499139,0.010614623116478483,-0.0018641333493868567,0.00039565139505076154,0.0005406638978984989,-0.009776751339612332,0.0018200911278066628,0.003138319500199812,-0.0025816756764482666,0.002280076699073808,-0.0025200657896140982,0.001594691048592091,-0.0022406816227865303,-0.002768566841434573,0.0011412591060494023,-0.0016370758207411018,0.0009668459017565513,0.002147949487407,0.0009896033870499315,-0.0008104202831721659,0.0019735244593214398,-0.0012309269797274797,0.0014875447439183487,-0.0019595176531783448,0.0011957175902691988,0.001577550450914778,-0.001770636411836161,0.0011333555253319493,-0.0011998494480639993,0.0016036248912801479,-0.0011297188407916833,-0.0012281747963276855,0.0011741737620877615,0.0013207793848753141,-0.0017712363518978683,-0.00011862808178017472,0.0006666262171430917,0.0014743377204479542,-0.0010351184359124205,-0.0006749479374458913,-0.00041062867200667645,0.0011630108403582725,-0.0013630924187672056,-0.0012364588375790991,-0.001283782222490792,0.0011322186936441412,0.0011173561146024264,-0.005606635910379136,0.005200329623088899,0.0017311793989814512,-0.02293405749815066,-0.0057037452477053975,0.002205066749855467,-0.0006420332900663568,0.0029231671877981073,-0.0012686713267355443,0.00027757940289018044,-0.001372490056649368,0.0020368167146356596,0.0027129364929944695,-0.00010648866990030224,-0.0031168262283737948,-0.003928852096016505,-0.00011754592594861372,0.0012466174716046423,-0.006324900490342721,2.714149602231746e-05,0.003335770222279231,-0.0005160999677332615,0.0036592662856857255,-0.001887578225880004,0.0021525185526142677,0.0005821891145733951
0bcba1117e79e3c9b814a462cc8d580cad808b15,-0.0004606191529286956,,,,,,,,,,,,,,,,,0.00012038553502518168,-6.782954250623784e-05,8.205572184522914e-05,-0.00011872335039348424,-4.577662738010227e-05,3.197235081280503e-05,-9.084048449990977e-05,-4.5983186356942664e-05,2.5550805062641386e-05,9.277508287438679e-05,0.0007714082525781547,9.772841014642382e-07,-1.7864115949437149e-06,0.00014268820350292412,-0.00013074420044984143,5.5727755334782775e-05,-0.00014343821582305958,4.2150807093927845e-05,0.0001427928448551356,-0.00010243305924115135,0.00011018749334992513,-0.00012096446280571713,0.0001217515977033944,-0.00018668495260063564,-2.3338413363105815e-05,1.0305316655822823e-05,0.0005718394505300189,-8.66463310696358e-06,-2.6682929773962723e-05,-0.00021122614769238058,0.0002841087678507818,-0.0006370834963996296,2.6496712437679257e-05,7.607456307751753e-05,-8.02844796923063e-05,-0.00027098760961439877,-9.403522628946212e-05,-0.0001438432219040436,0.00038565915316705435,1.1116654947032623e-05,,,0.0003169163366977285,-0.0006431004530175563,-0.0005273322746121862,0.000272312832715782,-0.000501476475168822,0.00035621972309649117,-0.0003221444526677154,-2.3418377353035197e-05,0.0003744622309226461,-2.699778764590462e-05,0.00039722946167722296,7.342329751568023e-05,0.00010730734584441296,-0.0010143081552793551,5.434026692714949e-05,-8.266101716825788e-05,0.00013705773768714824,-0.0006354740881157998,0.0005095471735936712,-0.0004198498285585032,0.0002546162725254446,-0.0005926293715341808,0.000373926558380005,-0.0006267913315283426
0c5f5228e7bcce496360f885645c5a4805097f08,-0.0009121572451994136,,,,,,,,,,,,,,,,,0.0011252114890269785,-0.0007604385881637391,0.0011006606111734207,-0.0012257545924848536,0.0008027829615782638,-0.0012388956073753352,-0.0015472184296469141,0.000637992774931573,-0.0009812711626703138,0.0006225104271263121,0.001280949008683252,0.0005258812365969475,-0.0005440059556987324,0.0011020106916642867,-0.0005444255140142905,0.0009871063313069202,-0.001208937068278326,0.0006863450811859095,0.0010699642951183328,-0.0011547377498651646,0.000800630990913844,-0.0007036618551927096,0.0010949280120737552,-0.0007919882287662016,-0.0008243415572498409,0.0007776029975646466,0.0009095989763850856,-0.0013091599337761361,-3.7140392152706805e-05,0.0005644320480752314,0.0010601928931123971,-0.0007509919634201368,-0.000606574675532461,-0.00018628681060759957,0.000816467285257888,-0.0010139153617221854,-0.0009346268936667925,-0.0008790074756733063,0.0008289495325839824,0.0008902116272384038,-0.0016258112985626807,0.001399416395073487,0.0005579962973669477,-0.001063722682337065,-0.0008427699356188803,0.0005904742857390133,-0.0008865306719248807,0.0005635918754280285,-0.0002668182767760226,9.02926514519428e-05,0.0006770935565529391,-0.00039599012917990693,0.0007192554995178488,-1.2711743518651887e-05,0.00027586724910728293,-0.0008116172466451073,-0.00011638199769797451,-0.00019444438213673377,-0.00014418792465002738,-0.0010752791631949941,0.0006208750989588729,-0.0008283432622342491,0.0005807147146923476,-0.0009717813652713599,0.0005457604581160387,-0.0005830554984140573
0cba285a8b51caa35c8f8236a842f12e3efaf039,2.6143730899876226e-05,,,,,,,,,,,,,,,,,0.0007172901174622486,-0.0005432871041534562,0.0008023784288019141,-0.0008625463932813816,0.0005977543482344493,-0.0010341935418250365,-0.0012115904237538068,0.0005553889651438329,-0.0007850118395120709,0.0004168944326484874,0.0005294007129120508,0.0005552817779814561,-0.00039230090683102433,0.0009405612450134378,-0.0004548740737751393,0.0007199407758758661,-0.0010046161489374382,0.0008746470327711442,0.0007806905874237603,-0.0008850775134737775,0.0005350491265576933,-0.0005767371339368541,0.0007870640422043191,-0.0006466603173935534,-0.0007633043913513819,0.0007891529357353211,0.0005997672691250396,-0.0010454128841494846,-2.4854338610439563e-05,0.00044161176665051007,0.0007601111912603669,-0.00027473522924453895,-0.0005624546220555036,-0.00017228472866413205,0.0007945165943028247,-0.0007144775430327735,-0.0007417604493269517,-0.0007215399866981351,0.00036589573956673346,0.0007525112425355956,-0.0005453788580576277,0.00058531682027907,,,,,,,,,,,,,,,,,,,,,,,,
0cf1b62e70956fdc84fd0fa8f835c15848746a95,0.00028478869191784454,,,,,,,,,,,,,,,,,0.0009733255081977106,-0.0011240121962279432,0.0010555441094111558,-0.0010937192147224151,0.0007261699840399273,-0.0014802725825232973,-0.0015000280822539203,0.0008366010494915248,-0.0012103511714797888,0.0004816727466788272,6.401895930342391e-05,0.00048080107170491446,-0.00037127336565904133,0.0012871451660676145,-0.0007732512853231493,0.0008230012110216694,-0.001222683445105298,0.0009885322876260583,0.000919934410139336,-0.0010651605420432632,0.0004514725214202265,-0.0008471074132367339,0.0009859851043179108,-0.0007740659696730905,-0.0009388691459958926,0.0009048419759623647,0.0002936658261619026,-0.0012995406058382993,-4.365267650200824e-05,0.0005774358473242345,0.000822926687734914,0.00017051263638467266,-0.0005702449663660195,-0.00039467110485546435,0.0012016178251094134,-0.0006627555033856753,-0.0009693477399823434,-0.0010310949111633084,0.00044062258385715836,0.0008329551509916443,-0.0008120045735185277,0.0013039418757873629,,,,,,,,,,,,,,,,,,,,,,,,
