story,Politics_0,Politics_1,Politics_2,Politics_3,Politics_4,Politics_5,Politics_6,Politics_7,Politics_8,Politics_9,Politics_10,Politics_11,Politics_12,Politics_13,Politics_pca_1d,Politics_pca_2d,Russia_0,Russia_1,Russia_2,Russia_3,Russia_4,Russia_5,Russia_6,Russia_7,Russia_8,Russia_pca_1d,Russia_pca_2d,Public services_0,Public services_1,Public services_2,Public services_3,Public services_4,Public services_5,Public services_pca_1d,Public services_pca_2d,Crime_0,Crime_1,Crime_2,Crime_3,Crime_4,Crime_5,Crime_6,Crime_7,Crime_8,Crime_pca_1d,Crime_pca_2d,Crypto/net_0,Crypto/net_1,Crypto/net_2,Crypto/net_pca_1d,Crypto/net_pca_2d,Inflation_0,Inflation_1,Inflation_2,Inflation_pca_1d,Inflation_pca_2d
20minutos,0.010670075719759,0.6499902094995,-0.1402457382036586,0.0861100725443447,-0.0916757100917577,-0.0334401089090004,-0.0495820169894239,-0.0678936274660988,-0.0142143269728478,0.0743745419136141,0.9167707273572826,1.066138103947832,-0.1512651927062056,0.1354337849929524,-0.07662693530087292,-0.824563040906737,-0.0434155887358375,0.5027952561566162,-0.214592160235752,-0.2537824947188769,-0.0204456204368223,0.0451773788494963,0.3376304573055584,0.3088379773634603,0.1631336565929961,0.9612314038391946,-0.19325266399776161,-0.6611494171606966,0.177534924073454,-0.3056178186098663,-0.033260393883121,0.3304160676112014,-0.6209762803361426,0.5328995810419677,1.1722381161803193,0.1161786607105727,0.094921927346435,-0.1591647969620972,0.1227555355289942,0.5750991684255751,0.2927389442798564,-0.0589478865518246,-0.0287498414257591,-0.0999066634595456,-0.5894373413177368,-0.00012571143237348205,,,,,,,,,,
antena3,-0.0108250246603225,0.2389139375648622,-0.1024355615426687,0.1996797159107837,-0.1687857322361655,-0.080719400067517,-0.2547610372187083,-0.0491430182122216,-0.0271063791751314,0.1741847870174757,0.2124239313968199,-0.2462640155814565,-0.1874884008603243,0.0054639466985976,0.5852522908767995,-0.40322783399660894,,,,,,,,,,,,,,,,,,,,-0.0212282629574902,-0.0634309900650483,-0.2247287839539995,0.00273113237691,-0.1155443685406281,0.0201879968413066,0.1458996730423557,0.0933637253399064,0.099146527411428,-0.5691642677818738,-0.17119633418255903,,,,,,,,,,
cadenaser,-0.0221902102007867,-0.0018065009633373,-0.0016661571207106,-0.178344329942141,-0.0412702511309872,0.0432907214598277,-0.1267070499389203,-0.0467005896782922,0.0324425038920652,0.0333807184417989,0.0372377746912831,-0.0712430347364532,-0.0083107757015945,0.0614353242023549,-0.13986438421461483,-0.6649473377151676,0.2016581293366501,0.6605193727533085,0.285893527034174,-0.6441256384912728,-0.0802200795628838,-0.021020558460523,0.1346557637222853,1.3877525814494427,-0.7594231433902137,3.7210430648988675,-3.4353459620645115,0.2655960766069074,0.0079462960811203,-0.0135092415989478,-0.0154764714337988,-0.1059213214493077,0.0351167188798137,0.31545966158707556,-0.3840709304318524,0.18471913805257,0.1612162234108278,-0.3181967051933794,0.0207000598409066,-0.038189842109184,-0.1000739975827519,0.1517245407769369,0.0032854237246876,-0.2120163754975065,-0.5366597702537863,-0.8274440274821079,,,,,,,,,,
catalunyapress,-0.0456203383472086,-0.0016048229724938,-0.0182875012158392,0.0546150253981239,0.0514667913423511,-0.1344457123062225,-0.1048545689674361,0.0840915597587778,-0.0711816998746432,0.0754594376395517,-0.0438886761206917,0.054462605290535,-0.2298255779432921,0.0086555449938293,-0.05571790686869352,-0.3534370412670306,,,,,,,,,,,,,,,,,,,,-0.0699930978343401,-0.4790841503478361,-0.1368898266263289,0.7059411221180334,0.1836023632282837,-0.1523048536215285,-0.272175920681014,-0.0444319182802933,0.2435166016094384,-0.03200881094476298,-0.6420844017993363,,,,,,,,,,
eldiario,-0.0075269040907342,-0.0098532793489593,0.0157978038840994,-0.2824616375238861,-0.0327903177363438,0.0603204181616658,-0.0310239487354687,-0.0197763664330849,0.001104765428075,-0.0390372454900153,-0.0205476718292362,0.0205975041198777,0.0027339305647823,-0.0228803073030354,-0.493454108363963,-0.6692637389602493,-0.0273435201092254,0.3399843050374453,-0.0573345038942187,0.1084094655434343,-0.0816698067392752,0.2769884539701292,-0.0109550260665941,0.2493400260779102,-0.2500905892165497,0.5679530057918135,-1.1474162254411355,0.1434176259013714,0.0081066822442529,-0.0054738011571575,-0.0211400218199294,0.0187925488529712,-0.0527902332870611,0.34601925796555577,-0.016908678198513594,0.6141829616273223,0.0744306087678283,-0.1286729306636352,0.0268852430559458,-0.2040199832732884,-0.0498900986277316,0.0778429144162276,0.0474379934921938,0.1407572175826915,-0.6836146627700477,-0.6630590165154642,,,,,,-0.3678212800286553,-0.24000080724585,0.050695108397908,-0.5659814656015194,-0.41022684899813905
elespanol,-0.0056653296177209,0.3930168428506115,-0.083022351340244,0.0881556535748609,-0.0741111383614895,-0.0148729833911654,-0.1129731463141636,0.0174867594095404,0.0672254613952802,0.1174878216577487,0.1931206024987712,-0.2177620174016589,-0.0409423208686108,-0.1439480473991718,0.4325707466936525,-0.123661794959526,-0.0509698017164321,0.5735894840657314,-0.4729314912188501,0.1328428462982675,0.0361370982930673,0.2832084679646229,-0.7641508319726833,-0.0676874902073895,0.4862045755508406,-1.1003314433324483,0.5749654172756283,0.0842197341130305,0.5881700824909974,-0.6908684605639108,0.3239485431693286,-1.1537571181479147,-0.2104741093789969,0.8269415891304782,-2.4990285295850323,-0.3741201462980403,-0.284775209892092,0.2302471376671202,0.1084011727442712,0.1001747124387178,-0.1387323640185679,-0.1201114488815002,-0.1064044143978725,0.1550419828161766,0.44373017589106806,-0.2793417057277225,,,,,,,,,,
elmundo,0.0016458001899728,0.5890939641930597,-0.112821505509549,0.1857447288016963,-0.0827463120612596,-0.1860760343952965,-0.1400377202463421,-0.1411737141456095,-0.0448791104712294,0.1087664291013428,0.2360600374562435,-0.1432584942861995,0.1163306844216795,-0.0543229510263838,0.7614259409915075,-0.3246808054235342,0.1092697009457289,0.4366029895814972,-0.0818712015197003,0.0165322228982683,-0.2084080813911805,-0.1793420520167485,0.0906506280123949,-0.1162650562036293,0.0071064975878505,0.7874350605440374,0.27959891145691906,0.0661345197130073,1.3252073454021684,-0.8285102198086183,-1.2577831630706553,0.3638876913725298,1.5883657075448756,-5.58306337053353,-0.2585708133805049,-0.5346578006275908,-0.0835947018982996,0.3076342839451375,-0.3447452554668336,-0.2760722542401527,-0.0845825064660196,-0.2634306408733863,0.182446158912222,0.0300212739362485,0.12523176272279413,0.5629167456262034,,,,,,,,,,
elpais,-0.0192155227370074,0.0929575743991054,-0.0217781107517498,-0.1385058089566194,-0.1188294792140905,0.064779944501705,-0.1201836932890629,-0.0169005526493641,0.0335133043954348,0.0047141513826069,0.0752873676195069,-0.1936346293793636,-0.0531643880077367,-0.08336836030726,-0.13601730058141553,-0.46522676819109965,0.0028906825487027,0.175615890402779,0.1529411121062084,-0.271458747063262,0.2048026560521347,0.1766684831871451,0.1372347057768758,-0.0880846524088441,-0.0293806151313205,0.027133884301443353,0.33868414579096023,0.1196675583169077,0.354542988696205,-0.3540021131067284,-0.2184708571095914,0.0036094811713917,0.1179309990038151,-0.7066740314258363,-0.3962073669908371,0.2698163668414683,0.0783690997019727,-0.1807729870627699,0.3521088874601976,-0.4583640200919606,0.0928499908823727,-0.2114169829672356,0.0391204182533641,-0.1196368744293565,-0.21070391237476216,-0.5688221662576429,0.0166765849288495,0.0388826144513735,-0.0422326994781823,0.005440753977262662,-0.4204120781580904,0.6572143169457603,-0.3911993809490005,-0.5058350679339428,0.21922035655472813,-1.0399290265688936
epe,-0.0114949808123389,0.1992112646837578,0.1374604914380545,-0.1959003405506612,-0.0509518942753477,0.0155701096288924,-0.0201823150944855,-0.0144402418855532,0.0615829137697411,-0.0197491283350131,-0.0736357442167801,0.0459962774030694,-0.0345329729692772,-0.0379752418392307,-0.2381503600125521,-0.5614455127511382,,,,,,,,,,,,-0.2646818284876079,-0.0630807605092128,-0.015242355192082,-0.1124859891296207,0.0768692105100806,0.0159183301374246,0.18476016401403664,0.5468632915331069,-0.1557157369714067,0.4578403224483084,0.1439262405421938,-0.1175353944880688,0.1605757178177959,-0.6654363660948325,-0.8583135154585191,0.3237316608184547,-0.2582813993466697,-0.0661665079009294,0.4153349617372404,,,,,,,,,,
europapress,0.00955285412398,0.874475460764226,-0.1434600643250546,0.1138994130173465,0.1003480320560787,-0.1634629271891477,-0.0048367204667549,0.0344167656040351,-0.1627843188394948,0.0308351889557457,-0.3189689559582582,0.0277283858678662,-0.3843603454549782,0.0077482843083833,0.543490129102758,0.19608742820721112,-0.3302817632739904,-0.1161444098717594,-0.0346728355508147,0.175469553099332,0.4457107861175898,-0.1130240177138927,-0.0508231077938267,0.1404455352908788,0.0775648127467529,-0.32343071355104536,1.0878247184552694,-0.2704699124759822,0.3193631025429178,-0.360079559230397,-0.0737000714590922,-0.2009575085018614,-0.6273806970839123,0.6410085669821152,-0.21622355665721527,-0.1975287140038278,0.1007764327327934,-0.2360724757131844,-0.0218420620959725,0.1258366527185294,0.0939802884918308,0.1322086227737448,-0.037719361576072,0.0791335721736674,-0.4334501427204256,0.07538882358304569,,,,,,,,,,
lavanguardia,-0.0184299141289563,0.3448101742188206,-0.0529579567852762,-0.0259560631173788,-0.0687361129898872,-0.0296450115436253,-0.0166480370998924,-0.011322810831135,-0.0006763631358249,-0.0605110284649761,-0.0155997370610431,-0.1201633433424044,-0.12508843261298,0.0108486526170035,-0.07134670753726549,-0.09677880763129339,-0.1906120802199438,0.3718437085121377,-0.4807354306951434,0.5013661441912438,-0.0156338978834397,0.3145888828641117,-0.7278336260707006,-0.089663371297842,-0.5210149252789449,-0.2966458349504074,-0.8064344708427642,0.0649841917743316,0.5862800242512907,-0.1375406914976791,-0.0505767683881791,-0.3676693197637806,-0.1388712758040816,-0.002091272073133943,-0.5444955720616496,-0.1958101367536007,-0.0901563500693971,-0.1924112825819019,0.0426565548851169,0.0622340581052065,-0.3156534134067462,-0.0263782453845479,0.2399002972318918,-0.1310775670256371,-0.3549558352995936,-0.3290464132752802,,,,,,,,,,
lavozdegalicia,0.035868051923941,1.0028707037054174,-0.1637356944432802,0.0371386762141696,0.0852110297424967,-0.1078893147712573,0.3609812463691924,0.1405913907386041,-0.2739329820745786,-0.1500703666622481,-0.4469225917673751,0.6244100016413526,-0.2391409294363215,-0.0609964247482374,-0.33660480352215943,0.3372227020557197,,,,,,,,,,,,,,,,,,,,-0.4762230412638469,-0.2671665799687984,0.0781089993081575,-0.0700710769112847,-0.0222919916256109,0.164464303497193,0.1399898690801568,-0.3728021093569117,0.3409218414483369,0.07721734263841727,-0.21525715809196694,,,,,,,,,,
levante-emv,0.0128880389013335,0.0711634450633159,0.0027401517125477,-0.2684228907797974,-0.1070808478689748,0.0452737650282797,-0.0260812163719604,-0.0026461594118367,-0.0604747046263829,-0.0612999676515407,0.1773289556321909,-0.071328267982899,0.0946183421944539,0.0767184794010627,-0.6263771933895059,-0.4322672540153054,,,,,,,,,,,,,,,,,,,,-0.0764562812653566,0.0896755389094237,-0.1592604851927129,-0.1821846635430495,0.2950480398701623,-0.4917855247858348,0.1757561455441899,-0.1958893750108724,0.1044461997357497,-0.342636901895287,-0.8559736125730499,,,,,,,,,,
abc,0.0173491693850338,0.6283927970850653,-0.1661477532722308,0.2369647799134211,-0.0875787624889611,-0.0708176950135826,-0.2290450331764751,-0.0342724912049454,-0.0120773857071049,0.1505647386109995,0.5912944619015805,-0.4570434405056747,0.1028397662896281,-0.1421928581247836,0.9066807393143385,0.24165680074220144,0.0756487769913017,0.4851965455216298,-0.0909048938286704,-0.1400969697431798,0.0703136029823883,-0.0289169818649435,-0.1469485170822037,-0.0540404653456984,-0.4352898940123337,1.0341727117368047,-0.11808347277085139,,,,,,,,,-0.4122063194857683,-0.1616032255029704,-0.0150136672012198,0.057421299634806,-0.4156734004229576,0.4274122783308285,-0.0588585748122783,-0.4561919354065112,-0.119696671485066,0.11323936620218034,-0.7041086659070063,,,,,,,,,,
elnacional,-0.0303436421442511,0.1964444540890274,-0.0127968436260912,-0.0051846027524351,-0.0602910616546718,-0.0582553645876088,0.3955039553285456,0.642229369759685,-0.2760922697898714,-0.7223231988156236,0.3280800853178975,-0.1716724101817362,-0.0879772347986887,0.0857541804353745,-2.518204501546098,2.493339552936216,,,,,,,,,,,,,,,,,,,,0.1008844557227118,0.3983181119873112,0.1217257190696551,-0.3729063307549366,0.0180692649869393,-0.1119941331470577,-0.4331499279168391,-0.4174351791385972,-0.4318251657111913,-0.28378801580538304,-1.038330715551548,,,,,,,,,,
elperiodico,-0.0050441464843463,0.2771919984928912,-0.0127218793322089,-0.1067506520398395,-0.1384971856795969,0.0156331163076352,0.107411355922784,0.1892091762547484,-0.1289341006550038,-0.2065787526439313,0.0350723998309743,-0.0460146376737613,0.01768518607525,0.0298236637294864,-0.9045762192921625,0.38711212287430385,-0.1299933299197449,0.127920185888442,-0.019224608521205,0.0185356241195224,0.1446123984244764,-0.1116137978749075,0.0065449052151234,0.1597236061854017,0.0019030770840294,0.34917313177271825,0.3402180912772138,,,,,,,,,-0.3091247114669839,0.3197304173817063,-0.1463665032875844,-0.3807729805325994,0.1201506063036846,-0.1020468786925457,-0.1132645886300885,-0.6147127636069377,-0.3288245022338924,-0.3718355125170073,-1.1462426359441227,,,,,,,,,,
heraldo,0.0236863887276444,0.5736299839663415,-0.0977904669646151,-0.2874213749177081,-0.0707660282856347,-0.0399799422832188,0.0523401054944378,-0.0469223399668549,-0.135943518483792,-0.2076333754487864,0.0779523922093261,0.2958549546196279,0.038645467497108,0.1083068731891293,-0.6579963202708544,-0.35880000352282476,,,,,,,,,,,,,,,,,,,,-0.3743991690116593,-0.0898864858850011,0.0482463813924991,-0.0449021116361375,0.35498730360446,0.6778825142836831,0.2592952903291144,-0.0498068350055571,-0.3680482971087661,0.10623257450108056,0.08291425592574458,,,,,,,,,,
lavozdeasturias,0.0123683876739695,0.5138408615859371,-0.0344373719377179,-0.2335174949772628,-0.0337010683335922,0.026429639546856,0.0519119555528771,-0.1008247855478391,-0.2582686670065828,0.1477898452623547,0.1708277672498637,0.4795256725951601,0.5912498866536594,-0.3348094638701688,0.07701660391733878,-1.1096033773641951,,,,,,,,,,,,,,,,,,,,-0.431944987094072,0.9594514884099816,-0.3920421244459405,-0.5251632956491349,-0.0149556884927245,0.570117842823549,-0.3814218112439396,0.643342338335823,1.2136480044959024,-1.8728345983075523,4.8507746688185405,,,,,,,,,,
publico,-0.041263644291057,-0.1844752347686457,0.0317798521047233,-0.1597744994596778,-0.0066257702727424,0.0504699216081507,-0.0224110619175017,0.0196176657880203,0.0637353217908988,0.0198306417598803,-0.00652740373311,0.0164080020663417,0.0278965511753461,0.0401339569021138,-0.40343958918955614,-0.593831161979697,-0.4482669210419784,-0.3045322948250955,-0.1777087336717949,0.623480512523021,0.0226388117086095,0.3415830976110165,0.5259505519787817,0.0118146243915273,-0.1506160753857912,-0.6679889914392778,-0.39909392834647667,-0.0056656477280228,-0.2274850763102308,0.1663578404436469,-0.0617005920282691,-0.0192090330612188,-0.0136526566142701,0.6227810203734617,0.25921567578150884,0.7088902077079197,0.2587579809512918,0.0586694768166765,-0.2885088476454009,0.1274770566361731,-0.0720113509693869,0.0405415322852352,-0.3552084048108161,0.3137129081282173,-0.7464486383570752,-0.810921740330875,,,,,,-0.2255214905528949,-0.412462608947814,-0.1073741242478213,-0.3522335568106151,-0.9890910472946605
vozpopuli,0.0327284906881052,1.0223076502723734,-0.2088893409335484,0.4943113949885392,0.203415091456484,-0.1090055936215481,0.4076596417789155,0.0366003101409233,2.3619320666734644,-0.4942927316033773,-0.13049845194475,0.1177834851565033,0.0688927797585377,-0.0003884569460714,0.8621641582825682,1.1612388054251166,,,,,,,,,,,,,,,,,,,,-0.460511953611064,1.383191738013343,1.1705382109310358,0.95179870852891,-0.0931865087999265,-0.2085865646858513,0.6152166598993615,-0.0598235497654144,0.0709898613731446,5.986444100971409,1.054008445669722,,,,,,,,,,
elconfidencial,-0.0052621036829734,0.502372751111784,-0.0945562607773682,0.057887762750667,-0.0185614470397863,-0.0814030703179456,-0.0511564523322393,-0.0510233638234264,-0.0479295897427605,-0.0310099575894317,-0.0427969660245809,0.0234437018345458,-0.1902651498892523,-0.0562370663567961,0.2529474797177147,-0.1917381130761281,-0.0775216810599636,0.3144795591895686,-0.1601205330488871,0.2952977178656786,-0.0130713321769706,0.0841022666698928,0.0965667768827501,-0.0241206202466671,-0.2835540558935414,0.5386144055358452,-0.1927948154542161,-0.5587521551076782,0.0293736948905175,-0.3833347148661006,-0.2598563653001125,0.5294110563016337,-0.1336689110721196,-0.43841000375125905,1.176118206047214,,,,,,,,,,,,,,,,,0.8881750090063951,0.010008076674918,-0.7887576729844452,-0.33171505996088324,-0.06930695562662806
elmundotoday,-0.0749887536566401,-0.1760464989997359,-0.0339386047493203,0.4383052046341588,-0.744825677920823,0.3916007563417991,0.1072769877721563,0.1018459498485645,-0.0052681642291239,0.1295690625963472,-0.1188797638675187,0.0528136100871035,-0.0853684305206326,-0.0458955735199293,-0.23981683758930653,-0.40779527446897273,,,,,,,,,,,,,,,,,,,,,,,,,,,,,,,,,,,,,,,,
lasexta,-0.021412422277722,0.0379770256871457,-0.0178567394277614,-0.1491588541047248,-0.0473760880621818,-0.0082699175260851,-0.1248889392638719,0.010139633019236,0.0400662465028375,-0.0105211621422438,-0.0758449780712741,-0.0833593921967346,-0.0060890645877496,0.0276388962682098,-0.1995146679521869,-0.526332380812377,,,,,,,,,,,,,,,,,,,,,,,,,,,,,,,,,,,,,,,,
ondacero,-0.0194891915498883,0.673364273297322,-0.1299713886806374,0.2157866665803069,0.0040533554763164,-0.3370019195755829,-0.2142327712500788,-0.1943601055402927,-0.1486862701009051,0.1227159612019782,-0.2707257009508956,-0.0473284142832311,0.0400101957857657,0.5789088009741682,0.9837870124814805,-0.4247397114962378,,,,,,,,,,,,,,,,,,,,,,,,,,,,,,,,,,,,,,,,
maldita,0.0150715155965091,0.7740851939712791,-0.0691316091476522,0.1762527390639067,-0.0164203387803719,-0.1790302651878636,0.1470210076010023,-0.1845410185615612,-0.0349010302105865,0.0428978004635502,-0.4319083335155365,0.0310716050747453,0.3089901141423848,0.1998604379957725,0.7493963596053631,-0.24352764951645575,,,,,,,,,,,,,,,,,,,,,,,,,,,,,,,,,,,,,,,,
theobjective,0.0524922594311846,1.466975172642642,-0.227038101355251,0.6104753289739756,-0.0810325487620823,-0.6227653384388412,0.3236625052118308,-0.1192453390628719,-0.3973112136261312,0.1220162460674587,-0.665593507057125,-0.4136441452521549,1.096670525135108,-0.1983016702846379,1.5519405535552484,0.6198238498391255,,,,,,,,,,,,,,,,,,,,,,,,,,,,,,,,,,,,,,,,
cronicalibre,-0.0320338525375545,-0.2422766921431883,0.0072812268534814,0.0054826377926997,-0.0586039207128824,-0.0022108448766333,0.0567208774792535,0.1941449876888231,-0.0150767634758564,-0.2453645648658302,0.0328508092942464,-0.1500044794907973,0.1124689580151394,0.0212142814079852,-0.9401780197412626,0.3766995350476137,,,,,,,,,,,,,,,,,,,,,,,,,,,,,,,,,,,,,,,,
ctxt,-0.0625194987030961,-0.1957381964724518,0.4851123965260447,-0.0522504649801695,0.1585846598645587,0.041128877269048,0.2434328248199201,-0.1276800546772646,-0.0014094724545844,-0.0091526735766511,-0.0427817522016754,0.3542584583930388,-0.0601627176955399,-0.1884071095795558,-0.23339132687142852,-0.6975937809436648,-0.5280001336458316,-0.580016635885481,0.1591457537211829,-0.1612951566345877,0.0949165407168315,0.7095362160384994,-0.4564132273696391,-0.0674136144274615,0.0065349009621409,-2.569944549851995,-1.0501078296370578,,,,,,,,,,,,,,,,,,,,,,,,,,,,,
diario16,-0.0041593440680623,-0.0864819195906105,0.0533974572373187,-0.3365669393207559,0.0429756593335073,0.0301515901394292,-0.0517998704804591,-0.0187808086326503,0.1122204915892682,-0.0236827204783301,-0.0771316277647148,-0.0786404348374266,0.0702563268917376,0.0360787671108792,-0.4408945210205094,-0.6887712803072942,,,,,,,,,,,,0.2169157161009567,-0.1539346001980124,0.0837465872859511,-0.0299933768503737,-0.1489152226403622,0.0293496761335416,0.5618075307991004,-0.314613821880854,,,,,,,,,,,,,,,,,,,,,
efe,-0.0265381623719459,1.2635262246309265,-0.3234086317889327,0.8518974152344632,2.565228863090637,3.98190579727306,-0.1734205888504087,0.2064759409307326,-0.2931824819475774,0.0674758017941755,0.010829262310559,-0.2311417552301743,0.10462337814865,0.0349854000051905,6.743319574072911,6.538532618202843,,,,,,,,,,,,,,,,,,,,,,,,,,,,,,,,,,,,,,,,
elcomercio,-0.0010523183981122,0.7358230054183088,-0.1513304874169051,0.1113336062570317,-0.1836382675970975,0.051996985883478,0.0147533674225262,-0.1961128319494532,-0.1979996955446505,0.1883509732889504,0.2932976115624744,0.2554576168244716,0.4339660825987557,-0.5941567612890148,0.8170597313074834,-0.8739974922597186,,,,,,,,,,,,,,,,,,,,,,,,,,,,,,,,,,,,,,,,
elindependiente,0.09326270033097,1.0940816722463018,-0.1507455464417447,-0.003844054762754,0.1667899049474473,-0.0370392434805803,0.0236238063863433,0.003710746585778,-0.050227886577492,0.1204311957048287,-0.4923731157601267,0.2297797468881516,-0.0855405917995728,0.0143217394094069,0.8863822147522892,-0.1075975039595363,,,,,,,,,,,,,,,,,,,,,,,,,,,,,,,,,,,,,,,,
elplural,-0.0017447125187605,-0.0758959335848006,0.0228771744812636,-0.317674518785032,-0.0498622629584454,0.0804105556294384,-0.1006041162921628,0.0030763344905637,0.0496588100901994,-0.0263278444861651,-0.046854442577107,-0.0788246155647128,0.0615200399008637,0.0522174793635787,-0.48321616784052207,-0.6811762021790237,,,,,,,,,,,,0.172753400196667,-0.2464597684503028,0.0791581026884837,-0.1098717175861041,-0.1581527996002713,0.0738811628719256,0.495762018004756,-0.31965488116469143,,,,,,,,,,,,,,,,,,,,,
elsaltodiario,0.0223061782485966,-0.0309252188978756,0.0359882406241547,-0.3286004162716703,0.2209568156288399,-0.0270183804075215,1.5149955706848697,-0.3617446629428661,0.0166073860512827,0.8329857820816394,0.30779108530774,-0.3736707950204102,-0.2103466885737021,0.2634198876969046,-0.7182145940925442,-0.6836266551249274,,,,,,,,,,,,0.6135490926776777,0.0527480978441081,-0.0121154098969208,0.4783141664355788,0.477265941036423,0.0184191593007743,0.5691804987735486,0.20483611511017819,,,,,,,,,,,,,,,,,,,,,
huffingtonpost,-0.0445467650572747,-0.1446971181268873,0.0078408168785383,-0.0411644206707415,-0.0176148560336093,0.0162526717280546,-0.135041219468054,0.0083602127740161,0.0927408492065813,0.0405838903271443,0.0188535340238476,-0.0951719298681698,-0.0085880406863879,0.0029718780070742,-0.053999460219874486,-0.5199527920229978,-0.212137139047347,0.100381872225059,0.0387725151132846,0.2362362646540495,0.4437660608212903,0.4832509162129338,0.441176390449321,-0.3074954142388338,-0.0728500598403573,-0.7123355156980612,0.8871457496344356,,,,,,,,,,,,,,,,,,,,,,,,,,,,,
infolibre,-0.0210964576683256,-0.0839083870110783,0.0408184840775936,-0.3417035531742248,-0.0294252483403353,0.0745408192029433,0.0955403506377105,0.0004881274243289,-0.0039951343360712,-0.0020432007810969,-0.2750512592624702,0.020421160277242,-0.0199685954576023,-0.0481662092429935,-0.6533640226485353,-0.7723756345281201,,,,,,,,,,,,0.7358413963956509,0.191403214747532,-0.0511782054072303,-0.0830949837916207,0.0535630239180156,-0.0948114052144637,0.03096781405237942,-0.7286742633154626,,,,,,,,,,,,,,,,,,,,,
larazon,0.0055857129103349,0.2293277794729265,-0.0118725434205472,0.0917897054477328,0.0424498150520925,-0.0616477611738191,0.0413674208612125,-0.0763625693126117,0.0435497667547391,-0.0939440414107174,-0.2154090601117796,-0.0381702061445997,-0.0595726901003844,-0.0881053293425605,0.1811841531615858,-0.16356878864984506,0.0104807629698461,0.5060552022413214,-0.2594458360756946,-0.074894369536476,-0.235394599591348,-0.1463310601053454,-0.306404073805076,0.0434482260045774,-0.3801454391018555,1.0915245969484535,-0.6833694528883165,,,,,,,,,,,,,,,,,,,,,,,,,,,,,
marca,-0.0174844089641559,0.1307995323279468,-0.0681455966687187,0.2656713229888892,-0.1122093857395595,-0.0699570051373508,-0.1677709179505702,-0.043375770180036,0.007366958459247,0.0539794247610672,0.4386332690954853,-0.3967827098219562,0.3125096129472033,-0.0159802987205792,0.48643303984681585,0.0805627008181263,,,,,,,,,,,,,,,,,,,,,,,,,,,,,,,,,,,,,,,,
moncloa,4.104852780053408,-0.2473552512402123,0.0009552477375274,0.1351483688340556,0.0359784889773064,-0.0182995316750768,-0.0117412946157178,0.0166284323816351,-0.0131180140148147,0.0014265040675528,-0.0056630899117138,0.015788893657738,-0.0102922336568838,-0.0022544569959194,-0.11090293156917799,-0.4747541423033734,,,,,,,,,,,,,,,,,,,,,,,,,,,,,,,,,,,,,,,,
newtral,0.0199521879314852,-0.0369651463536959,0.0223677803471128,-0.3684050605668723,-0.0481196206429401,0.1106784032677348,-0.0292889636607999,-0.1087187592175922,-0.0400378372693458,-0.0560978395930844,0.0047546688605587,-0.0208328685737249,-0.0536900964401754,0.0587918727385762,-0.552587531973932,-0.8156557566150634,,,,,,,,,,,,,,,,,,,,,,,,,,,,,,,,,,,,,,,,
niusdiario,0.0113347523273226,0.6843965546665551,-0.1071704360891983,-0.1419653718593271,0.051871803164933,0.0970212447562364,-0.0145891530656586,-0.0050491758664225,-0.0557382155776588,0.0261149807008511,0.2098512454807774,-0.0722781964862875,0.0216492511350769,-0.1917919189220961,0.2522744031670828,0.007969590182117063,,,,,,,,,,,,,,,,,,,,,,,,,,,,,,,,,,,,,,,,
nuevatribuna,-0.0351197331376962,0.0590943492334895,0.0900473654096668,-0.2715369795636055,0.0383663069751998,0.0702500838739196,0.2231447871737045,0.0499256035218329,-0.0063600678154828,0.0141670915820661,-0.0587678057385264,0.2709211922243512,0.1792923153802564,-0.3783348908714994,-0.6038741347303572,-0.6624987816483652,,,,,,,,,,,,,,,,,,,,,,,,,,,,,,,,,,,,,,,,
threadreaderapp,-0.0843552594015326,-0.1883301209323024,-0.0172259950805782,0.1835677145590519,0.1267680971748116,-0.1348353746042384,-0.0460516656184397,-0.0682291435007966,-0.0039308926802329,-0.0445203418718268,-0.0613228694922436,-0.0359904966642472,0.0086566378212106,0.0206105538189702,0.15001340037455918,-0.26693970830220465,,,,,,,,,,,,,,,,,,,,,,,,,,,,,,,,,,,,,,,,
lavozdelsur,0.0112847284406173,0.1084754886436706,0.0367725692287999,-0.3053754665610248,0.2380299007671064,-0.0258938666631403,0.2399129551369336,0.1466444111663527,-0.0423259150841205,-0.0282166116057963,-0.2161051152072436,0.244475641746558,-0.0620414640951477,-0.067589554797202,-0.7578434755663636,-0.20322335554135032,,,,,,,,,,,,,,,,,,,,,,,,,,,,,,,,,,,,,,,,
electomania,-0.0274372430034266,0.364859451566398,-0.0750255511024312,0.0740741371947453,-0.1392092777285343,-0.0752632486679747,-0.0003731700054231,-0.0513206013303426,0.0270541635029646,-0.0672503108886571,0.0890714689841982,0.0785945566075759,0.1853651949598621,0.1656687311543114,-0.04013538533141816,-0.22651742953761245,,,,,,,,,,,,,,,,,,,,,,,,,,,,,,,,,,,,,,,,
galiciapress,0.0535078282131574,0.4317940893434359,0.0121170529323594,-0.5324664001139368,-0.1009433512492544,0.2086332943361102,0.1374420111865395,0.0605160906979813,-0.1478041067406285,-0.0792094173891704,-0.3219132498307629,0.3245101731501846,0.1793706929653236,-0.36286000569511,-0.7832957215603173,-0.8144932203831647,,,,,,,,,,,,,,,,,,,,,,,,,,,,,,,,,,,,,,,,
as,0.0525828001479076,0.4849890980090019,-0.0913046432878581,-0.0452512321691172,0.2403708027348637,-0.1517993271594705,-0.0346584287399685,-0.1517850304781149,-0.0940912467638077,0.1013604303068783,-0.198003007995774,0.184669681397947,0.3794284202732058,0.3400475708250648,0.6232808084453214,-0.5294275844820567,,,,,,,,,,,,,,,,,,,,,,,,,,,,,,,,,,,,,,,,
diariodesevilla,0.0047673221561894,0.6736372170545266,-0.1196463795230016,-0.293747939963785,-0.0353428957114117,-0.1517689796801356,0.0614393517422695,-0.192661971985339,-0.2273589422610301,0.0475971962685551,-0.0267891269875167,0.4790555916093834,0.0394103742090728,0.0277886553898619,-0.14728634087825532,-1.156512205197069,,,,,,,,,,,,,,,,,,,,,,,,,,,,,,,,,,,,,,,,
diariolarealidad,-0.0265215336119261,-0.1134465677672989,0.0058802574531787,0.0887446563906056,-0.3885418753819256,0.4109857676627066,0.2263894520255509,0.1548278580691181,0.0613142586435275,-0.08346086390367,-0.1998672239273977,0.4039638572439446,1.4012558810761355,1.357052327573797,-0.8295284752387865,0.16260548915333736,,,,,,,,,,,,,,,,,,,,,,,,,,,,,,,,,,,,,,,,
elboletin,0.0220452317627491,0.2758345237603843,0.0270522875922849,-0.5880597876621199,-0.0377917130961939,0.0923307287984646,0.0728446471235873,-0.0193865029073157,-0.021871058390864,0.0443854203570374,-0.219851329316067,0.4353430826851288,-0.1336090263627661,0.065694801701161,-0.8044893407774443,-1.2559299284046221,,,,,,,,,,,,0.8776752796090657,0.1534096091042653,-0.0003728863864369,0.0814465615275337,-0.037323108831356,-0.1020416084194405,0.395964486410682,-0.9749582209348747,,,,,,,,,,,,,,,,,,,,,
elconfidencialdigital,0.0528392974673087,1.0815859040672926,-0.1030846415376307,-0.121076239139731,0.1249204424618593,-0.3394531382775374,-0.0064846546420981,-0.0634291001971997,-0.1405947818763036,0.2624364400104725,-1.096220460832737,-0.0430319419712291,-0.3275286944818909,0.065407109638243,0.9757286358859683,-0.7116498411117728,,,,,,,,,,,,,,,,,,,,,,,,,,,,,,,,,,,,,,,,
eldebate,-0.0052752984186939,0.4757725022947354,-0.1220932231161565,0.0435286793168022,-0.2099239399905214,-0.0241822215700166,-0.1328965303125352,-0.0143063745688382,0.0888142989994866,0.1214339401681274,0.3911659893342863,-0.0381158935901854,0.0833040192847164,-0.3140379080203352,0.3142885839581379,-0.5043972724917727,,,,,,,,,,,,,,,,,,,,,,,,,,,,,,,,,,,,,,,,
lamarea,-0.0745057969575511,-0.2237067148625859,0.0237077330708494,-0.1008666142585638,0.0043232515934067,0.1012263976875538,0.1445757633614796,-0.1451127637510729,0.0634942406708313,0.0048159730933573,0.1748920720424203,-0.0319589310093092,-0.0317255582542709,0.0374002319996267,-0.35422249917476917,-0.5685370349006025,,,,,,,,,,,,,,,,,,,,,,,,,,,,,,,,,,,,,,,,
libertaddigital,0.0756383811192338,0.6172896178327612,-0.1117090304942376,0.1985299398388421,0.136770475091517,-0.3173323716392012,-0.1458467392242647,0.0863832997203065,0.0297989732145717,0.1041835867436965,-0.0331467814459856,-0.3529259898064595,0.4111728427035878,0.0276682776953483,0.8198211022060984,0.3410755029811934,,,,,,,,,,,,,,,,,,,,,,,,,,,,,,,,,,,,,,,,
nortes,0.0423973903140599,0.8944791133021661,-0.0089335882397232,-0.2601458314985762,0.0234522692262557,-0.0736390152668911,0.6156887946172372,0.0185241380590866,-0.507994243544767,0.2837227665527725,-0.1847862122355534,0.5364678067661546,1.4219454259648694,-0.3551269823561931,-0.16013366618111735,-0.6436615678079994,,,,,,,,,,,,,,,,,,,,,,,,,,,,,,,,,,,,,,,,
politicaprosa,0.0536299915241238,1.8668867334177832,10.805341760768362,0.8342848077366666,-0.0578417930028621,0.0154748848377131,-0.3007169104818785,0.0071475731019222,0.0289328518403134,0.0724454766733985,0.1406520878011379,-0.2505803798734033,-0.0114867233045419,0.1407944968419357,4.19058371469587,2.633726902906493,,,,,,,,,,,,,,,,,,,,,,,,,,,,,,,,,,,,,,,,
rtve,0.0125784286619259,0.8255108241753528,-0.1424717503402203,-0.0735913806396521,0.0241345405709014,-0.1870411557116522,0.0368855806088481,-0.239594322228547,-0.321647142978977,-0.0066388241317991,-0.3335069508821122,0.3047513176029457,-0.2260967683285609,0.2830199155732084,0.31371986062568813,-0.6596543860832224,-0.164380523804352,-0.0309354539570291,0.1626731699181255,-0.4887960481402829,0.5164786083573798,0.0770197432506232,-0.0611885064099648,0.0011022206324803,0.1600122419414711,-0.5162453085696858,1.0918986275641156,,,,,,,,,,,,,,,,,,,,,,,,,,,,,
valenciaplaza,0.030115000289028,0.488638978719361,-0.0051015573076127,-0.5339868844698923,-0.04607130755378,0.0791165270275534,0.3751276898231711,0.1738508116193521,-0.0406710149719834,-0.3150742215835272,-0.0712575129900813,0.2529602200023148,-0.4415851217384541,0.1188691849547375,-1.7564112241385903,0.2026581473375309,,,,,,,,,,,,,,,,,,,,,,,,,,,,,,,,,,,,,,,,
vilaweb,0.0152372761637399,0.6545953234854732,0.0327650804420585,-0.0377770969690604,-0.0672869097090048,-0.2128014641846996,1.4924026720744592,1.8436940312507408,-0.680856563682638,-1.995601885399609,0.361603326196281,-0.3943981761119143,-0.0595336666942003,0.1904839224017367,-6.939084561852172,7.678068204130803,,,,,,,,,,,,,,,,,,,,,,,,,,,,,,,,,,,,,,,,
swissinfo,,,,,,,,,,,,,,,,,0.2594825576604245,0.4118110182472695,0.0696249701764044,-0.6304438308135947,0.2559312271607956,-0.0105668385948506,0.2664858980853754,0.110899817419572,0.0116854022888132,1.1387087336681545,0.4822171998917568,,,,,,,,,,,,,,,,,,,,,,,,,,,,,
bbc,,,,,,,,,,,,,,,,,0.1658020184881005,0.6250172027392311,-0.156926375966704,-0.1679274209230073,-0.1800021998253808,0.3461835828397689,0.5322999293814508,-0.3646725787159764,0.5599216996550529,-0.23126379966244442,0.7622954109814524,,,,,,,,,,,,,,,,,,,,,,,,,,,,,
cnn,,,,,,,,,,,,,,,,,-0.1094568169878409,-0.0167179260171951,0.0821647150225505,-0.0569668533894786,0.4470123841688075,0.0441308974470867,-0.0716970496099678,-0.1172208343986321,0.1587562170897073,-0.6055425378935491,1.3474781686919395,,,,,,,,,,,,,,,,,,,,,,,,,,,,,
dw,,,,,,,,,,,,,,,,,0.1090504992598516,0.3380061233982251,0.0164654194692257,-0.2087157642189269,0.1423565614973048,-0.0215664970780102,0.0788612848462431,-0.2732281899441489,0.0621026846576809,0.20433190367758142,1.0277567634400195,,,,,,,,,,,,,,,,,,,,,,,,,,,,,
infobae,,,,,,,,,,,,,,,,,0.2704077182575521,0.7671361174192942,-0.3379338227312301,-0.1432402337981839,-0.3358716314567554,0.0589864081409862,-0.3938071673690061,-0.1618342356454992,0.3546775819104085,0.15140826219335332,0.15679501509478402,,,,,,,,,,,,,,,,,,,,,,,,,,,,,
diario-octubre,,,,,,,,,,,,,,,,,-0.4440354417919857,-0.7493927625698761,0.4379904590635786,-0.4042723596051703,0.2045146103221921,-0.2375390730959371,-0.4844649529431792,-0.1010824266659135,-0.0417439042223413,-1.3951307274711966,0.5017808745484266,,,,,,,,,,,,,,,,,,,,,,,,,,,,,
euronews,,,,,,,,,,,,,,,,,0.2575364289406343,0.577065970384731,-0.0349218929354129,-0.6574617499134157,0.0003490054092487,0.0518512151136452,0.2060986588195046,0.2405551594986892,0.0802451195180473,1.2838401511833668,-0.2704785924121167,,,,,,,,,,,,,,,,,,,,,,,,,,,,,
galaxiamilitar,,,,,,,,,,,,,,,,,0.3427208220364228,1.009336218708995,2.0625790512842963,0.8278469747152314,-0.233383556346517,-0.0635112265008184,-0.1748447585363081,-0.0498387214824683,0.1487248561800092,0.8568448751355514,0.05118020412550555,,,,,,,,,,,,,,,,,,,,,,,,,,,,,
nytimes,,,,,,,,,,,,,,,,,-0.278385895782157,-0.2742519475216529,-0.0267928364752893,0.1604095354994082,0.0704056069952911,-0.099611466254344,0.120240844444173,-0.0110053260902151,0.2514005950471792,-0.6863773968453033,0.7351547372316636,,,,,,,,,,,,,,,,,,,,,,,,,,,,,
rafaelpoch,,,,,,,,,,,,,,,,,-0.5334581616371972,-1.08239612108805,0.4597885823355441,-0.3928703676708194,-0.7361227040662692,1.4083422865959645,-0.1554091521267647,0.4025884511353522,0.1277006542736608,-3.3515076958838845,-4.761461340263775,,,,,,,,,,,,,,,,,,,,,,,,,,,,,
reuters,,,,,,,,,,,,,,,,,-0.1966906874044025,-0.037201605362077,0.2052840636118422,-0.5183605207534798,0.297535990049095,0.0137236863593094,-0.1548256458352874,-0.1687147502245743,0.1442362254319044,-0.7083942115558676,0.9355473222605226,,,,,,,,,,,,,,,,,,,,,,,,,,,,,
rt,,,,,,,,,,,,,,,,,-0.4585457256183239,-0.5199663635081383,0.4072323649939003,-0.3939184433437938,0.3406739422703781,-0.2438313430414208,-0.4328037017690381,-0.2340363007116174,-0.09950881079074,-1.194997715166403,1.022871856528137,,,,,,,,,,,,,,,,,,,,,,,,,,,,,
washingtonpost,,,,,,,,,,,,,,,,,-0.405833843146261,-0.201058234503493,-0.0977057516587477,0.3203017903775051,0.3738563547546009,-0.1727734923996395,0.3226003022399775,0.5008987470299348,0.1935246406621933,0.1684132243769238,0.6678500178240572,,,,,,,,,,,,,,,,,,,,,,,,,,,,,
yahoo,,,,,,,,,,,,,,,,,0.0759776314682699,0.3272171416237395,0.1448297705963049,-0.5632921515490832,0.0213433752052544,-0.1260423418423519,0.2037325988373877,-0.0171879723774258,-0.1104103648758817,0.9748561017068472,0.15184806649571136,,,,,,,,,,,,,,,,,,,,,,,,,,,,,
revistaejercitos,,,,,,,,,,,,,,,,,2.217446360864569,-0.4204885580813278,-0.0543313925776017,0.1021627843162264,0.055000145723374,0.0142066783785421,-0.0316190925045439,0.0443137737264463,0.0176574627414844,1.6331439220706683,0.46987931654273196,,,,,,,,,,,,,,,,,,,,,,,,,,,,,
actualidad-rt,,,,,,,,,,,,,,,,,-0.4115554948020345,-0.5943661841781992,0.34882565689696,-0.3021163930249587,0.0970945773532554,-0.1034749892405215,-0.2118562502971734,-0.0163261602115252,0.0260724295446187,-1.1296919975100512,0.14484813900772942,,,,,,,,,,,,,,,,,,,,,,,,,,,,,
elcorreogallego,,,,,,,,,,,,,,,,,,,,,,,,,,,,-0.6258826798751576,1.17099206900152,1.2649480659638557,0.3168929854165092,0.034852391584358,0.0970190722168617,0.20007709803928198,3.0411393550464205,,,,,,,,,,,,,,,,,,,,,
blogspot,,,,,,,,,,,,,,,,,,,,,,,,,,,,-0.6721016793570063,-0.167180541816247,-0.5389670978940989,0.9367508307279218,-0.0802939035617406,0.4875251287387581,1.0066093906093216,0.2529958749027373,,,,,,,,,,,,,,,,,,,,,
diariosur,,,,,,,,,,,,,,,,,,,,,,,,,,,,,,,,,,,,-0.3032977502815034,-0.0750606761566806,-0.1034284701859328,-0.1916654274904708,-0.4178425920003425,0.1581544324051316,0.4854958098062425,0.3648638041877566,-0.2658848214135651,-0.004127879785155671,-0.019921593404590644,,,,,,,,,,
ultimahora,,,,,,,,,,,,,,,,,,,,,,,,,,,,,,,,,,,,-0.280932301371079,-0.2743052430718883,0.046411059121808,-0.2273837685857803,0.1364710362535991,-0.2597399003984902,0.556794065877259,0.2547437001879469,-0.1023154286774772,0.1433601447959766,-0.5243801132025631,,,,,,,,,,
telecinco,,,,,,,,,,,,,,,,,,,,,,,,,,,,,,,,,,,,-0.0496832214434874,0.29153458598026,0.2111643787004788,0.2050565400815465,0.5638025084376623,0.6902065904604416,-0.4025480341040669,0.635112388860489,-0.4273327389063759,0.10237733030845339,1.7549181103177107,,,,,,,,,,
elchapuzasinformatico,,,,,,,,,,,,,,,,,,,,,,,,,,,,,,,,,,,,,,,,,,,,,,,-0.6477829079316446,0.311963208387303,0.4896677276623465,-2.0825443723168,0.5264379566903966,,,,,
genbeta,,,,,,,,,,,,,,,,,,,,,,,,,,,,,,,,,,,,,,,,,,,,,,,-0.4400274198395807,0.1027150516740434,-0.5949054363139271,-0.7315508914783917,-1.661339468823688,,,,,
hipertextual,,,,,,,,,,,,,,,,,,,,,,,,,,,,,,,,,,,,,,,,,,,,,,,0.0236565836481692,-0.2577232861994336,-0.1857508212877478,0.8415942301531112,-0.4001966535476064,,,,,
xataka,,,,,,,,,,,,,,,,,,,,,,,,,,,,,,,,,,,,,,,,,,,,,,,-0.4134689540488842,-0.2569662176687252,0.7131661569526292,-0.297261159346609,1.6426708957877754,,,,,
businessinsider,,,,,,,,,,,,,,,,,,,,,,,,,,,,,,,,,,,,,,,,,,,,,,,0.5794132506029913,-0.4706187827549233,0.0570616278821715,2.264321439011426,0.3128393480512133,,,,,
eleconomista,,,,,,,,,,,,,,,,,,,,,,,,,,,,,,,,,,,,,,,,,,,,,,,,,,,,-0.0336962776812927,0.5079574983242027,0.0012989880802577,-1.182577115467092,1.7455757254041924
lainformacion,,,,,,,,,,,,,,,,,,,,,,,,,,,,,,,,,,,,,,,,,,,,,,,,,,,,1.1229441204443824,-0.2080663370664572,1.029573084095866,2.213286841285381,0.7629781530841276
